0.000004,-0.79262,-0.48096,9.45225,,-0.50372,0.49546,-0.01190,-0.01463,-0.01072,-0.04469,5091,-5218,0.70793,0.69986,0.09498,-0.70133,0.71248,-0.02256,-0.08345,-0.05064,0.99522,5.50247,5.50247
0.000004,-0.78963,-0.46620,9.38485,,-0.50503,0.49117,-0.01955,0.01162,0.01553,0.02531,5091,-5218,0.71208,0.70000,0.05413,-0.69999,0.71380,-0.02245,-0.05436,-0.02190,0.99828,5.50247,5.50635
0.021881,-0.78485,-0.47976,9.40918,,-0.50344,0.49490,-0.01498,-0.13713,0.03303,0.07781,5091,-5218,0.71297,0.70095,0.01842,-0.70060,0.71320,-0.02248,-0.02889,0.00312,0.99958,5.50247,5.50654
0.036680,-0.81775,-0.59880,9.42174,,-0.50344,0.49490,-0.01498,0.01162,-0.05447,0.13031,5091,-5218,0.71308,0.70108,-0.00018,-0.70091,0.71290,-0.02246,-0.01562,0.01614,0.99975,5.50247,5.50639
0.051508,-0.62931,-0.32542,9.42712,,-0.50260,0.49518,-0.01666,0.00287,0.05928,0.06906,5091,-5218,0.71265,0.70143,-0.01113,-0.70148,0.71234,-0.02244,-0.00782,0.02380,0.99969,5.50247,5.50569
0.066122,-0.79232,-0.47737,9.41785,,-0.50470,0.49322,-0.01694,0.08599,-0.15509,0.06468,5091,-5218,0.71382,0.70012,-0.01690,-0.70032,0.71348,-0.02248,-0.00368,0.02789,0.99960,5.50247,5.50734
0.091142,-0.79262,-0.60359,9.38884,,-0.50680,0.49126,-0.01722,0.11662,0.05053,0.21781,5091,-5218,0.71581,0.69801,-0.02010,-0.69830,0.71546,-0.02250,-0.00133,0.03014,0.99954,5.50247,5.51017
0.105374,-0.79621,-0.46181,9.42473,,-0.50848,0.50106,-0.01512,0.00287,-0.08947,0.14781,5091,-5218,0.71396,0.69990,-0.02027,-0.70019,0.71360,-0.02246,-0.00126,0.03023,0.99954,5.50247,5.50752
0.119967,-0.82134,-0.30748,9.37628,,-0.50848,0.50106,-0.01316,-0.08463,0.07678,0.17406,5091,-5218,0.71304,0.70086,-0.01909,-0.70112,0.71269,-0.02248,-0.00215,0.02942,0.99956,5.50247,5.50622
0.134554,-0.80638,-0.32183,9.42533,,-0.50036,0.49602,-0.01316,0.07287,-0.00197,0.09531,5091,-5218,0.71154,0.70240,-0.01858,-0.70264,0.71119,-0.02248,-0.00257,0.02905,0.99957,5.50247,5.50408
0.149298,-0.77946,-0.48873,9.44148,,-0.50708,0.49210,-0.01428,-0.17213,-0.06322,0.27906,5091,-5218,0.71449,0.69938,-0.01902,-0.69964,0.71414,-0.02257,-0.00220,0.02944,0.99956,5.50247,5.50829
0.164052,-0.80698,-0.49352,9.41636,,-0.50708,0.49210,-0.01428,0.02912,-0.12447,0.12156,5091,-5218,0.71598,0.69786,-0.01922,-0.69812,0.71562,-0.02262,-0.00203,0.02962,0.99956,5.50247,5.51041
0.178841,-0.79801,-0.49890,9.42712,,-0.50764,0.49546,-0.02562,0.24787,-0.02822,0.11281,5091,-5218,0.71560,0.69800,-0.02689,-0.69851,0.71525,-0.02259,0.00347,0.03495,0.99938,5.50247,5.50987
0.190938,-0.80249,-0.48305,9.48246,,-0.50764,0.49546,-0.02562,-0.03213,-0.12447,0.03843,5091,-5218,0.71539,0.69804,-0.03090,-0.69869,0.71506,-0.02260,0.00632,0.03776,0.99927,5.50247,5.50959
0.211001,-0.79741,-0.47557,9.41097,,-0.50596,0.49182,-0.01288,0.01162,-0.08072,0.18281,5091,-5218,0.71617,0.69750,-0.02449,-0.69793,0.71581,-0.02263,0.00175,0.03331,0.99944,5.50247,5.51068
0.222105,-0.79232,-0.48694,9.38914,,-0.50988,0.49154,-0.01442,0.11662,-0.03259,0.01218,5091,-5218,0.71798,0.69571,-0.02215,-0.69606,0.71762,-0.02268,0.00011,0.03170,0.99950,5.50247,5.51328
0.241848,-0.77348,-0.47856,9.44746,,-0.51380,0.49126,-0.01596,-0.07588,0.05053,0.17406,5091,-5218,0.72028,0.69333,-0.02195,-0.69368,0.71992,-0.02275,0.00003,0.03161,0.99950,5.50247,5.51660
0.252939,-0.80010,-0.49053,9.41965,,-0.50946,0.49364,-0.01148,0.08599,0.10303,0.18281,5091,-5218,0.71916,0.69459,-0.01885,-0.69484,0.71880,-0.02269,-0.00221,0.02942,0.99956,5.50247,5.51498
0.273234,-0.78544,-0.60598,9.39961,,-0.50512,0.49602,-0.01148,-0.16338,-0.19447,0.20031,5091,-5218,0.71628,0.69760,-0.01723,-0.69781,0.71593,-0.02261,-0.00344,0.02822,0.99960,5.50247,5.51085
0.284383,-0.80877,-0.46660,9.38644,,-0.50960,0.49210,-0.01680,0.00724,-0.06759,0.13031,5091,-5218,0.71770,0.69606,-0.01997,-0.69635,0.71735,-0.02267,-0.00146,0.03017,0.99954,5.50247,5.51289
0.304680,-0.80279,-0.46181,9.36012,,-0.50960,0.49462,-0.00658,0.20412,-0.07197,0.03406,5091,-5218,0.71763,0.69627,-0.01451,-0.69640,0.71729,-0.02266,-0.00537,0.02637,0.99964,5.50247,5.51280
0.315871,-0.79801,-0.47557,9.39811,,-0.50316,0.49462,-0.00658,-0.13713,0.06803,-0.00969,5091,-5218,0.71537,0.69865,-0.01174,-0.69870,0.71505,-0.02264,-0.00742,0.02440,0.99967,5.50247,5.50957
0.335990,-0.82493,-0.46002,9.38824,,-0.50596,0.48846,-0.01232,0.02037,-0.08072,-0.02719,5091,-5218,0.71736,0.69656,-0.01416,-0.69668,0.71702,-0.02269,-0.00565,0.02614,0.99964,5.50247,5.51240
0.347152,-0.79561,-0.32124,9.40020,,-0.50596,0.49112,-0.01414,-0.12838,-0.01072,0.08656,5091,-5218,0.71737,0.69649,-0.01668,-0.69668,0.71702,-0.02274,-0.00388,0.02794,0.99960,5.50247,5.51242
0.367269,-0.78903,-0.48036,9.36910,,-0.50036,0.49378,-0.01596,0.09912,-0.25572,0.12156,5091,-5218,0.71448,0.69939,-0.01919,-0.69965,0.71412,-0.02267,-0.00215,0.02963,0.99956,5.50247,5.50827
0.378507,-0.77109,-0.47527,9.40678,,-0.50232,0.49266,-0.01162,0.02474,-0.08509,-0.00532,5091,-5218,0.71416,0.69976,-0.01757,-0.69997,0.71381,-0.02267,-0.00332,0.02849,0.99959,5.50247,5.50782
0.398600,-0.80160,-0.47617,9.43729,,-0.50428,0.49154,-0.00728,-0.07588,-0.03697,-0.00969,5091,-5218,0.71511,0.69887,-0.01379,-0.69898,0.71478,-0.02270,-0.00601,0.02587,0.99965,5.50247,5.50919
0.409780,-0.81027,-0.48245,9.41037,,-0.50792,0.49322,-0.01988,0.01599,-0.10259,-0.01844,5091,-5218,0.71614,0.69766,-0.02024,-0.69795,0.71578,-0.02274,-0.00138,0.03041,0.99954,5.50247,5.51065
0.429917,-0.80100,-0.46780,9.39003,,-0.50792,0.49322,-0.01988,0.01162,0.10303,-0.06219,5091,-5218,0.71665,0.69704,-0.02363,-0.69744,0.71629,-0.02275,0.00107,0.03279,0.99946,5.50247,5.51137
0.441075,-0.72652,-0.47019,9.43699,,-0.50820,0.49462,-0.01190,0.06412,0.02428,0.10843,5091,-5218,0.71657,0.69723,-0.02003,-0.69751,0.71621,-0.02273,-0.00150,0.03025,0.99954,5.50247,5.51126
0.461062,-0.78903,-0.47617,9.49293,,-0.50876,0.49294,-0.00420,-0.04963,-0.26447,0.08656,5091,-5218,0.71738,0.69656,-0.01296,-0.69665,0.71705,-0.02276,-0.00656,0.02536,0.99966,5.50247,5.51245
0.472244,-0.80429,-0.48185,9.36431,,-0.50876,0.49294,-0.00420,0.06849,-0.12009,0.14781,5091,-5218,0.71776,0.69623,-0.00926,-0.69623,0.71746,-0.02278,-0.00921,0.02279,0.99970,5.50247,5.51302
0.492371,-0.80818,-0.60299,9.36970,,-0.50708,0.49014,-0.00868,0.12537,-0.17697,0.16531,5091,-5218,0.71835,0.69561,-0.01035,-0.69563,0.71804,-0.02276,-0.00840,0.02355,0.99969,5.50247,5.51385
0.503544,-0.79113,-0.46869,9.43849,,-0.50540,0.49224,-0.00679,-0.02338,-0.03697,0.12593,5091,-5218,0.71733,0.69667,-0.00969,-0.69668,0.71702,-0.02276,-0.00891,0.02308,0.99969,5.50247,5.51239
0.523606,-0.81775,-0.49292,9.46601,,-0.50372,0.49434,-0.00490,0.17787,0.14678,0.13906,5091,-5218,0.71551,0.69856,-0.00806,-0.69853,0.71522,-0.02272,-0.01010,0.02189,0.99971,5.50247,5.50979
0.534703,-0.80429,-0.46690,9.38256,,-0.50442,0.49322,-0.01148,-0.04088,-0.03697,0.10406,5091,-5218,0.71520,0.69883,-0.01167,-0.69888,0.71487,-0.02272,-0.00754,0.02441,0.99967,5.50247,5.50932
0.555053,-0.80459,-0.47318,9.34876,,-0.50512,0.49210,-0.01148,0.16037,0.17303,0.15656,5091,-5218,0.71568,0.69830,-0.01354,-0.69840,0.71534,-0.02271,-0.00617,0.02571,0.99965,5.50247,5.51000
0.566862,-0.79621,-0.49651,9.40319,,-0.50372,0.49602,-0.01414,0.01599,-0.09822,0.05593,5091,-5218,0.71403,0.69993,-0.01628,-0.70010,0.71368,-0.02268,-0.00426,0.02759,0.99961,5.50247,5.50764
0.588570,-0.80040,-0.48814,9.36072,,-0.49784,0.48930,-0.01974,0.15162,-0.09822,0.29656,5091,-5218,0.71346,0.70036,-0.02163,-0.70069,0.71310,-0.02266,-0.00045,0.03133,0.99951,5.50247,5.50682
0.600643,-0.81416,-0.46241,9.39303,,-0.49784,0.48930,-0.01974,0.02912,-0.09822,0.08656,5091,-5218,0.71319,0.70055,-0.02443,-0.70097,0.71283,-0.02267,0.00154,0.03329,0.99944,5.50247,5.50642
0.613011,-0.79980,-0.47019,9.41994,,-0.50260,0.48846,-0.00952,-0.09338,-0.12447,0.15656,5091,-5218,0.71511,0.69875,-0.01890,-0.69900,0.71476,-0.02275,-0.00239,0.02948,0.99956,5.50247,5.50918
0.633950,-0.78664,-0.49232,9.42413,,-0.50260,0.48846,-0.00952,0.14287,-0.04572,-0.06219,5091,-5218,0.71609,0.69782,-0.01601,-0.69799,0.71574,-0.02276,-0.00442,0.02748,0.99961,5.50247,5.51059
0.646735,-0.80578,-0.48275,9.36192,,-0.50204,0.49770,-0.01274,0.04662,0.12053,0.01656,5091,-5218,0.71308,0.70089,-0.01664,-0.70107,0.71273,-0.02268,-0.00403,0.02784,0.99960,5.50247,5.50628
0.659578,-0.80100,-0.55813,9.37089,,-0.49896,0.49294,-0.01246,0.01599,-0.11134,0.06468,5091,-5218,0.71217,0.70181,-0.01681,-0.70200,0.71182,-0.02266,-0.00394,0.02793,0.99960,5.50247,5.50498
0.681243,-0.80638,-0.47079,9.46421,,-0.49588,0.48818,-0.01218,0.09912,-0.02822,0.26156,5091,-5218,0.71232,0.70166,-0.01680,-0.70185,0.71197,-0.02266,-0.00394,0.02793,0.99960,5.50247,5.50519
0.692762,-0.81416,-0.47288,9.43071,,-0.50568,0.49574,-0.00602,-0.13276,0.05928,0.12593,5091,-5218,0.71318,0.70087,-0.01253,-0.70095,0.71285,-0.02269,-0.00697,0.02497,0.99966,5.50247,5.50644
0.712898,-0.79382,-0.48455,9.41396,,-0.50568,0.49574,-0.02044,0.25662,0.05928,-0.08844,5091,-5218,0.71352,0.70035,-0.01997,-0.70064,0.71316,-0.02268,-0.00164,0.03017,0.99954,5.50247,5.50689
0.724340,-0.80249,-0.46540,9.42742,,-0.50204,0.49994,-0.02044,0.00287,-0.07197,0.00781,5091,-5218,0.71092,0.70287,-0.02385,-0.70328,0.71056,-0.02261,0.00106,0.03284,0.99946,5.50247,5.50319
0.744316,-0.80100,-0.47258,9.41695,,-0.50484,0.48986,-0.00910,0.18662,0.22553,0.19156,5091,-5218,0.71427,0.69963,-0.01830,-0.69987,0.71392,-0.02267,-0.00280,0.02900,0.99958,5.50247,5.50797
0.755576,-0.81506,-0.48694,9.40379,,-0.50484,0.48986,-0.01498,-0.04526,-0.13759,0.19156,5091,-5218,0.71587,0.69797,-0.01937,-0.69823,0.71551,-0.02274,-0.00202,0.02980,0.99955,5.50247,5.51026
0.775625,-0.77647,-0.43729,9.45943,,-0.50568,0.48874,-0.02086,0.08162,-0.21197,0.11281,5091,-5218,0.71731,0.69635,-0.02391,-0.69676,0.71694,-0.02280,0.00126,0.03302,0.99945,5.50247,5.51232
0.786861,-0.82732,-0.48604,9.40798,,-0.50470,0.49140,-0.01904,0.10349,-0.01072,0.04718,5091,-5218,0.71676,0.69687,-0.02502,-0.69732,0.71640,-0.02278,0.00205,0.03377,0.99943,5.50247,5.51154
0.806909,-0.81416,-0.47258,9.42114,,-0.50372,0.49406,-0.01722,0.01162,-0.13322,-0.07094,5091,-5218,0.71524,0.69845,-0.02435,-0.69888,0.71488,-0.02274,0.00153,0.03328,0.99944,5.50247,5.50936
0.818242,-0.77856,-0.48305,9.37986,,-0.50876,0.49322,-0.01162,-0.08026,-0.11134,-0.00094,5091,-5218,0.71657,0.69722,-0.02020,-0.69751,0.71621,-0.02280,-0.00143,0.03043,0.99954,5.50247,5.51127
0.838307,-0.79382,-0.47318,9.40918,,-0.50876,0.49322,-0.01162,0.01162,-0.06322,0.15656,5091,-5218,0.71722,0.69661,-0.01804,-0.69684,0.71687,-0.02282,-0.00296,0.02894,0.99958,5.50247,5.51220
0.849571,-0.72054,-0.48664,9.42712,,-0.50344,0.49770,-0.01848,-0.08026,-0.13759,0.04281,5091,-5218,0.71407,0.69974,-0.02155,-0.70007,0.71371,-0.02273,-0.00052,0.03132,0.99951,5.50247,5.50769
0.869551,-0.81715,-0.47258,9.39482,,-0.50596,0.49238,-0.01078,-0.03213,0.09428,0.16531,5091,-5218,0.71532,0.69856,-0.01821,-0.69879,0.71496,-0.02276,-0.00288,0.02901,0.99957,5.50247,5.50947
0.880823,-0.80459,-0.60838,9.38286,,-0.50596,0.49238,-0.01078,-0.11088,-0.00197,0.19156,5091,-5218,0.71593,0.69798,-0.01645,-0.69816,0.71558,-0.02276,-0.00412,0.02778,0.99961,5.50247,5.51035
0.895787,-0.80219,-0.44028,9.45404,,-0.50148,0.49154,-0.01778,0.08162,-0.21197,-0.00969,5091,-5218,0.71493,0.69890,-0.02031,-0.69919,0.71457,-0.02275,-0.00139,0.03047,0.99953,5.50247,5.50892
0.913201,-0.81715,-0.47198,9.39123,,-0.49784,0.48006,-0.01624,-0.02338,-0.05447,0.06906,5091,-5218,0.71729,0.69645,-0.02146,-0.69678,0.71692,-0.02284,-0.00052,0.03134,0.99951,5.50247,5.51229
0.930726,-0.80160,-0.47557,9.34577,,-0.49784,0.48006,-0.01624,-0.20713,-0.06322,0.01656,5091,-5218,0.71847,0.69521,-0.02208,-0.69556,0.71810,-0.02291,-0.00007,0.03182,0.99949,5.50247,5.51398
0.948856,-0.81476,-0.32363,9.36790,,-0.50288,0.49294,-0.00364,-0.02338,-0.14197,-0.00094,5091,-5218,0.71632,0.69763,-0.01370,-0.69774,0.71598,-0.02292,-0.00619,0.02598,0.99964,5.50247,5.51093
0.966853,-0.79143,-0.46002,9.41695,,-0.50540,0.49350,-0.00280,0.30912,-0.04572,0.10406,5091,-5218,0.71590,0.69815,-0.00871,-0.69814,0.71560,-0.02290,-0.00975,0.02247,0.99970,5.50247,5.51034
0.985015,-0.76152,-0.45882,9.39183,,-0.50540,0.49350,-0.00280,-0.01463,-0.00197,-0.10594,5091,-5218,0.71569,0.69839,-0.00615,-0.69832,0.71542,-0.02289,-0.01159,0.02068,0.99972,5.50247,5.51007
0.996156,-0.80040,-0.46062,9.47318,,-0.50540,0.49350,-0.01596,-0.23338,-0.06322,0.01656,5091,-5218,0.71551,0.69846,-0.01369,-0.69857,0.71517,-0.02291,-0.00621,0.02595,0.99964,5.50247,5.50977
1.006275,-0.79143,-0.53300,9.41725,,-0.49980,0.48706,-0.01596,0.11224,-0.12009,0.14343,5091,-5218,0.71574,0.69814,-0.01770,-0.69836,0.71538,-0.02290,-0.00333,0.02875,0.99958,5.50247,5.51008
1.025021,-0.79143,-0.48215,9.35235,,-0.51100,0.48762,-0.02716,-0.18963,0.12053,-0.05344,5091,-5218,0.71939,0.69407,-0.02724,-0.69460,0.71903,-0.02305,0.00359,0.03550,0.99936,5.50247,5.51532
1.035038,-0.79502,-0.48215,9.44178,,-0.51100,0.48762,-0.02716,-0.03213,0.07678,0.14343,5091,-5218,0.72116,0.69202,-0.03221,-0.69273,0.72083,-0.02312,0.00722,0.03899,0.99921,5.50247,5.51789
1.054409,-0.82014,-0.47258,9.37448,,-0.50260,0.48650,-0.01554,0.12537,-0.12447,0.08656,5091,-5218,0.71976,0.69370,-0.02705,-0.69422,0.71940,-0.02307,0.00346,0.03538,0.99937,5.50247,5.51585
1.064587,-0.77527,-0.54108,9.39632,,-0.50260,0.48874,-0.01218,-0.03213,-0.00634,0.20031,5091,-5218,0.71827,0.69541,-0.02207,-0.69576,0.71790,-0.02300,-0.00015,0.03188,0.99949,5.50247,5.51371
1.084019,-0.80518,-0.46630,9.41576,,-0.50792,0.49098,-0.00882,-0.02338,-0.10697,0.06468,5091,-5218,0.71861,0.69520,-0.01715,-0.69541,0.71825,-0.02303,-0.00370,0.02847,0.99959,5.50247,5.51419
1.102897,-0.77527,-0.48634,9.36551,,-0.51604,0.49238,-0.01526,0.01162,0.07678,-0.02719,5091,-5218,0.72098,0.69270,-0.01883,-0.69296,0.72061,-0.02308,-0.00242,0.02969,0.99956,5.50247,5.51760
1.113062,-0.79352,-0.47198,9.41217,,-0.51604,0.49238,-0.01526,0.00287,0.08116,0.13906,5091,-5218,0.72214,0.69147,-0.01972,-0.69175,0.72177,-0.02310,-0.00174,0.03033,0.99954,5.50247,5.51928
1.132031,-0.78933,-0.47079,9.44716,,-0.50260,0.49882,-0.03024,-0.00151,-0.03697,0.10843,5091,-5218,0.71570,0.69775,-0.03032,-0.69838,0.71536,-0.02282,0.00576,0.03751,0.99928,5.50247,5.51003
1.150897,-0.78724,-0.49173,9.46122,,-0.50260,0.49322,-0.01848,0.09912,-0.11572,0.11281,5091,-5218,0.71459,0.69898,-0.02799,-0.69953,0.71424,-0.02278,0.00407,0.03585,0.99935,5.50247,5.50844
1.161042,-0.80698,-0.47527,9.45763,,-0.49896,0.49322,-0.01848,0.10787,0.01991,0.18718,5091,-5218,0.71275,0.70091,-0.02682,-0.70141,0.71239,-0.02270,0.00320,0.03499,0.99938,5.50247,5.50580
1.180022,-0.78485,-0.49292,9.41396,,-0.50456,0.49014,-0.00938,-0.21588,-0.14197,0.13031,5091,-5218,0.71499,0.69884,-0.02004,-0.69913,0.71463,-0.02278,-0.00160,0.03030,0.99954,5.50247,5.50901
1.190719,-0.78784,-0.49621,9.46421,,-0.50456,0.49014,-0.00938,0.02474,0.01116,0.15218,5091,-5218,0.71609,0.69781,-0.01650,-0.69799,0.71574,-0.02280,-0.00410,0.02784,0.99960,5.50247,5.51059
1.210496,-0.78485,-0.61137,9.41396,,-0.50232,0.49098,-0.01260,-0.05838,-0.17697,0.26156,5091,-5218,0.71554,0.69837,-0.01681,-0.69856,0.71519,-0.02276,-0.00387,0.02803,0.99960,5.50247,5.50979
1.221307,-0.79382,-0.47647,9.40140,,-0.50428,0.48874,-0.01484,-0.07588,-0.04572,0.14343,5091,-5218,0.71672,0.69712,-0.01853,-0.69736,0.71636,-0.02281,-0.00262,0.02927,0.99957,5.50247,5.51147
1.240738,-0.80997,-0.48365,9.39243,,-0.50624,0.48650,-0.01708,0.05537,-0.05447,0.05156,5091,-5218,0.71876,0.69494,-0.02093,-0.69525,0.71840,-0.02287,-0.00086,0.03099,0.99952,5.50247,5.51441
1.259621,-0.80937,-0.48514,9.49651,,-0.50876,0.48930,-0.01694,-0.04963,-0.09822,-0.10594,5091,-5218,0.71966,0.69397,-0.02203,-0.69432,0.71930,-0.02291,-0.00005,0.03179,0.99949,5.50247,5.51571
1.269758,-0.79531,-0.48544,9.39841,,-0.50876,0.48930,-0.01204,0.07724,0.10741,0.01656,5091,-5218,0.72016,0.69354,-0.01931,-0.69381,0.71980,-0.02290,-0.00198,0.02989,0.99955,5.50247,5.51642
1.288811,-0.78126,-0.47498,9.44208,,-0.49924,0.48930,-0.00714,0.15162,-0.01072,0.02531,5091,-5218,0.71716,0.69675,-0.01464,-0.69688,0.71682,-0.02282,-0.00541,0.02657,0.99963,5.50247,5.51213
1.298985,-0.78993,-0.40828,9.40379,,-0.49952,0.48972,-0.01211,0.05974,0.00678,0.07343,5091,-5218,0.71556,0.69838,-0.01560,-0.69854,0.71521,-0.02280,-0.00476,0.02721,0.99962,5.50247,5.50982
1.318548,-0.81506,-0.48425,9.36670,,-0.49980,0.49014,-0.01708,-0.13713,-0.06759,0.06468,5091,-5218,0.71466,0.69920,-0.01946,-0.69947,0.71430,-0.02280,-0.00204,0.02990,0.99955,5.50247,5.50853
1.337783,-0.79502,-0.47916,9.42413,,-0.50344,0.48482,-0.01736,0.02912,-0.09822,0.13906,5091,-5218,0.71737,0.69636,-0.02166,-0.69669,0.71700,-0.02288,-0.00040,0.03151,0.99950,5.50247,5.51241
1.347990,-0.79382,-0.46421,9.41366,,-0.50330,0.48846,-0.02121,0.00287,0.05053,0.13031,5091,-5218,0.71731,0.69629,-0.02540,-0.69675,0.71695,-0.02288,0.00228,0.03411,0.99942,5.50247,5.51233
1.369491,-0.81057,-0.49173,9.45105,,-0.50316,0.49210,-0.02506,0.09912,-0.11572,0.06906,5091,-5218,0.71590,0.69756,-0.02988,-0.69818,0.71556,-0.02282,0.00546,0.03719,0.99929,5.50247,5.51032
1.380187,-0.79831,-0.45882,9.47797,,-0.50134,0.49280,-0.01876,0.11224,-0.01072,-0.07969,5091,-5218,0.71441,0.69916,-0.02797,-0.69971,0.71406,-0.02275,0.00407,0.03583,0.99935,5.50247,5.50818
1.399970,-0.77169,-0.49232,9.44268,,-0.49952,0.49350,-0.01876,-0.30338,-0.25572,-0.02719,5091,-5218,0.71278,0.70087,-0.02701,-0.70138,0.71242,-0.02272,0.00332,0.03514,0.99938,5.50247,5.50584
1.410679,-0.79950,-0.50130,9.29163,,-0.50708,0.49434,-0.01652,0.16037,0.01991,0.04718,5091,-5218,0.71431,0.69939,-0.02486,-0.69983,0.71395,-0.02275,0.00184,0.03365,0.99943,5.50247,5.50803
1.430124,-0.80219,-0.47677,9.34577,,-0.50708,0.49434,-0.01652,-0.05838,-0.06322,0.14781,5091,-5218,0.71507,0.69865,-0.02377,-0.69905,0.71471,-0.02278,0.00107,0.03291,0.99946,5.50247,5.50912
1.440286,-0.80279,-0.48485,9.42533,,-0.50176,0.49406,-0.02016,-0.01463,0.04178,0.06906,5091,-5218,0.71366,0.70002,-0.02573,-0.70048,0.71331,-0.02273,0.00244,0.03424,0.99941,5.50247,5.50711
1.459288,-0.78993,-0.47737,9.40469,,-0.51576,0.49770,-0.01638,0.10349,-0.04572,0.05593,5091,-5218,0.71654,0.69714,-0.02398,-0.69755,0.71617,-0.02282,0.00126,0.03308,0.99945,5.50247,5.51121
1.478179,-0.80100,-0.46540,9.40858,,-0.51576,0.49770,-0.01638,-0.00588,0.18178,-0.14094,5091,-5218,0.71798,0.69568,-0.02309,-0.69606,0.71762,-0.02286,0.00067,0.03249,0.99947,5.50247,5.51329
1.488328,-0.79681,-0.47737,9.43879,,-0.51520,0.49518,-0.01106,-0.10213,0.03303,0.18281,5091,-5218,0.71942,0.69431,-0.01913,-0.69457,0.71906,-0.02291,-0.00215,0.02977,0.99955,5.50247,5.51536
1.507410,-0.77946,-0.48036,9.34816,,-0.51520,0.49518,-0.01106,-0.11088,0.13803,0.16531,5091,-5218,0.72015,0.69361,-0.01706,-0.69381,0.71979,-0.02292,-0.00362,0.02834,0.99959,5.50247,5.51641
1.517632,-0.82313,-0.47498,9.41247,,-0.50876,0.49210,-0.01106,0.09912,-0.18572,0.09093,5091,-5218,0.71941,0.69440,-0.01600,-0.69458,0.71905,-0.02292,-0.00440,0.02760,0.99961,5.50247,5.51535
1.537083,-0.79262,-0.48455,9.34397,,-0.50428,0.49042,-0.00714,-0.11088,-0.03697,0.08656,5091,-5218,0.71812,0.69580,-0.01289,-0.69588,0.71779,-0.02291,-0.00669,0.02542,0.99965,5.50247,5.51351
1.556004,-0.79442,-0.46540,9.39901,,-0.50428,0.49042,-0.00714,-0.16338,-0.07197,0.20031,5091,-5218,0.71747,0.69649,-0.01127,-0.69654,0.71715,-0.02291,-0.00787,0.02429,0.99967,5.50247,5.51259
1.566444,-0.80130,-0.45613,9.41486,,-0.50792,0.49434,-0.01316,-0.03651,-0.04134,0.04718,5091,-5218,0.71698,0.69694,-0.01443,-0.69707,0.71664,-0.02291,-0.00563,0.02649,0.99963,5.50247,5.51187
1.585688,-0.80040,-0.46062,9.44686,,-0.50792,0.49126,-0.01120,-0.11963,0.01553,-0.02719,5091,-5218,0.71785,0.69605,-0.01479,-0.69618,0.71750,-0.02294,-0.00536,0.02676,0.99963,5.50247,5.51311
1.595898,-0.78664,-0.46780,9.38884,,-0.50148,0.49126,-0.01120,-0.14151,0.02428,0.12593,5091,-5218,0.71604,0.69790,-0.01504,-0.69804,0.71569,-0.02291,-0.00523,0.02690,0.99962,5.50247,5.51051
1.615168,-0.79531,-0.46720,9.43071,,-0.51128,0.49070,-0.01316,-0.15026,0.18178,0.17406,5091,-5218,0.71868,0.69515,-0.01643,-0.69533,0.71832,-0.02297,-0.00417,0.02793,0.99960,5.50247,5.51430
1.634092,-0.78544,-0.48455,9.42054,,-0.51128,0.49070,-0.01316,-0.16338,-0.15947,0.07781,5091,-5218,0.72001,0.69375,-0.01711,-0.69395,0.71965,-0.02302,-0.00366,0.02845,0.99959,5.50247,5.51622
1.644264,-0.79651,-0.46421,9.43789,,-0.50904,0.49350,-0.01274,-0.06276,-0.04572,0.05156,5091,-5218,0.71893,0.69487,-0.01719,-0.69507,0.71857,-0.02300,-0.00363,0.02848,0.99959,5.50247,5.51466
1.663277,-0.77707,-0.46810,9.36999,,-0.50778,0.49658,-0.01610,0.08162,-0.01947,0.07781,5091,-5218,0.71684,0.69696,-0.01946,-0.69723,0.71648,-0.02294,-0.00204,0.03001,0.99955,5.50247,5.51166
1.682181,-0.79860,-0.46181,9.44088,,-0.50652,0.49658,-0.01610,0.16037,0.11178,-0.01844,5091,-5218,0.71537,0.69844,-0.02066,-0.69874,0.71501,-0.02288,-0.00121,0.03080,0.99952,5.50247,5.50955
1.692287,-0.79232,-0.47079,9.42443,,-0.50988,0.49042,-0.01302,0.02912,0.05928,0.05156,5091,-5218,0.71799,0.69579,-0.01924,-0.69605,0.71762,-0.02294,-0.00215,0.02987,0.99955,5.50247,5.51330
1.714804,-0.80997,-0.47139,9.38764,,-0.50092,0.48706,-0.02422,-0.03213,0.02428,0.13031,5091,-5218,0.71727,0.69630,-0.02624,-0.69679,0.71691,-0.02292,0.00285,0.03472,0.99939,5.50247,5.51227
1.727589,-0.81356,-0.46840,9.42772,,-0.50092,0.48706,-0.02422,-0.01463,-0.16822,0.11281,5091,-5218,0.71690,0.69654,-0.02987,-0.69716,0.71655,-0.02292,0.00544,0.03725,0.99929,5.50247,5.51175
1.740538,-0.81775,-0.47856,9.41815,,-0.49924,0.48734,-0.02044,-0.04963,-0.34322,0.20906,5091,-5218,0.71607,0.69741,-0.02919,-0.69801,0.71572,-0.02292,0.00490,0.03679,0.99931,5.50247,5.51056
1.753978,-0.78544,-0.46301,9.38764,,-0.49924,0.48734,-0.02044,-0.13713,-0.06322,-0.06219,5091,-5218,0.71568,0.69783,-0.02887,-0.69841,0.71533,-0.02292,0.00466,0.03657,0.99932,5.50247,5.51000
1.767833,-0.81565,-0.53749,9.41695,,-0.50848,0.49602,-0.02436,0.12537,-0.07634,0.10406,5091,-5218,0.71553,0.69789,-0.03103,-0.69855,0.71519,-0.02290,0.00621,0.03806,0.99926,5.50247,5.50980
1.792022,-0.77707,-0.46540,9.43251,,-0.50764,0.48902,-0.02772,0.11662,0.06803,0.23531,5091,-5218,0.71758,0.69562,-0.03459,-0.69642,0.71727,-0.02299,0.00882,0.04059,0.99914,5.50247,5.51275
1.805547,-0.80937,-0.49890,9.44387,,-0.50764,0.48902,-0.02772,-0.11963,-0.05447,0.22656,5091,-5218,0.71860,0.69447,-0.03644,-0.69535,0.71830,-0.02306,0.01016,0.04191,0.99907,5.50247,5.51422
1.819666,-0.80818,-0.48395,9.41336,,-0.51212,0.49882,-0.02562,-0.11088,-0.17697,0.10406,5091,-5218,0.71724,0.69591,-0.03574,-0.69676,0.71693,-0.02301,0.00961,0.04141,0.99910,5.50247,5.51227
1.833568,-0.80698,-0.49651,9.41157,,-0.51212,0.49882,-0.02562,-0.27713,-0.15072,0.11281,5091,-5218,0.71656,0.69663,-0.03539,-0.69746,0.71625,-0.02301,0.00932,0.04117,0.99911,5.50247,5.51129
1.847368,-0.82911,-0.47378,9.42114,,-0.50400,0.48258,-0.01638,0.00724,-0.08072,0.10406,5091,-5218,0.71933,0.69405,-0.02930,-0.69465,0.71897,-0.02314,0.00500,0.03700,0.99930,5.50247,5.51524
1.871348,-0.64965,-0.46899,9.40439,,-0.50204,0.48930,-0.01148,-0.01463,-0.00197,0.07781,5091,-5218,0.71769,0.69598,-0.02281,-0.69636,0.71732,-0.02305,0.00032,0.03243,0.99947,5.50247,5.51288
1.884719,-0.80399,-0.44925,9.37388,,-0.50204,0.48930,-0.01148,-0.05838,0.01553,-0.03594,5091,-5218,0.71687,0.69693,-0.01940,-0.69720,0.71651,-0.02304,-0.00216,0.03005,0.99955,5.50247,5.51170
1.898043,-0.65743,-0.49232,9.36132,,-0.50204,0.49238,-0.01694,-0.12838,0.16428,0.13031,5091,-5218,0.71530,0.69850,-0.02134,-0.69882,0.71493,-0.02295,-0.00078,0.03133,0.99951,5.50247,5.50944
1.911591,-0.81177,-0.46361,9.43909,,-0.50204,0.49238,-0.01694,0.02912,-0.04572,0.04281,5091,-5218,0.71451,0.69927,-0.02230,-0.69962,0.71415,-0.02294,-0.00012,0.03199,0.99949,5.50247,5.50832
1.925029,-0.79741,-0.47797,9.38914,,-0.50372,0.49210,-0.01708,-0.14588,-0.05009,-0.11469,5091,-5218,0.71482,0.69893,-0.02289,-0.69930,0.71445,-0.02297,0.00029,0.03243,0.99947,5.50247,5.50876
1.949004,-0.80758,-0.47139,9.39661,,-0.50148,0.49406,-0.01344,-0.02338,-0.01947,0.06031,5091,-5218,0.71352,0.70033,-0.02073,-0.70063,0.71316,-0.02294,-0.00129,0.03089,0.99952,5.50247,5.50690
1.962517,-0.80399,-0.47976,9.37986,,-0.50148,0.49406,-0.01344,0.02037,0.07678,0.13031,5091,-5218,0.71286,0.70103,-0.01960,-0.70130,0.71250,-0.02292,-0.00210,0.03009,0.99955,5.50247,5.50596
1.976946,-0.79502,-0.47019,9.38824,,-0.50596,0.48902,-0.02464,0.00287,-0.17697,-0.00094,5091,-5218,0.71576,0.69784,-0.02657,-0.69834,0.71540,-0.02305,0.00293,0.03505,0.99938,5.50247,5.51011
1.991107,-0.78126,-0.46959,9.40439,,-0.51772,0.50050,-0.01204,-0.04088,-0.07197,0.10406,5091,-5218,0.71731,0.69642,-0.02152,-0.69675,0.71694,-0.02310,-0.00066,0.03156,0.99950,5.50247,5.51233
2.005197,-0.78066,-0.35174,9.41755,,-0.51772,0.50050,-0.01204,-0.09338,0.19053,0.15656,5091,-5218,0.71808,0.69571,-0.01894,-0.69596,0.71771,-0.02314,-0.00251,0.02979,0.99955,5.50247,5.51343
2.019367,-0.80698,-0.47318,9.35833,,-0.51296,0.49546,-0.01946,-0.19838,0.12928,0.17406,5091,-5218,0.71853,0.69513,-0.02259,-0.69550,0.71816,-0.02316,0.00013,0.03235,0.99948,5.50247,5.51408
2.033103,-0.78664,-0.47378,9.40020,,-0.50778,0.48972,-0.01505,-0.04088,-0.17697,0.21343,5091,-5218,0.71905,0.69462,-0.02162,-0.69496,0.71867,-0.02320,-0.00058,0.03171,0.99950,5.50247,5.51482
2.057392,-0.79262,-0.50429,9.29552,,-0.50260,0.48398,-0.01064,-0.02338,0.17303,0.06906,5091,-5218,0.71964,0.69411,-0.01824,-0.69434,0.71927,-0.02320,-0.00298,0.02936,0.99956,5.50247,5.51568
2.071079,-0.82014,-0.46481,9.43011,,-0.50568,0.49294,-0.01358,0.16037,-0.02822,0.11281,5091,-5218,0.71778,0.69603,-0.01836,-0.69626,0.71741,-0.02314,-0.00294,0.02939,0.99956,5.50247,5.51300
2.084296,-0.78365,-0.48096,9.40200,,-0.50568,0.49294,-0.01358,-0.08463,-0.16822,0.06906,5091,-5218,0.71685,0.69698,-0.01843,-0.69722,0.71649,-0.02313,-0.00292,0.02943,0.99956,5.50247,5.51167
2.098409,-0.80518,-0.47318,9.40918,,-0.50764,0.49042,-0.01526,-0.11963,-0.07197,0.20031,5091,-5218,0.71793,0.69584,-0.01961,-0.69612,0.71756,-0.02318,-0.00206,0.03029,0.99954,5.50247,5.51321
2.112360,-0.70768,-0.48006,9.42593,,-0.50694,0.49070,-0.01610,0.01162,-0.00634,0.06468,5091,-5218,0.71812,0.69561,-0.02081,-0.69592,0.71775,-0.02316,-0.00118,0.03112,0.99952,5.50247,5.51349
2.136047,-0.80578,-0.47557,9.45823,,-0.50624,0.49098,-0.01694,0.04662,-0.25572,0.10406,5091,-5218,0.71787,0.69583,-0.02196,-0.69617,0.71750,-0.02318,-0.00037,0.03193,0.99949,5.50247,5.51313
2.149848,-0.81296,-0.45344,9.41277,,-0.50680,0.49266,-0.02268,-0.04088,-0.20322,0.14781,5091,-5218,0.71727,0.69629,-0.02641,-0.69679,0.71690,-0.02318,0.00280,0.03503,0.99938,5.50247,5.51227
2.163718,-0.78126,-0.48634,9.46242,,-0.50680,0.49266,-0.02268,0.05537,-0.03697,0.10406,5091,-5218,0.71697,0.69651,-0.02874,-0.69709,0.71661,-0.02316,0.00446,0.03664,0.99932,5.50247,5.51184
2.178016,-0.79980,-0.46540,9.42234,,-0.50204,0.48874,-0.02198,0.02037,-0.07197,0.09531,5091,-5218,0.71657,0.69689,-0.02961,-0.69750,0.71621,-0.02315,0.00507,0.03724,0.99929,5.50247,5.51127
2.192587,-0.80698,-0.45823,9.41277,,-0.50204,0.48874,-0.02198,-0.16338,-0.13322,-0.00094,5091,-5218,0.71638,0.69706,-0.03007,-0.69769,0.71602,-0.02317,0.00538,0.03758,0.99928,5.50247,5.51100
2.206038,-0.70140,-0.55095,9.38166,,-0.50624,0.48958,-0.01974,0.05537,-0.05447,0.09531,5091,-5218,0.71746,0.69601,-0.02871,-0.69659,0.71710,-0.02318,0.00445,0.03663,0.99932,5.50247,5.51254
2.229028,-0.80459,-0.47797,9.46122,,-0.49980,0.48986,-0.01932,0.29162,0.02428,0.05156,5091,-5218,0.71568,0.69788,-0.02779,-0.69842,0.71532,-0.02308,0.00377,0.03593,0.99935,5.50247,5.50999
2.241824,-0.78126,-0.47019,9.40260,,-0.49980,0.48986,-0.01932,0.14287,0.02428,0.27031,5091,-5218,0.71477,0.69883,-0.02733,-0.69935,0.71441,-0.02304,0.00343,0.03558,0.99936,5.50247,5.50869
2.254764,-0.78066,-0.31705,9.36670,,-0.50092,0.49154,-0.01134,-0.01463,-0.10697,-0.00094,5091,-5218,0.71423,0.69958,-0.02168,-0.69991,0.71386,-0.02306,-0.00066,0.03164,0.99950,5.50247,5.50791
2.267865,-0.78245,-0.47139,9.46750,,-0.50246,0.49224,-0.01239,-0.02776,0.04178,0.11281,5091,-5218,0.71421,0.69966,-0.01941,-0.69993,0.71384,-0.02306,-0.00228,0.03005,0.99955,5.50247,5.50789
2.291428,-0.80997,-0.48036,9.48395,,-0.50400,0.49294,-0.01344,0.25662,-0.02822,-0.02719,5091,-5218,0.71450,0.69939,-0.01888,-0.69963,0.71413,-0.02305,-0.00264,0.02968,0.99956,5.50247,5.50830
2.305201,-0.81476,-0.59880,9.41336,,-0.50176,0.49406,-0.02856,-0.01463,0.05928,0.05156,5091,-5218,0.71327,0.70029,-0.02882,-0.70087,0.71292,-0.02297,0.00446,0.03659,0.99932,5.50247,5.50656
2.319345,-0.79382,-0.49711,9.34158,,-0.50176,0.49406,-0.02856,0.07287,0.03303,0.11281,5091,-5218,0.71263,0.70072,-0.03402,-0.70149,0.71231,-0.02293,0.00816,0.04021,0.99916,5.50247,5.50566
2.333703,-0.79382,-0.47677,9.41336,,-0.50596,0.49070,-0.00924,-0.07588,-0.10697,-0.02719,5091,-5218,0.71525,0.69846,-0.02367,-0.69886,0.71488,-0.02303,0.00084,0.03302,0.99945,5.50247,5.50938
2.347987,-0.81416,-0.48096,9.44268,,-0.50596,0.49070,-0.00924,0.09037,0.00678,-0.01844,5091,-5218,0.71653,0.69731,-0.01828,-0.69755,0.71617,-0.02306,-0.00299,0.02927,0.99957,5.50247,5.51121
2.361340,-0.72473,-0.47856,9.43550,,-0.50260,0.49630,-0.00826,-0.18088,-0.25572,0.05156,5091,-5218,0.71402,0.69997,-0.01481,-0.70010,0.71367,-0.02306,-0.00557,0.02683,0.99962,5.50247,5.50763
2.385627,-0.78544,-0.49053,9.37867,,-0.49924,0.48818,-0.00798,-0.06713,-0.07197,0.18281,5091,-5218,0.71446,0.69956,-0.01287,-0.69964,0.71412,-0.02307,-0.00695,0.02549,0.99965,5.50247,5.50827
2.399244,-0.78604,-0.46481,9.36910,,-0.49924,0.48818,-0.01400,-0.13713,-0.09822,-0.08844,5091,-5218,0.71466,0.69929,-0.01597,-0.69946,0.71430,-0.02309,-0.00474,0.02767,0.99961,5.50247,5.50854
2.413026,-0.79681,-0.44985,9.42473,,-0.50148,0.49154,-0.01400,0.09912,-0.18572,0.01656,5091,-5218,0.71433,0.69959,-0.01751,-0.69980,0.71397,-0.02310,-0.00366,0.02875,0.99958,5.50247,5.50807
2.426754,-0.78963,-0.48335,9.38166,,-0.49812,0.49350,-0.02982,-0.15463,0.05053,0.08656,5091,-5218,0.71210,0.70148,-0.02909,-0.70207,0.71174,-0.02301,0.00456,0.03681,0.99931,5.50247,5.50488
2.441037,-0.78185,-0.48215,9.46242,,-0.49812,0.49350,-0.02982,0.18662,-0.16822,0.13906,5091,-5218,0.71094,0.70238,-0.03508,-0.70320,0.71062,-0.02295,0.00880,0.04098,0.99912,5.50247,5.50326
2.455244,-0.80847,-0.48784,9.44148,,-0.50932,0.49378,-0.03458,-0.01463,-0.16384,0.05156,5091,-5218,0.71406,0.69888,-0.04114,-0.69996,0.71380,-0.02317,0.01317,0.04534,0.99888,5.50247,5.50775
2.479054,-0.77946,-0.51087,9.40020,,-0.49980,0.49098,-0.00336,-0.25963,-0.15947,0.18281,5091,-5218,0.71382,0.69994,-0.02344,-0.70033,0.71344,-0.02318,0.00050,0.03296,0.99946,5.50247,5.50732
2.491836,-0.79143,-0.47737,9.41576,,-0.49980,0.49098,-0.00336,-0.12838,-0.03697,0.10406,5091,-5218,0.71361,0.70039,-0.01422,-0.70051,0.71326,-0.02319,-0.00610,0.02650,0.99963,5.50247,5.50705
2.504745,-0.77527,-0.49232,9.44926,,-0.49560,0.49266,-0.01162,-0.12838,-0.23822,0.02531,5091,-5218,0.71136,0.70266,-0.01503,-0.70280,0.71101,-0.02316,-0.00558,0.02704,0.99962,5.50247,5.50384
2.517978,-0.78903,-0.47139,9.41307,,-0.49560,0.48972,-0.01134,-0.00588,-0.12447,0.17843,5091,-5218,0.71126,0.70276,-0.01528,-0.70291,0.71091,-0.02318,-0.00543,0.02722,0.99961,5.50247,5.50370
2.542248,-0.77408,-0.48395,9.39362,,-0.49756,0.48678,-0.01106,-0.13713,-0.08947,0.15656,5091,-5218,0.71298,0.70102,-0.01524,-0.70117,0.71262,-0.02323,-0.00542,0.02725,0.99961,5.50247,5.50614
2.555490,-0.81177,-0.46481,9.37388,,-0.50176,0.49602,-0.02156,0.02037,0.17303,0.11281,5091,-5218,0.71192,0.70191,-0.02221,-0.70226,0.71154,-0.02318,-0.00047,0.03210,0.99948,5.50247,5.50461
2.568810,-0.80399,-0.48096,9.42952,,-0.50176,0.49602,-0.02156,0.02037,-0.08072,0.01656,5091,-5218,0.71138,0.70233,-0.02582,-0.70280,0.71101,-0.02317,0.00209,0.03463,0.99940,5.50247,5.50385
2.582793,-0.79860,-0.31047,9.39781,,-0.50064,0.48314,-0.02184,-0.24213,-0.14197,0.16531,5091,-5218,0.71530,0.69825,-0.02814,-0.69881,0.71493,-0.02340,0.00378,0.03640,0.99933,5.50247,5.50945
2.596414,-0.77288,-0.48843,9.43789,,-0.50288,0.48538,-0.01960,-0.14588,-0.01947,0.01218,5091,-5218,0.71727,0.69624,-0.02774,-0.69679,0.71689,-0.02349,0.00353,0.03617,0.99934,5.50247,5.51227
2.620673,-0.80518,-0.47258,9.40977,,-0.50512,0.48762,-0.01736,-0.03213,0.01553,0.07781,5091,-5218,0.71825,0.69530,-0.02593,-0.69578,0.71787,-0.02353,0.00226,0.03494,0.99939,5.50247,5.51368
2.634328,-0.78485,-0.46361,9.41217,,-0.50176,0.50078,-0.01064,0.19537,-0.03697,0.18281,5091,-5218,0.71300,0.70087,-0.02037,-0.70116,0.71262,-0.02336,-0.00186,0.03094,0.99952,5.50247,5.50616
2.647276,-0.83270,-0.47976,9.38106,,-0.50176,0.50078,-0.01064,-0.14588,0.00678,-0.00094,5091,-5218,0.71037,0.70361,-0.01748,-0.70382,0.71000,-0.02331,-0.00400,0.02886,0.99958,5.50247,5.50242
2.660297,-0.81595,-0.32243,9.34876,,-0.50120,0.48930,-0.01246,-0.16338,0.05053,-0.04469,5091,-5218,0.71291,0.70104,-0.01733,-0.70124,0.71254,-0.02342,-0.00407,0.02885,0.99958,5.50247,5.50604
2.673673,-0.79801,-0.48185,9.39871,,-0.50316,0.48944,-0.01239,0.07724,-0.03259,0.04718,5091,-5218,0.71480,0.69912,-0.01712,-0.69932,0.71443,-0.02346,-0.00417,0.02875,0.99958,5.50247,5.50873
2.698385,-0.81894,-0.32841,9.42952,,-0.50512,0.48958,-0.01232,0.21287,-0.02822,0.13906,5091,-5218,0.71637,0.69752,-0.01698,-0.69771,0.71599,-0.02352,-0.00425,0.02870,0.99958,5.50247,5.51098
2.711852,-0.78365,-0.50249,9.44627,,-0.50036,0.48454,-0.02296,-0.15463,-0.01072,0.03406,5091,-5218,0.71720,0.69645,-0.02426,-0.69687,0.71681,-0.02356,0.00098,0.03380,0.99943,5.50247,5.51216
2.725446,-0.79023,-0.31705,9.41037,,-0.50036,0.48454,-0.02296,-0.08463,-0.00197,0.13031,5091,-5218,0.71759,0.69590,-0.02808,-0.69646,0.71721,-0.02361,0.00371,0.03650,0.99933,5.50247,5.51273
2.739594,-0.80279,-0.45763,9.40858,,-0.49840,0.48986,-0.02016,-0.15463,-0.00197,0.14781,5091,-5218,0.71523,0.69832,-0.02809,-0.69888,0.71485,-0.02353,0.00365,0.03646,0.99933,5.50247,5.50935
2.754332,-0.78305,-0.47557,9.34756,,-0.49840,0.48986,-0.02016,0.15162,-0.02822,-0.05344,5091,-5218,0.71407,0.69951,-0.02807,-0.70006,0.71369,-0.02347,0.00361,0.03641,0.99933,5.50247,5.50769
2.768171,-0.78395,-0.47198,9.39003,,-0.50176,0.49994,-0.00560,-0.00151,-0.20322,0.18718,5091,-5218,0.71124,0.70272,-0.01808,-0.70294,0.71086,-0.02343,-0.00361,0.02937,0.99956,5.50247,5.50365
2.792628,-0.80758,-0.46062,9.39721,,-0.50092,0.48650,-0.00714,-0.20713,-0.15947,0.17406,5091,-5218,0.71427,0.69973,-0.01400,-0.69984,0.71392,-0.02353,-0.00647,0.02660,0.99963,5.50247,5.50800
2.806213,-0.78365,-0.33260,9.39303,,-0.50092,0.48650,-0.00714,-0.16338,-0.07197,-0.00969,5091,-5218,0.71580,0.69820,-0.01191,-0.69826,0.71545,-0.02360,-0.00795,0.02521,0.99965,5.50247,5.51019
2.820865,-0.80578,-0.48933,9.24467,,-0.50148,0.50050,-0.01540,0.22162,-0.03697,0.13906,5091,-5218,0.71172,0.70227,-0.01625,-0.70244,0.71135,-0.02349,-0.00494,0.02813,0.99959,5.50247,5.50435
2.833941,-0.76929,-0.46780,9.40140,,-0.50148,0.50050,-0.01582,-0.04088,-0.13322,0.08656,5091,-5218,0.70967,0.70428,-0.01881,-0.70453,0.70929,-0.02345,-0.00317,0.02989,0.99955,5.50247,5.50142
2.847624,-0.80219,-0.32004,9.38764,,-0.50260,0.49154,-0.01582,0.12537,0.08553,0.07781,5091,-5218,0.71221,0.70168,-0.02025,-0.70197,0.71182,-0.02354,-0.00210,0.03098,0.99952,5.50247,5.50503
2.862207,-0.63529,-0.47498,9.41396,,-0.49448,0.48930,-0.01568,-0.06713,-0.04572,0.15656,5091,-5218,0.71141,0.70246,-0.02104,-0.70278,0.71102,-0.02349,-0.00154,0.03149,0.99950,5.50247,5.50389
2.877930,-0.72144,-0.53958,9.40110,,-0.51240,0.49182,-0.01827,0.00724,-0.16384,0.02093,5091,-5218,0.71633,0.69739,-0.02289,-0.69777,0.71594,-0.02364,-0.00010,0.03291,0.99946,5.50247,5.51091
2.901041,-0.80518,-0.48514,9.45584,,-0.51184,0.49434,-0.02086,-0.05838,-0.18572,0.03406,5091,-5218,0.71766,0.69592,-0.02557,-0.69639,0.71727,-0.02371,0.00184,0.03482,0.99939,5.50247,5.51283
2.913702,-0.64905,-0.46780,9.39003,,-0.47600,0.49294,-0.02296,-0.05838,-0.21197,-0.01844,5091,-5218,0.70606,0.70755,-0.02902,-0.70814,0.70569,-0.02322,0.00405,0.03695,0.99931,5.50247,5.49632
2.926527,-0.79681,-0.48156,9.40499,,-0.49924,0.49294,-0.02296,0.06412,-0.00197,0.13031,5091,-5218,0.70863,0.70492,-0.03040,-0.70556,0.70826,-0.02333,0.00508,0.03798,0.99927,5.50247,5.49996
2.939381,-0.78634,-0.46122,9.40619,,-0.49560,0.49322,-0.02142,-0.06276,-0.17697,0.16093,5091,-5218,0.70853,0.70504,-0.03012,-0.70566,0.70816,-0.02336,0.00486,0.03781,0.99927,5.50247,5.49982
2.962579,-0.80219,-0.34696,9.41516,,-0.49196,0.49322,-0.02142,-0.11088,-0.24697,-0.06219,5091,-5218,0.70721,0.70637,-0.03006,-0.70699,0.70684,-0.02337,0.00474,0.03777,0.99928,5.50247,5.49794
2.975247,-0.79083,-0.47557,9.36850,,-0.50092,0.49070,-0.01512,0.04662,-0.02822,0.16531,5091,-5218,0.71070,0.70303,-0.02563,-0.70349,0.71032,-0.02349,0.00169,0.03472,0.99940,5.50247,5.50289
2.988173,-0.80279,-0.48126,9.42952,,-0.50330,0.49112,-0.01778,-0.01463,-0.08072,0.05593,5091,-5218,0.71309,0.70062,-0.02508,-0.70107,0.71270,-0.02359,0.00135,0.03441,0.99941,5.50247,5.50629
3.011296,-0.80399,-0.46181,9.43430,,-0.50568,0.49154,-0.02044,0.01162,-0.03697,0.26156,5091,-5218,0.71491,0.69871,-0.02657,-0.69921,0.71452,-0.02367,0.00245,0.03550,0.99937,5.50247,5.50889
3.023996,-0.81535,-0.46002,9.42174,,-0.50092,0.48678,-0.02492,0.11662,-0.12447,0.13031,5091,-5218,0.71581,0.69763,-0.03052,-0.69828,0.71543,-0.02372,0.00529,0.03828,0.99925,5.50247,5.51018
3.036800,-0.81236,-0.33200,9.34876,,-0.50092,0.48678,-0.02492,0.08162,0.17303,0.20031,5091,-5218,0.71624,0.69709,-0.03262,-0.69782,0.71588,-0.02375,0.00680,0.03978,0.99919,5.50247,5.51082
3.049732,-0.78963,-0.54317,9.41516,,-0.49840,0.48986,-0.01036,0.02037,-0.05884,0.06468,5091,-5218,0.71470,0.69903,-0.02375,-0.69943,0.71431,-0.02369,0.00041,0.03354,0.99944,5.50247,5.50858
3.072670,-0.78245,-0.47916,9.36910,,-0.50400,0.48734,-0.01582,-0.09338,0.24303,0.13906,5091,-5218,0.71669,0.69701,-0.02285,-0.69739,0.71630,-0.02373,-0.00018,0.03295,0.99946,5.50247,5.51144
3.085306,-0.80339,-0.33858,9.34457,,-0.50400,0.48734,-0.01582,0.33537,-0.05447,0.05156,5091,-5218,0.71770,0.69600,-0.02236,-0.69636,0.71730,-0.02378,-0.00051,0.03263,0.99947,5.50247,5.51288
3.098317,-0.82134,-0.46361,9.29253,,-0.50652,0.49154,-0.02142,-0.07588,-0.31697,0.21781,5091,-5218,0.71749,0.69609,-0.02578,-0.69656,0.71710,-0.02381,0.00192,0.03504,0.99938,5.50247,5.51259
3.111291,-0.81506,-0.46361,9.41546,,-0.50288,0.49014,-0.01946,-0.11088,-0.07634,0.04281,5091,-5218,0.71667,0.69692,-0.02634,-0.69741,0.71627,-0.02381,0.00227,0.03543,0.99937,5.50247,5.51140
3.134261,-0.63529,-0.48395,9.39602,,-0.49924,0.48874,-0.01750,0.03787,0.10303,-0.10594,5091,-5218,0.71552,0.69813,-0.02540,-0.69859,0.71513,-0.02371,0.00161,0.03471,0.99940,5.50247,5.50976
3.146908,-0.82134,-0.48156,9.47079,,-0.50008,0.48538,-0.02142,-0.10213,-0.04572,0.18281,5091,-5218,0.71637,0.69718,-0.02757,-0.69771,0.71598,-0.02376,0.00318,0.03626,0.99934,5.50247,5.51098
3.159884,-0.80070,-0.48245,9.43161,,-0.49952,0.48734,-0.02156,0.08162,-0.06759,0.07343,5091,-5218,0.71590,0.69761,-0.02876,-0.69819,0.71551,-0.02374,0.00402,0.03707,0.99930,5.50247,5.51030
3.182897,-0.78544,-0.48993,9.40319,,-0.49896,0.48930,-0.02170,-0.05838,-0.10697,0.09531,5091,-5218,0.71476,0.69874,-0.02947,-0.69935,0.71439,-0.02369,0.00450,0.03755,0.99928,5.50247,5.50869
3.195566,-0.80160,-0.48814,9.40499,,-0.50288,0.49070,-0.01204,0.17787,-0.01072,0.09531,5091,-5218,0.71520,0.69854,-0.02321,-0.69892,0.71480,-0.02369,0.00004,0.03316,0.99945,5.50247,5.50929
3.208558,-0.83988,-0.48335,9.43011,,-0.50288,0.49070,-0.01204,0.02912,-0.02822,0.19156,5091,-5218,0.71539,0.69844,-0.01995,-0.69872,0.71500,-0.02370,-0.00229,0.03090,0.99952,5.50247,5.50958
3.221630,-0.80369,-0.47438,9.38914,,-0.50498,0.49154,-0.02800,0.03349,-0.04572,0.22656,5091,-5218,0.71571,0.69779,-0.02900,-0.69838,0.71533,-0.02372,0.00419,0.03723,0.99930,5.50247,5.51004
3.244683,-0.79920,-0.46780,9.42593,,-0.50708,0.49154,0.00140,-0.05838,0.02428,0.17406,5091,-5218,0.71694,0.69699,-0.01389,-0.69710,0.71658,-0.02375,-0.00660,0.02671,0.99962,5.50247,5.51182
3.257324,-0.79023,-0.46959,9.38704,,-0.51072,0.49098,0.00140,-0.00588,-0.17697,0.16531,5091,-5218,0.71893,0.69505,-0.00599,-0.69497,0.71864,-0.02378,-0.01222,0.02126,0.99970,5.50247,5.51473
3.270237,-0.81236,-0.47856,9.43849,,-0.51072,0.49098,-0.00280,-0.08463,-0.25572,0.20031,5091,-5218,0.71990,0.69406,-0.00470,-0.69396,0.71962,-0.02381,-0.01314,0.02040,0.99971,5.50247,5.51613
3.283033,-0.79801,-0.48335,9.46631,,-0.49756,0.49266,-0.00280,-0.07151,-0.04572,0.09093,5091,-5218,0.71524,0.69886,-0.00408,-0.69874,0.71498,-0.02380,-0.01372,0.01987,0.99971,5.50247,5.50946
3.306299,-0.76810,-0.48933,9.40738,,-0.50428,0.49210,-0.00560,0.03787,-0.09822,0.01656,5091,-5218,0.71545,0.69864,-0.00562,-0.69855,0.71517,-0.02379,-0.01260,0.02094,0.99970,5.50247,5.50974
3.319021,-0.78485,-0.46540,9.43729,,-0.50428,0.49210,-0.00560,0.06412,-0.29947,0.19156,5091,-5218,0.71555,0.69854,-0.00640,-0.69846,0.71525,-0.02381,-0.01205,0.02151,0.99970,5.50247,5.50987
3.331855,-0.80698,-0.48215,9.37986,,-0.50092,0.49378,-0.01372,-0.08463,-0.08072,0.16531,5091,-5218,0.71379,0.70025,-0.01233,-0.70032,0.71343,-0.02379,-0.00786,0.02562,0.99964,5.50247,5.50731
3.344876,-0.79860,-0.47797,9.42413,,-0.49980,0.49224,-0.01393,-0.25963,-0.03259,0.08218,5091,-5218,0.71305,0.70094,-0.01562,-0.70109,0.71268,-0.02381,-0.00555,0.02793,0.99959,5.50247,5.50625
3.367997,-0.80877,-0.48873,9.40200,,-0.49868,0.49070,-0.01414,-0.08463,-0.09822,0.01656,5091,-5218,0.71285,0.70110,-0.01747,-0.70131,0.71246,-0.02381,-0.00425,0.02923,0.99956,5.50247,5.50595
3.380687,-0.81595,-0.44267,9.31825,,-0.51100,0.49658,-0.01134,-0.05838,0.04178,0.01656,5091,-5218,0.71495,0.69898,-0.01640,-0.69915,0.71457,-0.02388,-0.00497,0.02853,0.99958,5.50247,5.50896
3.393599,-0.79920,-0.40977,9.43011,,-0.50652,0.49392,-0.01477,-0.01026,0.03741,0.16968,5091,-5218,0.71535,0.69853,-0.01822,-0.69875,0.71496,-0.02389,-0.00367,0.02982,0.99955,5.50247,5.50953
3.416597,-0.77946,-0.46959,9.40499,,-0.50204,0.49126,-0.01820,-0.00588,0.05053,0.02531,5091,-5218,0.71493,0.69886,-0.02155,-0.69920,0.71453,-0.02387,-0.00129,0.03213,0.99948,5.50247,5.50891
3.429305,-0.79801,-0.60120,9.41695,,-0.49196,0.48650,-0.00826,0.04662,-0.29072,-0.00094,5091,-5218,0.71297,0.70100,-0.01657,-0.70118,0.71259,-0.02382,-0.00489,0.02860,0.99958,5.50247,5.50613
3.442521,-0.81835,-0.48634,9.42054,,-0.49196,0.48650,-0.00826,0.03787,-0.20322,0.07781,5091,-5218,0.71198,0.70206,-0.01401,-0.70217,0.71161,-0.02381,-0.00675,0.02679,0.99962,5.50247,5.50472
3.455521,-0.78305,-0.39362,9.43490,,-0.50092,0.49462,-0.01652,0.09912,0.08553,0.11718,5091,-5218,0.71166,0.70228,-0.01820,-0.70251,0.71128,-0.02379,-0.00376,0.02972,0.99955,5.50247,5.50426
3.478580,-0.82493,-0.33799,9.41277,,-0.50484,0.48958,-0.02002,-0.09338,-0.20322,-0.05344,5091,-5218,0.71464,0.69912,-0.02276,-0.69949,0.71424,-0.02395,-0.00049,0.03304,0.99945,5.50247,5.50850
3.491258,-0.79801,-0.30808,9.41456,,-0.50484,0.48958,-0.02002,0.01162,-0.08947,0.06031,5091,-5218,0.71611,0.69753,-0.02515,-0.69798,0.71571,-0.02404,0.00123,0.03477,0.99939,5.50247,5.51061
3.504082,-0.80818,-0.45464,9.41396,,-0.49532,0.49434,-0.00294,-0.01463,0.05053,0.02531,5091,-5218,0.71201,0.70201,-0.01483,-0.70214,0.71163,-0.02396,-0.00627,0.02747,0.99960,5.50247,5.50476
3.516980,-0.78485,-0.48245,9.43071,,-0.49532,0.49434,-0.00280,0.01162,-0.15947,0.20906,5091,-5218,0.70989,0.70425,-0.00933,-0.70424,0.70956,-0.02395,-0.01025,0.02357,0.99967,5.50247,5.50178
3.540089,-0.81236,-0.48156,9.44208,,-0.50064,0.48650,-0.00266,1.76162,-0.29947,0.15656,5091,-5218,0.71352,0.70061,-0.00623,-0.70053,0.71323,-0.02388,-0.01229,0.02140,0.99970,5.50247,5.50698
3.552777,-0.81416,-0.47498,9.41516,,-0.50064,0.49350,-0.00938,0.00287,-0.33447,0.17406,5091,-5218,0.71280,0.70131,-0.00929,-0.70130,0.71247,-0.02391,-0.01015,0.02356,0.99967,5.50247,5.50592
3.565602,-0.79202,-0.38824,9.42533,,-0.51016,0.49350,-0.00938,0.02037,-0.06759,0.12156,5091,-5218,0.71573,0.69829,-0.01085,-0.69832,0.71538,-0.02398,-0.00898,0.02474,0.99965,5.50247,5.51010
3.588772,-0.66221,-0.46959,9.45643,,-0.50120,0.48818,-0.00014,-0.14588,-0.18572,0.00781,5091,-5218,0.71605,0.69803,-0.00549,-0.69793,0.71576,-0.02397,-0.01281,0.02100,0.99970,5.50247,5.51060
3.601429,-0.79262,-0.60838,9.42054,,-0.50120,0.48818,-0.00014,-0.05838,-0.24697,-0.02719,5091,-5218,0.71620,0.69789,-0.00263,-0.69774,0.71595,-0.02396,-0.01485,0.01900,0.99971,5.50247,5.51085
3.614402,-0.77827,-0.48933,9.48276,,-0.50932,0.49070,-0.01148,0.01162,-0.13322,0.20906,5091,-5218,0.71812,0.69586,-0.00880,-0.69584,0.71780,-0.02399,-0.01038,0.02335,0.99967,5.50247,5.51355
3.627254,-0.80847,-0.47169,9.42174,,-0.51086,0.49098,-0.01533,-0.09338,-0.01947,0.06468,5091,-5218,0.71948,0.69436,-0.01460,-0.69449,0.71910,-0.02403,-0.00618,0.02743,0.99960,5.50247,5.51546
3.650290,-0.79860,-0.32004,9.42952,,-0.51240,0.49126,-0.01918,0.10787,0.07678,0.20906,5091,-5218,0.72053,0.69313,-0.02021,-0.69342,0.72013,-0.02408,-0.00213,0.03137,0.99951,5.50247,5.51695
3.662970,-0.79561,-0.48993,9.42294,,-0.50428,0.49210,-0.01778,-0.20713,-0.07197,0.00781,5091,-5218,0.71800,0.69568,-0.02227,-0.69604,0.71760,-0.02401,-0.00072,0.03274,0.99946,5.50247,5.51332
3.675836,-0.79741,-0.47198,9.43969,,-0.50428,0.49210,-0.01778,-0.08463,0.23428,0.07781,5091,-5218,0.71673,0.69696,-0.02335,-0.69735,0.71633,-0.02395,0.00004,0.03345,0.99944,5.50247,5.51149
3.688776,-0.81087,-0.47946,9.36880,,-0.50428,0.49462,-0.01008,0.04224,-0.26009,0.09968,5091,-5218,0.71528,0.69859,-0.01863,-0.69883,0.71489,-0.02394,-0.00341,0.03014,0.99954,5.50247,5.50942
3.711823,-0.79801,-0.47737,9.40918,,-0.50876,0.49266,-0.00280,0.04662,-0.11572,0.08656,5091,-5218,0.71684,0.69714,-0.01129,-0.69718,0.71649,-0.02397,-0.00862,0.02505,0.99965,5.50247,5.51169
3.724521,-0.64905,-0.49711,9.35235,,-0.50876,0.49266,-0.00280,0.09912,-0.13322,-0.07969,5091,-5218,0.71762,0.69639,-0.00748,-0.69634,0.71731,-0.02394,-0.01130,0.02239,0.99969,5.50247,5.51283
3.737446,-0.79950,-0.47378,9.41217,,-0.50120,0.48650,-0.00378,-0.00151,-0.05447,-0.02282,5091,-5218,0.71758,0.69645,-0.00618,-0.69637,0.71729,-0.02395,-0.01224,0.02149,0.99969,5.50247,5.51279
3.760443,-0.79561,-0.47258,9.48455,,-0.51072,0.48790,-0.00602,-0.33838,-0.02822,0.05156,5091,-5218,0.72031,0.69361,-0.00701,-0.69355,0.72001,-0.02400,-0.01160,0.02215,0.99969,5.50247,5.51671
3.773097,-0.80758,-0.45882,9.40559,,-0.51072,0.48790,-0.00602,0.03787,-0.25572,0.04281,5091,-5218,0.72168,0.69219,-0.00740,-0.69214,0.72136,-0.02403,-0.01130,0.02247,0.99968,5.50247,5.51868
3.786038,-0.78425,-0.49173,9.41875,,-0.51296,0.49350,-0.00476,-0.03213,-0.23822,0.02531,5091,-5218,0.72115,0.69275,-0.00674,-0.69268,0.72084,-0.02404,-0.01179,0.02200,0.99969,5.50247,5.51792
3.799078,-0.78754,-0.47617,9.38555,,-0.51296,0.49392,-0.00301,-0.08026,-0.05884,0.12156,5091,-5218,0.72073,0.69320,-0.00524,-0.69310,0.72044,-0.02405,-0.01289,0.02096,0.99970,5.50247,5.51732
3.822004,-0.77527,-0.48036,9.42593,,-0.49924,0.49434,-0.00126,0.06412,-0.15947,0.08656,5091,-5218,0.71567,0.69844,-0.00329,-0.69829,0.71541,-0.02402,-0.01442,0.01949,0.99971,5.50247,5.51007
3.834653,-0.81296,-0.46122,9.41396,,-0.49924,0.49294,-0.00938,0.09037,0.20803,-0.09719,5091,-5218,0.71361,0.70050,-0.00781,-0.70046,0.71329,-0.02398,-0.01123,0.02258,0.99968,5.50247,5.50709
3.847575,-0.80937,-0.32483,9.45524,,-0.50428,0.49294,-0.00938,0.02912,-0.01072,0.34031,5091,-5218,0.71429,0.69977,-0.01015,-0.69978,0.71395,-0.02402,-0.00956,0.02426,0.99966,5.50247,5.50805
3.860569,-0.79621,-0.47976,9.36401,,-0.50414,0.49308,-0.02030,0.06412,-0.18572,0.10843,5091,-5218,0.71447,0.69942,-0.01867,-0.69966,0.71407,-0.02404,-0.00348,0.03023,0.99954,5.50247,5.50826
3.883371,-0.80578,-0.46660,9.43969,,-0.50400,0.49322,-0.02030,0.00287,-0.06322,0.02531,5091,-5218,0.71445,0.69931,-0.02314,-0.69969,0.71404,-0.02404,-0.00029,0.03337,0.99944,5.50247,5.50822
3.896050,-0.79502,-0.47079,9.48515,,-0.50680,0.49014,-0.01344,0.02037,-0.01947,-0.01844,5091,-5218,0.71658,0.69720,-0.02084,-0.69751,0.71617,-0.02410,-0.00188,0.03181,0.99949,5.50247,5.51127
3.909087,-0.79202,-0.47797,9.39452,,-0.50274,0.49056,-0.01386,0.06412,0.04616,0.12593,5091,-5218,0.71606,0.69775,-0.01996,-0.69803,0.71566,-0.02407,-0.00251,0.03117,0.99951,5.50247,5.51054
3.932101,-0.80578,-0.46122,9.37747,,-0.49868,0.49098,-0.01428,0.11662,-0.06322,0.13906,5091,-5218,0.71424,0.69962,-0.01982,-0.69989,0.71384,-0.02402,-0.00266,0.03103,0.99952,5.50247,5.50793
3.944746,-0.78485,-0.47139,9.42114,,-0.50596,0.49714,-0.01680,0.04662,-0.02822,0.16531,5091,-5218,0.71366,0.70017,-0.02131,-0.70049,0.71326,-0.02400,-0.00160,0.03205,0.99948,5.50247,5.50710
3.957475,-0.81894,-0.46301,9.43131,,-0.50596,0.49714,-0.01680,0.02037,0.05053,0.02531,5091,-5218,0.71337,0.70043,-0.02209,-0.70078,0.71297,-0.02399,-0.00105,0.03260,0.99947,5.50247,5.50669
3.970424,-0.80788,-0.53898,9.41366,,-0.49868,0.49798,-0.00210,0.10787,0.04616,0.07343,5091,-5218,0.71052,0.70357,-0.01263,-0.70364,0.71016,-0.02390,-0.00785,0.02587,0.99963,5.50247,5.50265
3.993374,-0.79741,-0.48036,9.36611,,-0.49896,0.48902,-0.01204,0.02912,0.05053,-0.03594,5091,-5218,0.71230,0.70172,-0.01450,-0.70184,0.71193,-0.02393,-0.00647,0.02722,0.99961,5.50247,5.50518
4.006074,-0.81057,-0.48873,9.37867,,-0.49896,0.48902,-0.01204,-0.11963,-0.01947,0.13031,5091,-5218,0.71318,0.70081,-0.01547,-0.70096,0.71280,-0.02396,-0.00576,0.02793,0.99959,5.50247,5.50643
4.018973,-0.79382,-0.48933,9.40379,,-0.49560,0.48986,-0.01652,-0.19838,-0.09822,0.04281,5091,-5218,0.71210,0.70182,-0.01907,-0.70207,0.71170,-0.02395,-0.00324,0.03044,0.99953,5.50247,5.50488
4.031996,-0.79083,-0.48126,9.44686,,-0.49728,0.49000,-0.01204,-0.02776,-0.01072,0.06468,5091,-5218,0.71214,0.70181,-0.01786,-0.70203,0.71175,-0.02395,-0.00410,0.02959,0.99955,5.50247,5.50493
4.055038,-0.79202,-0.31884,9.36910,,-0.49896,0.49014,-0.00756,-0.11088,-0.12447,0.06031,5091,-5218,0.71274,0.70129,-0.01420,-0.70140,0.71237,-0.02401,-0.00673,0.02707,0.99961,5.50247,5.50581
4.067775,-0.81954,-0.49950,9.42712,,-0.48328,0.49882,-0.01904,-0.07588,0.22553,0.02531,5091,-5218,0.70422,0.70970,-0.02019,-0.70998,0.70382,-0.02376,-0.00265,0.03106,0.99951,5.50247,5.49371
4.080736,-0.80339,-0.46271,9.39721,,-0.48328,0.49532,-0.01484,0.09037,0.01991,0.07781,5091,-5218,0.70120,0.71267,-0.02044,-0.71296,0.70081,-0.02366,-0.00254,0.03116,0.99951,5.50247,5.48947
4.103999,-0.80339,-0.47498,9.46960,,-0.50036,0.49182,-0.01064,0.28287,-0.19447,0.13906,5091,-5218,0.70716,0.70684,-0.01754,-0.70704,0.70677,-0.02381,-0.00443,0.02924,0.99956,5.50247,5.49787
4.116749,-0.80997,-0.51565,9.41277,,-0.49952,0.49686,-0.00490,0.02912,0.23428,0.05156,5091,-5218,0.70807,0.70604,-0.01217,-0.70609,0.70772,-0.02380,-0.00819,0.02544,0.99964,5.50247,5.49919
4.129982,-0.66162,-0.46840,9.42294,,-0.49952,0.49686,-0.00490,-0.04963,0.07678,0.03406,5091,-5218,0.70852,0.70563,-0.00941,-0.70562,0.70819,-0.02378,-0.01011,0.02348,0.99967,5.50247,5.49984
4.142964,-0.78245,-0.47886,9.41994,,-0.50386,0.49406,-0.00364,-0.05401,-0.05009,0.16531,5091,-5218,0.71125,0.70291,-0.00707,-0.70285,0.71094,-0.02381,-0.01171,0.02191,0.99969,5.50247,5.50373
4.165786,-0.79202,-0.45344,9.44806,,-0.50820,0.49406,-0.00364,-0.05838,0.09428,0.19156,5091,-5218,0.71411,0.70001,-0.00586,-0.69992,0.71382,-0.02384,-0.01250,0.02112,0.99970,5.50247,5.50782
4.178470,-0.77049,-0.47258,9.43610,,-0.50092,0.49658,-0.01582,0.02912,0.08553,0.24406,5091,-5218,0.71206,0.70199,-0.01346,-0.70208,0.71170,-0.02378,-0.00711,0.02638,0.99963,5.50247,5.50484
4.191257,-0.80100,-0.45823,9.41815,,-0.50092,0.49658,-0.01582,-0.28588,-0.17697,0.00781,5091,-5218,0.71103,0.70294,-0.01742,-0.70314,0.71065,-0.02379,-0.00435,0.02916,0.99957,5.50247,5.50337
4.204157,-0.81087,-0.49113,9.40110,,-0.50792,0.49098,-0.01372,0.00724,0.12491,0.13468,5091,-5218,0.71494,0.69896,-0.01804,-0.69918,0.71455,-0.02387,-0.00380,0.02968,0.99955,5.50247,5.50893
4.227175,-0.80399,-0.51266,9.44208,,-0.50316,0.49658,-0.01932,-0.08463,-0.08947,0.16531,5091,-5218,0.71321,0.70061,-0.02211,-0.70095,0.71281,-0.02382,-0.00093,0.03249,0.99947,5.50247,5.50645
4.239877,-0.81236,-0.45643,9.41396,,-0.50316,0.49658,-0.01932,0.10787,-0.05447,-0.14094,5091,-5218,0.71236,0.70140,-0.02423,-0.70182,0.71196,-0.02380,0.00056,0.03396,0.99942,5.50247,5.50524
4.252696,-0.80578,-0.48425,9.40140,,-0.49868,0.49574,-0.01022,0.12537,-0.12009,0.13468,5091,-5218,0.71073,0.70320,-0.01922,-0.70346,0.71034,-0.02375,-0.00305,0.03041,0.99953,5.50247,5.50293
4.275602,-0.80339,-0.49591,9.41516,,-0.49952,0.48930,-0.00952,-0.00588,0.05928,-0.02719,5091,-5218,0.71253,0.70146,-0.01621,-0.70163,0.71215,-0.02379,-0.00514,0.02832,0.99959,5.50247,5.50549
4.288316,-0.80937,-0.45464,9.36311,,-0.49952,0.48930,-0.00952,0.12537,-0.23822,0.24406,5091,-5218,0.71340,0.70061,-0.01461,-0.70073,0.71303,-0.02382,-0.00627,0.02723,0.99961,5.50247,5.50675
4.301296,-0.79502,-0.47318,9.41695,,-0.49924,0.49630,-0.00994,-0.04963,0.01553,0.21781,5091,-5218,0.71124,0.70280,-0.01406,-0.70291,0.71088,-0.02378,-0.00672,0.02680,0.99962,5.50247,5.50368
4.314319,-0.79831,-0.46211,9.42473,,-0.49756,0.49434,-0.01351,0.00287,0.07241,0.14343,5091,-5218,0.71024,0.70378,-0.01622,-0.70394,0.70986,-0.02375,-0.00520,0.02829,0.99959,5.50247,5.50224
4.337495,-0.80100,-0.47557,9.41576,,-0.49588,0.49238,-0.01708,-0.14588,-0.21197,-0.07969,5091,-5218,0.70983,0.70410,-0.01980,-0.70437,0.70943,-0.02377,-0.00269,0.03081,0.99952,5.50247,5.50164
4.350209,-0.79741,-0.50847,9.42294,,-0.52024,0.49798,-0.01106,-0.01463,-0.08947,0.34031,5091,-5218,0.71607,0.69781,-0.01732,-0.69802,0.71568,-0.02392,-0.00430,0.02922,0.99956,5.50247,5.51055
4.363073,-0.79202,-0.32841,9.42473,,-0.52024,0.49798,-0.01106,0.06412,0.00678,0.21781,5091,-5218,0.71918,0.69464,-0.01607,-0.69481,0.71879,-0.02402,-0.00513,0.02844,0.99958,5.50247,5.51502
4.376210,-0.79831,-0.49442,9.38944,,-0.50344,0.49406,-0.01498,0.01599,-0.13759,0.08218,5091,-5218,0.71637,0.69749,-0.01818,-0.69772,0.71597,-0.02396,-0.00370,0.02984,0.99955,5.50247,5.51098
4.399229,-0.80399,-0.47079,9.35474,,-0.49728,0.49462,-0.01750,-0.13713,0.04178,0.12156,5091,-5218,0.71258,0.70128,-0.02108,-0.70159,0.71218,-0.02385,-0.00171,0.03178,0.99949,5.50247,5.50555
4.411916,-0.79561,-0.61137,9.40977,,-0.49728,0.49462,-0.01750,-0.13713,-0.25572,0.08656,5091,-5218,0.71068,0.70316,-0.02253,-0.70352,0.71028,-0.02379,-0.00072,0.03276,0.99946,5.50247,5.50285
4.424836,-0.79980,-0.55035,9.38704,,-0.49812,0.49210,-0.00616,-0.01463,-0.09384,0.12593,5091,-5218,0.71102,0.70300,-0.01561,-0.70315,0.71064,-0.02379,-0.00563,0.02790,0.99959,5.50247,5.50335
4.447956,-0.77827,-0.47737,9.37269,,-0.49896,0.49210,-0.02128,-0.08463,-0.01072,0.18281,5091,-5218,0.71134,0.70249,-0.02231,-0.70284,0.71094,-0.02381,-0.00086,0.03261,0.99947,5.50247,5.50380
4.460611,-0.81535,-0.49232,9.41576,,-0.50456,0.48790,-0.02128,-0.06713,-0.15072,0.08656,5091,-5218,0.71495,0.69870,-0.02575,-0.69917,0.71455,-0.02396,0.00166,0.03513,0.99938,5.50247,5.50895
4.473432,-0.80818,-0.47737,9.41456,,-0.50456,0.48790,-0.01386,-0.21588,-0.25572,0.22656,5091,-5218,0.71683,0.69688,-0.02252,-0.69724,0.71643,-0.02405,-0.00063,0.03294,0.99946,5.50247,5.51164
4.486253,-0.80160,-0.54018,9.40469,,-0.49980,0.48594,-0.01386,-0.10213,-0.19884,0.15656,5091,-5218,0.71681,0.69695,-0.02088,-0.69726,0.71641,-0.02408,-0.00182,0.03181,0.99949,5.50247,5.51161
4.509262,-0.78365,-0.49711,9.38465,,-0.49868,0.49770,-0.01960,0.07287,-0.08072,0.03406,5091,-5218,0.71219,0.70158,-0.02382,-0.70199,0.71179,-0.02391,0.00018,0.03375,0.99943,5.50247,5.50500
4.521917,-0.81894,-0.47617,9.41755,,-0.49868,0.49770,-0.01960,-0.20713,-0.18572,-0.02719,5091,-5218,0.70987,0.70388,-0.02537,-0.70433,0.70947,-0.02386,0.00120,0.03480,0.99939,5.50247,5.50170
4.534692,-0.78425,-0.47677,9.46900,,-0.49504,0.49406,-0.02170,0.14287,-0.07197,0.14781,5091,-5218,0.70866,0.70501,-0.02769,-0.70554,0.70827,-0.02380,0.00283,0.03640,0.99933,5.50247,5.49999
4.547593,-0.79771,-0.48604,9.42264,,-0.49798,0.49448,-0.02233,0.05974,-0.07197,0.20031,5091,-5218,0.70892,0.70468,-0.02926,-0.70527,0.70854,-0.02382,0.00395,0.03752,0.99929,5.50247,5.50037
4.570672,-0.78425,-0.47079,9.38704,,-0.50092,0.49490,-0.02296,-0.23338,-0.01947,0.06906,5091,-5218,0.70996,0.70359,-0.03049,-0.70423,0.70957,-0.02388,0.00483,0.03843,0.99925,5.50247,5.50184
4.583327,-0.79741,-0.46241,9.42892,,-0.50120,0.48902,-0.01946,-0.18963,-0.20322,0.09531,5091,-5218,0.71272,0.70086,-0.02882,-0.70144,0.71232,-0.02403,0.00369,0.03734,0.99930,5.50247,5.50576
4.596230,-0.79860,-0.46840,9.43131,,-0.50302,0.48804,-0.01064,-0.07588,-0.00197,0.08218,5091,-5218,0.71518,0.69859,-0.02196,-0.69894,0.71478,-0.02411,-0.00115,0.03260,0.99947,5.50247,5.50927
4.619225,-0.78724,-0.48574,9.40319,,-0.50484,0.48706,-0.00182,0.04662,-0.14197,-0.04469,5091,-5218,0.71746,0.69649,-0.01237,-0.69655,0.71710,-0.02415,-0.00795,0.02595,0.99963,5.50247,5.51258
4.631872,-0.80518,-0.48754,9.38405,,-0.50260,0.48874,-0.00812,0.12537,-0.10697,0.11281,5091,-5218,0.71716,0.69681,-0.01165,-0.69686,0.71680,-0.02414,-0.00847,0.02544,0.99964,5.50247,5.51214
4.644849,-0.78066,-0.45165,9.42832,,-0.50260,0.48874,-0.00812,-0.04088,-0.07197,0.14781,5091,-5218,0.71700,0.69698,-0.01131,-0.69702,0.71665,-0.02415,-0.00873,0.02520,0.99964,5.50247,5.51192
4.657636,-0.79502,-0.47109,9.40260,,-0.49728,0.49462,-0.01050,0.01599,-0.04134,0.08656,5091,-5218,0.71296,0.70109,-0.01273,-0.70116,0.71260,-0.02408,-0.00781,0.02609,0.99963,5.50247,5.50613
4.680670,-0.79143,-0.45942,9.35055,,-0.50204,0.48958,-0.01400,-0.15463,0.00678,0.10406,5091,-5218,0.71437,0.69959,-0.01587,-0.69974,0.71399,-0.02412,-0.00555,0.02833,0.99958,5.50247,5.50813
4.693366,-0.78544,-0.46361,9.40918,,-0.50204,0.48958,-0.01400,-0.17213,0.08553,0.10406,5091,-5218,0.71507,0.69883,-0.01751,-0.69904,0.71468,-0.02414,-0.00436,0.02950,0.99956,5.50247,5.50913
4.706297,-0.78544,-0.49771,9.38046,,-0.50372,0.49126,-0.01624,0.09037,-0.01072,0.29656,5091,-5218,0.71537,0.69846,-0.01981,-0.69874,0.71497,-0.02413,-0.00269,0.03111,0.99951,5.50247,5.50955
4.719226,-0.80189,-0.48275,9.37029,,-0.50372,0.49126,-0.01225,0.01162,-0.02822,-0.01844,5091,-5218,0.71559,0.69828,-0.01831,-0.69851,0.71519,-0.02414,-0.00376,0.03007,0.99954,5.50247,5.50986
4.742308,-0.79322,-0.47198,9.46182,,-0.49924,0.49490,-0.00826,-0.01463,0.12053,-0.07969,5091,-5218,0.71288,0.70113,-0.01487,-0.70126,0.71250,-0.02407,-0.00628,0.02758,0.99960,5.50247,5.50600
4.754990,-0.77886,-0.48574,9.43251,,-0.49924,0.49490,-0.02394,-0.00588,0.04178,0.06031,5091,-5218,0.71136,0.70243,-0.02368,-0.70283,0.71095,-0.02400,-0.00003,0.03372,0.99943,5.50247,5.50381
4.767957,-0.71844,-0.48634,9.40738,,-0.50232,0.48762,-0.02394,-0.11088,0.02866,0.08218,5091,-5218,0.71424,0.69933,-0.02835,-0.69989,0.71384,-0.02411,0.00338,0.03706,0.99931,5.50247,5.50793
4.791089,-0.80877,-0.48574,9.47558,,-0.50176,0.48986,-0.01890,-0.11088,-0.04572,-0.07969,5091,-5218,0.71477,0.69883,-0.02731,-0.69936,0.71436,-0.02414,0.00264,0.03636,0.99934,5.50247,5.50868
4.803743,-0.81117,-0.59282,9.41097,,-0.50176,0.48986,-0.01890,0.12537,-0.11572,0.16531,5091,-5218,0.71501,0.69860,-0.02672,-0.69911,0.71461,-0.02412,0.00224,0.03593,0.99935,5.50247,5.50903
4.817051,-0.80339,-0.47856,9.43669,,-0.50680,0.49518,-0.00770,0.04662,-0.11572,0.27906,5091,-5218,0.71512,0.69875,-0.01880,-0.69900,0.71472,-0.02413,-0.00343,0.03039,0.99953,5.50247,5.50918
4.829961,-0.79801,-0.45942,9.40589,,-0.50554,0.49168,-0.00959,-0.01463,-0.08072,0.02968,5091,-5218,0.71596,0.69796,-0.01597,-0.69813,0.71557,-0.02417,-0.00544,0.02845,0.99958,5.50247,5.51040
4.853137,-0.82433,-0.46899,9.39482,,-0.50428,0.48818,-0.01148,0.09912,-0.01072,-0.06219,5091,-5218,0.71718,0.69671,-0.01581,-0.69687,0.71679,-0.02419,-0.00552,0.02837,0.99958,5.50247,5.51214
4.865780,-0.81416,-0.50010,9.39303,,-0.50232,0.48874,-0.01624,0.02912,-0.08947,0.06906,5091,-5218,0.71685,0.69697,-0.01896,-0.69722,0.71645,-0.02418,-0.00327,0.03056,0.99953,5.50247,5.51167
4.878601,-0.80160,-0.61137,9.44447,,-0.50232,0.48874,-0.01624,0.09037,-0.12447,0.07781,5091,-5218,0.71669,0.69709,-0.02058,-0.69739,0.71629,-0.02415,-0.00209,0.03166,0.99950,5.50247,5.51144
4.891523,-0.81147,-0.47169,9.42473,,-0.50092,0.48930,-0.00980,-0.05838,-0.02384,0.12156,5091,-5218,0.71597,0.69792,-0.01710,-0.69811,0.71558,-0.02414,-0.00461,0.02922,0.99956,5.50247,5.51042
4.914559,-0.81296,-0.46361,9.41157,,-0.50204,0.48594,-0.01512,-0.03213,-0.01072,0.05156,5091,-5218,0.71717,0.69664,-0.01892,-0.69689,0.71677,-0.02418,-0.00328,0.03053,0.99953,5.50247,5.51212
4.927206,-0.80100,-0.44806,9.41516,,-0.50204,0.48594,-0.01512,-0.07588,0.13803,-0.05344,5091,-5218,0.71777,0.69600,-0.01990,-0.69627,0.71737,-0.02419,-0.00257,0.03122,0.99951,5.50247,5.51299
4.940181,-0.79980,-0.47527,9.36431,,-0.49896,0.49490,-0.00448,0.22162,0.08553,0.04718,5091,-5218,0.71389,0.70013,-0.01310,-0.70021,0.71353,-0.02408,-0.00751,0.02636,0.99962,5.50247,5.50746
4.963292,-0.83091,-0.46720,9.40858,,-0.49896,0.48482,-0.01470,0.11662,-0.08072,0.18281,5091,-5218,0.71546,0.69846,-0.01658,-0.69864,0.71507,-0.02412,-0.00499,0.02884,0.99957,5.50247,5.50968
4.975958,-0.79860,-0.48455,9.40798,,-0.49896,0.48482,-0.01470,0.07287,-0.08947,-0.15844,5091,-5218,0.71626,0.69759,-0.01839,-0.69782,0.71586,-0.02414,-0.00367,0.03012,0.99954,5.50247,5.51082
4.989022,-0.81416,-0.48634,9.44148,,-0.50792,0.48930,-0.00882,0.07287,0.00678,0.02531,5091,-5218,0.71820,0.69567,-0.01524,-0.69582,0.71781,-0.02417,-0.00588,0.02796,0.99959,5.50247,5.51361
5.001844,-0.80758,-0.48455,9.43251,,-0.50792,0.48930,-0.00462,-0.15463,0.01991,0.10843,5091,-5218,0.71917,0.69475,-0.01079,-0.69477,0.71882,-0.02420,-0.00906,0.02490,0.99965,5.50247,5.51504
5.024855,-0.81236,-0.48215,9.41576,,-0.49896,0.48818,-0.00042,-0.29463,-0.32572,0.17406,5091,-5218,0.71698,0.69707,-0.00562,-0.69698,0.71668,-0.02423,-0.01286,0.02128,0.99969,5.50247,5.51193
5.037493,-0.81954,-0.46780,9.44028,,-0.49896,0.49042,-0.00420,0.06412,-0.14197,0.20906,5091,-5218,0.71506,0.69904,-0.00548,-0.69894,0.71477,-0.02422,-0.01301,0.02115,0.99969,5.50247,5.50918
5.050344,-0.80459,-0.48873,9.40678,,-0.49644,0.49042,-0.00420,-0.21588,0.07678,0.06031,5091,-5218,0.71322,0.70092,-0.00546,-0.70082,0.71293,-0.02421,-0.01308,0.02109,0.99969,5.50247,5.50656
5.063298,-0.80429,-0.39960,9.37747,,-0.49770,0.49028,-0.00952,0.17349,-0.07634,0.03406,5091,-5218,0.71277,0.70134,-0.00903,-0.70132,0.71244,-0.02421,-0.01055,0.02359,0.99967,5.50247,5.50589
5.086293,-0.79442,-0.46720,9.59821,,-0.49896,0.49014,-0.00952,0.06412,-0.15072,0.11281,5091,-5218,0.71303,0.70104,-0.01089,-0.70107,0.71268,-0.02422,-0.00922,0.02490,0.99965,5.50247,5.50625
5.099001,-0.62333,-0.51984,9.54736,,-0.50120,0.49042,-0.00238,0.02912,0.15553,0.14781,5091,-5218,0.71388,0.70023,-0.00705,-0.70016,0.71357,-0.02416,-0.01189,0.02218,0.99968,5.50247,5.50749
5.111791,-0.79113,-0.46720,9.37299,,-0.49966,0.48958,-0.00651,0.10349,0.14678,0.16531,5091,-5218,0.71404,0.70006,-0.00783,-0.70002,0.71372,-0.02413,-0.01130,0.02271,0.99968,5.50247,5.50770
5.134799,-0.81296,-0.48215,9.37448,,-0.49812,0.48874,-0.01064,0.01162,0.28678,-0.04469,5091,-5218,0.71388,0.70018,-0.01107,-0.70021,0.71353,-0.02410,-0.00898,0.02496,0.99965,5.50247,5.50745
5.147443,-0.65862,-0.47677,9.36252,,-0.50036,0.49378,-0.00728,-0.10213,-0.02822,0.10406,5091,-5218,0.71280,0.70129,-0.01045,-0.70131,0.71245,-0.02406,-0.00943,0.02448,0.99966,5.50247,5.50591
5.160341,-0.65384,-0.47498,9.39542,,-0.50036,0.49378,-0.00728,0.04662,0.12928,0.06031,5091,-5218,0.71226,0.70185,-0.01013,-0.70185,0.71192,-0.02401,-0.00964,0.02421,0.99966,5.50247,5.50514
5.173135,-0.73490,-0.47109,9.42652,,-0.49672,0.49574,-0.01638,0.04662,0.01116,0.01218,5091,-5218,0.70995,0.70407,-0.01612,-0.70423,0.70957,-0.02393,-0.00541,0.02834,0.99958,5.50247,5.50183
5.196069,-0.78784,-0.48814,9.37448,,-0.50148,0.49322,-0.01008,0.09037,-0.14197,0.06906,5091,-5218,0.71141,0.70262,-0.01491,-0.70275,0.71103,-0.02396,-0.00623,0.02753,0.99960,5.50247,5.50391
5.208894,-0.78544,-0.48873,9.39841,,-0.50148,0.49322,-0.01008,0.15162,-0.11572,-0.00094,5091,-5218,0.71214,0.70189,-0.01429,-0.70200,0.71177,-0.02397,-0.00666,0.02710,0.99961,5.50247,5.50496
5.221770,-0.79561,-0.48215,9.39961,,-0.50064,0.49210,-0.02128,0.02037,-0.14197,0.04281,5091,-5218,0.71251,0.70133,-0.02157,-0.70166,0.71211,-0.02399,-0.00146,0.03223,0.99948,5.50247,5.50546
5.234623,-0.79352,-0.47886,9.42533,,-0.50218,0.49196,-0.02268,-0.02776,-0.04572,0.17843,5091,-5218,0.71322,0.70044,-0.02630,-0.70093,0.71282,-0.02402,0.00192,0.03557,0.99937,5.50247,5.50648
5.257779,-0.82134,-0.49890,9.43131,,-0.50372,0.49182,-0.02408,-0.02338,-0.06322,0.01656,5091,-5218,0.71417,0.69935,-0.02968,-0.69996,0.71377,-0.02407,0.00435,0.03796,0.99927,5.50247,5.50783
5.270449,-0.80818,-0.49173,9.41516,,-0.50876,0.49882,-0.01862,-0.10213,-0.33447,0.12156,5091,-5218,0.71398,0.69962,-0.02759,-0.70016,0.71358,-0.02409,0.00283,0.03652,0.99933,5.50247,5.50756
5.283281,-0.80489,-0.40050,9.41546,,-0.50876,0.49882,-0.01841,0.09912,-0.12009,0.07781,5091,-5218,0.71388,0.69977,-0.02637,-0.70026,0.71348,-0.02411,0.00194,0.03568,0.99936,5.50247,5.50742
5.306222,-0.79681,-0.47557,9.34995,,-0.50456,0.49098,-0.01820,0.05537,-0.06322,0.24406,5091,-5218,0.71515,0.69850,-0.02574,-0.69897,0.71474,-0.02415,0.00153,0.03527,0.99938,5.50247,5.50923
5.318949,-0.80339,-0.46181,9.47498,,-0.50456,0.48986,-0.01554,-0.25963,-0.12447,0.07781,5091,-5218,0.71622,0.69747,-0.02366,-0.69787,0.71581,-0.02422,0.00004,0.03386,0.99943,5.50247,5.51076
5.331867,-0.80997,-0.47258,9.36551,,-0.50708,0.48986,-0.01554,-0.08463,0.10303,0.15656,5091,-5218,0.71762,0.69607,-0.02254,-0.69643,0.71721,-0.02426,-0.00073,0.03311,0.99945,5.50247,5.51277
5.344812,-0.79531,-0.47737,9.42892,,-0.50820,0.49168,-0.02380,0.26974,0.04616,0.05593,5091,-5218,0.71796,0.69555,-0.02745,-0.69608,0.71755,-0.02423,0.00284,0.03650,0.99933,5.50247,5.51326
5.368048,-0.77827,-0.47378,9.42772,,-0.50932,0.49350,-0.02380,0.02912,-0.01072,-0.07969,5091,-5218,0.71787,0.69553,-0.02999,-0.69616,0.71748,-0.02422,0.00467,0.03826,0.99926,5.50247,5.51315
5.380771,-0.80219,-0.49472,9.38286,,-0.50120,0.49602,-0.01134,-0.01463,-0.22947,0.06031,5091,-5218,0.71430,0.69946,-0.02297,-0.69984,0.71389,-0.02411,-0.00046,0.03330,0.99945,5.50247,5.50801
5.393532,-0.65324,-0.49292,9.38525,,-0.50120,0.49602,-0.01134,0.02037,0.15553,0.20031,5091,-5218,0.71248,0.70143,-0.01938,-0.70169,0.71208,-0.02401,-0.00304,0.03071,0.99952,5.50247,5.50542
5.406368,-0.81326,-0.46750,9.39871,,-0.49700,0.48846,-0.02044,0.04662,-0.01509,0.06468,5091,-5218,0.71269,0.70108,-0.02376,-0.70148,0.71229,-0.02402,0.00009,0.03379,0.99943,5.50247,5.50571
5.429623,-0.80937,-0.46899,9.39841,,-0.49896,0.48622,-0.01568,0.11662,-0.21197,0.12156,5091,-5218,0.71434,0.69942,-0.02278,-0.69980,0.71394,-0.02408,-0.00058,0.03314,0.99945,5.50247,5.50807
5.442314,-0.80518,-0.46301,9.40559,,-0.49896,0.48622,-0.01568,0.02037,0.12928,-0.00094,5091,-5218,0.71518,0.69859,-0.02230,-0.69894,0.71477,-0.02410,-0.00089,0.03282,0.99946,5.50247,5.50927
5.455367,-0.79920,-0.48873,9.42413,,-0.50400,0.49406,-0.02436,-0.09338,0.08553,0.02531,5091,-5218,0.71445,0.69914,-0.02777,-0.69968,0.71405,-0.02407,0.00301,0.03662,0.99932,5.50247,5.50823
5.468399,-0.78455,-0.48185,9.36820,,-0.50316,0.49280,-0.02135,-0.01901,-0.04572,0.09093,5091,-5218,0.71426,0.69930,-0.02861,-0.69987,0.71386,-0.02406,0.00360,0.03721,0.99930,5.50247,5.50796
5.491356,-0.78425,-0.33021,9.43310,,-0.50232,0.49154,-0.01834,0.29162,0.19053,0.22656,5091,-5218,0.71436,0.69926,-0.02707,-0.69978,0.71396,-0.02405,0.00250,0.03612,0.99934,5.50247,5.50810
5.504274,-0.80638,-0.34337,9.46660,,-0.50792,0.48510,-0.01386,0.07287,-0.01947,0.00781,5091,-5218,0.71871,0.69492,-0.02323,-0.69531,0.71830,-0.02422,-0.00015,0.03356,0.99944,5.50247,5.51433
5.517314,-0.82373,-0.47169,9.42892,,-0.50484,0.48846,-0.00980,0.10787,0.03303,-0.00094,5091,-5218,0.71866,0.69512,-0.01844,-0.69535,0.71826,-0.02421,-0.00358,0.03022,0.99954,5.50247,5.51427
5.540290,-0.81595,-0.46899,9.37328,,-0.50176,0.49182,-0.00574,-0.05838,-0.09822,0.00781,5091,-5218,0.71640,0.69756,-0.01321,-0.69765,0.71603,-0.02418,-0.00741,0.02654,0.99962,5.50247,5.51105
5.553096,-0.78544,-0.46780,9.41396,,-0.50764,0.48538,-0.00266,-0.08463,-0.08072,0.04281,5091,-5218,0.71960,0.69434,-0.00840,-0.69431,0.71927,-0.02423,-0.01078,0.02326,0.99967,5.50247,5.51567
5.565861,-0.83450,-0.47019,9.39362,,-0.50764,0.48538,-0.00266,-0.04088,-0.01947,-0.00094,5091,-5218,0.72119,0.69272,-0.00588,-0.69263,0.72089,-0.02425,-0.01256,0.02156,0.99969,5.50247,5.51798
5.578673,-0.79531,-0.41785,9.40738,,-0.50036,0.49182,-0.01624,-0.09776,-0.01947,-0.07532,5091,-5218,0.71713,0.69681,-0.01383,-0.69691,0.71675,-0.02419,-0.00694,0.02698,0.99961,5.50247,5.51208
5.601629,-0.80877,-0.48873,9.37628,,-0.50036,0.49238,-0.02072,0.14287,0.11178,0.13906,5091,-5218,0.71481,0.69901,-0.02096,-0.69932,0.71440,-0.02409,-0.00187,0.03188,0.99949,5.50247,5.50874
5.614511,-0.78724,-0.48514,9.39841,,-0.49812,0.49238,-0.02072,-0.04963,-0.11572,0.18281,5091,-5218,0.71284,0.70089,-0.02471,-0.70133,0.71243,-0.02403,0.00076,0.03446,0.99941,5.50247,5.50593
5.627320,-0.79023,-0.31765,9.36611,,-0.50400,0.49294,-0.01078,-0.11963,-0.01947,0.03406,5091,-5218,0.71384,0.70003,-0.01991,-0.70031,0.71344,-0.02410,-0.00267,0.03115,0.99951,5.50247,5.50735
5.640263,-0.73609,-0.40469,9.36760,,-0.50400,0.49294,-0.01078,-0.16338,-0.08947,0.10843,5091,-5218,0.71432,0.69961,-0.01740,-0.69981,0.71392,-0.02415,-0.00447,0.02943,0.99956,5.50247,5.50805
5.663486,-0.79382,-0.47318,9.37568,,-0.50708,0.49238,-0.01344,-0.11963,-0.05447,-0.03594,5091,-5218,0.71581,0.69807,-0.01783,-0.69828,0.71541,-0.02420,-0.00413,0.02977,0.99955,5.50247,5.51018
5.676190,-0.80877,-0.46540,9.42832,,-0.50708,0.49238,0.00014,-0.06713,0.14678,0.05156,5091,-5218,0.71665,0.69738,-0.00893,-0.69736,0.71631,-0.02420,-0.01048,0.02357,0.99967,5.50247,5.51143
5.689286,-0.78395,-0.48514,9.40379,,-0.49896,0.49042,0.00014,-0.19401,0.05928,-0.02282,5091,-5218,0.71493,0.69919,-0.00431,-0.69906,0.71465,-0.02420,-0.01384,0.02031,0.99970,5.50247,5.50901
5.712359,-0.80818,-0.47498,9.43669,,-0.49756,0.48902,-0.00588,-0.13713,0.02428,0.16531,5091,-5218,0.71404,0.70008,-0.00598,-0.69999,0.71374,-0.02420,-0.01267,0.02147,0.99969,5.50247,5.50772
5.725074,-0.82552,-0.49053,9.40619,,-0.49756,0.48902,-0.00588,-0.04963,-0.11572,0.08656,5091,-5218,0.71359,0.70053,-0.00683,-0.70045,0.71329,-0.02421,-0.01208,0.02206,0.99968,5.50247,5.50708
5.737966,-0.81476,-0.47737,9.35474,,-0.50624,0.48874,-0.02296,-0.01463,0.04178,0.31406,5091,-5218,0.71636,0.69748,-0.01880,-0.69772,0.71596,-0.02428,-0.00348,0.03051,0.99953,5.50247,5.51097
5.750949,-0.79801,-0.46271,9.39961,,-0.50554,0.49000,-0.02282,0.00724,0.08991,0.06468,5091,-5218,0.71703,0.69660,-0.02495,-0.69704,0.71662,-0.02429,0.00096,0.03480,0.99939,5.50247,5.51192
5.774121,-0.80459,-0.45583,9.42952,,-0.50484,0.49126,-0.02268,-0.15463,-0.09822,0.16531,5091,-5218,0.71666,0.69686,-0.02804,-0.69741,0.71626,-0.02429,0.00316,0.03697,0.99931,5.50247,5.51140
5.786778,-0.80758,-0.46840,9.44627,,-0.50008,0.48454,-0.02422,0.08162,-0.04572,0.22656,5091,-5218,0.71719,0.69619,-0.03086,-0.69686,0.71680,-0.02431,0.00520,0.03895,0.99923,5.50247,5.51217
5.799654,-0.80219,-0.49831,9.40260,,-0.50008,0.48454,-0.02422,-0.03213,-0.22072,0.11281,5091,-5218,0.71746,0.69584,-0.03232,-0.69657,0.71708,-0.02434,0.00624,0.03998,0.99918,5.50247,5.51256
5.812661,-0.73878,-0.47827,9.40888,,-0.50400,0.49182,-0.02058,-0.08026,0.01553,0.06468,5091,-5218,0.71642,0.69700,-0.03049,-0.69765,0.71603,-0.02429,0.00490,0.03867,0.99924,5.50247,5.51106
5.835936,-0.79502,-0.47677,9.40678,,-0.50876,0.49574,-0.01554,-0.08463,-0.07197,0.25281,5091,-5218,0.71622,0.69739,-0.02601,-0.69787,0.71581,-0.02428,0.00168,0.03554,0.99937,5.50247,5.51076
5.848634,-0.79801,-0.48634,9.42353,,-0.50876,0.49574,-0.01554,-0.11088,0.12928,0.07781,5091,-5218,0.71613,0.69757,-0.02369,-0.69797,0.71571,-0.02427,0.00003,0.03392,0.99942,5.50247,5.51062
5.861412,-0.81117,-0.46181,9.36670,,-0.50400,0.48986,-0.01106,-0.00588,0.00678,0.07781,5091,-5218,0.71656,0.69725,-0.01955,-0.69751,0.71616,-0.02429,-0.00293,0.03104,0.99951,5.50247,5.51126
5.874443,-0.81924,-0.47557,9.39183,,-0.50260,0.49224,-0.01155,-0.14588,-0.08509,0.13906,5091,-5218,0.71543,0.69846,-0.01772,-0.69867,0.71503,-0.02429,-0.00430,0.02976,0.99955,5.50247,5.50964
5.897602,-0.77767,-0.48574,9.42174,,-0.50120,0.49462,-0.01204,0.09037,0.04178,0.01656,5091,-5218,0.71355,0.70040,-0.01709,-0.70059,0.71315,-0.02422,-0.00478,0.02926,0.99956,5.50247,5.50695
5.910315,-0.79980,-0.47498,9.43251,,-0.50176,0.48958,-0.02142,0.12537,0.01553,0.07781,5091,-5218,0.71449,0.69927,-0.02315,-0.69965,0.71408,-0.02424,-0.00042,0.03352,0.99944,5.50247,5.50828
5.923191,-0.80788,-0.53390,9.43041,,-0.50176,0.49140,-0.01806,0.04662,0.04178,0.08218,5091,-5218,0.71434,0.69939,-0.02400,-0.69980,0.71393,-0.02421,0.00020,0.03409,0.99942,5.50247,5.50806
5.946586,-0.82134,-0.47617,9.43969,,-0.50036,0.49322,-0.01470,0.05537,0.05928,0.04281,5091,-5218,0.71317,0.70064,-0.02218,-0.70099,0.71276,-0.02417,-0.00113,0.03278,0.99946,5.50247,5.50640
5.959358,-0.79980,-0.47916,9.42174,,-0.50036,0.49462,-0.01778,-0.09338,-0.11572,0.01656,5091,-5218,0.71206,0.70173,-0.02330,-0.70212,0.71165,-0.02415,-0.00037,0.03355,0.99944,5.50247,5.50482
5.972168,-0.65085,-0.61077,9.42772,,-0.49420,0.49462,-0.01778,-0.20713,-0.17697,0.07781,5091,-5218,0.70932,0.70448,-0.02396,-0.70489,0.70891,-0.02402,0.00007,0.03393,0.99942,5.50247,5.50092
5.985032,-0.80160,-0.48694,9.38794,,-0.49252,0.49336,-0.01232,-0.02776,0.04616,0.06906,5091,-5218,0.70785,0.70606,-0.02062,-0.70636,0.70745,-0.02397,-0.00234,0.03153,0.99950,5.50247,5.49884
6.008271,-0.78604,-0.47976,9.40738,,-0.49084,0.49210,-0.01232,-0.03213,0.10303,0.11281,5091,-5218,0.70696,0.70700,-0.01891,-0.70724,0.70656,-0.02394,-0.00356,0.03030,0.99953,5.50247,5.49759
6.020972,-0.80459,-0.46181,9.43550,,-0.50372,0.49210,-0.01008,0.09912,0.10303,0.10406,5091,-5218,0.71110,0.70290,-0.01638,-0.70307,0.71072,-0.02402,-0.00525,0.02860,0.99958,5.50247,5.50347
6.033862,-0.79262,-0.47557,9.40260,,-0.50372,0.49210,-0.01008,-0.03213,-0.01072,-0.00094,5091,-5218,0.71317,0.70083,-0.01506,-0.70096,0.71279,-0.02407,-0.00613,0.02772,0.99960,5.50247,5.50642
6.046895,-0.79591,-0.47198,9.42054,,-0.49700,0.49518,-0.01288,0.20412,-0.05447,0.08656,5091,-5218,0.71072,0.70329,-0.01627,-0.70346,0.71033,-0.02399,-0.00531,0.02850,0.99958,5.50247,5.50292
6.070038,-0.79681,-0.48275,9.42952,,-0.50148,0.48986,-0.00966,-0.14588,-0.12447,0.05156,5091,-5218,0.71300,0.70101,-0.01475,-0.70114,0.71262,-0.02406,-0.00635,0.02750,0.99960,5.50247,5.50617
6.082734,-0.77827,-0.48096,9.39961,,-0.50148,0.48986,-0.00966,0.05537,-0.05447,0.22656,5091,-5218,0.71412,0.69989,-0.01395,-0.69999,0.71375,-0.02407,-0.00689,0.02696,0.99961,5.50247,5.50778
6.095667,-0.78724,-0.48754,9.40439,,-0.49980,0.48510,-0.00588,-0.03213,-0.02822,0.10406,5091,-5218,0.71583,0.69819,-0.01100,-0.69822,0.71548,-0.02410,-0.00896,0.02493,0.99965,5.50247,5.51024
6.108545,-0.79950,-0.54048,9.40260,,-0.50148,0.48902,-0.00364,-0.04526,-0.05884,0.04718,5091,-5218,0.71588,0.69818,-0.00790,-0.69814,0.71556,-0.02410,-0.01117,0.02277,0.99968,5.50247,5.51033
6.131963,-0.65324,-0.46720,9.41695,,-0.50316,0.49294,-0.00140,0.12537,-0.16822,0.10406,5091,-5218,0.71509,0.69901,-0.00479,-0.69890,0.71481,-0.02406,-0.01340,0.02056,0.99970,5.50247,5.50924
6.144633,-0.79442,-0.48335,9.40439,,-0.50456,0.49686,-0.01820,0.03787,-0.00197,0.08656,5091,-5218,0.71372,0.70028,-0.01444,-0.70040,0.71334,-0.02403,-0.00652,0.02726,0.99961,5.50247,5.50720
6.157531,-0.80548,-0.48754,9.41097,,-0.50526,0.49378,-0.02233,-0.02338,0.15116,0.09531,5091,-5218,0.71429,0.69950,-0.02230,-0.69985,0.71388,-0.02402,-0.00088,0.03277,0.99946,5.50247,5.50799
6.180313,-0.78126,-0.48814,9.40080,,-0.50596,0.49070,-0.02646,-0.04088,0.02428,0.11281,5091,-5218,0.71583,0.69766,-0.02920,-0.69826,0.71544,-0.02408,0.00409,0.03763,0.99928,5.50247,5.51021
6.193198,-0.80937,-0.47438,9.39721,,-0.50456,0.49602,-0.01092,-0.00588,0.20803,-0.02719,5091,-5218,0.71445,0.69933,-0.02229,-0.69968,0.71405,-0.02402,-0.00088,0.03276,0.99946,5.50247,5.50823
6.206382,-0.82193,-0.46720,9.40439,,-0.50456,0.49602,-0.01092,-0.07588,-0.02822,0.01656,5091,-5218,0.71374,0.70016,-0.01868,-0.70040,0.71335,-0.02401,-0.00349,0.03022,0.99954,5.50247,5.50722
6.219380,-0.64576,-0.53330,9.41307,,-0.51380,0.49070,-0.01974,0.17787,0.03303,0.18281,5091,-5218,0.71832,0.69534,-0.02267,-0.69571,0.71791,-0.02409,-0.00048,0.03307,0.99945,5.50247,5.51377
6.242104,-0.79202,-0.46481,9.37568,,-0.50260,0.48902,-0.00154,0.20412,0.15553,0.11281,5091,-5218,0.71755,0.69639,-0.01257,-0.69646,0.71719,-0.02404,-0.00773,0.02601,0.99963,5.50247,5.51270
6.255014,-0.79920,-0.32243,9.39602,,-0.50260,0.48902,-0.00154,-0.06713,-0.01072,-0.09719,5091,-5218,0.71715,0.69688,-0.00735,-0.69682,0.71684,-0.02408,-0.01151,0.02239,0.99968,5.50247,5.51217
6.267858,-0.78305,-0.47976,9.46541,,-0.50120,0.49182,-0.01596,-0.18963,-0.09822,0.12156,5091,-5218,0.71537,0.69860,-0.01438,-0.69871,0.71500,-0.02405,-0.00652,0.02725,0.99961,5.50247,5.50957
6.280586,-0.79472,-0.47258,9.38794,,-0.50120,0.49182,-0.01806,-0.17651,0.01553,0.13031,5091,-5218,0.71444,0.69943,-0.01947,-0.69969,0.71404,-0.02404,-0.00291,0.03080,0.99952,5.50247,5.50821
6.303793,-0.79023,-0.47139,9.41636,,-0.49812,0.49462,-0.02016,-0.18088,0.00678,0.00781,5091,-5218,0.71188,0.70190,-0.02355,-0.70230,0.71148,-0.02397,-0.00007,0.03360,0.99944,5.50247,5.50456
6.316449,-0.79442,-0.46301,9.37269,,-0.49812,0.49462,-0.02016,-0.02338,0.10303,-0.01844,5091,-5218,0.71060,0.70313,-0.02566,-0.70360,0.71020,-0.02391,0.00141,0.03505,0.99938,5.50247,5.50274
6.329224,-0.78903,-0.47527,9.39751,,-0.50092,0.49518,-0.00196,0.09912,0.18616,0.14781,5091,-5218,0.71091,0.70314,-0.01443,-0.70325,0.71054,-0.02388,-0.00654,0.02712,0.99961,5.50247,5.50320
6.352169,-0.79023,-0.46959,9.38405,,-0.49420,0.49098,-0.00308,0.25662,-0.10697,0.13031,5091,-5218,0.71016,0.70398,-0.00931,-0.70397,0.70983,-0.02386,-0.01019,0.02350,0.99967,5.50247,5.50216
6.364829,-0.79561,-0.47916,9.43370,,-0.49420,0.49098,-0.00308,-0.03213,0.07678,0.07781,5091,-5218,0.70978,0.70440,-0.00668,-0.70432,0.70948,-0.02385,-0.01206,0.02164,0.99969,5.50247,5.50164
6.377532,-0.79741,-0.47378,9.40379,,-0.49644,0.48818,-0.00602,0.16037,-0.07197,0.00781,5091,-5218,0.71138,0.70277,-0.00729,-0.70271,0.71107,-0.02386,-0.01158,0.02210,0.99969,5.50247,5.50392
6.390326,-0.80788,-0.47946,9.41127,,-0.49980,0.49028,-0.00651,0.12099,0.08553,0.11281,5091,-5218,0.71259,0.70153,-0.00794,-0.70149,0.71228,-0.02385,-0.01108,0.02256,0.99968,5.50247,5.50564
6.413443,-0.78604,-0.48275,9.46541,,-0.50316,0.49238,-0.00700,0.03787,-0.24697,0.09531,5091,-5218,0.71363,0.70047,-0.00856,-0.70044,0.71331,-0.02387,-0.01062,0.02304,0.99968,5.50247,5.50711
6.426158,-0.79801,-0.50608,9.42234,,-0.50260,0.49266,-0.00224,-0.04088,-0.09822,0.04281,5091,-5218,0.71388,0.70025,-0.00568,-0.70016,0.71359,-0.02388,-0.01267,0.02102,0.99970,5.50247,5.50749
6.439101,-0.80668,-0.47198,9.40170,,-0.50162,0.49434,-0.00637,-0.09338,0.12053,0.20031,5091,-5218,0.71302,0.70111,-0.00701,-0.70105,0.71272,-0.02387,-0.01174,0.02193,0.99969,5.50247,5.50626
6.462286,-0.79561,-0.46660,9.45105,,-0.50064,0.49602,-0.01050,0.11662,0.05928,0.07781,5091,-5218,0.71166,0.70245,-0.01046,-0.70247,0.71132,-0.02383,-0.00930,0.02431,0.99966,5.50247,5.50428
6.474976,-0.78485,-0.32363,9.42054,,-0.49700,0.48958,-0.00686,0.02912,-0.10697,0.17406,5091,-5218,0.71200,0.70211,-0.00987,-0.70212,0.71166,-0.02388,-0.00974,0.02393,0.99967,5.50247,5.50477
6.487869,-0.79681,-0.48395,9.38286,,-0.49700,0.48958,-0.00686,0.10787,-0.00197,0.22656,5091,-5218,0.71216,0.70195,-0.00953,-0.70194,0.71183,-0.02387,-0.00997,0.02369,0.99967,5.50247,5.50501
6.500796,-0.80219,-0.46929,9.43550,,-0.49812,0.48958,-0.01456,0.09912,0.03303,0.04718,5091,-5218,0.71260,0.70142,-0.01460,-0.70154,0.71223,-0.02386,-0.00634,0.02724,0.99961,5.50247,5.50561
6.523916,-0.80040,-0.60957,9.35773,,-0.49868,0.49070,-0.01498,0.03787,0.05053,0.14781,5091,-5218,0.71260,0.70135,-0.01748,-0.70155,0.71222,-0.02382,-0.00426,0.02924,0.99956,5.50247,5.50560
6.536573,-0.79382,-0.60897,9.41037,,-0.49868,0.49070,-0.01498,-0.17213,-0.02822,-0.00094,5091,-5218,0.71261,0.70130,-0.01900,-0.70155,0.71222,-0.02381,-0.00317,0.03029,0.99954,5.50247,5.50561
6.549448,-0.81715,-0.61077,9.41576,,-0.49504,0.49518,-0.00476,0.23037,-0.02822,0.01656,5091,-5218,0.70982,0.70427,-0.01280,-0.70434,0.70946,-0.02372,-0.00762,0.02585,0.99964,5.50247,5.50166
6.562418,-0.79771,-0.48006,9.39033,,-0.49504,0.49518,-0.00476,0.00724,0.02866,0.16531,5091,-5218,0.70838,0.70576,-0.00963,-0.70576,0.70806,-0.02369,-0.00991,0.02358,0.99967,5.50247,5.49964
6.585255,-0.78724,-0.48455,9.39602,,-0.50092,0.49154,-0.00546,-0.00588,-0.11572,0.09531,5091,-5218,0.71106,0.70309,-0.00842,-0.70305,0.71074,-0.02373,-0.01070,0.02280,0.99968,5.50247,5.50345
6.597972,-0.80459,-0.46181,9.41875,,-0.50092,0.49154,-0.01946,-0.11088,-0.11572,0.13906,5091,-5218,0.71229,0.70167,-0.01730,-0.70187,0.71191,-0.02378,-0.00437,0.02908,0.99957,5.50247,5.50515
6.610788,-0.79651,-0.54885,9.36371,,-0.50372,0.49098,-0.01946,-0.04526,0.05491,0.12156,5091,-5218,0.71405,0.69975,-0.02189,-0.70009,0.71366,-0.02382,-0.00105,0.03233,0.99948,5.50247,5.50766
6.634012,-0.80219,-0.46181,9.45823,,-0.49924,0.49350,-0.01036,-0.05838,-0.25572,0.13906,5091,-5218,0.71258,0.70136,-0.01813,-0.70159,0.71219,-0.02381,-0.00378,0.02969,0.99955,5.50247,5.50556
6.646710,-0.80160,-0.47079,9.42054,,-0.49924,0.49350,-0.01036,0.05537,-0.13322,-0.04469,5091,-5218,0.71184,0.70215,-0.01617,-0.70232,0.71147,-0.02380,-0.00520,0.02830,0.99959,5.50247,5.50452
6.659717,-0.79143,-0.45583,9.38286,,-0.50176,0.48874,-0.00504,0.01162,-0.00197,0.01656,5091,-5218,0.71409,0.69996,-0.01157,-0.70000,0.71374,-0.02384,-0.00843,0.02512,0.99965,5.50247,5.50775
6.672715,-0.80219,-0.46989,9.41755,,-0.50064,0.48790,-0.00973,0.11662,-0.21634,0.10406,5091,-5218,0.71508,0.69894,-0.01232,-0.69900,0.71472,-0.02387,-0.00788,0.02568,0.99964,5.50247,5.50915
6.695748,-0.79920,-0.46959,9.42772,,-0.49952,0.48706,-0.01442,0.01162,-0.01072,0.08656,5091,-5218,0.71545,0.69848,-0.01597,-0.69865,0.71507,-0.02388,-0.00526,0.02824,0.99959,5.50247,5.50967
6.708475,-0.79322,-0.48215,9.40619,,-0.50960,0.48762,-0.02436,0.01162,0.02428,-0.01844,5091,-5218,0.71881,0.69478,-0.02447,-0.69521,0.71841,-0.02399,0.00091,0.03425,0.99941,5.50247,5.51448
6.721417,-0.80040,-0.48873,9.38286,,-0.50960,0.48762,-0.02436,0.14287,0.07678,0.20906,5091,-5218,0.72045,0.69291,-0.02889,-0.69350,0.72006,-0.02404,0.00414,0.03735,0.99929,5.50247,5.51684
6.734333,-0.78993,-0.52463,9.39602,,-0.50148,0.49826,-0.02058,-0.08026,0.02866,-0.04032,5091,-5218,0.71479,0.69875,-0.02863,-0.69932,0.71441,-0.02379,0.00383,0.03703,0.99931,5.50247,5.50873
6.757384,-0.76869,-0.46959,9.41336,,-0.49812,0.50078,-0.01358,0.06412,-0.03697,-0.00969,5091,-5218,0.70997,0.70383,-0.02379,-0.70423,0.70958,-0.02362,0.00026,0.03353,0.99944,5.50247,5.50184
6.770128,-0.78485,-0.49113,9.38764,,-0.49812,0.50078,-0.01358,-0.13713,-0.01072,0.07781,5091,-5218,0.70753,0.70636,-0.02127,-0.70668,0.70714,-0.02355,-0.00159,0.03170,0.99950,5.50247,5.49839
6.783132,-0.77886,-0.46840,9.39422,,-0.50232,0.49350,-0.02058,0.13412,-0.26447,-0.12344,5091,-5218,0.71031,0.70346,-0.02468,-0.70389,0.70991,-0.02366,0.00088,0.03418,0.99942,5.50247,5.50232
6.795924,-0.81326,-0.46451,9.41456,,-0.50120,0.49056,-0.01869,-0.04963,-0.00197,0.06031,5091,-5218,0.71235,0.70137,-0.02526,-0.70183,0.71195,-0.02375,0.00132,0.03464,0.99940,5.50247,5.50523
6.819030,-0.79561,-0.47438,9.40918,,-0.50008,0.48762,-0.01680,0.02037,-0.06322,0.03406,5091,-5218,0.71406,0.69967,-0.02431,-0.70009,0.71366,-0.02381,0.00069,0.03402,0.99942,5.50247,5.50766
6.831762,-0.79083,-0.43669,9.45524,,-0.50680,0.49042,-0.00952,0.02912,-0.04572,-0.07094,5091,-5218,0.71633,0.69751,-0.01881,-0.69776,0.71594,-0.02388,-0.00319,0.03023,0.99954,5.50247,5.51092
6.844674,-0.78784,-0.47677,9.39123,,-0.50680,0.49042,-0.00917,-0.08901,0.05928,0.03843,5091,-5218,0.71744,0.69644,-0.01572,-0.69660,0.71706,-0.02390,-0.00537,0.02810,0.99959,5.50247,5.51253
6.867622,-0.80459,-0.49232,9.37927,,-0.50148,0.48258,-0.00882,0.42287,0.15553,-0.04469,5091,-5218,0.71897,0.69490,-0.01391,-0.69501,0.71861,-0.02389,-0.00660,0.02684,0.99962,5.50247,5.51474
6.880601,-0.79382,-0.44387,9.40738,,-0.50148,0.49658,-0.01330,0.08162,-0.03697,-0.00094,5091,-5218,0.71472,0.69923,-0.01594,-0.69939,0.71435,-0.02379,-0.00525,0.02815,0.99959,5.50247,5.50863
6.893520,-0.80339,-0.48156,9.47677,,-0.50400,0.49658,-0.01330,0.04662,0.09428,-0.04469,5091,-5218,0.71347,0.70048,-0.01698,-0.70067,0.71309,-0.02375,-0.00453,0.02884,0.99957,5.50247,5.50683
6.906399,-0.77827,-0.48544,9.42353,,-0.50358,0.49210,0.00336,0.06412,-0.16384,0.10406,5091,-5218,0.71437,0.69974,-0.00626,-0.69967,0.71407,-0.02376,-0.01216,0.02135,0.99970,5.50247,5.50818
6.929295,-0.78544,-0.46421,9.36491,,-0.50316,0.48762,0.00336,-0.05838,-0.05447,0.05156,5091,-5218,0.71624,0.69785,-0.00069,-0.69767,0.71603,-0.02377,-0.01609,0.01751,0.99972,5.50247,5.51092
6.941957,-0.79860,-0.46361,9.42892,,-0.50764,0.49210,-0.00840,0.12537,0.02428,-0.00094,5091,-5218,0.71711,0.69694,-0.00573,-0.69685,0.71682,-0.02377,-0.01246,0.02103,0.99970,5.50247,5.51211
6.955014,-0.79681,-0.47677,9.36551,,-0.50764,0.49210,-0.00840,0.00287,0.11178,0.08656,5091,-5218,0.71753,0.69648,-0.00836,-0.69645,0.71721,-0.02376,-0.01055,0.02287,0.99968,5.50247,5.51269
6.967916,-0.79831,-0.46899,9.37628,,-0.49812,0.49574,-0.01386,-0.03213,-0.06322,0.15656,5091,-5218,0.71309,0.70094,-0.01346,-0.70103,0.71273,-0.02369,-0.00701,0.02633,0.99963,5.50247,5.50631
6.990937,-0.79621,-0.46540,9.39362,,-0.50792,0.49630,-0.01344,-0.18088,-0.06322,0.01656,5091,-5218,0.71410,0.69986,-0.01575,-0.70002,0.71373,-0.02373,-0.00537,0.02797,0.99959,5.50247,5.50775
7.003740,-0.78963,-0.47797,9.40200,,-0.50792,0.49630,-0.01344,-0.16338,0.10303,0.11281,5091,-5218,0.71460,0.69933,-0.01695,-0.69952,0.71422,-0.02374,-0.00450,0.02882,0.99957,5.50247,5.50845
7.016715,-0.80040,-0.38853,9.40230,,-0.50148,0.49406,-0.01848,-0.19401,-0.13322,0.18718,5091,-5218,0.71334,0.70050,-0.02107,-0.70082,0.71294,-0.02376,-0.00163,0.03171,0.99950,5.50247,5.50664
7.039875,-0.79741,-0.48036,9.44387,,-0.50064,0.49406,-0.00224,-0.07588,-0.11572,-0.02719,5091,-5218,0.71258,0.70148,-0.01220,-0.70154,0.71223,-0.02376,-0.00798,0.02549,0.99964,5.50247,5.50559
7.052574,-0.81177,-0.46720,9.38046,,-0.50064,0.49406,-0.00224,-0.16338,-0.01072,0.16531,5091,-5218,0.71217,0.70197,-0.00760,-0.70192,0.71186,-0.02378,-0.01128,0.02227,0.99969,5.50247,5.50503
7.065561,-0.64307,-0.48814,9.40200,,-0.50764,0.49070,-0.02744,-0.12838,0.05928,0.03406,5091,-5218,0.71540,0.69836,-0.02221,-0.69871,0.71501,-0.02384,-0.00077,0.03257,0.99947,5.50247,5.50959
7.078595,-0.77617,-0.49173,9.46720,,-0.50652,0.49070,-0.02338,0.10787,0.06366,-0.04032,5091,-5218,0.71664,0.69692,-0.02706,-0.69744,0.71625,-0.02386,0.00275,0.03597,0.99935,5.50247,5.51137
7.101456,-0.79202,-0.31765,9.45883,,-0.50540,0.49070,-0.01932,-0.02338,0.05928,0.18281,5091,-5218,0.71690,0.69665,-0.02691,-0.69717,0.71651,-0.02389,0.00263,0.03589,0.99935,5.50247,5.51174
7.114148,-0.79442,-0.46660,9.41935,,-0.50288,0.49714,-0.00462,-0.31213,-0.01072,0.01656,5091,-5218,0.71407,0.69988,-0.01687,-0.70006,0.71368,-0.02385,-0.00465,0.02884,0.99957,5.50247,5.50769
7.126858,-0.79202,-0.47498,9.41994,,-0.50288,0.49714,-0.00462,0.29162,-0.24697,0.03406,5091,-5218,0.71261,0.70146,-0.01158,-0.70151,0.71226,-0.02382,-0.00846,0.02509,0.99965,5.50247,5.50564
7.139910,-0.81535,-0.47557,9.42892,,-0.50484,0.49154,-0.00798,0.09037,-0.01072,0.02093,5091,-5218,0.71452,0.69953,-0.01112,-0.69956,0.71418,-0.02385,-0.00874,0.02482,0.99965,5.50247,5.50837
7.162978,-0.80160,-0.50489,9.42952,,-0.50484,0.49154,-0.00868,0.09912,-0.16822,-0.01844,5091,-5218,0.71547,0.69855,-0.01134,-0.69859,0.71513,-0.02386,-0.00855,0.02500,0.99965,5.50247,5.50973
7.175641,-0.78604,-0.48814,9.42952,,-0.50652,0.49154,-0.00868,0.10787,-0.01947,0.01656,5091,-5218,0.71653,0.69747,-0.01147,-0.69751,0.71618,-0.02386,-0.00843,0.02510,0.99965,5.50247,5.51123
7.188591,-0.78844,-0.45763,9.40260,,-0.50442,0.49196,-0.01694,0.17349,-0.02384,0.15218,5091,-5218,0.71610,0.69779,-0.01712,-0.69799,0.71571,-0.02383,-0.00438,0.02901,0.99957,5.50247,5.51059
7.211627,-0.79023,-0.46361,9.41875,,-0.50232,0.49238,-0.01694,-0.07588,-0.12447,0.00781,5091,-5218,0.71502,0.69882,-0.02010,-0.69910,0.71462,-0.02382,-0.00228,0.03108,0.99951,5.50247,5.50904
7.224307,-0.81715,-0.31286,9.35594,,-0.49644,0.49266,-0.00350,-0.08463,-0.14197,0.06031,5091,-5218,0.71243,0.70163,-0.01260,-0.70170,0.71207,-0.02383,-0.00775,0.02581,0.99964,5.50247,5.50537
7.237409,-0.78006,-0.46720,9.40260,,-0.49644,0.49266,-0.00350,-0.03213,0.14678,0.01656,5091,-5218,0.71111,0.70302,-0.00868,-0.70300,0.71079,-0.02380,-0.01056,0.02303,0.99968,5.50247,5.50353
7.250371,-0.79083,-0.47258,9.40439,,-0.49952,0.49378,-0.02912,-0.01026,-0.05884,-0.04032,5091,-5218,0.71094,0.70284,-0.02396,-0.70325,0.71055,-0.02380,0.00030,0.03377,0.99943,5.50247,5.50323
7.273415,-0.80040,-0.46361,9.43849,,-0.49728,0.49126,-0.02926,0.32662,0.04178,0.24406,5091,-5218,0.71088,0.70259,-0.03209,-0.70329,0.71050,-0.02377,0.00610,0.03947,0.99920,5.50247,5.50315
7.286118,-0.91765,-0.49771,9.44746,,-0.49728,0.49126,-0.02926,0.09912,-0.07197,0.05156,5091,-5218,0.71084,0.70242,-0.03631,-0.70330,0.71050,-0.02379,0.00908,0.04245,0.99906,5.50247,5.50312
7.299130,-0.78963,-0.44028,9.41695,,-0.50708,0.48818,-0.01120,0.16037,0.05053,-0.06219,5091,-5218,0.71563,0.69799,-0.02620,-0.69848,0.71523,-0.02396,0.00201,0.03545,0.99937,5.50247,5.50992
7.312057,-0.80100,-0.49173,9.39871,,-0.50540,0.48972,-0.01351,-0.14588,-0.18134,-0.07532,5091,-5218,0.71685,0.69687,-0.02249,-0.69723,0.71644,-0.02404,-0.00064,0.03291,0.99946,5.50247,5.51166
7.335009,-0.79143,-0.45763,9.38046,,-0.50372,0.49126,-0.01582,-0.04088,-0.08947,0.13031,5091,-5218,0.71628,0.69747,-0.02213,-0.69782,0.71587,-0.02403,-0.00092,0.03266,0.99947,5.50247,5.51084
7.347802,-0.80578,-0.61137,9.40977,,-0.49812,0.49042,-0.00588,0.24787,0.10303,-0.07969,5091,-5218,0.71445,0.69952,-0.01521,-0.69966,0.71407,-0.02394,-0.00588,0.02774,0.99960,5.50247,5.50824
7.360594,-0.79202,-0.45404,9.39243,,-0.49812,0.49042,-0.00588,-0.06713,-0.00197,0.09531,5091,-5218,0.71350,0.70056,-0.01166,-0.70060,0.71315,-0.02393,-0.00845,0.02524,0.99965,5.50247,5.50691
7.373799,-0.77587,-0.47976,9.39033,,-0.50372,0.49434,-0.01288,0.05537,-0.03259,0.05156,5091,-5218,0.71355,0.70046,-0.01447,-0.70058,0.71317,-0.02392,-0.00644,0.02720,0.99961,5.50247,5.50696
7.396867,-0.80459,-0.48933,9.44447,,-0.50372,0.48230,0.00182,-0.01463,-0.01072,0.00781,5091,-5218,0.71796,0.69606,-0.00600,-0.69597,0.71767,-0.02396,-0.01237,0.02137,0.99970,5.50247,5.51334
7.409606,-0.79920,-0.47438,9.38286,,-0.50372,0.48230,0.00182,-0.18963,0.26928,0.11281,5091,-5218,0.72013,0.69384,-0.00163,-0.69367,0.71989,-0.02395,-0.01545,0.01838,0.99971,5.50247,5.51650
7.422542,-0.80189,-0.48006,9.43490,,-0.50484,0.48006,-0.00742,-0.17651,-0.00197,-0.06657,5091,-5218,0.72239,0.69146,-0.00565,-0.69137,0.72210,-0.02398,-0.01250,0.02123,0.99970,5.50247,5.51972
7.445743,-0.62692,-0.48873,9.46002,,-0.50232,0.47586,-0.00868,0.16037,-0.09822,-0.00094,5091,-5218,0.72415,0.68958,-0.00865,-0.68956,0.72383,-0.02396,-0.01026,0.02331,0.99968,5.50247,5.52225
7.458441,-0.80399,-0.45464,9.34936,,-0.50232,0.47586,-0.00868,-0.04088,-0.15947,-0.02719,5091,-5218,0.72503,0.68864,-0.01018,-0.68865,0.72469,-0.02399,-0.00914,0.02440,0.99966,5.50247,5.52352
7.471267,-0.79143,-0.47557,9.44567,,-0.49616,0.49686,-0.01596,-0.19838,-0.24697,-0.07094,5091,-5218,0.71581,0.69811,-0.01585,-0.69827,0.71543,-0.02380,-0.00528,0.02811,0.99959,5.50247,5.51019
7.484048,-0.80189,-0.46032,9.43789,,-0.49616,0.49686,-0.01582,0.05099,0.05491,0.11281,5091,-5218,0.71112,0.70282,-0.01871,-0.70306,0.71074,-0.02366,-0.00334,0.02998,0.99954,5.50247,5.50349
7.506872,-0.80818,-0.47079,9.37807,,-0.50064,0.49126,-0.01568,-0.04963,-0.08947,0.15656,5091,-5218,0.71234,0.70154,-0.02010,-0.70183,0.71195,-0.02371,-0.00233,0.03100,0.99952,5.50247,5.50522
7.519649,-0.80399,-0.46481,9.40619,,-0.50064,0.49126,-0.01498,-0.04963,0.05053,0.20031,5091,-5218,0.71295,0.70091,-0.02036,-0.70121,0.71256,-0.02374,-0.00213,0.03120,0.99951,5.50247,5.50609
7.532568,-0.79143,-0.47019,9.38465,,-0.49784,0.49042,-0.01498,0.16037,-0.29072,0.06031,5091,-5218,0.71259,0.70128,-0.02049,-0.70158,0.71220,-0.02373,-0.00205,0.03129,0.99951,5.50247,5.50557
7.545554,-0.80459,-0.47378,9.35713,,-0.49952,0.49798,-0.02016,0.30037,-0.01947,0.05156,5091,-5218,0.71025,0.70354,-0.02396,-0.70395,0.70986,-0.02363,0.00039,0.03365,0.99943,5.50247,5.50225
7.562398,-0.79860,-0.48185,9.37807,,-0.49952,0.49336,-0.01813,-0.04963,0.04178,-0.00532,5091,-5218,0.71075,0.70302,-0.02450,-0.70344,0.71036,-0.02365,0.00078,0.03405,0.99942,5.50247,5.50295
7.585461,-0.78365,-0.47856,9.36132,,-0.50204,0.48874,-0.01610,-0.02338,-0.01072,0.10406,5091,-5218,0.71355,0.70022,-0.02341,-0.70061,0.71315,-0.02374,0.00007,0.03335,0.99944,5.50247,5.50693
7.598155,-0.82373,-0.48455,9.42054,,-0.50204,0.49154,-0.01666,-0.16338,0.00678,0.06906,5091,-5218,0.71394,0.69983,-0.02320,-0.70021,0.71354,-0.02377,-0.00008,0.03322,0.99945,5.50247,5.50749
7.610982,-0.80518,-0.47378,9.43251,,-0.50204,0.49154,-0.01666,-0.04088,-0.00197,0.06906,5091,-5218,0.71413,0.69963,-0.02309,-0.70001,0.71374,-0.02378,-0.00016,0.03315,0.99945,5.50247,5.50777
7.623767,-0.80818,-0.53390,9.41905,,-0.49798,0.48790,-0.00700,0.04224,-0.02384,0.15656,5091,-5218,0.71419,0.69976,-0.01650,-0.69993,0.71381,-0.02377,-0.00485,0.02852,0.99958,5.50247,5.50787
7.646829,-0.78963,-0.49173,9.42952,,-0.49392,0.48426,-0.00700,-0.01463,-0.10697,0.11281,5091,-5218,0.71410,0.69992,-0.01312,-0.70001,0.71374,-0.02377,-0.00727,0.02616,0.99963,5.50247,5.50775
7.659575,-0.79382,-0.47737,9.43370,,-0.49756,0.49350,0.00630,-0.03213,-0.12447,0.05156,5091,-5218,0.71208,0.70210,-0.00227,-0.70194,0.71184,-0.02377,-0.01508,0.01852,0.99971,5.50247,5.50496
7.672498,-0.80459,-0.48275,9.41665,,-0.49826,0.48986,-0.00441,0.01599,0.00678,0.09093,5091,-5218,0.71256,0.70160,-0.00390,-0.70147,0.71230,-0.02377,-0.01390,0.01967,0.99971,5.50247,5.50563
7.695387,-0.79382,-0.47737,9.36311,,-0.49896,0.48622,-0.01512,-0.04963,-0.21197,-0.06219,5091,-5218,0.71432,0.69971,-0.01206,-0.69977,0.71397,-0.02382,-0.00806,0.02545,0.99964,5.50247,5.50808
7.708097,-0.78006,-0.48514,9.44148,,-0.50008,0.48678,-0.01246,-0.14588,-0.02822,0.03406,5091,-5218,0.71539,0.69858,-0.01451,-0.69870,0.71502,-0.02385,-0.00629,0.02720,0.99961,5.50247,5.50959
7.720896,-0.76869,-0.49950,9.42652,,-0.50008,0.48678,-0.01246,-0.07588,-0.15947,0.10406,5091,-5218,0.71591,0.69801,-0.01577,-0.69817,0.71554,-0.02386,-0.00538,0.02809,0.99959,5.50247,5.51034
7.733894,-0.80698,-0.47408,9.35354,,-0.50092,0.49210,-0.01624,-0.13713,-0.06759,0.07781,5091,-5218,0.71454,0.69934,-0.01894,-0.69959,0.71414,-0.02385,-0.00315,0.03030,0.99954,5.50247,5.50835
7.756813,-0.79143,-0.46481,9.45823,,-0.50624,0.48902,-0.00686,0.08162,-0.07197,-0.07094,5091,-5218,0.71688,0.69705,-0.01421,-0.69716,0.71651,-0.02390,-0.00648,0.02704,0.99961,5.50247,5.51173
7.769576,-0.62512,-0.46241,9.41097,,-0.50624,0.48902,-0.00686,-0.04963,-0.05447,-0.00094,5091,-5218,0.71804,0.69590,-0.01180,-0.69595,0.71769,-0.02389,-0.00816,0.02536,0.99964,5.50247,5.51341
7.782475,-0.79322,-0.48395,9.38525,,-0.50176,0.48594,-0.00854,-0.15463,-0.03697,-0.06219,5091,-5218,0.71817,0.69577,-0.01169,-0.69582,0.71782,-0.02390,-0.00824,0.02530,0.99965,5.50247,5.51359
7.795413,-0.79173,-0.39541,9.42443,,-0.49966,0.48482,-0.00721,0.14287,-0.13322,0.09531,5091,-5218,0.71789,0.69607,-0.01072,-0.69610,0.71755,-0.02391,-0.00895,0.02462,0.99966,5.50247,5.51320
7.818353,-0.80758,-0.49053,9.41037,,-0.49756,0.48370,-0.00588,0.17787,-0.08072,-0.04469,5091,-5218,0.71745,0.69655,-0.00931,-0.69654,0.71712,-0.02389,-0.00997,0.02362,0.99967,5.50247,5.51257
7.831022,-0.79681,-0.48156,9.41277,,-0.50232,0.48762,-0.00728,-0.03213,-0.20322,-0.02719,5091,-5218,0.71747,0.69653,-0.00950,-0.69652,0.71714,-0.02391,-0.00984,0.02377,0.99967,5.50247,5.51260
7.844016,-0.79890,-0.48245,9.39871,,-0.50232,0.48608,-0.00350,-0.03651,-0.09822,0.07781,5091,-5218,0.71803,0.69597,-0.00703,-0.69591,0.71773,-0.02393,-0.01160,0.02208,0.99969,5.50247,5.51343
7.867084,-0.79023,-0.47198,9.41217,,-0.50568,0.48454,0.00028,-0.30338,-0.09822,-0.02719,5091,-5218,0.72004,0.69392,-0.00320,-0.69378,0.71979,-0.02396,-0.01432,0.01948,0.99971,5.50247,5.51636
7.879798,-0.81655,-0.48275,9.43071,,-0.50288,0.48818,-0.00560,-0.18088,0.01553,0.15656,5091,-5218,0.71875,0.69525,-0.00520,-0.69514,0.71847,-0.02396,-0.01293,0.02084,0.99970,5.50247,5.51448
7.892890,-0.80997,-0.47737,9.44208,,-0.50288,0.48818,-0.00560,0.18662,0.29553,-0.07969,5091,-5218,0.71813,0.69589,-0.00624,-0.69581,0.71783,-0.02392,-0.01217,0.02152,0.99969,5.50247,5.51357
7.905649,-0.81416,-0.47438,9.40110,,-0.50638,0.48566,-0.01428,0.02037,0.02428,-0.02719,5091,-5218,0.71987,0.69400,-0.01265,-0.69407,0.71951,-0.02394,-0.00751,0.02602,0.99963,5.50247,5.51603
7.928802,-0.80219,-0.47318,9.35354,,-0.50988,0.48566,-0.01428,0.04662,0.05928,0.01656,5091,-5218,0.72191,0.69180,-0.01596,-0.69197,0.72153,-0.02398,-0.00508,0.02835,0.99959,5.50247,5.51896
7.941445,-0.81356,-0.50967,9.49412,,-0.50176,0.49322,-0.01862,-0.16338,-0.15947,0.11281,5091,-5218,0.71742,0.69633,-0.02062,-0.69664,0.71703,-0.02386,-0.00183,0.03148,0.99950,5.50247,5.51248
7.954309,-0.65623,-0.50309,9.39063,,-0.50176,0.49322,0.01722,0.20412,0.11178,0.06031,5091,-5218,0.71537,0.69874,0.00116,-0.69852,0.71519,-0.02380,-0.01746,0.01621,0.99972,5.50247,5.50970
7.967187,-0.79920,-0.46989,9.41127,,-0.50428,0.49098,0.00000,0.03349,-0.08509,0.09531,5091,-5218,0.71591,0.69819,0.00090,-0.69797,0.71573,-0.02381,-0.01727,0.01641,0.99972,5.50247,5.51047
7.990205,-0.78006,-0.48215,9.41994,,-0.50120,0.48874,-0.01680,-0.05838,0.09428,-0.05344,5091,-5218,0.71588,0.69814,-0.01068,-0.69816,0.71554,-0.02379,-0.00897,0.02449,0.99966,5.50247,5.51032
8.002892,-0.80518,-0.51027,9.41336,,-0.50120,0.48874,-0.01680,-0.13713,-0.00197,0.28781,5091,-5218,0.71580,0.69810,-0.01671,-0.69829,0.71542,-0.02379,-0.00466,0.02869,0.99958,5.50247,5.51017
8.015627,-0.79980,-0.54526,9.40828,,-0.51016,0.48510,-0.01470,-0.05401,-0.05884,0.02531,5091,-5218,0.72017,0.69355,-0.01833,-0.69378,0.71979,-0.02390,-0.00338,0.02993,0.99955,5.50247,5.51645
8.038640,-0.78724,-0.45882,9.37149,,-0.50316,0.48650,-0.01330,-0.14588,-0.02822,0.14781,5091,-5218,0.71946,0.69429,-0.01833,-0.69452,0.71908,-0.02390,-0.00341,0.02992,0.99955,5.50247,5.51543
8.051293,-0.62213,-0.47617,9.43729,,-0.50316,0.48650,-0.01330,-0.17213,-0.00197,0.02531,5091,-5218,0.71912,0.69464,-0.01836,-0.69488,0.71873,-0.02386,-0.00338,0.02991,0.99955,5.50247,5.51493
8.064102,-0.78604,-0.47258,9.42473,,-0.50232,0.48622,-0.01442,-0.18088,-0.10697,0.16531,5091,-5218,0.71873,0.69502,-0.01911,-0.69528,0.71834,-0.02386,-0.00286,0.03043,0.99953,5.50247,5.51437
8.076992,-0.80100,-0.48993,9.45135,,-0.50246,0.48888,-0.01330,0.08599,-0.09384,0.21781,5091,-5218,0.71764,0.69617,-0.01867,-0.69641,0.71725,-0.02383,-0.00319,0.03010,0.99954,5.50247,5.51279
8.100031,-0.65982,-0.45284,9.44028,,-0.50260,0.49154,-0.01218,0.01162,0.08553,0.10406,5091,-5218,0.71622,0.69765,-0.01773,-0.69786,0.71584,-0.02376,-0.00388,0.02939,0.99956,5.50247,5.51077
8.112691,-0.78485,-0.46660,9.40200,,-0.50232,0.48706,-0.00994,-0.15463,0.08553,0.00781,5091,-5218,0.71704,0.69686,-0.01574,-0.69701,0.71666,-0.02378,-0.00529,0.02802,0.99959,5.50247,5.51195
8.125442,-0.72682,-0.48724,9.45434,,-0.50232,0.49182,-0.00749,-0.01026,-0.09384,0.05593,5091,-5218,0.71576,0.69822,-0.01299,-0.69831,0.71540,-0.02374,-0.00729,0.02607,0.99963,5.50247,5.51013
8.148398,-0.79502,-0.47019,9.46002,,-0.50036,0.49658,-0.00504,0.02912,0.03303,0.03406,5091,-5218,0.71277,0.70133,-0.00989,-0.70133,0.71244,-0.02370,-0.00957,0.02383,0.99967,5.50247,5.50587
8.161044,-0.80518,-0.47198,9.42413,,-0.50036,0.48986,-0.00392,0.07287,-0.13322,0.10406,5091,-5218,0.71365,0.70046,-0.00752,-0.70041,0.71335,-0.02371,-0.01125,0.02219,0.99969,5.50247,5.50715
8.173991,-0.80339,-0.46600,9.40319,,-0.50876,0.48986,-0.00392,0.02037,-0.01072,0.09531,5091,-5218,0.71700,0.69705,-0.00627,-0.69697,0.71671,-0.02375,-0.01206,0.02139,0.99970,5.50247,5.51195
