0.000005,-0.84526,-0.53779,9.39661,,-0.01120,0.54208,0.05754,0.03761,0.24669,0.04046,12560,-12784,0.02473,0.99793,0.05934,-0.99568,0.02990,-0.08785,-0.08945,-0.05691,0.99436,4.73722,4.73722
0.000005,-0.81894,-0.55653,9.38465,,-0.00924,0.54376,0.05026,0.01136,-0.14998,0.15129,12560,-12784,0.02430,0.99785,0.06084,-0.99569,0.02961,-0.08790,-0.08951,-0.05844,0.99427,4.73722,4.73679
0.021170,-0.83868,-0.56022,9.39482,,-0.00560,0.54068,0.06384,0.14698,-0.00706,0.10608,12560,-12784,0.02303,0.99758,0.06559,-0.99571,0.02877,-0.08795,-0.08963,-0.06328,0.99396,4.73722,4.73551
0.044195,-0.84885,-0.56590,9.43251,,-0.01176,0.54628,0.05166,0.09011,0.01919,0.21546,12560,-12784,0.02286,0.99743,0.06797,-0.99571,0.02882,-0.08794,-0.08967,-0.06566,0.99380,4.73722,4.73535
0.056880,-0.84526,-0.54197,9.41815,,-0.01176,0.54628,0.05166,0.02011,0.05419,0.12796,12560,-12784,0.02273,0.99728,0.07011,-0.99571,0.02888,-0.08792,-0.08971,-0.06781,0.99366,4.73722,4.73521
0.069957,-0.86022,-0.52403,9.42294,,-0.01680,0.53704,0.05418,0.02011,-0.14706,0.06671,12560,-12784,0.02350,0.99709,0.07257,-0.99568,0.02987,-0.08789,-0.08980,-0.07020,0.99348,4.73722,4.73599
0.082906,-0.84138,-0.55334,9.41217,,-0.01400,0.53760,0.05376,-0.04114,-0.08581,0.15858,12560,-12784,0.02369,0.99692,0.07475,-0.99567,0.03025,-0.08788,-0.08987,-0.07234,0.99332,4.73722,4.73617
0.105968,-0.82612,-0.53898,9.37448,,-0.01120,0.53816,0.05334,-0.07614,0.03669,0.04921,12560,-12784,0.02343,0.99678,0.07664,-0.99567,0.03016,-0.08787,-0.08990,-0.07425,0.99318,4.73722,4.73592
0.118645,-0.84168,-0.55872,9.25065,,-0.01568,0.54404,0.04802,0.22136,-0.02456,0.07546,12560,-12784,0.02391,0.99670,0.07755,-0.99566,0.03072,-0.08784,-0.08993,-0.07512,0.99311,4.73722,4.73640
0.131437,-0.83629,-0.54138,9.38824,,-0.01540,0.54082,0.05523,0.00698,-0.05956,0.12796,12560,-12784,0.02429,0.99654,0.07947,-0.99565,0.03127,-0.08781,-0.08999,-0.07699,0.99296,4.73722,4.73678
0.154351,-0.86979,-0.58086,9.31466,,-0.01512,0.53760,0.06244,-0.03239,-0.05081,0.09296,12560,-12784,0.02463,0.99630,0.08238,-0.99563,0.03187,-0.08778,-0.09008,-0.07986,0.99273,4.73722,4.73712
0.167005,-0.85304,-0.53420,9.43011,,-0.01596,0.54292,0.05894,0.13386,0.13294,0.04921,12560,-12784,0.02507,0.99612,0.08441,-0.99562,0.03249,-0.08771,-0.09011,-0.08184,0.99256,4.73722,4.73756
0.179989,-0.83629,-0.57308,9.44327,,-0.01596,0.54292,0.05894,-0.02364,-0.03331,0.08421,12560,-12784,0.02545,0.99595,0.08626,-0.99560,0.03304,-0.08766,-0.09015,-0.08365,0.99241,4.73722,4.73795
0.192894,-0.85214,-0.53091,9.38315,,-0.01540,0.54488,0.06244,-0.04989,-0.16894,-0.02517,12560,-12784,0.02573,0.99575,0.08840,-0.99559,0.03351,-0.08768,-0.09027,-0.08576,0.99222,4.73722,4.73822
0.215978,-0.83689,-0.55932,9.41396,,-0.01540,0.54488,0.06384,0.14261,0.07169,0.06671,12560,-12784,0.02596,0.99555,0.09062,-0.99558,0.03394,-0.08762,-0.09030,-0.08795,0.99202,4.73722,4.73846
0.228627,-0.86201,-0.55454,9.37209,,-0.01568,0.53872,0.06384,0.08136,-0.17331,-0.01204,12560,-12784,0.02626,0.99534,0.09274,-0.99556,0.03443,-0.08762,-0.09040,-0.09003,0.99183,4.73722,4.73876
0.241441,-0.85723,-0.56949,9.46481,,-0.01568,0.53872,0.06622,0.08136,0.11544,0.18921,12560,-12784,0.02650,0.99512,0.09504,-0.99555,0.03487,-0.08755,-0.09044,-0.09230,0.99162,4.73722,4.73900
0.254318,-0.83689,-0.55274,9.44208,,-0.01400,0.54068,0.06622,-0.09364,0.05419,0.08421,12560,-12784,0.02643,0.99493,0.09704,-0.99555,0.03498,-0.08751,-0.09046,-0.09430,0.99143,4.73722,4.73893
0.277352,-0.84526,-0.56231,9.46900,,-0.01596,0.54320,0.05572,-0.05864,-0.05956,0.29421,12560,-12784,0.02664,0.99490,0.09726,-0.99554,0.03521,-0.08749,-0.09047,-0.09450,0.99141,4.73722,4.73914
0.290036,-0.84048,-0.55573,9.38764,,-0.01596,0.54320,0.05572,0.05511,0.15044,0.04046,12560,-12784,0.02689,0.99487,0.09749,-0.99554,0.03548,-0.08743,-0.09044,-0.09470,0.99139,4.73722,4.73939
0.303250,-0.87817,-0.53300,9.37687,,-0.01820,0.53480,0.05936,0.02011,-0.07706,0.20671,12560,-12784,0.02750,0.99477,0.09836,-0.99552,0.03616,-0.08739,-0.09049,-0.09552,0.99131,4.73722,4.74001
0.316165,-0.84497,-0.55005,9.40648,,-0.01596,0.53578,0.05838,-0.02802,0.01919,0.10608,12560,-12784,0.02768,0.99470,0.09899,-0.99551,0.03640,-0.08736,-0.09050,-0.09612,0.99125,4.73722,4.74019
0.339123,-0.83749,-0.54616,9.40678,,-0.01372,0.53676,0.05740,0.05511,0.14169,0.11046,12560,-12784,0.02748,0.99467,0.09941,-0.99552,0.03623,-0.08734,-0.09048,-0.09656,0.99121,4.73722,4.73998
0.351799,-0.81775,-0.57488,9.42114,,-0.01988,0.54012,0.06216,-0.16364,0.05419,0.20671,12560,-12784,0.02829,0.99454,0.10043,-0.99550,0.03712,-0.08722,-0.09048,-0.09751,0.99111,4.73722,4.74080
0.364818,-0.85244,-0.54317,9.43580,,-0.01750,0.54264,0.06041,-0.02802,0.13731,0.13233,12560,-12784,0.02861,0.99447,0.10107,-0.99549,0.03749,-0.08714,-0.09044,-0.09812,0.99106,4.73722,4.74112
0.387845,-0.81954,-0.55813,9.38944,,-0.01512,0.54516,0.05866,0.15136,-0.18206,-0.02079,12560,-12784,0.02854,0.99444,0.10138,-0.99549,0.03745,-0.08716,-0.09047,-0.09844,0.99102,4.73722,4.74105
0.400579,-0.85125,-0.53240,9.37089,,-0.01652,0.53928,0.05698,-0.16364,0.02794,0.11921,12560,-12784,0.02871,0.99443,0.10144,-0.99548,0.03763,-0.08714,-0.09047,-0.09848,0.99102,4.73722,4.74122
0.413689,-0.82552,-0.54497,9.36910,,-0.01652,0.53928,0.05698,0.05511,-0.07706,0.25921,12560,-12784,0.02883,0.99441,0.10154,-0.99548,0.03776,-0.08713,-0.09048,-0.09857,0.99101,4.73722,4.74135
0.426753,-0.82732,-0.57009,9.42204,,-0.00616,0.54180,0.05628,-0.10239,0.03669,0.11921,12560,-12784,0.02722,0.99447,0.10144,-0.99553,0.03615,-0.08727,-0.09045,-0.09861,0.99101,4.73722,4.73972
0.449844,-0.85184,-0.53659,9.38824,,-0.00728,0.54012,0.06202,0.05511,0.09794,0.26796,12560,-12784,0.02594,0.99442,0.10228,-0.99556,0.03496,-0.08737,-0.09046,-0.09956,0.99091,4.73722,4.73844
0.462554,-0.86740,-0.53001,9.46960,,-0.00728,0.54012,0.06202,0.25636,-0.00706,0.12796,12560,-12784,0.02480,0.99436,0.10308,-0.99559,0.03390,-0.08749,-0.09049,-0.10045,0.99082,4.73722,4.73730
0.475410,-0.85125,-0.54676,9.38764,,-0.01288,0.54600,0.05796,0.00261,-0.11206,0.23296,12560,-12784,0.02465,0.99437,0.10306,-0.99559,0.03376,-0.08753,-0.09051,-0.10045,0.99082,4.73722,4.73715
0.488306,-0.83569,-0.56231,9.39661,,-0.01288,0.54208,0.05978,0.02011,0.14169,0.06671,12560,-12784,0.02456,0.99434,0.10339,-0.99560,0.03369,-0.08748,-0.09047,-0.10079,0.99079,4.73722,4.73706
0.511314,-0.83749,-0.55633,9.34696,,-0.01736,0.53816,0.06160,0.40511,-0.15581,0.09296,12560,-12784,0.02525,0.99425,0.10411,-0.99558,0.03444,-0.08742,-0.09051,-0.10144,0.99072,4.73722,4.73774
0.524082,-0.86082,-0.55155,9.39721,,-0.01736,0.53956,0.05698,-0.05864,-0.14706,0.07546,12560,-12784,0.02586,0.99425,0.10395,-0.99556,0.03503,-0.08740,-0.09054,-0.10123,0.99073,4.73722,4.73836
0.536927,-0.84616,-0.56082,9.40559,,-0.01568,0.53956,0.05698,0.05511,0.04981,0.10171,12560,-12784,0.02612,0.99425,0.10384,-0.99555,0.03528,-0.08735,-0.09052,-0.10110,0.99075,4.73722,4.73862
0.559752,-0.84287,-0.54018,9.42294,,-0.02016,0.54180,0.05306,0.02886,0.05419,0.06671,12560,-12784,0.02712,0.99430,0.10309,-0.99553,0.03620,-0.08725,-0.09048,-0.10026,0.99084,4.73722,4.73962
0.572502,-0.80459,-0.55872,9.32603,,-0.02016,0.54180,0.05306,0.02011,-0.15581,0.09296,12560,-12784,0.02801,0.99435,0.10241,-0.99551,0.03702,-0.08717,-0.09047,-0.09951,0.99092,4.73722,4.74052
0.585367,-0.83270,-0.54138,9.45045,,-0.01876,0.53816,0.04676,-0.04989,0.05419,0.28546,12560,-12784,0.02857,0.99449,0.10086,-0.99550,0.03743,-0.08711,-0.09040,-0.09792,0.99108,4.73722,4.74108
0.598274,-0.83240,-0.56381,9.44028,,-0.01526,0.54012,0.04781,0.09448,-0.05081,0.14546,12560,-12784,0.02849,0.99462,0.09963,-0.99550,0.03724,-0.08713,-0.09037,-0.09670,0.99120,4.73722,4.74100
0.621165,-0.83928,-0.56949,9.35713,,-0.01176,0.54208,0.04886,0.04636,0.08044,0.02296,12560,-12784,0.02787,0.99473,0.09862,-0.99552,0.03653,-0.08718,-0.09033,-0.09575,0.99130,4.73722,4.74037
0.633956,-0.84227,-0.56650,9.45643,,-0.00420,0.54376,0.05782,0.10761,-0.11206,0.11046,12560,-12784,0.02603,0.99474,0.09904,-0.99557,0.03475,-0.08737,-0.09036,-0.09632,0.99124,4.73722,4.73853
0.646882,-0.84168,-0.56172,9.45404,,-0.00420,0.54376,0.05782,-0.21614,-0.01581,0.18046,12560,-12784,0.02435,0.99475,0.09935,-0.99561,0.03311,-0.08754,-0.09037,-0.09678,0.99119,4.73722,4.73684
0.659688,-0.83779,-0.55783,9.40918,,-0.01372,0.54656,0.06748,-0.01052,0.03669,0.08421,12560,-12784,0.02440,0.99458,0.10109,-0.99561,0.03332,-0.08749,-0.09039,-0.09851,0.99102,4.73722,4.73690
0.683117,-0.86441,-0.55633,9.40499,,-0.01400,0.54460,0.05278,-0.12864,0.13294,0.04921,12560,-12784,0.02452,0.99464,0.10047,-0.99561,0.03338,-0.08747,-0.09036,-0.09788,0.99109,4.73722,4.73701
0.695828,-0.84347,-0.54197,9.38166,,-0.01400,0.54460,0.05278,-0.17239,0.08044,0.30296,12560,-12784,0.02457,0.99469,0.09989,-0.99561,0.03338,-0.08745,-0.09032,-0.09731,0.99115,4.73722,4.73706
0.708762,-0.83599,-0.55693,9.42832,,-0.01848,0.54264,0.05656,0.10761,0.03231,0.13671,12560,-12784,0.02539,0.99466,0.10005,-0.99559,0.03420,-0.08735,-0.09030,-0.09739,0.99114,4.73722,4.73788
0.732284,-0.84526,-0.56770,9.44926,,-0.01428,0.53732,0.05628,-0.22489,-0.03331,0.12796,12560,-12784,0.02547,0.99465,0.10015,-0.99559,0.03429,-0.08734,-0.09031,-0.09749,0.99113,4.73722,4.73797
0.744993,-0.83629,-0.56351,9.33500,,-0.01428,0.53732,0.05628,0.21261,-0.10331,0.25046,12560,-12784,0.02553,0.99463,0.10033,-0.99559,0.03436,-0.08735,-0.09032,-0.09766,0.99111,4.73722,4.73802
0.757868,-0.84407,-0.52104,9.37568,,-0.02800,0.54068,0.05642,0.01136,0.00169,-0.05579,12560,-12784,0.02792,0.99455,0.10041,-0.99552,0.03674,-0.08711,-0.09032,-0.09753,0.99113,4.73722,4.74042
0.770816,-0.84437,-0.55783,9.42294,,-0.02296,0.54096,0.05362,-0.10677,0.20294,0.00983,12560,-12784,0.02923,0.99456,0.10003,-0.99549,0.03800,-0.08691,-0.09024,-0.09704,0.99118,4.73722,4.74175
0.794012,-0.84706,-0.55872,9.36910,,-0.01792,0.54124,0.05082,-0.07614,0.07169,0.15421,12560,-12784,0.02956,0.99462,0.09927,-0.99548,0.03825,-0.08687,-0.09020,-0.09626,0.99126,4.73722,4.74207
0.806737,-0.84108,-0.55513,9.36970,,-0.01820,0.54404,0.05460,0.03761,0.01044,-0.01204,12560,-12784,0.02991,0.99462,0.09913,-0.99547,0.03859,-0.08684,-0.09020,-0.09609,0.99128,4.73722,4.74243
0.819675,-0.85424,-0.55334,9.37927,,-0.01820,0.54404,0.05460,0.18636,-0.19956,0.06671,12560,-12784,0.03022,0.99463,0.09903,-0.99546,0.03889,-0.08685,-0.09024,-0.09596,0.99129,4.73722,4.74274
0.832534,-0.83629,-0.56112,9.41965,,-0.01918,0.54628,0.04578,-0.01489,-0.02456,0.13671,12560,-12784,0.03061,0.99476,0.09754,-0.99545,0.03914,-0.08683,-0.09019,-0.09444,0.99144,4.73722,4.74313
0.855819,-0.84586,-0.56710,9.41217,,-0.02016,0.54628,0.05516,0.08136,0.00169,0.04921,12560,-12784,0.03117,0.99474,0.09762,-0.99544,0.03971,-0.08678,-0.09019,-0.09447,0.99143,4.73722,4.74369
0.868523,-0.84646,-0.53599,9.35414,,-0.01932,0.53536,0.05516,-0.12864,-0.13831,0.11921,12560,-12784,0.03159,0.99470,0.09780,-0.99542,0.04014,-0.08676,-0.09023,-0.09461,0.99142,4.73722,4.74411
0.881408,-0.84227,-0.56291,9.42174,,-0.01932,0.53536,0.04956,-0.25114,-0.11206,0.15421,12560,-12784,0.03196,0.99476,0.09711,-0.99541,0.04045,-0.08675,-0.09023,-0.09389,0.99149,4.73722,4.74449
0.894338,-0.84497,-0.56889,9.41486,,-0.01960,0.53872,0.04956,0.05948,-0.02894,0.10608,12560,-12784,0.03232,0.99481,0.09649,-0.99540,0.04075,-0.08673,-0.09022,-0.09325,0.99155,4.73722,4.74485
0.917749,-0.82971,-0.58804,9.39841,,-0.02408,0.53928,0.05712,-0.04989,-0.04206,0.11046,12560,-12784,0.03341,0.99472,0.09706,-0.99536,0.04188,-0.08662,-0.09023,-0.09372,0.99150,4.73722,4.74594
0.930483,-0.83988,-0.54018,9.41636,,-0.02408,0.53928,0.05712,0.02886,-0.05081,0.06671,12560,-12784,0.03441,0.99463,0.09757,-0.99532,0.04292,-0.08653,-0.09025,-0.09413,0.99146,4.73722,4.74695
0.943618,-0.84287,-0.57428,9.45703,,-0.02156,0.53928,0.05712,-0.04114,0.07169,0.10171,12560,-12784,0.03490,0.99457,0.09803,-0.99531,0.04345,-0.08646,-0.09025,-0.09455,0.99142,4.73722,4.74744
0.956429,-0.84437,-0.55274,9.40738,,-0.01988,0.54474,0.05782,-0.16802,-0.03331,0.04921,12560,-12784,0.03502,0.99453,0.09841,-0.99530,0.04361,-0.08646,-0.09027,-0.09492,0.99138,4.73722,4.74756
0.979437,-0.84168,-0.56112,9.37328,,-0.01820,0.55020,0.05852,0.10761,-0.05081,0.05796,12560,-12784,0.03484,0.99449,0.09885,-0.99531,0.04346,-0.08648,-0.09030,-0.09538,0.99134,4.73722,4.74738
0.992262,-0.84108,-0.54317,9.41994,,-0.01064,0.53928,0.06538,-0.03239,-0.04206,0.06671,12560,-12784,0.03347,0.99438,0.10043,-0.99535,0.04225,-0.08661,-0.09037,-0.09707,0.99117,4.73722,4.74600
1.005237,-0.85573,-0.56142,9.41336,,-0.01610,0.54054,0.06286,-0.04989,0.08919,0.11483,12560,-12784,0.03311,0.99429,0.10147,-0.99536,0.04198,-0.08661,-0.09038,-0.09814,0.99106,4.73722,4.74564
1.028364,-0.86261,-0.57488,9.40319,,-0.02156,0.54180,0.06034,0.01136,0.02794,0.07546,12560,-12784,0.03370,0.99421,0.10205,-0.99534,0.04262,-0.08655,-0.09040,-0.09866,0.99101,4.73722,4.74623
1.041161,-0.86142,-0.55394,9.39243,,-0.00980,0.54432,0.05978,-0.16364,-0.03331,0.15421,12560,-12784,0.03225,0.99422,0.10240,-0.99538,0.04122,-0.08671,-0.09043,-0.09913,0.99096,4.73722,4.74478
1.054106,-0.84885,-0.54796,9.42533,,-0.00980,0.54432,0.05978,0.12511,0.02794,0.20671,12560,-12784,0.03093,0.99423,0.10276,-0.99542,0.03995,-0.08683,-0.09044,-0.09960,0.99091,4.73722,4.74345
1.067068,-0.84437,-0.54855,9.44417,,-0.01176,0.54124,0.05964,-0.05427,0.05856,0.16733,12560,-12784,0.03005,0.99422,0.10308,-0.99545,0.03910,-0.08689,-0.09042,-0.10000,0.99087,4.73722,4.74257
1.090202,-0.84586,-0.54138,9.35833,,-0.00896,0.53284,0.05096,-0.03239,0.13294,0.16296,12560,-12784,0.02883,0.99435,0.10219,-0.99549,0.03780,-0.08700,-0.09037,-0.09922,0.99095,4.73722,4.74134
1.102929,-0.84766,-0.54138,9.38046,,-0.00896,0.53284,0.05096,-0.08489,0.00169,0.04046,12560,-12784,0.02773,0.99446,0.10137,-0.99552,0.03664,-0.08712,-0.09035,-0.09850,0.99103,4.73722,4.74024
1.115757,-0.85005,-0.54796,9.39303,,-0.02296,0.54012,0.04592,0.28261,-0.05956,0.07546,12560,-12784,0.02905,0.99458,0.09982,-0.99549,0.03781,-0.08702,-0.09032,-0.09684,0.99119,4.73722,4.74156
1.128583,-0.83330,-0.55005,9.44567,,-0.02296,0.53970,0.04795,0.22136,0.01919,0.12358,12560,-12784,0.03023,0.99465,0.09874,-0.99546,0.03888,-0.08689,-0.09027,-0.09567,0.99131,4.73722,4.74274
1.151423,-0.84347,-0.55813,9.38106,,-0.01512,0.53928,0.04998,-0.06739,-0.12956,-0.13454,12560,-12784,0.03005,0.99473,0.09800,-0.99546,0.03864,-0.08695,-0.09028,-0.09494,0.99138,4.73722,4.74257
1.164206,-0.83988,-0.57188,9.40260,,-0.05096,0.54096,0.05460,-0.23364,0.18544,0.16296,12560,-12784,0.03579,0.99454,0.09800,-0.99528,0.04433,-0.08635,-0.09022,-0.09445,0.99143,4.73722,4.74834
1.177232,-0.85783,-0.57398,9.37388,,-0.02548,0.54096,0.05460,-0.11989,-0.09894,0.22421,12560,-12784,0.03673,0.99451,0.09799,-0.99524,0.04526,-0.08629,-0.09025,-0.09436,0.99144,4.73722,4.74927
1.200203,-0.84526,-0.56351,9.37089,,-0.01708,0.54180,0.05894,-0.04114,-0.08581,0.19796,12560,-12784,0.03622,0.99446,0.09865,-0.99526,0.04481,-0.08635,-0.09030,-0.09505,0.99137,4.73722,4.74876
1.212919,-0.84646,-0.57667,9.40738,,-0.01708,0.54180,0.05894,0.04636,0.02794,-0.16954,12560,-12784,0.03583,0.99442,0.09926,-0.99527,0.04448,-0.08639,-0.09032,-0.09570,0.99130,4.73722,4.74837
1.225794,-0.85125,-0.57906,9.37568,,-0.01064,0.54488,0.05712,0.19511,-0.28706,0.11046,12560,-12784,0.03433,0.99444,0.09953,-0.99531,0.04303,-0.08659,-0.09039,-0.09609,0.99126,4.73722,4.74687
1.238708,-0.84138,-0.56261,9.37717,,-0.01120,0.54292,0.06342,0.05948,-0.09019,0.11921,12560,-12784,0.03306,0.99437,0.10072,-0.99535,0.04188,-0.08674,-0.09047,-0.09739,0.99113,4.73722,4.74559
1.261764,-0.86620,-0.55813,9.42234,,-0.01176,0.54096,0.06972,0.03761,0.12419,0.20671,12560,-12784,0.03201,0.99419,0.10278,-0.99538,0.04102,-0.08681,-0.09053,-0.09953,0.99091,4.73722,4.74454
1.274514,-0.83569,-0.57069,9.43550,,-0.01372,0.54264,0.07028,-0.10239,0.07169,0.01421,12560,-12784,0.03142,0.99401,0.10469,-0.99539,0.04061,-0.08684,-0.09057,-0.10148,0.99071,4.73722,4.74394
1.287437,-0.83390,-0.56710,9.39003,,-0.01372,0.54264,0.07028,-0.03239,-0.08581,0.03171,12560,-12784,0.03087,0.99384,0.10645,-0.99541,0.04022,-0.08689,-0.09064,-0.10328,0.99051,4.73722,4.74339
1.300576,-0.83599,-0.56231,9.42473,,-0.01344,0.54096,0.06160,-0.19427,0.09794,0.07983,12560,-12784,0.03030,0.99383,0.10671,-0.99543,0.03968,-0.08691,-0.09061,-0.10359,0.99048,4.73722,4.74282
1.323547,-0.85125,-0.55932,9.44028,,-0.01036,0.53872,0.06860,-0.05864,0.01044,-0.05579,12560,-12784,0.02933,0.99371,0.10810,-0.99545,0.03885,-0.08700,-0.09065,-0.10506,0.99033,4.73722,4.74185
1.336278,-0.84885,-0.55633,9.48276,,-0.01036,0.53872,0.06860,-0.04989,0.15044,0.12796,12560,-12784,0.02841,0.99360,0.10936,-0.99548,0.03805,-0.08706,-0.09066,-0.10639,0.99018,4.73722,4.74092
1.349649,-0.82792,-0.56351,9.39123,,-0.01316,0.53956,0.06314,-0.07614,-0.11206,0.08421,12560,-12784,0.02804,0.99357,0.10967,-0.99549,0.03770,-0.08710,-0.09068,-0.10673,0.99014,4.73722,4.74054
1.362837,-0.85543,-0.55813,9.40888,,-0.01652,0.54082,0.05831,0.03323,0.05856,0.24608,12560,-12784,0.02818,0.99362,0.10923,-0.99548,0.03781,-0.08707,-0.09065,-0.10628,0.99020,4.73722,4.74069
1.385870,-0.84467,-0.57547,9.44387,,-0.01988,0.54208,0.05348,0.41386,0.13294,-0.01204,12560,-12784,0.02895,0.99371,0.10814,-0.99547,0.03847,-0.08697,-0.09058,-0.10513,0.99032,4.73722,4.74147
1.398933,-0.85065,-0.56650,9.36850,,-0.02184,0.54264,0.05796,-0.01489,-0.11206,0.04046,12560,-12784,0.02997,0.99373,0.10774,-0.99544,0.03944,-0.08689,-0.09059,-0.10465,0.99037,4.73722,4.74248
1.411858,-0.83689,-0.54317,9.42054,,-0.02184,0.54264,0.05796,-0.03239,0.17669,0.05796,12560,-12784,0.03089,0.99374,0.10736,-0.99541,0.04032,-0.08676,-0.09054,-0.10419,0.99043,4.73722,4.74341
1.425169,-0.84885,-0.55454,9.38884,,-0.01176,0.54544,0.05796,-0.10239,0.00606,0.04921,12560,-12784,0.03003,0.99381,0.10695,-0.99544,0.03943,-0.08685,-0.09053,-0.10385,0.99046,4.73722,4.74255
1.448961,-0.83689,-0.57428,9.40798,,-0.01764,0.53704,0.05558,0.00261,0.01919,0.03171,12560,-12784,0.03028,0.99386,0.10639,-0.99544,0.03962,-0.08682,-0.09050,-0.10327,0.99053,4.73722,4.74280
1.461990,-0.86740,-0.55992,9.40319,,-0.01764,0.53704,0.05558,-0.02364,-0.03331,0.00546,12560,-12784,0.03051,0.99391,0.10586,-0.99543,0.03981,-0.08682,-0.09051,-0.10273,0.99058,4.73722,4.74303
1.475295,-0.82971,-0.57667,9.41755,,-0.00980,0.53620,0.05292,0.11636,-0.06831,0.22421,12560,-12784,0.02936,0.99404,0.10502,-0.99546,0.03859,-0.08695,-0.09048,-0.10199,0.99066,4.73722,4.74188
1.488728,-0.84796,-0.56471,9.37269,,-0.01302,0.53872,0.05383,0.09011,0.02794,0.22858,12560,-12784,0.02881,0.99412,0.10436,-0.99548,0.03798,-0.08700,-0.09045,-0.10138,0.99073,4.73722,4.74132
1.511728,-0.84766,-0.54915,9.43490,,-0.01624,0.54124,0.05474,0.20386,-0.13831,0.18046,12560,-12784,0.02889,0.99417,0.10385,-0.99548,0.03801,-0.08702,-0.09046,-0.10087,0.99078,4.73722,4.74140
1.524475,-0.83031,-0.56172,9.41815,,-0.01120,0.53116,0.05782,-0.08489,-0.03331,-0.02079,12560,-12784,0.02819,0.99418,0.10398,-0.99550,0.03734,-0.08709,-0.09047,-0.10106,0.99076,4.73722,4.74070
1.537615,-0.85902,-0.55454,9.40499,,-0.01120,0.53116,0.05782,-0.00614,0.08919,0.13671,12560,-12784,0.02753,0.99419,0.10411,-0.99552,0.03669,-0.08715,-0.09046,-0.10124,0.99074,4.73722,4.74004
1.550766,-0.83839,-0.56022,9.40888,,-0.01960,0.54404,0.05586,-0.01052,0.05856,0.09733,12560,-12784,0.02827,0.99420,0.10372,-0.99550,0.03739,-0.08705,-0.09042,-0.10079,0.99079,4.73722,4.74078
1.573848,-0.84467,-0.54377,9.34278,,-0.01960,0.53816,0.04956,-0.32989,0.19419,0.27671,12560,-12784,0.02895,0.99432,0.10244,-0.99549,0.03794,-0.08695,-0.09034,-0.09946,0.99093,4.73722,4.74146
1.586743,-0.84766,-0.54197,9.59761,,-0.01596,0.53816,0.04956,0.04636,-0.01581,0.13671,12560,-12784,0.02899,0.99443,0.10133,-0.99549,0.03788,-0.08695,-0.09030,-0.09835,0.99105,4.73722,4.74150
1.599631,-0.82014,-0.56231,9.40439,,-0.05180,0.54432,0.06426,0.09886,-0.15581,0.09296,12560,-12784,0.03492,0.99412,0.10249,-0.99530,0.04386,-0.08635,-0.09034,-0.09899,0.99098,4.73722,4.74746
1.612619,-0.85334,-0.55872,9.41307,,-0.02296,0.54432,0.06426,-0.00614,0.10231,0.04483,12560,-12784,0.03556,0.99399,0.10350,-0.99528,0.04459,-0.08625,-0.09034,-0.09994,0.99088,4.73722,4.74811
1.636227,-0.85603,-0.55454,9.22493,,-0.01652,0.54348,0.05810,-0.01489,0.15044,0.24171,12560,-12784,0.03505,0.99401,0.10352,-0.99529,0.04408,-0.08628,-0.09033,-0.10000,0.99088,4.73722,4.74759
1.649226,-0.86620,-0.56590,9.41217,,-0.01652,0.57932,0.05348,0.07261,0.08919,-0.01204,12560,-12784,0.03446,0.99415,0.10235,-0.99532,0.04339,-0.08635,-0.09028,-0.09889,0.99099,4.73722,4.74700
1.662554,-0.84108,-0.54855,9.38824,,-0.02156,0.54544,0.05348,-0.05864,-0.09456,0.27671,12560,-12784,0.03485,0.99420,0.10172,-0.99531,0.04372,-0.08633,-0.09028,-0.09824,0.99106,4.73722,4.74739
1.677050,-0.85244,-0.55992,9.44387,,-0.00280,0.53704,0.06580,0.06386,0.20294,0.13671,12560,-12784,0.03216,0.99414,0.10318,-0.99540,0.04119,-0.08655,-0.09029,-0.09992,0.99089,4.73722,4.74469
1.691175,-0.85304,-0.55573,9.47139,,-0.00280,0.53620,0.06006,-0.06302,0.08919,0.04921,12560,-12784,0.02972,0.99417,0.10360,-0.99547,0.03881,-0.08677,-0.09028,-0.10055,0.99083,4.73722,4.74224
1.714893,-0.84526,-0.54616,9.43071,,-0.02016,0.53536,0.05432,0.09886,-0.10331,0.08421,12560,-12784,0.03042,0.99420,0.10318,-0.99545,0.03946,-0.08672,-0.09029,-0.10007,0.99088,4.73722,4.74294
1.727871,-0.83569,-0.58086,9.45225,,-0.01680,0.53760,0.05936,0.13386,0.18544,-0.01204,12560,-12784,0.03051,0.99416,0.10354,-0.99545,0.03958,-0.08666,-0.09026,-0.10043,0.99084,4.73722,4.74303
1.741060,-0.84766,-0.59761,9.39781,,-0.01680,0.53760,0.05936,-0.08489,0.05419,0.11921,12560,-12784,0.03056,0.99412,0.10384,-0.99545,0.03965,-0.08665,-0.09025,-0.10072,0.99081,4.73722,4.74308
1.754111,-0.86112,-0.55842,9.43400,,-0.01848,0.54012,0.05614,-0.11114,0.10669,0.11046,12560,-12784,0.03085,0.99415,0.10355,-0.99544,0.03991,-0.08659,-0.09021,-0.10041,0.99085,4.73722,4.74337
1.777255,-0.84407,-0.53360,9.42832,,-0.02016,0.54012,0.05768,0.05511,0.08919,-0.02079,12560,-12784,0.03145,0.99413,0.10355,-0.99543,0.04050,-0.08651,-0.09019,-0.10036,0.99085,4.73722,4.74397
1.790041,-0.84826,-0.52822,9.42652,,-0.01792,0.53424,0.05768,0.11636,0.09794,0.18046,12560,-12784,0.03161,0.99411,0.10365,-0.99542,0.04067,-0.08647,-0.09018,-0.10044,0.99085,4.73722,4.74413
1.803381,-0.85663,-0.51326,9.39721,,-0.01792,0.57008,0.04928,-0.03239,0.01919,0.12796,12560,-12784,0.03156,0.99429,0.10194,-0.99543,0.04047,-0.08649,-0.09013,-0.09875,0.99102,4.73722,4.74409
1.816630,-0.85125,-0.55214,9.43251,,-0.01176,0.54572,0.04928,-0.08052,-0.01144,0.12796,12560,-12784,0.03061,0.99445,0.10070,-0.99546,0.03941,-0.08661,-0.09009,-0.09759,0.99114,4.73722,4.74313
1.839992,-0.84826,-0.55454,9.43011,,-0.01680,0.54180,0.06566,-0.02364,-0.32206,0.25046,12560,-12784,0.03060,0.99430,0.10213,-0.99545,0.03953,-0.08666,-0.09020,-0.09901,0.99099,4.73722,4.74312
1.853094,-0.83629,-0.57368,9.39303,,-0.01680,0.54180,0.06566,-0.18989,-0.22581,0.07546,12560,-12784,0.03062,0.99417,0.10341,-0.99545,0.03968,-0.08669,-0.09028,-0.10028,0.99085,4.73722,4.74314
1.866364,-0.86022,-0.54018,9.41396,,-0.01316,0.53620,0.05390,-0.04114,-0.01581,0.04921,12560,-12784,0.03007,0.99424,0.10289,-0.99546,0.03908,-0.08676,-0.09028,-0.09981,0.99090,4.73722,4.74258
1.879606,-0.84826,-0.54945,9.40768,,-0.01596,0.54054,0.05656,-0.08927,0.14169,0.02296,12560,-12784,0.03002,0.99426,0.10274,-0.99547,0.03902,-0.08672,-0.09023,-0.09967,0.99092,4.73722,4.74253
1.903094,-0.84168,-0.53958,9.40260,,-0.01876,0.54488,0.05922,-0.03239,-0.08581,0.02296,12560,-12784,0.03042,0.99422,0.10295,-0.99545,0.03943,-0.08670,-0.09025,-0.09985,0.99090,4.73722,4.74293
1.915790,-0.85184,-0.57368,9.36790,,-0.01288,0.53480,0.04662,0.02886,-0.12956,0.09296,12560,-12784,0.02982,0.99440,0.10141,-0.99547,0.03870,-0.08680,-0.09024,-0.09836,0.99105,4.73722,4.74233
1.928637,-0.84407,-0.54796,9.36371,,-0.01288,0.53480,0.04662,-0.10239,-0.09456,0.16296,12560,-12784,0.02926,0.99456,0.09996,-0.99549,0.03802,-0.08689,-0.09022,-0.09697,0.99119,4.73722,4.74177
1.941847,-0.82911,-0.54616,9.41576,,-0.01316,0.54152,0.06062,0.07261,-0.13394,0.04921,12560,-12784,0.02880,0.99450,0.10072,-0.99550,0.03764,-0.08697,-0.09028,-0.09776,0.99111,4.73722,4.74131
1.965222,-0.85902,-0.54437,9.39243,,-0.01624,0.53844,0.06384,0.14261,0.05419,0.25046,12560,-12784,0.02888,0.99437,0.10195,-0.99549,0.03783,-0.08694,-0.09031,-0.09898,0.99098,4.73722,4.74140
1.978237,-0.83510,-0.55513,9.42294,,-0.01624,0.53844,0.06384,0.00261,-0.00706,0.20671,12560,-12784,0.02897,0.99425,0.10306,-0.99549,0.03801,-0.08692,-0.09034,-0.10007,0.99087,4.73722,4.74148
1.991490,-0.85484,-0.55274,9.38465,,-0.01456,0.53732,0.06202,-0.21614,-0.03331,0.10171,12560,-12784,0.02879,0.99419,0.10377,-0.99549,0.03790,-0.08694,-0.09037,-0.10080,0.99079,4.73722,4.74130
2.004834,-0.87218,-0.54437,9.40678,,-0.01288,0.53522,0.06188,0.03761,0.03669,0.22421,12560,-12784,0.02829,0.99412,0.10448,-0.99550,0.03747,-0.08698,-0.09039,-0.10155,0.99072,4.73722,4.74080
2.028502,-0.81595,-0.55992,9.34637,,-0.01120,0.53312,0.06174,-0.05864,-0.00706,0.16296,12560,-12784,0.02761,0.99408,0.10512,-0.99552,0.03685,-0.08704,-0.09039,-0.10225,0.99064,4.73722,4.74011
2.041744,-0.84766,-0.55274,9.39901,,-0.01484,0.54600,0.05698,0.12511,0.04544,0.23296,12560,-12784,0.02752,0.99411,0.10480,-0.99553,0.03674,-0.08704,-0.09037,-0.10194,0.99068,4.73722,4.74003
2.055180,-0.84467,-0.54915,9.46840,,-0.01484,0.54600,0.05698,-0.07614,0.03669,0.25046,12560,-12784,0.02744,0.99415,0.10447,-0.99553,0.03663,-0.08703,-0.09035,-0.10162,0.99071,4.73722,4.73995
2.069134,-0.84287,-0.56231,9.39243,,-0.01288,0.54908,0.06090,0.05511,0.16794,-0.03829,12560,-12784,0.02710,0.99413,0.10474,-0.99554,0.03631,-0.08703,-0.09032,-0.10191,0.99068,4.73722,4.73961
2.082410,-0.86650,-0.56201,9.37986,,-0.01442,0.54782,0.05894,-0.11552,0.12856,0.10608,12560,-12784,0.02701,0.99414,0.10466,-0.99555,0.03620,-0.08701,-0.09029,-0.10185,0.99069,4.73722,4.73951
2.105668,-0.84168,-0.53599,9.43011,,-0.01596,0.54656,0.05698,-0.02364,0.22919,0.08421,12560,-12784,0.02720,0.99417,0.10434,-0.99555,0.03636,-0.08694,-0.09023,-0.10151,0.99073,4.73722,4.73970
2.118391,-0.84766,-0.57129,9.39422,,-0.01792,0.54712,0.05950,-0.07614,-0.02456,0.18046,12560,-12784,0.02767,0.99415,0.10443,-0.99554,0.03684,-0.08690,-0.09023,-0.10156,0.99073,4.73722,4.74017
2.131268,-0.84108,-0.53599,9.39243,,-0.01792,0.54712,0.05950,-0.25114,0.18544,0.13671,12560,-12784,0.02811,0.99413,0.10446,-0.99553,0.03727,-0.08681,-0.09020,-0.10155,0.99073,4.73722,4.74062
2.144476,-0.84407,-0.55603,9.40798,,-0.01372,0.53732,0.04970,0.06386,-0.22144,0.04483,12560,-12784,0.02785,0.99427,0.10323,-0.99553,0.03691,-0.08692,-0.09024,-0.10034,0.99085,4.73722,4.74036
2.167570,-0.84586,-0.57547,9.42832,,-0.01456,0.53816,0.05292,-0.03239,-0.18206,0.09296,12560,-12784,0.02776,0.99434,0.10256,-0.99553,0.03676,-0.08698,-0.09025,-0.09969,0.99092,4.73722,4.74027
2.180318,-0.84885,-0.55813,9.38944,,-0.01456,0.53816,0.05292,-0.04114,0.13294,0.17171,12560,-12784,0.02767,0.99440,0.10195,-0.99554,0.03661,-0.08697,-0.09021,-0.09909,0.99098,4.73722,4.74017
2.193291,-0.86022,-0.57846,9.39542,,-0.01820,0.53844,0.05558,-0.03239,-0.09456,0.11921,12560,-12784,0.02820,0.99440,0.10181,-0.99552,0.03713,-0.08694,-0.09023,-0.09890,0.99100,4.73722,4.74071
2.206281,-0.84138,-0.56172,9.39243,,-0.01638,0.53844,0.05355,0.08573,0.08481,0.11921,12560,-12784,0.02836,0.99444,0.10139,-0.99552,0.03725,-0.08689,-0.09019,-0.09847,0.99104,4.73722,4.74087
2.229174,-0.85304,-0.56889,9.44926,,-0.01456,0.53844,0.05152,0.13386,0.19419,0.09296,12560,-12784,0.02823,0.99452,0.10070,-0.99553,0.03706,-0.08688,-0.09013,-0.09780,0.99112,4.73722,4.74074
2.241895,-0.83629,-0.55274,9.48036,,-0.01120,0.53508,0.05264,-0.00614,-0.07706,0.21546,12560,-12784,0.02753,0.99458,0.10025,-0.99555,0.03632,-0.08696,-0.09013,-0.09741,0.99116,4.73722,4.74003
2.254778,-0.85513,-0.57727,9.41336,,-0.01120,0.54166,0.05838,-0.06739,-0.09456,0.23733,12560,-12784,0.02683,0.99456,0.10061,-0.99557,0.03566,-0.08706,-0.09017,-0.09783,0.99111,4.73722,4.73933
2.277778,-0.82971,-0.55753,9.37328,,-0.01736,0.54824,0.06412,0.05511,0.01044,0.20671,12560,-12784,0.02723,0.99444,0.10172,-0.99555,0.03616,-0.08699,-0.09019,-0.09889,0.99100,4.73722,4.73974
2.290507,-0.84586,-0.56889,9.63291,,-0.01736,0.54488,0.05810,-0.11989,0.15919,0.20671,12560,-12784,0.02762,0.99442,0.10184,-0.99555,0.03655,-0.08691,-0.09015,-0.09899,0.99100,4.73722,4.74012
2.303725,-0.85723,-0.53539,9.38106,,-0.01848,0.54488,0.05810,0.04636,-0.05956,0.17171,12560,-12784,0.02816,0.99439,0.10198,-0.99553,0.03710,-0.08687,-0.09017,-0.09908,0.99099,4.73722,4.74066
2.317129,-0.83180,-0.57398,9.36970,,-0.01218,0.53788,0.04354,0.18636,0.13294,0.11046,12560,-12784,0.02762,0.99460,0.10006,-0.99555,0.03639,-0.08689,-0.09006,-0.09722,0.99118,4.73722,4.74012
2.340369,-0.83809,-0.54437,9.39003,,-0.00588,0.53788,0.05474,0.16886,0.11544,0.31171,12560,-12784,0.02605,0.99465,0.09997,-0.99560,0.03483,-0.08701,-0.09003,-0.09727,0.99118,4.73722,4.73855
2.353537,-0.84646,-0.56889,9.44507,,-0.02268,0.54404,0.05474,-0.09364,-0.08581,0.06671,12560,-12784,0.02745,0.99463,0.09978,-0.99556,0.03620,-0.08689,-0.09004,-0.09695,0.99121,4.73722,4.73996
2.367559,-0.83450,-0.53839,9.40080,,-0.01624,0.54488,0.06300,0.01136,0.10669,0.18046,12560,-12784,0.02764,0.99452,0.10083,-0.99555,0.03647,-0.08684,-0.09004,-0.09798,0.99111,4.73722,4.74015
2.381019,-0.84407,-0.54676,9.39841,,-0.01624,0.54488,0.06300,-0.01489,0.26419,0.08421,12560,-12784,0.02784,0.99442,0.10178,-0.99555,0.03675,-0.08675,-0.09001,-0.09891,0.99102,4.73722,4.74034
2.394382,-0.85005,-0.55484,9.39811,,-0.00308,0.54264,0.06272,0.10323,0.04544,0.14546,12560,-12784,0.02580,0.99438,0.10268,-0.99561,0.03480,-0.08693,-0.09002,-0.09999,0.99091,4.73722,4.73829
2.418154,-0.83988,-0.57547,9.39183,,-0.00308,0.54152,0.05558,0.19511,-0.07706,0.06671,12560,-12784,0.02397,0.99445,0.10245,-0.99565,0.03298,-0.08713,-0.09003,-0.09992,0.99091,4.73722,4.73646
2.431002,-0.87577,-0.54138,9.42832,,-0.01372,0.54152,0.05558,-0.00614,0.25544,0.15421,12560,-12784,0.02407,0.99447,0.10220,-0.99565,0.03305,-0.08709,-0.08999,-0.09966,0.99094,4.73722,4.73656
2.444081,-0.83749,-0.57368,9.40080,,-0.01372,0.53676,0.05782,0.04636,0.02794,0.19796,12560,-12784,0.02418,0.99445,0.10241,-0.99565,0.03317,-0.08707,-0.08998,-0.09986,0.99092,4.73722,4.73667
2.457030,-0.85035,-0.54586,9.40589,,-0.01512,0.53676,0.05782,-0.03239,0.11106,0.17608,12560,-12784,0.02449,0.99442,0.10257,-0.99565,0.03349,-0.08699,-0.08994,-0.09999,0.99091,4.73722,4.73698
2.480658,-0.85663,-0.54975,9.38106,,-0.00756,0.54180,0.06132,-0.06739,0.29919,0.08421,12560,-12784,0.02354,0.99439,0.10316,-0.99567,0.03260,-0.08703,-0.08991,-0.10066,0.99085,4.73722,4.73602
2.493544,-0.85723,-0.56949,9.42952,,-0.00756,0.54180,0.02548,-0.20739,0.11544,0.25921,12560,-12784,0.02260,0.99491,0.09823,-0.99571,0.03122,-0.08715,-0.08977,-0.09584,0.99134,4.73722,4.73508
2.506758,-0.84108,-0.55813,9.36491,,-0.01400,0.54180,0.04620,-0.02364,0.03669,0.16296,12560,-12784,0.02286,0.99503,0.09693,-0.99570,0.03136,-0.08713,-0.08973,-0.09452,0.99147,4.73722,4.73534
2.519551,-0.84826,-0.56291,9.38226,,-0.01750,0.54502,0.04921,0.01573,0.11981,0.14108,12560,-12784,0.02365,0.99508,0.09617,-0.99569,0.03207,-0.08701,-0.08967,-0.09370,0.99155,4.73722,4.73614
2.542661,-0.84108,-0.56830,9.42234,,-0.02100,0.54824,0.05222,0.17761,0.01044,0.15421,12560,-12784,0.02495,0.99508,0.09592,-0.99566,0.03334,-0.08689,-0.08966,-0.09334,0.99159,4.73722,4.73744
2.555323,-0.85424,-0.58385,9.42413,,-0.01540,0.54348,0.04956,-0.20739,-0.07706,0.01421,12560,-12784,0.02525,0.99513,0.09529,-0.99565,0.03358,-0.08688,-0.08966,-0.09268,0.99165,4.73722,4.73774
2.568364,-0.86740,-0.56590,9.43909,,-0.01540,0.54348,0.04956,-0.13739,-0.08581,0.17171,12560,-12784,0.02549,0.99518,0.09472,-0.99564,0.03378,-0.08690,-0.08968,-0.09210,0.99170,4.73722,4.73799
2.581795,-0.83569,-0.56052,9.40828,,-0.01456,0.54964,0.05796,0.10761,-0.02019,0.00546,12560,-12784,0.02559,0.99511,0.09543,-0.99564,0.03394,-0.08688,-0.08970,-0.09279,0.99164,4.73722,4.73808
2.604908,-0.84706,-0.54138,9.39961,,-0.01456,0.54124,0.04830,-0.17239,0.06294,-0.08204,12560,-12784,0.02573,0.99518,0.09467,-0.99564,0.03400,-0.08687,-0.08967,-0.09202,0.99171,4.73722,4.73822
2.617580,-0.84407,-0.53240,9.43071,,-0.01456,0.54124,0.04830,-0.15489,-0.13831,0.14546,12560,-12784,0.02580,0.99524,0.09397,-0.99564,0.03402,-0.08690,-0.08968,-0.09132,0.99177,4.73722,4.73830
2.630406,-0.86082,-0.58265,9.38764,,-0.01092,0.54460,0.05558,0.00261,-0.06831,0.15421,12560,-12784,0.02526,0.99521,0.09445,-0.99565,0.03352,-0.08697,-0.08972,-0.09184,0.99172,4.73722,4.73775
2.643625,-0.84197,-0.53689,9.40619,,-0.00994,0.54250,0.05362,-0.02364,0.09794,0.09733,12560,-12784,0.02461,0.99521,0.09458,-0.99567,0.03288,-0.08699,-0.08969,-0.09203,0.99171,4.73722,4.73710
2.666613,-0.85364,-0.58923,9.40858,,-0.00896,0.54040,0.05166,-0.29489,0.04544,0.11046,12560,-12784,0.02386,0.99525,0.09442,-0.99568,0.03213,-0.08706,-0.08968,-0.09193,0.99172,4.73722,4.73635
2.679279,-0.84227,-0.55813,9.48156,,-0.00700,0.54600,0.04900,-0.00614,0.20294,0.14546,12560,-12784,0.02284,0.99533,0.09382,-0.99571,0.03106,-0.08712,-0.08962,-0.09142,0.99177,4.73722,4.73532
2.692693,-0.85005,-0.52822,9.39961,,-0.00700,0.54600,0.04900,-0.03239,0.18544,0.06671,12560,-12784,0.02193,0.99540,0.09325,-0.99574,0.03010,-0.08717,-0.08958,-0.09094,0.99182,4.73722,4.73441
2.706142,-0.84018,-0.54975,9.39661,,-0.02688,0.54600,0.03584,0.03323,0.04981,0.13671,12560,-12784,0.02434,0.99557,0.09079,-0.99569,0.03227,-0.08695,-0.08949,-0.08828,0.99207,4.73722,4.73683
2.729419,-0.84467,-0.55095,9.41755,,-0.01344,0.54292,0.05516,-0.01489,-0.08581,0.21546,12560,-12784,0.02434,0.99551,0.09149,-0.99569,0.03234,-0.08696,-0.08953,-0.08898,0.99200,4.73722,4.73683
2.742801,-0.83629,-0.53599,9.40918,,-0.01344,0.54292,0.05516,0.05511,-0.00706,0.11046,12560,-12784,0.02437,0.99545,0.09213,-0.99569,0.03242,-0.08695,-0.08954,-0.08961,0.99194,4.73722,4.73686
2.756203,-0.86560,-0.54377,9.42294,,-0.01708,0.54628,0.04200,0.13386,-0.05956,0.09296,12560,-12784,0.02497,0.99557,0.09070,-0.99567,0.03289,-0.08693,-0.08953,-0.08814,0.99208,4.73722,4.73746
2.769541,-0.84287,-0.56172,9.41157,,-0.01806,0.54376,0.04578,-0.02802,0.19856,0.16733,12560,-12784,0.02566,0.99561,0.08997,-0.99566,0.03350,-0.08680,-0.08944,-0.08735,0.99215,4.73722,4.73815
2.793077,-0.83270,-0.55394,9.39961,,-0.01904,0.54124,0.04956,-0.01489,-0.01581,0.19796,12560,-12784,0.02648,0.99560,0.08992,-0.99564,0.03431,-0.08672,-0.08943,-0.08723,0.99217,4.73722,4.73898
2.806106,-0.84168,-0.56052,9.39781,,-0.01624,0.54824,0.04676,0.18636,-0.05956,0.26796,12560,-12784,0.02671,0.99564,0.08940,-0.99564,0.03449,-0.08672,-0.08942,-0.08669,0.99221,4.73722,4.73921
2.819265,-0.84586,-0.55633,9.40379,,-0.01624,0.54824,0.04676,0.37011,0.10669,0.22421,12560,-12784,0.02693,0.99567,0.08895,-0.99563,0.03467,-0.08668,-0.08939,-0.08623,0.99226,4.73722,4.73943
2.832263,-0.83898,-0.57936,9.40798,,-0.03164,0.54292,0.05208,0.12073,0.06731,0.04921,12560,-12784,0.02975,0.99555,0.08941,-0.99555,0.03751,-0.08640,-0.08937,-0.08644,0.99224,4.73722,4.74226
2.855428,-0.83510,-0.54437,9.35354,,-0.01680,0.54096,0.05698,-0.07614,0.13294,0.11046,12560,-12784,0.02985,0.99545,0.09052,-0.99555,0.03771,-0.08635,-0.08937,-0.08754,0.99214,4.73722,4.74237
2.868164,-0.85663,-0.54736,9.39123,,-0.01680,0.54096,0.05698,-0.10239,0.01044,0.25046,12560,-12784,0.02992,0.99535,0.09153,-0.99555,0.03786,-0.08634,-0.08941,-0.08854,0.99205,4.73722,4.74243
2.880908,-0.85364,-0.55573,9.42353,,-0.02100,0.53396,0.05208,0.14261,0.01044,0.03171,12560,-12784,0.03077,0.99530,0.09187,-0.99552,0.03873,-0.08627,-0.08942,-0.08880,0.99203,4.73722,4.74328
2.894765,-0.84467,-0.57787,9.38644,,-0.02100,0.53396,0.05208,0.09011,0.16794,-0.00329,12560,-12784,0.03154,0.99524,0.09217,-0.99550,0.03953,-0.08616,-0.08940,-0.08904,0.99201,4.73722,4.74407
2.908720,-0.85484,-0.56411,9.39691,,-0.02100,0.54656,0.04830,0.01136,0.06731,0.12796,12560,-12784,0.03212,0.99527,0.09168,-0.99548,0.04006,-0.08609,-0.08936,-0.08850,0.99206,4.73722,4.74464
2.932265,-0.86859,-0.54676,9.39661,,-0.02184,0.53732,0.05222,0.21261,0.10669,0.19796,12560,-12784,0.03285,0.99522,0.09198,-0.99546,0.04081,-0.08602,-0.08936,-0.08873,0.99204,4.73722,4.74538
2.945296,-0.84526,-0.56770,9.23091,,-0.02184,0.53732,0.05222,0.07261,0.15044,0.08421,12560,-12784,0.03354,0.99517,0.09224,-0.99544,0.04152,-0.08593,-0.08935,-0.08894,0.99202,4.73722,4.74607
2.958582,-0.80818,-0.57787,9.43610,,-0.01512,0.54460,0.04802,-0.00614,0.00169,0.08421,12560,-12784,0.03300,0.99524,0.09172,-0.99546,0.04093,-0.08597,-0.08931,-0.08846,0.99207,4.73722,4.74553
2.972010,-0.84855,-0.55065,9.39482,,-0.01680,0.54306,0.04578,-0.09802,-0.03331,0.01858,12560,-12784,0.03280,0.99532,0.09088,-0.99546,0.04066,-0.08601,-0.08930,-0.08765,0.99214,4.73722,4.74533
2.995562,-0.82253,-0.55454,9.39063,,-0.01848,0.54152,0.04354,-0.03239,0.09794,0.10171,12560,-12784,0.03290,0.99541,0.08983,-0.99547,0.04066,-0.08598,-0.08924,-0.08659,0.99224,4.73722,4.74542
3.008290,-0.85723,-0.54377,9.38704,,-0.02184,0.54516,0.04956,-0.15489,0.05419,0.06671,12560,-12784,0.03353,0.99540,0.08971,-0.99545,0.04128,-0.08593,-0.08924,-0.08642,0.99225,4.73722,4.74606
3.021117,-0.84347,-0.55813,9.42054,,-0.02184,0.54516,0.04956,-0.14614,-0.12956,0.18046,12560,-12784,0.03408,0.99539,0.08961,-0.99543,0.04182,-0.08591,-0.08926,-0.08627,0.99227,4.73722,4.74661
3.034129,-0.85095,-0.56231,9.47976,,-0.02240,0.53844,0.06524,0.04198,0.11544,0.11483,12560,-12784,0.03473,0.99515,0.09204,-0.99540,0.04267,-0.08579,-0.08930,-0.08864,0.99205,4.73722,4.74726
3.057253,-0.82134,-0.58086,9.24407,,-0.02296,0.53844,0.06524,-0.08489,0.06294,0.18921,12560,-12784,0.03541,0.99492,0.09424,-0.99537,0.04355,-0.08569,-0.08936,-0.09077,0.99185,4.73722,4.74795
3.069998,-0.85484,-0.56710,9.35594,,-0.02716,0.54656,0.05138,-0.04114,0.04544,0.05796,12560,-12784,0.03669,0.99489,0.09402,-0.99532,0.04479,-0.08558,-0.08935,-0.09044,0.99189,4.73722,4.74923
3.082954,-0.84347,-0.55334,9.44208,,-0.02716,0.54656,0.05194,0.10761,0.06294,0.09296,12560,-12784,0.03784,0.99486,0.09392,-0.99528,0.04593,-0.08546,-0.08933,-0.09025,0.99190,4.73722,4.75039
3.095792,-0.85005,-0.56231,9.40678,,-0.02408,0.54040,0.05194,0.02011,0.11106,0.05358,12560,-12784,0.03843,0.99484,0.09391,-0.99526,0.04650,-0.08537,-0.08930,-0.09018,0.99191,4.73722,4.75098
3.118864,-0.83270,-0.54257,9.46002,,-0.01876,0.53900,0.05124,0.16011,0.28169,0.04046,12560,-12784,0.03810,0.99486,0.09382,-0.99528,0.04616,-0.08535,-0.08924,-0.09012,0.99192,4.73722,4.75065
3.131535,-0.85424,-0.56530,9.40798,,-0.01876,0.53900,0.05124,-0.17239,0.08044,0.24171,12560,-12784,0.03775,0.99489,0.09369,-0.99530,0.04580,-0.08537,-0.08922,-0.09002,0.99193,4.73722,4.75030
3.144541,-0.82822,-0.56142,9.44148,,-0.01540,0.54516,0.05474,-0.08927,-0.07269,0.18921,12560,-12784,0.03682,0.99489,0.09401,-0.99533,0.04491,-0.08547,-0.08925,-0.09043,0.99190,4.73722,4.74936
3.167556,-0.84108,-0.56710,9.44567,,-0.01792,0.54656,0.05264,-0.13739,0.15919,0.01421,12560,-12784,0.03645,0.99491,0.09398,-0.99534,0.04454,-0.08548,-0.08923,-0.09042,0.99190,4.73722,4.74900
3.180216,-0.83210,-0.56889,9.37269,,-0.01792,0.54656,0.05264,0.03761,0.17669,-0.05579,12560,-12784,0.03613,0.99492,0.09398,-0.99536,0.04422,-0.08547,-0.08920,-0.09045,0.99190,4.73722,4.74868
3.193081,-0.83270,-0.56172,9.41636,,-0.02044,0.54404,0.05572,0.04636,-0.03331,0.09296,12560,-12784,0.03625,0.99487,0.09448,-0.99535,0.04438,-0.08546,-0.08922,-0.09094,0.99185,4.73722,4.74879
3.205940,-0.82732,-0.55603,9.38884,,-0.01988,0.54110,0.05145,-1.41052,0.12419,0.11921,12560,-12784,0.03624,0.99492,0.09387,-0.99536,0.04432,-0.08543,-0.08916,-0.09034,0.99191,4.73722,4.74878
3.229006,-0.85603,-0.54975,9.44686,,-0.01932,0.53816,0.04718,0.08136,0.01044,-0.02079,12560,-12784,0.03621,0.99499,0.09318,-0.99536,0.04423,-0.08545,-0.08914,-0.08965,0.99198,4.73722,4.74875
3.241688,-0.86201,-0.53300,9.40319,,-0.01624,0.53200,0.05432,-0.04114,-0.10331,0.16296,12560,-12784,0.03567,0.99496,0.09369,-0.99538,0.04373,-0.08553,-0.08920,-0.09021,0.99192,4.73722,4.74820
3.254596,-0.85125,-0.56830,9.40020,,-0.01624,0.53200,0.05432,0.02011,-0.05956,0.20671,12560,-12784,0.03516,0.99493,0.09419,-0.99539,0.04328,-0.08559,-0.08924,-0.09075,0.99187,4.73722,4.74770
3.267408,-0.83031,-0.55663,9.40409,,-0.01176,0.53256,0.06020,-0.13302,-0.05081,-0.00767,12560,-12784,0.03399,0.99485,0.09549,-0.99542,0.04223,-0.08571,-0.08930,-0.09214,0.99173,4.73722,4.74652
3.290561,-0.80997,-0.55454,9.42593,,-0.01456,0.53340,0.05572,0.08136,0.10669,0.04046,12560,-12784,0.03338,0.99482,0.09602,-0.99545,0.04168,-0.08573,-0.08929,-0.09272,0.99168,4.73722,4.74591
3.303528,-0.82373,-0.55633,9.39123,,-0.01456,0.53340,0.05572,0.03761,-0.11206,-0.02954,12560,-12784,0.03284,0.99479,0.09650,-0.99546,0.04118,-0.08580,-0.08932,-0.09325,0.99163,4.73722,4.74536
3.316447,-0.84407,-0.56231,9.46062,,-0.02324,0.54264,0.04998,0.09886,-0.16894,0.20671,12560,-12784,0.03366,0.99482,0.09596,-0.99543,0.04195,-0.08578,-0.08936,-0.09263,0.99168,4.73722,4.74619
3.339462,-0.85125,-0.57069,9.42712,,-0.02324,0.54264,0.04424,0.03761,0.13294,0.27671,12560,-12784,0.03443,0.99492,0.09457,-0.99541,0.04259,-0.08570,-0.08929,-0.09119,0.99182,4.73722,4.74696
3.352203,-0.84407,-0.58684,9.40619,,-0.01596,0.54348,0.04424,-0.11114,0.04544,0.14546,12560,-12784,0.03393,0.99506,0.09327,-0.99543,0.04198,-0.08575,-0.08924,-0.08994,0.99194,4.73722,4.74646
3.365324,-0.84287,-0.55454,9.38345,,-0.01596,0.54348,0.04452,-0.03239,0.15044,0.19796,12560,-12784,0.03348,0.99518,0.09213,-0.99545,0.04143,-0.08577,-0.08917,-0.08884,0.99205,4.73722,4.74601
3.378192,-0.85394,-0.55484,9.43490,,-0.01680,0.54208,0.04452,-0.03239,-0.11206,0.11921,12560,-12784,0.03320,0.99529,0.09110,-0.99546,0.04106,-0.08585,-0.08918,-0.08784,0.99213,4.73722,4.74573
3.401573,-0.83390,-0.57368,9.42952,,-0.02268,0.54320,0.05432,-0.04989,0.01919,0.09296,12560,-12784,0.03396,0.99521,0.09165,-0.99544,0.04186,-0.08577,-0.08919,-0.08832,0.99209,4.73722,4.74649
3.414324,-0.85304,-0.56231,9.48754,,-0.02268,0.54320,0.05432,0.07261,0.05419,0.12796,12560,-12784,0.03464,0.99514,0.09216,-0.99541,0.04258,-0.08569,-0.08920,-0.08877,0.99205,4.73722,4.74717
3.427303,-0.84706,-0.57547,9.37687,,-0.02240,0.53648,0.04900,-0.01489,-0.13831,0.18046,12560,-12784,0.03524,0.99514,0.09192,-0.99539,0.04316,-0.08567,-0.08922,-0.08847,0.99207,4.73722,4.74777
3.440526,-0.84885,-0.54646,9.38076,,-0.01302,0.53816,0.04802,-0.05864,-0.02894,0.10171,12560,-12784,0.03420,0.99522,0.09148,-0.99542,0.04209,-0.08579,-0.08923,-0.08812,0.99210,4.73722,4.74673
3.463837,-0.85543,-0.56052,9.40858,,-0.00364,0.53984,0.04704,0.12511,0.20294,0.06671,12560,-12784,0.03170,0.99535,0.09094,-0.99551,0.03956,-0.08599,-0.08919,-0.08781,0.99214,4.73722,4.74422
3.477041,-0.84586,-0.55992,9.39841,,-0.01456,0.54096,0.05418,0.09886,-0.11206,0.18046,12560,-12784,0.03123,0.99531,0.09154,-0.99552,0.03915,-0.08605,-0.08923,-0.08844,0.99208,4.73722,4.74375
3.490990,-0.83689,-0.54317,9.38286,,-0.01456,0.54096,0.01834,0.26511,0.04544,0.04921,12560,-12784,0.03081,0.99576,0.08662,-0.99555,0.03829,-0.08612,-0.08907,-0.08359,0.99251,4.73722,4.74332
3.504630,-0.82672,-0.58385,9.37388,,-0.01148,0.54404,0.04662,0.05511,0.02794,0.02296,12560,-12784,0.02992,0.99581,0.08641,-0.99558,0.03740,-0.08619,-0.08906,-0.08345,0.99252,4.73722,4.74244
3.518745,-0.84526,-0.55274,9.42981,,-0.01484,0.54292,0.05040,0.13823,-0.06394,0.11483,12560,-12784,0.02965,0.99578,0.08682,-0.99558,0.03716,-0.08623,-0.08909,-0.08388,0.99248,4.73722,4.74216
3.542925,-0.84586,-0.53480,9.39721,,-0.01820,0.54180,0.05026,-0.04114,-0.03331,0.21546,12560,-12784,0.02996,0.99575,0.08713,-0.99557,0.03750,-0.08621,-0.08911,-0.08416,0.99246,4.73722,4.74248
3.556126,-0.83510,-0.56530,9.42294,,-0.01904,0.54404,0.05026,-0.02364,-0.05081,0.19796,12560,-12784,0.03037,0.99571,0.08741,-0.99556,0.03793,-0.08618,-0.08913,-0.08440,0.99244,4.73722,4.74289
3.570369,-0.84168,-0.52822,9.38286,,-0.01904,0.54628,0.04326,0.04636,-0.05956,0.19796,12560,-12784,0.03073,0.99577,0.08656,-0.99555,0.03822,-0.08617,-0.08911,-0.08353,0.99251,4.73722,4.74325
3.584037,-0.83031,-0.53719,9.36491,,-0.01988,0.54628,0.04326,0.08136,0.09794,0.13671,12560,-12784,0.03121,0.99582,0.08580,-0.99554,0.03862,-0.08611,-0.08907,-0.08273,0.99258,4.73722,4.74373
3.598270,-0.83689,-0.54616,9.34457,,-0.01260,0.54320,0.05236,-0.00614,-0.19081,0.17171,12560,-12784,0.03045,0.99579,0.08651,-0.99555,0.03794,-0.08621,-0.08913,-0.08350,0.99251,4.73722,4.74297
3.611795,-0.85603,-0.54706,9.40319,,-0.01386,0.54180,0.05425,-0.01489,-0.23456,0.06233,12560,-12784,0.02999,0.99572,0.08747,-0.99556,0.03757,-0.08634,-0.08926,-0.08449,0.99242,4.73722,4.74250
3.635969,-0.83270,-0.54018,9.40140,,-0.01512,0.54040,0.05614,0.08136,-0.19956,0.13671,12560,-12784,0.02978,0.99562,0.08866,-0.99556,0.03747,-0.08639,-0.08933,-0.08569,0.99231,4.73722,4.74230
3.648748,-0.82851,-0.57667,9.45285,,-0.02016,0.54404,0.05656,0.11636,0.08044,0.08421,12560,-12784,0.03043,0.99550,0.08978,-0.99554,0.03821,-0.08630,-0.08934,-0.08675,0.99222,4.73722,4.74295
3.662212,-0.85184,-0.56411,9.46002,,-0.02016,0.54404,0.05656,0.01136,-0.03331,0.08421,12560,-12784,0.03101,0.99539,0.09077,-0.99551,0.03888,-0.08624,-0.08938,-0.08769,0.99213,4.73722,4.74353
3.676431,-0.83569,-0.58505,9.43669,,-0.02660,0.54824,0.05166,-0.02364,-0.04206,0.03171,12560,-12784,0.03259,0.99533,0.09089,-0.99546,0.04045,-0.08611,-0.08938,-0.08767,0.99213,4.73722,4.74511
3.689897,-0.85543,-0.55484,9.41576,,-0.02072,0.54824,0.05712,0.09886,0.00606,0.07983,12560,-12784,0.03303,0.99523,0.09183,-0.99545,0.04098,-0.08606,-0.08942,-0.08857,0.99205,4.73722,4.74556
3.713949,-0.86082,-0.54138,9.42533,,-0.01484,0.54824,0.06258,-0.02364,0.08044,0.18921,12560,-12784,0.03247,0.99509,0.09346,-0.99546,0.04056,-0.08610,-0.08947,-0.09024,0.99189,4.73722,4.74499
3.726801,-0.84826,-0.55813,9.40499,,-0.01428,0.54404,0.05194,0.24761,0.15919,0.14546,12560,-12784,0.03188,0.99511,0.09347,-0.99548,0.03998,-0.08612,-0.08944,-0.09030,0.99189,4.73722,4.74440
3.740108,-0.85902,-0.56471,9.38286,,-0.01428,0.54404,0.05194,0.09011,-0.04206,0.15421,12560,-12784,0.03134,0.99513,0.09345,-0.99550,0.03944,-0.08619,-0.08946,-0.09033,0.99189,4.73722,4.74386
3.754175,-0.86441,-0.52642,9.38405,,-0.01456,0.54684,0.05978,0.13386,0.01919,-0.02954,12560,-12784,0.03093,0.99504,0.09456,-0.99551,0.03914,-0.08623,-0.08950,-0.09147,0.99178,4.73722,4.74344
3.767321,-0.83958,-0.54227,9.41755,,-0.01498,0.54152,0.05103,0.12073,-0.12956,0.05796,12560,-12784,0.03061,0.99507,0.09435,-0.99551,0.03881,-0.08631,-0.08954,-0.09129,0.99179,4.73722,4.74313
3.790375,-0.85603,-0.59342,9.41097,,-0.01540,0.53620,0.04228,0.06386,-0.06831,0.25921,12560,-12784,0.03038,0.99521,0.09290,-0.99552,0.03845,-0.08636,-0.08952,-0.08986,0.99192,4.73722,4.74289
3.803150,-0.85065,-0.53659,9.39661,,-0.01680,0.54012,0.04634,-0.01489,0.05419,-0.02079,12560,-12784,0.03045,0.99528,0.09210,-0.99552,0.03845,-0.08636,-0.08949,-0.08906,0.99200,4.73722,4.74296
3.816248,-0.86501,-0.56590,9.43460,,-0.01680,0.54012,0.04634,-0.08052,-0.05081,0.16733,12560,-12784,0.03044,0.99535,0.09137,-0.99552,0.03838,-0.08639,-0.08949,-0.08833,0.99206,4.73722,4.74296
3.839076,-0.82672,-0.54437,9.42952,,-0.01316,0.53788,0.04634,0.02011,-0.19081,0.13671,12560,-12784,0.02987,0.99543,0.09075,-0.99554,0.03776,-0.08647,-0.08950,-0.08776,0.99211,4.73722,4.74238
3.851737,-0.84586,-0.56530,9.38345,,-0.01316,0.53788,0.06342,-0.02364,-0.26081,0.20671,12560,-12784,0.02935,0.99525,0.09279,-0.99554,0.03743,-0.08656,-0.08962,-0.08984,0.99192,4.73722,4.74186
3.864647,-0.82253,-0.54317,9.45165,,-0.01540,0.54040,0.06342,0.00261,-0.05081,0.00546,12560,-12784,0.02928,0.99508,0.09460,-0.99554,0.03752,-0.08655,-0.08968,-0.09165,0.99175,4.73722,4.74179
3.877844,-0.85184,-0.55304,9.39871,,-0.01680,0.54404,0.05292,-0.04552,-0.08581,0.23733,12560,-12784,0.02934,0.99508,0.09460,-0.99554,0.03758,-0.08658,-0.08971,-0.09164,0.99174,4.73722,4.74185
3.902112,-0.82373,-0.58624,9.40200,,-0.01820,0.54180,0.05628,0.06386,-0.08581,0.15421,12560,-12784,0.02969,0.99502,0.09518,-0.99552,0.03798,-0.08655,-0.08973,-0.09219,0.99169,4.73722,4.74220
3.916171,-0.82672,-0.54197,9.36192,,-0.01456,0.54180,0.05628,-0.04989,-0.00706,0.18046,12560,-12784,0.02940,0.99498,0.09567,-0.99553,0.03774,-0.08657,-0.08974,-0.09269,0.99164,4.73722,4.74192
3.929476,-0.83988,-0.54556,9.40559,,-0.01456,0.54572,0.05306,-0.17239,0.23794,0.17171,12560,-12784,0.02913,0.99500,0.09554,-0.99554,0.03746,-0.08654,-0.08969,-0.09259,0.99166,4.73722,4.74164
3.942487,-0.83270,-0.58684,9.38764,,-0.01624,0.54572,0.05306,-0.01489,-0.05081,0.12796,12560,-12784,0.02916,0.99500,0.09548,-0.99554,0.03748,-0.08654,-0.08969,-0.09253,0.99166,4.73722,4.74167
3.955654,-0.85872,-0.55125,9.42623,,-0.01610,0.54152,0.04774,0.02448,0.04981,0.20233,12560,-12784,0.02914,0.99508,0.09467,-0.99555,0.03739,-0.08654,-0.08965,-0.09173,0.99174,4.73722,4.74165
3.978969,-0.84826,-0.54676,9.37986,,-0.01596,0.54152,0.08358,0.07261,0.39544,0.11046,12560,-12784,0.02918,0.99463,0.09934,-0.99554,0.03784,-0.08642,-0.08972,-0.09637,0.99129,4.73722,4.74169
3.991680,-0.83510,-0.55932,9.44447,,-0.01764,0.54600,0.05026,-0.18989,-0.21706,0.00546,12560,-12784,0.02946,0.99470,0.09847,-0.99553,0.03804,-0.08644,-0.08973,-0.09548,0.99138,4.73722,4.74197
4.004725,-0.81835,-0.55813,9.36970,,-0.01764,0.54600,0.05530,-0.00614,0.12419,0.17171,12560,-12784,0.02969,0.99470,0.09847,-0.99553,0.03826,-0.08638,-0.08969,-0.09546,0.99138,4.73722,4.74220
4.017728,-0.84616,-0.54885,9.41815,,-0.01932,0.54544,0.05530,-0.11552,-0.01144,0.08858,12560,-12784,0.03017,0.99469,0.09844,-0.99551,0.03874,-0.08634,-0.08969,-0.09539,0.99139,4.73722,4.74269
4.041087,-0.83809,-0.52941,9.43849,,-0.01484,0.54488,0.04914,0.05511,-0.08581,0.10171,12560,-12784,0.02989,0.99478,0.09752,-0.99552,0.03838,-0.08639,-0.08968,-0.09450,0.99148,4.73722,4.74240
4.054036,-0.85244,-0.54855,9.41336,,-0.01484,0.54488,0.04914,0.02011,0.26419,0.18921,12560,-12784,0.02961,0.99487,0.09668,-0.99554,0.03803,-0.08638,-0.08961,-0.09369,0.99156,4.73722,4.74213
4.066970,-0.86321,-0.55992,9.41336,,-0.01848,0.53844,0.05488,-0.02364,-0.05081,0.12796,12560,-12784,0.03001,0.99484,0.09689,-0.99552,0.03845,-0.08636,-0.08964,-0.09387,0.99154,4.73722,4.74253
4.080296,-0.83031,-0.56052,9.39063,,-0.01988,0.54110,0.05495,-0.03239,0.09356,0.14546,12560,-12784,0.03058,0.99481,0.09705,-0.99551,0.03901,-0.08626,-0.08960,-0.09397,0.99153,4.73722,4.74309
4.103528,-0.83151,-0.54556,9.47558,,-0.02128,0.54376,0.05502,-0.09364,-0.08581,0.04921,12560,-12784,0.03134,0.99478,0.09714,-0.99548,0.03978,-0.08620,-0.08961,-0.09400,0.99153,4.73722,4.74386
4.116198,-0.84646,-0.55872,9.36790,,-0.01764,0.54348,0.06006,-0.25989,0.15919,0.21546,12560,-12784,0.03141,0.99469,0.09797,-0.99548,0.03992,-0.08616,-0.08961,-0.09482,0.99145,4.73722,4.74393
4.129139,-0.84287,-0.57069,9.37328,,-0.01764,0.54348,0.06006,0.01136,0.05419,0.10171,12560,-12784,0.03149,0.99461,0.09878,-0.99548,0.04007,-0.08613,-0.08963,-0.09562,0.99137,4.73722,4.74401
4.141942,-0.85693,-0.55872,9.41007,,-0.01456,0.54572,0.04914,0.06823,-0.05519,0.14546,12560,-12784,0.03100,0.99472,0.09785,-0.99549,0.03950,-0.08621,-0.08962,-0.09474,0.99146,4.73722,4.74351
4.165212,-0.82911,-0.53180,9.39243,,-0.00952,0.53816,0.05964,-0.18989,0.08044,0.17171,12560,-12784,0.02977,0.99468,0.09863,-0.99553,0.03835,-0.08631,-0.08963,-0.09562,0.99137,4.73722,4.74228
4.177982,-0.84826,-0.56471,9.40080,,-0.00952,0.53816,0.05964,0.15136,0.10669,-0.01204,12560,-12784,0.02869,0.99463,0.09943,-0.99556,0.03736,-0.08639,-0.08964,-0.09651,0.99129,4.73722,4.74120
4.190935,-0.85543,-0.55753,9.40678,,-0.01680,0.53900,0.05642,0.12511,-0.00269,0.00546,12560,-12784,0.02892,0.99460,0.09966,-0.99555,0.03760,-0.08637,-0.08965,-0.09672,0.99127,4.73722,4.74143
4.214360,-0.83510,-0.55813,9.39003,,-0.00980,0.54544,0.05656,-0.00614,-0.02456,0.31171,12560,-12784,0.02787,0.99462,0.09974,-0.99558,0.03657,-0.08647,-0.08966,-0.09689,0.99125,4.73722,4.74038
4.227065,-0.85065,-0.56231,9.47976,,-0.00980,0.54544,0.05656,-0.08489,-0.01581,0.17171,12560,-12784,0.02695,0.99464,0.09981,-0.99561,0.03566,-0.08657,-0.08967,-0.09704,0.99123,4.73722,4.73945
4.240132,-0.84766,-0.54317,9.41935,,-0.01680,0.54320,0.05348,-0.12864,-0.10331,0.03171,12560,-12784,0.02730,0.99467,0.09943,-0.99560,0.03598,-0.08656,-0.08968,-0.09663,0.99127,4.73722,4.73981
4.252995,-0.86321,-0.57278,9.40977,,-0.01820,0.54418,0.05285,0.13823,-0.12956,0.03171,12560,-12784,0.02784,0.99469,0.09906,-0.99558,0.03649,-0.08657,-0.08973,-0.09621,0.99131,4.73722,4.74035
4.275989,-0.85424,-0.56411,9.40379,,-0.01960,0.54516,0.05222,-0.03239,-0.04206,0.15421,12560,-12784,0.02855,0.99472,0.09855,-0.99556,0.03714,-0.08652,-0.08973,-0.09564,0.99136,4.73722,4.74106
4.288682,-0.82911,-0.55035,9.45823,,-0.01932,0.53984,0.06230,-0.04114,-0.10331,0.32046,12560,-12784,0.02914,0.99459,0.09969,-0.99554,0.03784,-0.08646,-0.08976,-0.09673,0.99125,4.73722,4.74165
4.301660,-0.85424,-0.59282,9.38286,,-0.01932,0.53984,0.06230,-0.04989,-0.02456,0.22421,12560,-12784,0.02970,0.99447,0.10075,-0.99552,0.03849,-0.08640,-0.08980,-0.09773,0.99115,4.73722,4.74222
4.315175,-0.86411,-0.53868,9.38944,,-0.00504,0.54236,0.05152,0.01573,-0.05956,0.19796,12560,-12784,0.02778,0.99460,0.10002,-0.99557,0.03652,-0.08663,-0.08982,-0.09717,0.99121,4.73722,4.74029
4.339342,-0.84646,-0.57129,9.35295,,-0.04088,0.53760,0.06048,-0.16364,0.14169,0.24171,12560,-12784,0.03208,0.99439,0.10080,-0.99544,0.04085,-0.08617,-0.08980,-0.09757,0.99117,4.73722,4.74461
4.352179,-0.84885,-0.54437,9.42533,,-0.01792,0.53760,0.06048,0.05511,-0.00706,0.21546,12560,-12784,0.03216,0.99431,0.10151,-0.99544,0.04099,-0.08616,-0.08983,-0.09828,0.99110,4.73722,4.74468
4.365179,-0.83928,-0.53180,9.38525,,-0.01540,0.53956,0.04788,-0.01489,0.00169,0.03171,12560,-12784,0.03182,0.99446,0.10019,-0.99545,0.04054,-0.08621,-0.08979,-0.09700,0.99123,4.73722,4.74435
4.378123,-0.84227,-0.56979,9.38525,,-0.01540,0.53956,0.06580,-0.14177,0.04106,0.18483,12560,-12784,0.03147,0.99432,0.10169,-0.99546,0.04032,-0.08621,-0.08982,-0.09852,0.99107,4.73722,4.74399
4.401172,-0.85184,-0.56590,9.42353,,-0.02044,0.54236,0.05180,-0.20739,-0.05081,-0.00329,12560,-12784,0.03203,0.99438,0.10090,-0.99544,0.04081,-0.08618,-0.08981,-0.09768,0.99116,4.73722,4.74456
4.414004,-0.83450,-0.57009,9.41695,,-0.02044,0.54236,0.05180,-0.17239,-0.17331,0.28546,12560,-12784,0.03248,0.99444,0.10019,-0.99543,0.04119,-0.08617,-0.08982,-0.09694,0.99123,4.73722,4.74501
4.426742,-0.84526,-0.57966,9.37568,,-0.02156,0.54040,0.05446,-0.18114,0.08919,0.01421,12560,-12784,0.03315,0.99444,0.09998,-0.99541,0.04184,-0.08609,-0.08980,-0.09667,0.99126,4.73722,4.74568
4.439774,-0.84108,-0.56441,9.42742,,-0.01890,0.53914,0.03290,-0.06302,-0.03769,-0.02079,12560,-12784,0.03331,0.99477,0.09652,-0.99541,0.04169,-0.08612,-0.08970,-0.09321,0.99160,4.73722,4.74584
4.463960,-0.86680,-0.56112,9.42473,,-0.01624,0.53788,0.04718,-0.03239,0.01919,0.15421,12560,-12784,0.03300,0.99488,0.09557,-0.99542,0.04129,-0.08617,-0.08968,-0.09229,0.99169,4.73722,4.74552
4.476752,-0.85184,-0.55155,9.39183,,-0.01904,0.53508,0.05544,0.00261,-0.17331,-0.00329,12560,-12784,0.03323,0.99482,0.09602,-0.99541,0.04157,-0.08619,-0.08973,-0.09271,0.99164,4.73722,4.74576
4.489888,-0.84586,-0.55693,9.37568,,-0.01904,0.53508,0.05418,-0.25114,-0.03331,0.14546,12560,-12784,0.03341,0.99480,0.09618,-0.99540,0.04176,-0.08618,-0.08975,-0.09286,0.99163,4.73722,4.74594
4.504342,-0.82612,-0.55633,9.37508,,-0.01176,0.54040,0.05418,0.14261,-0.07706,0.13671,12560,-12784,0.03233,0.99482,0.09633,-0.99544,0.04070,-0.08629,-0.08977,-0.09310,0.99160,4.73722,4.74485
4.518636,-0.82433,-0.55872,9.39123,,-0.01344,0.54292,0.05600,0.30886,0.14169,0.01421,12560,-12784,0.03165,0.99481,0.09673,-0.99546,0.04006,-0.08632,-0.08974,-0.09356,0.99156,4.73722,4.74417
4.532970,-0.85065,-0.54108,9.36760,,-0.01344,0.54180,0.06013,-0.17677,-0.06394,0.20233,12560,-12784,0.03096,0.99474,0.09760,-0.99548,0.03946,-0.08640,-0.08980,-0.09449,0.99147,4.73722,4.74348
4.556721,-0.83390,-0.57368,9.42353,,-0.01736,0.54068,0.06426,-0.07614,0.00169,0.13671,12560,-12784,0.03104,0.99459,0.09911,-0.99547,0.03968,-0.08637,-0.08984,-0.09598,0.99132,4.73722,4.74356
4.569666,-0.83210,-0.58624,9.36311,,0.01848,0.54768,0.06706,0.05511,-0.12081,0.25046,12560,-12784,0.02517,0.99459,0.10079,-0.99563,0.03401,-0.08697,-0.08992,-0.09816,0.99110,4.73722,4.73766
4.582694,-0.88834,-0.55573,9.39961,,-0.01428,0.54768,0.06706,0.06386,0.02794,0.03171,12560,-12784,0.02526,0.99443,0.10233,-0.99562,0.03424,-0.08696,-0.08998,-0.09968,0.99094,4.73722,4.73775
4.595823,-0.85095,-0.53898,9.40110,,-0.01540,0.53956,0.05474,-0.08052,0.03669,0.13671,12560,-12784,0.02551,0.99446,0.10196,-0.99562,0.03445,-0.08693,-0.08996,-0.09930,0.99098,4.73722,4.73801
4.619127,-0.87278,-0.57488,9.46481,,-0.01652,0.53956,0.06048,-0.22489,-0.01581,0.26796,12560,-12784,0.02593,0.99439,0.10251,-0.99561,0.03491,-0.08690,-0.08999,-0.09980,0.99093,4.73722,4.73842
4.632126,-0.84108,-0.53898,9.39542,,-0.01540,0.54824,0.06048,0.11636,0.06294,0.11046,12560,-12784,0.02611,0.99435,0.10290,-0.99560,0.03513,-0.08686,-0.08998,-0.10018,0.99089,4.73722,4.73861
4.645325,-0.83091,-0.56291,9.37927,,-0.01540,0.51240,0.07084,-0.22489,0.14169,0.13671,12560,-12784,0.02646,0.99407,0.10549,-0.99559,0.03571,-0.08676,-0.09002,-0.10273,0.99063,4.73722,4.73896
4.658631,-0.82911,-0.56381,9.41636,,-0.01708,0.54404,0.07084,-0.04989,-0.16019,0.13233,12560,-12784,0.02686,0.99387,0.10722,-0.99557,0.03627,-0.08675,-0.09010,-0.10442,0.99044,4.73722,4.73937
4.681943,-0.80937,-0.72024,9.42174,,-0.02688,0.54152,0.05110,0.05511,0.16794,0.07546,12560,-12784,0.02890,0.99395,0.10599,-0.99552,0.03817,-0.08649,-0.09001,-0.10301,0.99060,4.73722,4.74141
4.694981,-0.91466,-0.52702,9.48096,,-0.02688,0.54152,0.05110,-0.18989,0.18544,0.08421,12560,-12784,0.03076,0.99403,0.10471,-0.99547,0.03990,-0.08631,-0.08997,-0.10158,0.99075,4.73722,4.74328
4.708371,-0.84467,-0.52762,9.47618,,-0.01764,0.54572,0.05684,0.14261,-0.00706,0.11046,12560,-12784,0.03088,0.99406,0.10440,-0.99547,0.03999,-0.08629,-0.08996,-0.10126,0.99078,4.73722,4.74340
4.721876,-0.83270,-0.55573,9.46002,,-0.01764,0.50988,0.05824,0.00261,0.08919,0.02296,12560,-12784,0.03122,0.99399,0.10493,-0.99546,0.04037,-0.08623,-0.08995,-0.10176,0.99073,4.73722,4.74374
4.735374,-0.85304,-0.54168,9.40499,,-0.01764,0.54292,0.05824,-0.15489,0.09794,0.10171,12560,-12784,0.03131,0.99400,0.10479,-0.99546,0.04044,-0.08619,-0.08991,-0.10161,0.99075,4.73722,4.74383
4.758749,-0.84048,-0.56471,9.41516,,-0.01876,0.54460,0.04522,-0.03239,-0.15581,0.15421,12560,-12784,0.03155,0.99421,0.10273,-0.99545,0.04050,-0.08622,-0.08988,-0.09954,0.99097,4.73722,4.74407
4.771516,-0.86142,-0.55573,9.53600,,-0.01876,0.54460,0.04522,-0.19864,0.04544,-0.02079,12560,-12784,0.03181,0.99440,0.10081,-0.99545,0.04058,-0.08621,-0.08982,-0.09761,0.99116,4.73722,4.74433
4.784501,-0.86231,-0.54018,9.40678,,-0.01848,0.54460,0.06090,-0.02364,-0.04206,0.18483,12560,-12784,0.03194,0.99433,0.10145,-0.99544,0.04077,-0.08621,-0.08986,-0.09824,0.99110,4.73722,4.74446
4.807855,-0.83390,-0.52343,9.40140,,-0.01456,0.54348,0.05824,0.15136,0.05419,-0.02079,12560,-12784,0.03149,0.99432,0.10168,-0.99546,0.04034,-0.08624,-0.08985,-0.09850,0.99107,4.73722,4.74401
4.821483,-0.84048,-0.56172,9.39781,,-0.01456,0.54348,0.05824,-0.13739,-0.14706,0.22421,12560,-12784,0.03102,0.99432,0.10185,-0.99547,0.03989,-0.08631,-0.08989,-0.09871,0.99105,4.73722,4.74354
4.834682,-0.83270,-0.53719,9.44148,,-0.02464,0.54264,0.04956,-0.16364,-0.00706,-0.03829,12560,-12784,0.03232,0.99439,0.10070,-0.99543,0.04109,-0.08619,-0.08985,-0.09745,0.99118,4.73722,4.74485
4.847822,-0.83510,-0.55633,9.25544,,-0.02464,0.54264,0.04956,0.15136,0.01919,0.04046,12560,-12784,0.03349,0.99445,0.09972,-0.99540,0.04216,-0.08609,-0.08981,-0.09638,0.99128,4.73722,4.74603
4.861093,-0.84287,-0.55932,9.42054,,-0.01792,0.54292,0.05684,-0.04552,0.11106,0.02296,12560,-12784,0.03345,0.99444,0.09987,-0.99540,0.04212,-0.08605,-0.08978,-0.09653,0.99127,4.73722,4.74598
4.884661,-0.83151,-0.55633,9.39542,,-0.01988,0.54404,0.05572,-0.06739,0.06294,0.25921,12560,-12784,0.03368,0.99443,0.09983,-0.99539,0.04234,-0.08601,-0.08976,-0.09647,0.99128,4.73722,4.74621
4.897545,-0.84227,-0.53420,9.39721,,-0.01988,0.54404,0.05572,-0.08489,0.22919,0.27671,12560,-12784,0.03389,0.99443,0.09977,-0.99539,0.04254,-0.08594,-0.08971,-0.09640,0.99129,4.73722,4.74642
4.910554,-0.84945,-0.55394,9.35653,,-0.01344,0.54124,0.04690,0.05511,0.22044,0.18921,12560,-12784,0.03303,0.99459,0.09846,-0.99543,0.04157,-0.08600,-0.08963,-0.09517,0.99142,4.73722,4.74556
4.923625,-0.83988,-0.55513,9.42413,,-0.01260,0.54460,0.04564,0.01573,0.00606,-0.02954,12560,-12784,0.03214,0.99476,0.09702,-0.99546,0.04056,-0.08610,-0.08958,-0.09381,0.99155,4.73722,4.74466
4.946630,-0.83091,-0.58983,9.39661,,-0.01176,0.54796,0.04438,-0.10239,0.22044,0.03171,12560,-12784,0.03117,0.99494,0.09547,-0.99550,0.03945,-0.08616,-0.08949,-0.09236,0.99170,4.73722,4.74368
4.959321,-0.87637,-0.55155,9.43251,,-0.01764,0.54124,0.05600,-0.08489,0.12419,-0.08204,12560,-12784,0.03132,0.99490,0.09590,-0.99549,0.03964,-0.08614,-0.08950,-0.09277,0.99166,4.73722,4.74384
4.972222,-0.84766,-0.56381,9.41606,,-0.01778,0.54320,0.05131,-0.01489,-0.01581,0.06233,12560,-12784,0.03142,0.99493,0.09556,-0.99549,0.03971,-0.08614,-0.08949,-0.09243,0.99169,4.73722,4.74394
4.995381,-0.85304,-0.56351,9.42712,,-0.01792,0.54516,0.04662,-0.01489,0.14169,0.24171,12560,-12784,0.03150,0.99502,0.09452,-0.99549,0.03970,-0.08611,-0.08944,-0.09138,0.99179,4.73722,4.74402
5.008077,-0.82014,-0.55454,9.42892,,-0.01764,0.54936,0.05292,0.09011,0.07169,0.05796,12560,-12784,0.03155,0.99503,0.09448,-0.99550,0.03974,-0.08608,-0.08941,-0.09134,0.99180,4.73722,4.74407
5.021059,-0.85244,-0.57428,9.38944,,-0.01764,0.54936,0.05292,0.04636,0.02794,0.27671,12560,-12784,0.03154,0.99503,0.09444,-0.99550,0.03973,-0.08608,-0.08941,-0.09130,0.99180,4.73722,4.74407
5.034162,-0.84676,-0.55095,9.38854,,-0.01568,0.54068,0.05670,0.13386,0.03669,0.12358,12560,-12784,0.03128,0.99497,0.09513,-0.99550,0.03952,-0.08609,-0.08942,-0.09201,0.99174,4.73722,4.74380
5.057219,-0.83330,-0.55633,9.40798,,-0.00980,0.54712,0.06426,0.12511,-0.17331,0.18046,12560,-12784,0.03004,0.99485,0.09676,-0.99553,0.03845,-0.08622,-0.08950,-0.09374,0.99157,4.73722,4.74256
5.069934,-0.85603,-0.54497,9.39661,,-0.00980,0.54712,0.06426,0.30011,-0.09456,0.13671,12560,-12784,0.02893,0.99474,0.09828,-0.99556,0.03749,-0.08635,-0.08958,-0.09535,0.99141,4.73722,4.74144
5.082902,-0.81894,-0.55274,9.37807,,-0.00840,0.54628,0.06608,0.05511,0.23794,0.02296,12560,-12784,0.02772,0.99461,0.09991,-0.99559,0.03643,-0.08640,-0.08957,-0.09707,0.99124,4.73722,4.74023
5.095846,-0.84676,-0.55424,9.40619,,-0.00840,0.54628,0.05845,-0.02364,0.15044,-0.02517,12560,-12784,0.02663,0.99461,0.10023,-0.99563,0.03537,-0.08646,-0.08953,-0.09749,0.99120,4.73722,4.73913
5.118856,-0.80518,-0.56530,9.41815,,-0.01512,0.54208,0.05082,-0.16364,0.12419,0.21546,12560,-12784,0.02671,0.99469,0.09943,-0.99563,0.03537,-0.08641,-0.08947,-0.09669,0.99129,4.73722,4.73921
5.131514,-0.83928,-0.51924,9.40678,,-0.01512,0.54208,0.04662,0.07261,0.15919,0.05796,12560,-12784,0.02680,0.99482,0.09808,-0.99564,0.03534,-0.08638,-0.08940,-0.09533,0.99142,4.73722,4.73930
5.144674,-0.85065,-0.53779,9.40020,,-0.01568,0.54824,0.04662,-0.20739,0.11544,0.02296,12560,-12784,0.02696,0.99495,0.09673,-0.99564,0.03538,-0.08636,-0.08935,-0.09398,0.99156,4.73722,4.73946
5.157461,-0.84018,-0.57787,9.41845,,-0.01512,0.54390,0.06748,0.12511,0.02794,0.15421,12560,-12784,0.02700,0.99474,0.09880,-0.99563,0.03560,-0.08632,-0.08939,-0.09604,0.99136,4.73722,4.73950
5.180632,-0.82313,-0.54975,9.44028,,-0.01456,0.53956,0.05250,-0.07614,-0.08581,-0.04704,12560,-12784,0.02701,0.99478,0.09842,-0.99563,0.03557,-0.08634,-0.08939,-0.09566,0.99139,4.73722,4.73951
5.193359,-0.85184,-0.55753,9.40020,,-0.01428,0.54656,0.04858,-0.03239,-0.06831,0.09296,12560,-12784,0.02691,0.99488,0.09740,-0.99563,0.03539,-0.08638,-0.08938,-0.09465,0.99149,4.73722,4.73941
5.206391,-0.85155,-0.55364,9.41187,,-0.01400,0.54362,0.05236,-0.10677,-0.00706,0.21546,12560,-12784,0.02673,0.99492,0.09705,-0.99564,0.03518,-0.08640,-0.08938,-0.09432,0.99152,4.73722,4.73923
5.229231,-0.83749,-0.55573,9.39482,,-0.01372,0.54068,0.05614,-0.04114,-0.14706,0.02296,12560,-12784,0.02661,0.99489,0.09737,-0.99564,0.03509,-0.08644,-0.08942,-0.09465,0.99149,4.73722,4.73911
5.241889,-0.82074,-0.54616,9.42712,,-0.01848,0.54348,0.04368,0.15136,-0.03331,0.15421,12560,-12784,0.02724,0.99503,0.09577,-0.99563,0.03557,-0.08639,-0.08937,-0.09300,0.99165,4.73722,4.73974
5.254762,-0.83689,-0.55633,9.40319,,-0.01848,0.54348,0.04368,-0.11989,0.27294,0.00546,12560,-12784,0.02785,0.99516,0.09427,-0.99562,0.03604,-0.08629,-0.08927,-0.09145,0.99180,4.73722,4.74036
5.267583,-0.84257,-0.55095,9.37059,,-0.01848,0.54096,0.04648,-0.07614,-0.05519,0.13233,12560,-12784,0.02837,0.99523,0.09335,-0.99560,0.03648,-0.08627,-0.08926,-0.09049,0.99189,4.73722,4.74088
5.290779,-0.84287,-0.59402,9.38525,,-0.02380,0.54460,0.05236,-0.07614,-0.05956,0.19796,12560,-12784,0.02972,0.99519,0.09340,-0.99556,0.03781,-0.08616,-0.08927,-0.09042,0.99189,4.73722,4.74223
5.303494,-0.82193,-0.54975,9.40738,,-0.02380,0.54460,0.05236,-0.09364,-0.02456,0.02296,12560,-12784,0.03098,0.99515,0.09341,-0.99553,0.03906,-0.08604,-0.08927,-0.09032,0.99190,4.73722,4.74349
5.316368,-0.85783,-0.54377,9.40858,,-0.03024,0.54684,0.04186,0.08136,0.31669,0.09296,12560,-12784,0.03316,0.99522,0.09183,-0.99546,0.04108,-0.08580,-0.08916,-0.08857,0.99207,4.73722,4.74568
5.329216,-0.83121,-0.56441,9.40768,,-0.02646,0.54404,0.04158,-0.11989,0.08481,0.01421,12560,-12784,0.03455,0.99531,0.09034,-0.99543,0.04232,-0.08565,-0.08907,-0.08697,0.99222,4.73722,4.74708
5.352567,-0.83330,-0.55155,9.47618,,-0.02268,0.54124,0.04130,0.20386,0.00169,0.08421,12560,-12784,0.03519,0.99541,0.08904,-0.99541,0.04284,-0.08560,-0.08902,-0.08562,0.99234,4.73722,4.74772
5.365266,-0.84168,-0.55454,9.44985,,-0.01652,0.54600,0.06188,-0.10239,-0.04206,0.23296,12560,-12784,0.03470,0.99526,0.09084,-0.99542,0.04252,-0.08564,-0.08909,-0.08745,0.99218,4.73722,4.74724
5.378320,-0.83868,-0.54706,9.39273,,-0.01652,0.54544,0.05999,0.03761,-0.04644,0.09733,12560,-12784,0.03427,0.99515,0.09224,-0.99543,0.04222,-0.08568,-0.08916,-0.08888,0.99204,4.73722,4.74681
5.401428,-0.87099,-0.55573,9.37149,,-0.01848,0.54488,0.05810,-0.00614,-0.00706,0.16296,12560,-12784,0.03421,0.99506,0.09323,-0.99542,0.04225,-0.08570,-0.08922,-0.08987,0.99195,4.73722,4.74674
5.414166,-0.83450,-0.56650,9.45285,,-0.01848,0.54516,0.04704,0.14261,-0.03331,0.06671,12560,-12784,0.03417,0.99513,0.09248,-0.99543,0.04214,-0.08571,-0.08919,-0.08913,0.99202,4.73722,4.74670
5.427007,-0.83569,-0.54556,9.41935,,-0.01316,0.54516,0.04704,0.02886,0.09794,0.12796,12560,-12784,0.03323,0.99523,0.09177,-0.99546,0.04115,-0.08578,-0.08915,-0.08851,0.99208,4.73722,4.74576
5.439849,-0.85723,-0.55155,9.35833,,-0.01414,0.54096,0.05012,-0.05427,-0.05081,0.11921,12560,-12784,0.03255,0.99526,0.09163,-0.99548,0.04046,-0.08588,-0.08918,-0.08842,0.99208,4.73722,4.74507
5.462999,-0.85843,-0.54437,9.39063,,-0.01512,0.53676,0.05012,0.17761,0.04544,0.04921,12560,-12784,0.03214,0.99528,0.09161,-0.99550,0.04006,-0.08592,-0.08918,-0.08844,0.99208,4.73722,4.74467
5.475702,-0.81655,-0.54796,9.44806,,-0.01400,0.54096,0.05334,-0.13739,0.04544,0.24171,12560,-12784,0.03153,0.99526,0.09196,-0.99552,0.03948,-0.08595,-0.08917,-0.08884,0.99205,4.73722,4.74405
5.488505,-0.86560,-0.56530,9.46122,,-0.01400,0.54096,0.05334,0.28261,-0.01581,0.18921,12560,-12784,0.03099,0.99524,0.09237,-0.99553,0.03898,-0.08601,-0.08920,-0.08929,0.99200,4.73722,4.74350
5.501440,-0.85424,-0.56590,9.42533,,-0.01652,0.54964,0.06384,0.00698,-0.08144,0.15421,12560,-12784,0.03085,0.99508,0.09413,-0.99553,0.03901,-0.08604,-0.08929,-0.09105,0.99184,4.73722,4.74337
5.524660,-0.84227,-0.54317,9.34098,,-0.01428,0.53956,0.05754,0.19511,0.01919,0.29421,12560,-12784,0.03041,0.99501,0.09498,-0.99554,0.03864,-0.08607,-0.08931,-0.09194,0.99175,4.73722,4.74292
5.537390,-0.86560,-0.55573,9.40798,,-0.01428,0.53956,0.05754,0.19511,0.07169,0.28546,12560,-12784,0.03000,0.99495,0.09576,-0.99555,0.03830,-0.08610,-0.08933,-0.09275,0.99167,4.73722,4.74251
5.550308,-0.84407,-0.53420,9.40619,,-0.01092,0.54488,0.05544,0.02011,0.01044,0.10171,12560,-12784,0.02909,0.99495,0.09602,-0.99558,0.03742,-0.08619,-0.08934,-0.09309,0.99164,4.73722,4.74160
5.563310,-0.83898,-0.56052,9.39362,,-0.01316,0.54418,0.05362,0.07261,0.05419,0.12358,12560,-12784,0.02860,0.99497,0.09603,-0.99559,0.03694,-0.08621,-0.08932,-0.09314,0.99164,4.73722,4.74111
5.586459,-0.86740,-0.54736,9.41037,,-0.01540,0.54348,0.05180,0.13386,0.08919,0.18046,12560,-12784,0.02855,0.99499,0.09577,-0.99559,0.03686,-0.08621,-0.08931,-0.09289,0.99166,4.73722,4.74106
5.599147,-0.83868,-0.51745,9.40379,,-0.01680,0.54096,0.05978,0.06386,0.22044,0.10171,12560,-12784,0.02877,0.99489,0.09675,-0.99559,0.03717,-0.08614,-0.08930,-0.09385,0.99157,4.73722,4.74128
5.611986,-0.83868,-0.55872,9.41037,,-0.01806,0.53886,0.05992,0.04198,0.11106,0.19358,12560,-12784,0.02914,0.99479,0.09773,-0.99558,0.03762,-0.08605,-0.08928,-0.09479,0.99149,4.73722,4.74165
5.635084,-0.85184,-0.56411,9.44088,,-0.01932,0.53676,0.06006,0.08136,0.01919,0.11046,12560,-12784,0.02974,0.99467,0.09868,-0.99556,0.03830,-0.08598,-0.08931,-0.09569,0.99140,4.73722,4.74226
5.647767,-0.84586,-0.56052,9.41037,,-0.01764,0.54852,0.05418,0.09886,0.17669,0.19796,12560,-12784,0.02993,0.99469,0.09848,-0.99556,0.03846,-0.08594,-0.08927,-0.09547,0.99142,4.73722,4.74244
5.660760,-0.84347,-0.57667,9.22014,,-0.01764,0.54852,0.05418,0.11636,0.08919,0.04921,12560,-12784,0.03012,0.99470,0.09830,-0.99555,0.03864,-0.08591,-0.08925,-0.09528,0.99144,4.73722,4.74264
5.673782,-0.84227,-0.57368,9.38465,,-0.01876,0.54488,0.05838,0.07698,0.00169,0.10608,12560,-12784,0.03048,0.99464,0.09883,-0.99554,0.03904,-0.08587,-0.08927,-0.09577,0.99139,4.73722,4.74299
5.696956,-0.83629,-0.56291,9.36072,,-0.01400,0.53872,0.05474,0.02886,0.15044,0.22421,12560,-12784,0.03003,0.99465,0.09883,-0.99556,0.03859,-0.08589,-0.08924,-0.09581,0.99139,4.73722,4.74255
5.709630,-0.83510,-0.55394,9.39781,,-0.01400,0.53872,0.05474,0.27386,0.14169,0.35546,12560,-12784,0.02960,0.99466,0.09887,-0.99557,0.03817,-0.08589,-0.08921,-0.09589,0.99139,4.73722,4.74211
5.722631,-0.85783,-0.56112,9.39482,,-0.01540,0.54320,0.05068,0.01136,0.20294,0.08421,12560,-12784,0.02948,0.99473,0.09818,-0.99558,0.03798,-0.08588,-0.08916,-0.09521,0.99146,4.73722,4.74199
5.735637,-0.84915,-0.55573,9.40888,,-0.01540,0.54320,0.05068,0.02886,-0.10769,0.13671,12560,-12784,0.02932,0.99480,0.09755,-0.99558,0.03777,-0.08594,-0.08918,-0.09460,0.99151,4.73722,4.74183
5.758703,-0.88415,-0.56590,9.40140,,-0.01988,0.53928,0.06272,0.00261,0.12419,0.10171,12560,-12784,0.02999,0.99465,0.09887,-0.99556,0.03856,-0.08587,-0.08922,-0.09586,0.99139,4.73722,4.74251
5.771381,-0.81655,-0.56112,9.41396,,-0.01988,0.53928,0.05992,-0.17239,0.01044,0.32046,12560,-12784,0.03055,0.99456,0.09961,-0.99554,0.03918,-0.08579,-0.08922,-0.09655,0.99132,4.73722,4.74307
5.784423,-0.86501,-0.54078,9.42054,,-0.01764,0.54544,0.05992,0.20386,0.08919,0.19796,12560,-12784,0.03068,0.99449,0.10024,-0.99554,0.03936,-0.08576,-0.08924,-0.09716,0.99126,4.73722,4.74320
5.797369,-0.84945,-0.54826,9.39632,,-0.01582,0.54236,0.05845,0.04198,0.15919,0.05796,12560,-12784,0.03054,0.99446,0.10062,-0.99555,0.03925,-0.08573,-0.08920,-0.09755,0.99122,4.73722,4.74305
5.820522,-0.84108,-0.54616,9.42772,,-0.01400,0.53928,0.05698,-0.02364,-0.21706,0.13671,12560,-12784,0.03010,0.99445,0.10078,-0.99555,0.03883,-0.08581,-0.08925,-0.09774,0.99120,4.73722,4.74261
5.833295,-0.83151,-0.54437,9.41097,,-0.01652,0.53816,0.06118,-0.06739,-0.00706,0.20671,12560,-12784,0.03012,0.99437,0.10157,-0.99555,0.03892,-0.08580,-0.08927,-0.09853,0.99112,4.73722,4.74263
5.846238,-0.83689,-0.54796,9.39332,,-0.01442,0.53914,0.05439,-0.09364,0.06731,0.05796,12560,-12784,0.02980,0.99442,0.10122,-0.99556,0.03857,-0.08581,-0.08924,-0.09822,0.99116,4.73722,4.74231
5.869276,-0.84467,-0.57248,9.46541,,-0.01232,0.54012,0.04760,-0.04989,-0.05081,0.02296,12560,-12784,0.02916,0.99457,0.09989,-0.99559,0.03781,-0.08590,-0.08921,-0.09695,0.99128,4.73722,4.74167
5.881928,-0.85962,-0.54556,9.36611,,-0.01960,0.54712,0.05698,-0.02364,-0.03331,0.21546,12560,-12784,0.02972,0.99454,0.09999,-0.99557,0.03838,-0.08587,-0.08924,-0.09700,0.99128,4.73722,4.74223
5.894944,-0.86979,-0.58385,9.34936,,-0.01960,0.54712,0.05698,-0.06739,-0.10331,0.17171,12560,-12784,0.03024,0.99452,0.10010,-0.99555,0.03891,-0.08585,-0.08928,-0.09706,0.99127,4.73722,4.74275
5.907939,-0.84227,-0.56082,9.38136,,-0.01708,0.53928,0.05362,0.05511,0.03231,0.06233,12560,-12784,0.03035,0.99454,0.09982,-0.99555,0.03899,-0.08584,-0.08926,-0.09677,0.99130,4.73722,4.74286
5.931072,-0.81177,-0.55992,9.42832,,-0.02072,0.53844,0.04634,-0.06739,0.02794,0.08421,12560,-12784,0.03106,0.99466,0.09844,-0.99553,0.03958,-0.08576,-0.08920,-0.09534,0.99144,4.73722,4.74358
5.943828,-0.85364,-0.56949,9.39362,,-0.02072,0.53844,0.04634,-0.15489,0.01919,0.01421,12560,-12784,0.03172,0.99476,0.09717,-0.99551,0.04012,-0.08572,-0.08917,-0.09402,0.99157,4.73722,4.74425
5.956775,-0.83868,-0.55753,9.40798,,-0.02436,0.54012,0.04844,-0.16364,0.12419,0.18921,12560,-12784,0.03289,0.99481,0.09631,-0.99548,0.04120,-0.08559,-0.08911,-0.09306,0.99166,4.73722,4.74542
5.969577,-0.84676,-0.56261,9.41935,,-0.01806,0.54250,0.05068,-0.01489,0.09794,0.22858,12560,-12784,0.03285,0.99485,0.09585,-0.99548,0.04111,-0.08556,-0.08906,-0.09261,0.99171,4.73722,4.74538
5.992712,-0.83629,-0.54078,9.39362,,-0.01176,0.54488,0.05292,0.29136,-0.10331,0.11046,12560,-12784,0.03181,0.99489,0.09578,-0.99552,0.04008,-0.08568,-0.08908,-0.09263,0.99171,4.73722,4.74433
6.005396,-0.84048,-0.56351,9.38764,,-0.01204,0.53452,0.05530,-0.18989,-0.01581,0.01421,12560,-12784,0.03097,0.99488,0.09616,-0.99554,0.03928,-0.08577,-0.08911,-0.09308,0.99166,4.73722,4.74349
6.018330,-0.84407,-0.55394,9.41815,,-0.01204,0.53452,0.05313,-0.08927,-0.07269,0.05358,12560,-12784,0.03019,0.99491,0.09618,-0.99556,0.03851,-0.08587,-0.08914,-0.09316,0.99165,4.73722,4.74270
6.041307,-0.84586,-0.57428,9.40080,,-0.01932,0.54488,0.05096,-0.04989,-0.02456,-0.01204,12560,-12784,0.03067,0.99493,0.09575,-0.99555,0.03895,-0.08584,-0.08914,-0.09269,0.99170,4.73722,4.74318
6.054369,-0.83868,-0.55274,9.36551,,-0.01932,0.54488,0.05432,0.03761,0.33419,0.27671,12560,-12784,0.03105,0.99491,0.09586,-0.99554,0.03933,-0.08574,-0.08907,-0.09277,0.99170,4.73722,4.74357
6.067402,-0.84646,-0.54676,9.37149,,-0.01932,0.54488,0.05432,-0.26864,-0.00706,0.11921,12560,-12784,0.03143,0.99489,0.09591,-0.99553,0.03971,-0.08571,-0.08908,-0.09279,0.99169,4.73722,4.74395
6.080188,-0.83360,-0.55005,9.40260,,-0.01932,0.54460,0.06510,-0.01927,0.03231,0.04483,12560,-12784,0.03179,0.99472,0.09763,-0.99551,0.04022,-0.08565,-0.08912,-0.09447,0.99153,4.73722,4.74431
6.103295,-0.83689,-0.55813,9.39123,,-0.01932,0.54432,0.06510,-0.20739,0.06294,0.06671,12560,-12784,0.03212,0.99455,0.09917,-0.99550,0.04068,-0.08559,-0.08916,-0.09597,0.99138,4.73722,4.74464
6.115974,-0.83749,-0.57308,9.39243,,-0.01876,0.53424,0.05418,-0.03239,-0.07706,0.15421,12560,-12784,0.03236,0.99455,0.09912,-0.99549,0.04092,-0.08559,-0.08918,-0.09590,0.99139,4.73722,4.74488
6.128754,-0.83809,-0.54018,9.47139,,-0.01876,0.53424,0.05418,-0.19864,-0.09456,0.17171,12560,-12784,0.03257,0.99455,0.09903,-0.99548,0.04112,-0.08558,-0.08919,-0.09579,0.99140,4.73722,4.74510
6.141695,-0.84138,-0.55693,9.42323,,-0.01092,0.53872,0.06622,0.00698,-0.06831,0.05358,12560,-12784,0.03145,0.99441,0.10075,-0.99551,0.04017,-0.08571,-0.08928,-0.09760,0.99121,4.73722,4.74397
6.164846,-0.83809,-0.57428,9.40559,,-0.01400,0.54068,0.06090,-0.02364,0.03669,0.16296,12560,-12784,0.03092,0.99436,0.10148,-0.99553,0.03971,-0.08575,-0.08930,-0.09837,0.99114,4.73722,4.74344
6.177521,-0.84885,-0.56112,9.37209,,-0.01400,0.54068,0.06090,-0.02364,0.03669,0.10171,12560,-12784,0.03046,0.99430,0.10214,-0.99554,0.03931,-0.08579,-0.08932,-0.09907,0.99106,4.73722,4.74297
6.190335,-0.82134,-0.57667,9.37867,,-0.01428,0.53676,0.05306,0.08136,0.11544,0.27671,12560,-12784,0.03005,0.99437,0.10164,-0.99555,0.03886,-0.08580,-0.08927,-0.09861,0.99111,4.73722,4.74257
6.203368,-0.83629,-0.55783,9.39362,,-0.01666,0.54068,0.05803,0.07261,-0.10331,0.11921,12560,-12784,0.03008,0.99434,0.10188,-0.99555,0.03891,-0.08583,-0.08931,-0.09884,0.99109,4.73722,4.74260
6.226535,-0.82792,-0.57368,9.42712,,-0.01904,0.54460,0.06300,0.09011,-0.05081,0.20671,12560,-12784,0.03049,0.99424,0.10278,-0.99553,0.03939,-0.08578,-0.08934,-0.09970,0.99100,4.73722,4.74300
6.239186,-0.82792,-0.54796,9.38764,,-0.01596,0.53928,0.03976,0.06386,-0.12956,0.27671,12560,-12784,0.03034,0.99451,0.10013,-0.99554,0.03901,-0.08584,-0.08928,-0.09708,0.99126,4.73722,4.74285
6.252001,-0.83420,-0.55992,9.45524,,-0.01806,0.53774,0.05110,0.01136,-0.13831,0.00546,12560,-12784,0.03063,0.99457,0.09948,-0.99553,0.03924,-0.08587,-0.08930,-0.09640,0.99133,4.73722,4.74314
6.275107,-0.85065,-0.55035,9.39362,,-0.02016,0.53620,0.06244,-0.15489,0.29044,0.01421,12560,-12784,0.03127,0.99444,0.10060,-0.99551,0.03997,-0.08575,-0.08929,-0.09747,0.99123,4.73722,4.74379
6.287770,-0.85484,-0.53958,9.36790,,-0.02072,0.54320,0.06020,-0.00614,-0.08581,0.04921,12560,-12784,0.03188,0.99436,0.10119,-0.99549,0.04064,-0.08571,-0.08934,-0.09800,0.99117,4.73722,4.74440
6.300856,-0.88295,-0.54257,9.43310,,-0.02072,0.54320,0.06020,0.07261,-0.10331,0.01421,12560,-12784,0.03245,0.99428,0.10173,-0.99547,0.04125,-0.08569,-0.08940,-0.09849,0.99111,4.73722,4.74497
6.313808,-0.84048,-0.56979,9.40020,,-0.02268,0.53984,0.06244,-0.15489,0.15044,0.12358,12560,-12784,0.03327,0.99417,0.10258,-0.99544,0.04214,-0.08555,-0.08938,-0.09927,0.99104,4.73722,4.74580
6.336979,-0.83629,-0.57727,9.42294,,-0.02548,0.54432,0.05670,0.10761,0.10669,0.05796,12560,-12784,0.03449,0.99414,0.10249,-0.99540,0.04333,-0.08541,-0.08935,-0.09907,0.99106,4.73722,4.74702
6.349667,-0.83390,-0.57727,9.39123,,-0.02548,0.54432,0.05670,-0.09364,0.03669,0.07546,12560,-12784,0.03558,0.99411,0.10236,-0.99537,0.04441,-0.08529,-0.08933,-0.09886,0.99108,4.73722,4.74812
6.362768,-0.84826,-0.55813,9.43969,,-0.02436,0.54320,0.05572,0.06386,-0.14706,0.07546,12560,-12784,0.03640,0.99410,0.10214,-0.99533,0.04520,-0.08524,-0.08936,-0.09856,0.99111,4.73722,4.74894
6.375652,-0.84586,-0.56231,9.39841,,-0.02436,0.54320,0.05572,0.02011,0.01481,0.14108,12560,-12784,0.03711,0.99410,0.10193,-0.99531,0.04589,-0.08517,-0.08935,-0.09829,0.99114,4.73722,4.74965
6.398632,-0.84347,-0.57607,9.43909,,-0.02016,0.54376,0.07140,0.17761,0.18544,0.20671,12560,-12784,0.03708,0.99387,0.10412,-0.99531,0.04605,-0.08512,-0.08939,-0.10047,0.99092,4.73722,4.74962
6.411310,-0.85424,-0.57667,9.38226,,-0.02016,0.54376,0.05810,-0.00614,0.15919,0.08421,12560,-12784,0.03706,0.99388,0.10408,-0.99531,0.04602,-0.08510,-0.08937,-0.10044,0.99092,4.73722,4.74961
6.424459,-0.83809,-0.55274,9.40828,,-0.01288,0.54124,0.05810,0.04636,-0.09019,0.15858,12560,-12784,0.03580,0.99392,0.10409,-0.99535,0.04478,-0.08526,-0.08940,-0.10055,0.99091,4.73722,4.74834
6.447620,-0.83809,-0.52941,9.40140,,-0.01988,0.54460,0.06636,-0.07614,0.11544,0.12796,12560,-12784,0.03585,0.99380,0.10525,-0.99535,0.04493,-0.08522,-0.08942,-0.10170,0.99079,4.73722,4.74839
6.460301,-0.84706,-0.55155,9.38525,,-0.01988,0.54460,0.06636,0.11636,0.13294,0.12796,12560,-12784,0.03589,0.99368,0.10635,-0.99535,0.04507,-0.08519,-0.08944,-0.10280,0.99067,4.73722,4.74843
6.473199,-0.82851,-0.56112,9.43430,,-0.01848,0.53816,0.05754,-0.07614,-0.19081,0.09296,12560,-12784,0.03573,0.99371,0.10610,-0.99535,0.04489,-0.08524,-0.08947,-0.10256,0.99070,4.73722,4.74827
6.486236,-0.84287,-0.55244,9.41396,,-0.01890,0.53984,0.05635,-0.00177,0.10669,0.21108,12560,-12784,0.03559,0.99376,0.10567,-0.99536,0.04471,-0.08522,-0.08942,-0.10215,0.99074,4.73722,4.74813
6.509189,-0.82732,-0.56291,9.38585,,-0.01932,0.54152,0.05516,-0.04114,-0.05081,0.24171,12560,-12784,0.03555,0.99383,0.10508,-0.99536,0.04461,-0.08524,-0.08940,-0.10156,0.99080,4.73722,4.74809
6.521891,-0.85543,-0.55573,9.40858,,-0.01568,0.53704,0.05768,0.02011,0.08044,-0.02954,12560,-12784,0.03498,0.99386,0.10500,-0.99538,0.04405,-0.08530,-0.08940,-0.10153,0.99081,4.73722,4.74752
6.534751,-0.86321,-0.56411,9.36611,,-0.01568,0.53704,0.05768,0.16011,0.01044,0.22421,12560,-12784,0.03442,0.99388,0.10495,-0.99540,0.04348,-0.08537,-0.08941,-0.10153,0.99081,4.73722,4.74695
6.547640,-0.85394,-0.57099,9.37628,,-0.01316,0.53480,0.05544,-0.00614,-0.05519,0.07983,12560,-12784,0.03350,0.99395,0.10457,-0.99543,0.04254,-0.08550,-0.08943,-0.10123,0.99084,4.73722,4.74603
6.570688,-0.85005,-0.52881,9.41875,,-0.01316,0.54068,0.05810,0.02011,-0.00706,0.03171,12560,-12784,0.03267,0.99399,0.10452,-0.99546,0.04172,-0.08559,-0.08944,-0.10125,0.99083,4.73722,4.74520
6.583398,-0.87159,-0.57787,9.39183,,-0.01316,0.54068,0.05810,0.02011,0.04544,0.18046,12560,-12784,0.03188,0.99401,0.10450,-0.99548,0.04094,-0.08569,-0.08945,-0.10130,0.99083,4.73722,4.74441
6.596332,-0.84885,-0.55304,9.42473,,-0.02184,0.53928,0.05894,-0.03239,0.07606,0.19358,12560,-12784,0.03260,0.99398,0.10461,-0.99546,0.04165,-0.08559,-0.08943,-0.10135,0.99082,4.73722,4.74512
6.619523,-0.84586,-0.57248,9.40918,,-0.01792,0.54208,0.05530,-0.36489,0.06294,0.17171,12560,-12784,0.03260,0.99404,0.10407,-0.99546,0.04161,-0.08558,-0.08940,-0.10081,0.99088,4.73722,4.74513
6.632280,-0.83151,-0.54317,9.38525,,-0.01792,0.54208,0.05530,0.03761,0.08919,0.18921,12560,-12784,0.03261,0.99408,0.10364,-0.99546,0.04158,-0.08557,-0.08937,-0.10038,0.99093,4.73722,4.74514
6.645192,-0.84108,-0.54078,9.39362,,-0.01932,0.54460,0.05488,0.09011,0.16794,0.11046,12560,-12784,0.03285,0.99412,0.10314,-0.99546,0.04177,-0.08552,-0.08932,-0.09987,0.99098,4.73722,4.74538
6.658026,-0.83480,-0.54467,9.40738,,-0.01932,0.54460,0.05152,-0.11114,-0.01581,0.01858,12560,-12784,0.03308,0.99422,0.10214,-0.99546,0.04191,-0.08551,-0.08929,-0.09885,0.99109,4.73722,4.74561
6.680867,-0.84706,-0.56770,9.31705,,-0.01876,0.54124,0.04816,-0.01489,0.08044,0.25046,12560,-12784,0.03317,0.99435,0.10081,-0.99546,0.04187,-0.08550,-0.08924,-0.09751,0.99122,4.73722,4.74570
6.693588,-0.84467,-0.53779,9.37269,,-0.01876,0.54124,0.05600,0.01136,-0.01581,0.15421,12560,-12784,0.03328,0.99435,0.10077,-0.99545,0.04198,-0.08550,-0.08925,-0.09747,0.99123,4.73722,4.74580
6.706382,-0.83749,-0.58325,9.40619,,-0.01456,0.54936,0.05600,0.02886,0.12419,0.18921,12560,-12784,0.03262,0.99439,0.10064,-0.99548,0.04131,-0.08553,-0.08921,-0.09739,0.99124,4.73722,4.74514
6.723216,-0.84048,-0.57906,9.40918,,-0.02016,0.54796,0.05810,-0.06739,0.13294,-0.00329,12560,-12784,0.03300,0.99436,0.10084,-0.99547,0.04170,-0.08547,-0.08920,-0.09756,0.99122,4.73722,4.74553
6.736117,-0.84407,-0.55633,9.37568,,-0.02016,0.54320,0.05775,0.16011,-0.02019,0.20671,12560,-12784,0.03330,0.99432,0.10109,-0.99546,0.04202,-0.08544,-0.08921,-0.09779,0.99120,4.73722,4.74583
6.758971,-0.85843,-0.58265,9.40020,,-0.01764,0.53844,0.05740,-0.16364,0.00169,0.18921,12560,-12784,0.03321,0.99430,0.10128,-0.99546,0.04196,-0.08546,-0.08923,-0.09798,0.99118,4.73722,4.74574
6.771822,-0.87218,-0.53958,9.41157,,-0.01764,0.55216,0.05698,0.02886,0.22919,0.19796,12560,-12784,0.03307,0.99432,0.10118,-0.99546,0.04180,-0.08545,-0.08920,-0.09790,0.99119,4.73722,4.74559
6.784668,-0.82911,-0.56530,9.37328,,-0.01708,0.55216,0.05698,0.02886,0.05419,-0.01204,12560,-12784,0.03288,0.99433,0.10111,-0.99547,0.04161,-0.08546,-0.08918,-0.09784,0.99120,4.73722,4.74540
6.797468,-0.84676,-0.55663,9.37508,,-0.01596,0.52668,0.04410,-0.08489,0.20294,0.16296,12560,-12784,0.03259,0.99451,0.09940,-0.99549,0.04116,-0.08544,-0.08906,-0.09617,0.99137,4.73722,4.74511
6.820441,-0.84706,-0.56770,9.43071,,-0.01484,0.53704,0.04410,0.08136,0.15919,-0.03829,12560,-12784,0.03214,0.99469,0.09776,-0.99551,0.04057,-0.08547,-0.08899,-0.09457,0.99153,4.73722,4.74467
6.833160,-0.84586,-0.57129,9.37867,,-0.01232,0.54404,0.05516,0.16011,-0.12081,0.06671,12560,-12784,0.03127,0.99471,0.09786,-0.99554,0.03972,-0.08559,-0.08902,-0.09475,0.99151,4.73722,4.74379
6.845963,-0.84108,-0.55992,9.37299,,-0.01232,0.54432,0.05978,0.05511,0.07606,0.07983,12560,-12784,0.03047,0.99466,0.09863,-0.99556,0.03899,-0.08564,-0.08903,-0.09558,0.99143,4.73722,4.74299
6.868971,-0.84885,-0.55633,9.35175,,-0.01232,0.54460,0.06440,0.09886,-0.02456,0.23296,12560,-12784,0.02973,0.99454,0.10002,-0.99558,0.03838,-0.08571,-0.08908,-0.09703,0.99129,4.73722,4.74224
6.881660,-0.83270,-0.57787,9.44746,,-0.02072,0.54292,0.05320,0.11636,0.04544,0.23296,12560,-12784,0.03045,0.99456,0.09964,-0.99556,0.03905,-0.08563,-0.08905,-0.09659,0.99133,4.73722,4.74296
6.894658,-0.83390,-0.54437,9.42353,,-0.02072,0.54292,0.05320,0.08136,0.11544,0.13671,12560,-12784,0.03112,0.99457,0.09927,-0.99554,0.03969,-0.08554,-0.08902,-0.09617,0.99138,4.73722,4.74364
6.907549,-0.84377,-0.56620,9.42682,,-0.01400,0.54180,0.06118,0.15573,-0.12956,0.21108,12560,-12784,0.03057,0.99450,0.10021,-0.99555,0.03923,-0.08563,-0.08909,-0.09714,0.99128,4.73722,4.74309
6.930494,-0.83390,-0.54437,9.36730,,-0.01512,0.53900,0.05222,0.37011,0.05419,0.04921,12560,-12784,0.03034,0.99455,0.09975,-0.99556,0.03896,-0.08565,-0.08907,-0.09671,0.99132,4.73722,4.74285
6.943233,-0.84526,-0.56291,9.36491,,-0.01512,0.53900,0.05222,0.12511,0.02794,0.09296,12560,-12784,0.03011,0.99460,0.09929,-0.99557,0.03870,-0.08567,-0.08905,-0.09627,0.99136,4.73722,4.74263
6.956020,-0.84885,-0.56710,9.40020,,-0.01708,0.54516,0.05362,-0.13739,0.01044,-0.00329,12560,-12784,0.03022,0.99463,0.09896,-0.99557,0.03878,-0.08568,-0.08905,-0.09593,0.99140,4.73722,4.74274
6.968794,-0.82911,-0.56471,9.38345,,-0.01554,0.54334,0.05257,0.01573,0.02356,0.09733,12560,-12784,0.03004,0.99468,0.09855,-0.99558,0.03856,-0.08568,-0.08903,-0.09554,0.99144,4.73722,4.74256
6.991724,-0.83091,-0.57607,9.38226,,-0.01400,0.54152,0.05152,0.13386,0.02794,0.11046,12560,-12784,0.02964,0.99474,0.09807,-0.99559,0.03812,-0.08572,-0.08901,-0.09510,0.99148,4.73722,4.74216
7.004442,-0.85364,-0.56411,9.38764,,-0.00420,0.54460,0.05334,-0.25989,0.07169,0.00546,12560,-12784,0.02767,0.99482,0.09778,-0.99565,0.03613,-0.08592,-0.08900,-0.09498,0.99149,4.73722,4.74017
7.017286,-0.85304,-0.57637,9.43191,,-0.00420,0.54656,0.05796,-0.10677,-0.09019,0.08858,12560,-12784,0.02583,0.99483,0.09820,-0.99569,0.03436,-0.08613,-0.08906,-0.09555,0.99143,4.73722,4.73833
7.040310,-0.84347,-0.51984,9.41755,,-0.01932,0.54852,0.06258,0.16886,0.22919,0.01421,12560,-12784,0.02669,0.99470,0.09928,-0.99567,0.03530,-0.08600,-0.08905,-0.09656,0.99134,4.73722,4.73919
7.053037,-0.83569,-0.57906,9.39243,,-0.01932,0.54348,0.04480,-0.11114,-0.11206,0.03171,12560,-12784,0.02748,0.99484,0.09766,-0.99565,0.03594,-0.08596,-0.08902,-0.09487,0.99150,4.73722,4.73998
7.065942,-0.82193,-0.55513,9.36910,,-0.01932,0.54348,0.04480,-0.03239,-0.04206,0.17171,12560,-12784,0.02817,0.99497,0.09617,-0.99563,0.03649,-0.08590,-0.08898,-0.09333,0.99165,4.73722,4.74068
7.078887,-0.84018,-0.53988,9.41426,,-0.02086,0.56224,0.05180,0.00698,0.09794,0.10608,12560,-12784,0.02895,0.99500,0.09562,-0.99562,0.03721,-0.08580,-0.08893,-0.09272,0.99171,4.73722,4.74145
7.101828,-0.84526,-0.55454,9.37807,,-0.02240,0.54516,0.05180,0.03761,-0.08581,0.03171,12560,-12784,0.03004,0.99499,0.09537,-0.99558,0.03827,-0.08573,-0.08895,-0.09237,0.99174,4.73722,4.74255
7.114568,-0.82493,-0.56770,9.40140,,-0.02240,0.54488,0.05068,-0.11989,0.18544,-0.06454,12560,-12784,0.03105,0.99500,0.09495,-0.99556,0.03924,-0.08560,-0.08889,-0.09187,0.99180,4.73722,4.74357
7.127495,-0.85005,-0.58744,9.36970,,-0.02240,0.54488,0.05068,0.00261,0.16794,0.11046,12560,-12784,0.03194,0.99500,0.09460,-0.99553,0.04009,-0.08549,-0.08886,-0.09145,0.99184,4.73722,4.74446
7.140308,-0.82971,-0.56201,9.41426,,-0.02044,0.53844,0.05782,-0.05427,-0.07706,0.07108,12560,-12784,0.03246,0.99491,0.09543,-0.99551,0.04068,-0.08546,-0.08890,-0.09223,0.99176,4.73722,4.74498
7.163329,-0.84407,-0.54317,9.40977,,-0.01512,0.54208,0.05796,-0.04114,0.05419,0.03171,12560,-12784,0.03205,0.99485,0.09614,-0.99552,0.04033,-0.08549,-0.08893,-0.09297,0.99169,4.73722,4.74457
7.175974,-0.82911,-0.55633,9.39841,,-0.01512,0.54208,0.05796,0.08136,-0.19081,0.16296,12560,-12784,0.03164,0.99480,0.09683,-0.99553,0.03999,-0.08555,-0.08898,-0.09369,0.99162,4.73722,4.74416
7.188745,-0.86231,-0.56740,9.42383,,-0.01876,0.54320,0.04928,0.05948,0.07169,0.11483,12560,-12784,0.03186,0.99486,0.09612,-0.99553,0.04015,-0.08553,-0.08895,-0.09297,0.99169,4.73722,4.74438
7.211854,-0.85184,-0.53420,9.43789,,-0.01652,0.54544,0.05586,-0.08489,0.16794,0.18046,12560,-12784,0.03169,0.99484,0.09639,-0.99553,0.04000,-0.08552,-0.08893,-0.09325,0.99166,4.73722,4.74421
7.224610,-0.85424,-0.55992,9.39661,,-0.01652,0.54544,0.05586,0.16011,0.08919,-0.01204,12560,-12784,0.03157,0.99481,0.09670,-0.99554,0.03991,-0.08552,-0.08894,-0.09357,0.99163,4.73722,4.74409
7.237381,-0.84826,-0.55573,9.38106,,-0.01764,0.54880,0.04942,0.07261,-0.16456,0.20671,12560,-12784,0.03158,0.99489,0.09594,-0.99554,0.03985,-0.08556,-0.08895,-0.09281,0.99170,4.73722,4.74410
7.250156,-0.84347,-0.55035,9.39661,,-0.01624,0.54754,0.05236,0.00698,-0.14269,0.10171,12560,-12784,0.03136,0.99492,0.09570,-0.99554,0.03962,-0.08564,-0.08900,-0.09259,0.99172,4.73722,4.74388
7.273196,-0.83330,-0.55813,9.42294,,-0.01484,0.54628,0.05530,0.31761,-0.05081,0.16296,12560,-12784,0.03096,0.99490,0.09599,-0.99555,0.03924,-0.08569,-0.08902,-0.09291,0.99169,4.73722,4.74347
7.285842,-0.84706,-0.56231,9.36371,,-0.01568,0.55356,0.05754,0.17761,-0.04206,0.04046,12560,-12784,0.03071,0.99486,0.09646,-0.99555,0.03905,-0.08572,-0.08905,-0.09340,0.99164,4.73722,4.74323
7.298735,-0.84826,-0.55424,9.42593,,-0.01568,0.54670,0.06027,0.00261,0.14606,0.08858,12560,-12784,0.03051,0.99478,0.09737,-0.99556,0.03892,-0.08569,-0.08903,-0.09432,0.99155,4.73722,4.74303
7.321902,-0.85424,-0.51984,9.40559,,-0.01596,0.53984,0.06300,-0.01489,0.00169,0.12796,12560,-12784,0.03041,0.99465,0.09870,-0.99556,0.03894,-0.08570,-0.08908,-0.09566,0.99142,4.73722,4.74293
7.334688,-0.86620,-0.58086,9.40499,,-0.01596,0.54544,0.06258,0.13386,0.01044,0.22421,12560,-12784,0.03027,0.99454,0.09982,-0.99556,0.03890,-0.08571,-0.08913,-0.09678,0.99131,4.73722,4.74278
7.347504,-0.85962,-0.54317,9.37448,,-0.01820,0.54544,0.06258,-0.00614,-0.07706,0.22421,12560,-12784,0.03051,0.99444,0.10080,-0.99555,0.03923,-0.08571,-0.08919,-0.09773,0.99121,4.73722,4.74303
7.360468,-0.84257,-0.56501,9.38824,,-0.01708,0.52472,0.05124,-0.03239,0.00606,0.18483,12560,-12784,0.03063,0.99449,0.10028,-0.99555,0.03930,-0.08570,-0.08917,-0.09721,0.99126,4.73722,4.74314
7.383492,-0.85184,-0.57129,9.39063,,-0.01596,0.53984,0.05124,0.20386,-0.06831,0.25921,12560,-12784,0.03048,0.99456,0.09964,-0.99555,0.03910,-0.08574,-0.08917,-0.09659,0.99132,4.73722,4.74299
7.396452,-0.83689,-0.53779,9.38585,,-0.01680,0.54292,0.04130,0.29136,0.25544,0.25921,12560,-12784,0.03047,0.99477,0.09750,-0.99556,0.03889,-0.08571,-0.08905,-0.09446,0.99154,4.73722,4.74298
7.409318,-0.83210,-0.52881,9.42234,,-0.01680,0.54292,0.04130,-0.15489,0.17669,0.17171,12560,-12784,0.03047,0.99497,0.09546,-0.99557,0.03871,-0.08569,-0.08895,-0.09243,0.99174,4.73722,4.74299
7.422123,-0.83928,-0.54586,9.40589,,0.00112,0.53984,0.05026,0.09011,0.16356,-0.00329,12560,-12784,0.02754,0.99509,0.09507,-0.99566,0.03576,-0.08591,-0.08889,-0.09229,0.99176,4.73722,4.74004
7.445289,-0.84407,-0.55095,9.38824,,-0.01344,0.53592,0.04564,-0.00614,0.08919,0.12796,12560,-12784,0.02729,0.99519,0.09403,-0.99567,0.03543,-0.08593,-0.08885,-0.09128,0.99185,4.73722,4.73979
7.457966,-0.84826,-0.55813,9.43729,,-0.01344,0.53592,0.04564,0.00261,0.06294,0.11921,12560,-12784,0.02707,0.99529,0.09310,-0.99568,0.03512,-0.08595,-0.08882,-0.09037,0.99194,4.73722,4.73957
7.470851,-0.84945,-0.54257,9.43669,,-0.01456,0.54208,0.06020,-0.01489,0.04544,0.14546,12560,-12784,0.02703,0.99517,0.09436,-0.99568,0.03519,-0.08594,-0.08885,-0.09163,0.99182,4.73722,4.73953
7.483814,-0.83809,-0.56859,9.41695,,-0.00938,0.54334,0.05698,0.05948,0.12419,0.11046,12560,-12784,0.02612,0.99513,0.09504,-0.99570,0.03435,-0.08598,-0.08882,-0.09238,0.99175,4.73722,4.73862
7.507040,-0.83988,-0.56889,9.41875,,-0.00420,0.54460,0.05376,0.02011,0.00169,0.18921,12560,-12784,0.02443,0.99517,0.09513,-0.99575,0.03267,-0.08614,-0.08883,-0.09262,0.99173,4.73722,4.73691
7.519719,-0.85364,-0.53719,9.42114,,-0.01792,0.54012,0.04746,-0.06739,0.08044,0.23296,12560,-12784,0.02517,0.99523,0.09430,-0.99573,0.03334,-0.08607,-0.08880,-0.09173,0.99182,4.73722,4.73766
7.532636,-0.86740,-0.54646,9.37538,,-0.01680,0.54026,0.04921,-0.03239,0.02356,0.15858,12560,-12784,0.02565,0.99526,0.09381,-0.99572,0.03377,-0.08603,-0.08879,-0.09121,0.99187,4.73722,4.73815
7.555946,-0.83151,-0.55573,9.40499,,-0.01568,0.54040,0.05096,-0.01489,0.01044,0.15421,12560,-12784,0.02593,0.99527,0.09365,-0.99571,0.03403,-0.08600,-0.08878,-0.09102,0.99188,4.73722,4.73842
7.568958,-0.83629,-0.54975,9.24048,,-0.00952,0.54796,0.06706,-0.05864,-0.00706,0.19796,12560,-12784,0.02513,0.99508,0.09579,-0.99573,0.03344,-0.08607,-0.08885,-0.09322,0.99167,4.73722,4.73763
7.581909,-0.83390,-0.52582,9.40977,,-0.00952,0.54796,0.06706,0.03761,-0.01581,0.14546,12560,-12784,0.02442,0.99491,0.09774,-0.99574,0.03290,-0.08612,-0.08890,-0.09522,0.99148,4.73722,4.73691
7.594764,-0.84407,-0.57248,9.40379,,-0.01204,0.54376,0.05936,-0.06302,0.03231,0.08858,12560,-12784,0.02420,0.99485,0.09843,-0.99575,0.03274,-0.08613,-0.08891,-0.09593,0.99141,4.73722,4.73668
7.617880,-0.83629,-0.54317,9.35833,,-0.01736,0.54768,0.05138,0.07261,-0.12956,0.15421,12560,-12784,0.02484,0.99489,0.09783,-0.99573,0.03333,-0.08610,-0.08892,-0.09527,0.99147,4.73722,4.73733
7.630628,-0.83390,-0.55214,9.41695,,-0.01736,0.54768,0.05138,0.00261,-0.12081,0.03171,12560,-12784,0.02546,0.99493,0.09727,-0.99571,0.03389,-0.08607,-0.08893,-0.09466,0.99153,4.73722,4.73795
7.643476,-0.83510,-0.58445,9.44507,,-0.00700,0.55076,0.05852,0.01136,-0.15581,0.04046,12560,-12784,0.02430,0.99491,0.09779,-0.99574,0.03280,-0.08621,-0.08898,-0.09528,0.99147,4.73722,4.73679
7.656313,-0.85454,-0.55454,9.37568,,-0.00700,0.55076,0.05586,0.13823,0.06731,0.20671,12560,-12784,0.02319,0.99493,0.09790,-0.99576,0.03170,-0.08630,-0.08897,-0.09548,0.99145,4.73722,4.73567
7.679207,-0.84766,-0.54078,9.34816,,-0.01988,0.54600,0.05320,-0.11114,0.15044,0.19796,12560,-12784,0.02436,0.99493,0.09761,-0.99574,0.03283,-0.08617,-0.08894,-0.09509,0.99149,4.73722,4.73684
7.691873,-0.84467,-0.55394,9.46242,,-0.01988,0.54600,0.05670,-0.04114,-0.21706,0.30296,12560,-12784,0.02539,0.99487,0.09789,-0.99571,0.03388,-0.08611,-0.08898,-0.09528,0.99147,4.73722,4.73788
7.704844,-0.83091,-0.57009,9.41905,,-0.01652,0.54348,0.05670,0.07698,0.04981,0.18483,12560,-12784,0.02578,0.99483,0.09822,-0.99570,0.03430,-0.08604,-0.08897,-0.09558,0.99144,4.73722,4.73827
7.727978,-0.85125,-0.55872,9.46481,,-0.01736,0.54740,0.06146,-0.03239,0.10669,0.25921,12560,-12784,0.02628,0.99473,0.09914,-0.99569,0.03487,-0.08597,-0.08897,-0.09645,0.99135,4.73722,4.73877
7.740649,-0.84826,-0.54736,9.40738,,-0.01736,0.54740,0.06146,0.17761,-0.11206,0.05796,12560,-12784,0.02676,0.99463,0.10001,-0.99567,0.03543,-0.08594,-0.08902,-0.09727,0.99127,4.73722,4.73926
7.753563,-0.81476,-0.58026,9.46361,,-0.01092,0.54572,0.06482,0.10761,0.07169,0.12796,12560,-12784,0.02614,0.99451,0.10133,-0.99569,0.03493,-0.08596,-0.08903,-0.09864,0.99113,4.73722,4.73864
7.766513,-0.85843,-0.54646,9.42832,,-0.00994,0.54390,0.06321,0.04636,0.11106,0.11921,12560,-12784,0.02541,0.99443,0.10230,-0.99571,0.03428,-0.08600,-0.08903,-0.09967,0.99103,4.73722,4.73790
7.789518,-0.84287,-0.55932,9.39482,,-0.00896,0.54208,0.06160,-0.08489,0.03669,0.19796,12560,-12784,0.02458,0.99438,0.10295,-0.99572,0.03352,-0.08607,-0.08904,-0.10039,0.99096,4.73722,4.73707
7.802490,-0.84586,-0.53719,9.41576,,-0.02296,0.54544,0.06426,-0.10239,0.08044,0.05796,12560,-12784,0.02616,0.99425,0.10388,-0.99568,0.03517,-0.08589,-0.08905,-0.10119,0.99087,4.73722,4.73865
7.815368,-0.85962,-0.55932,9.39303,,-0.02296,0.54544,0.06426,0.08136,0.02794,-0.01204,12560,-12784,0.02761,0.99411,0.10478,-0.99564,0.03669,-0.08574,-0.08908,-0.10195,0.99079,4.73722,4.74011
7.828179,-0.85005,-0.56112,9.42443,,-0.02212,0.55160,0.06048,0.16011,0.06731,0.06233,12560,-12784,0.02872,0.99406,0.10496,-0.99561,0.03781,-0.08560,-0.08906,-0.10204,0.99079,4.73722,4.74123
7.851375,-0.86142,-0.55035,9.45404,,-0.01764,0.54880,0.06874,-0.03239,-0.00706,0.10171,12560,-12784,0.02902,0.99391,0.10633,-0.99560,0.03823,-0.08557,-0.08912,-0.10338,0.99064,4.73722,4.74153
7.864129,-0.85424,-0.55872,9.45703,,-0.01764,0.54880,0.06874,0.08136,0.08919,0.13671,12560,-12784,0.02929,0.99376,0.10761,-0.99559,0.03860,-0.08552,-0.08914,-0.10463,0.99051,4.73722,4.74180
7.876936,-0.86142,-0.56231,9.40619,,-0.01036,0.54656,0.06118,-0.17239,0.19419,-0.02079,12560,-12784,0.02837,0.99379,0.10764,-0.99562,0.03770,-0.08560,-0.08913,-0.10474,0.99050,4.73722,4.74088
7.889855,-0.84168,-0.55842,9.39123,,-0.01302,0.54572,0.05880,0.16448,-0.03331,0.23733,12560,-12784,0.02788,0.99382,0.10741,-0.99563,0.03719,-0.08566,-0.08913,-0.10455,0.99052,4.73722,4.74039
7.912989,-0.83151,-0.54556,9.34098,,-0.01568,0.54488,0.05642,-0.13739,-0.02456,0.11921,12560,-12784,0.02794,0.99389,0.10677,-0.99563,0.03719,-0.08567,-0.08912,-0.10391,0.99059,4.73722,4.74045
7.925703,-0.85543,-0.57607,9.42054,,-0.01624,0.54852,0.05684,0.09886,0.28169,-0.02954,12560,-12784,0.02811,0.99394,0.10626,-0.99563,0.03731,-0.08561,-0.08906,-0.10339,0.99065,4.73722,4.74061
7.938590,-0.84676,-0.55484,9.42234,,-0.01624,0.53060,0.06020,0.00698,0.00606,0.17608,12560,-12784,0.02828,0.99390,0.10656,-0.99562,0.03750,-0.08559,-0.08906,-0.10368,0.99062,4.73722,4.74078
7.961707,-0.84227,-0.54616,9.37328,,-0.02464,0.54404,0.06356,0.05511,0.07169,0.07546,12560,-12784,0.02981,0.99380,0.10713,-0.99558,0.03907,-0.08541,-0.08907,-0.10411,0.99057,4.73722,4.74232
7.974438,-0.85005,-0.57368,9.37747,,-0.02464,0.54684,0.05670,0.05511,0.29919,0.00546,12560,-12784,0.03119,0.99381,0.10658,-0.99554,0.04038,-0.08523,-0.08900,-0.10345,0.99064,4.73722,4.74371
7.987279,-0.84826,-0.53480,9.35773,,-0.01400,0.54684,0.05670,-0.14614,0.26419,0.08421,12560,-12784,0.03068,0.99389,0.10602,-0.99556,0.03982,-0.08525,-0.08895,-0.10293,0.99070,4.73722,4.74319
8.000170,-0.83121,-0.56800,9.42234,,-0.01400,0.54502,0.05376,0.01573,-0.02894,0.16296,12560,-12784,0.03016,0.99400,0.10514,-0.99558,0.03924,-0.08531,-0.08892,-0.10210,0.99079,4.73722,4.74268
8.023165,-0.84168,-0.56172,9.44926,,-0.01400,0.54320,0.05376,-0.16364,-0.10331,0.11046,12560,-12784,0.02974,0.99410,0.10433,-0.99559,0.03875,-0.08538,-0.08892,-0.10133,0.99087,4.73722,4.74226
8.035872,-0.83689,-0.57069,9.35055,,-0.02576,0.54320,0.06104,0.01136,0.01919,-0.08204,12560,-12784,0.03136,0.99401,0.10474,-0.99554,0.04039,-0.08522,-0.08894,-0.10160,0.99084,4.73722,4.74388
8.048657,-0.85244,-0.55454,9.39961,,-0.02576,0.54320,0.06104,0.10761,0.12419,0.17171,12560,-12784,0.03278,0.99392,0.10511,-0.99550,0.04183,-0.08505,-0.08893,-0.10185,0.99082,4.73722,4.74531
8.061719,-0.85394,-0.55723,9.42802,,-0.01596,0.55076,0.05082,0.19511,0.00169,0.19358,12560,-12784,0.03236,0.99407,0.10384,-0.99552,0.04130,-0.08511,-0.08889,-0.10062,0.99095,4.73722,4.74489
8.084830,-0.84945,-0.54138,9.46182,,-0.01400,0.54684,0.06118,0.26511,0.02794,0.25921,12560,-12784,0.03171,0.99404,0.10426,-0.99554,0.04069,-0.08517,-0.08890,-0.10110,0.99090,4.73722,4.74423
8.097488,-0.84287,-0.57188,9.39063,,-0.01400,0.54684,0.06118,0.09886,0.16794,0.16296,12560,-12784,0.03113,0.99402,0.10464,-0.99555,0.04015,-0.08520,-0.08889,-0.10152,0.99085,4.73722,4.74365
8.110271,-0.84227,-0.56261,9.41755,,-0.01456,0.54124,0.05600,0.01136,0.08919,0.12796,12560,-12784,0.03071,0.99407,0.10427,-0.99557,0.03970,-0.08522,-0.08885,-0.10119,0.99089,4.73722,4.74323
8.133473,-0.80937,-0.56231,9.39362,,-0.00980,0.54208,0.04956,0.12511,-0.02456,0.04046,12560,-12784,0.02956,0.99425,0.10297,-0.99561,0.03844,-0.08534,-0.08881,-0.09999,0.99102,4.73722,4.74207
8.146194,-0.89432,-0.55513,9.36192,,-0.00980,0.54208,0.04956,-0.00614,0.10669,0.03171,12560,-12784,0.02852,0.99440,0.10175,-0.99564,0.03730,-0.08547,-0.08879,-0.09887,0.99113,4.73722,4.74102
