0.000005,-0.66999,-0.54377,9.41755,,-0.71456,-0.23548,-0.13825,-0.03756,0.05182,-0.08171,9448,-9719,0.94287,-0.32969,0.04804,0.32555,0.94234,0.07757,-0.07085,-0.05750,0.99583,0.33246,0.33246
0.000005,-0.66640,-0.53001,9.41815,,-0.71568,-0.23595,-0.12845,0.00619,-0.02402,0.06996,9448,-9719,0.94503,-0.32689,0.00803,0.32532,0.94242,0.07755,-0.03291,-0.07068,0.99696,0.33246,0.33154
0.022853,-0.68435,-0.52881,9.43669,,-0.71848,-0.23408,-0.14077,-0.07256,-0.29818,0.11954,9448,-9719,0.94585,-0.32226,-0.03896,0.32439,0.94274,0.07758,0.01173,-0.08602,0.99622,0.33246,0.33039
0.037188,-0.66341,-0.53360,9.39841,,-0.71820,-0.24612,-0.13559,0.24244,-0.00068,0.02329,9448,-9719,0.94361,-0.32315,-0.07195,0.32829,0.94141,0.07729,0.04276,-0.09656,0.99441,0.33246,0.33481
0.052569,-0.67238,-0.51266,9.45344,,-0.71820,-0.24612,-0.13559,-0.02006,-0.14943,0.08454,9448,-9719,0.94140,-0.32331,-0.09613,0.33088,0.94053,0.07698,0.06553,-0.10428,0.99239,0.33246,0.33799
0.068154,-0.68435,-0.52343,9.40260,,-0.71260,-0.24640,-0.14371,-0.07256,-0.09693,-0.07296,9448,-9719,0.93883,-0.32398,-0.11676,0.33375,0.93954,0.07662,0.08487,-0.11090,0.99020,0.33246,0.34156
0.082561,-0.67358,-0.54497,9.41157,,-0.71988,-0.23212,-0.13643,0.13744,-0.00068,-0.02921,9448,-9719,0.93932,-0.31772,-0.12935,0.32899,0.94116,0.07732,0.09717,-0.11518,0.98858,0.33246,0.33689
0.097474,-0.68734,-0.53121,9.38944,,-0.71988,-0.23212,-0.13643,0.13744,0.10432,0.01454,9448,-9719,0.93945,-0.31340,-0.13860,0.32580,0.94223,0.07779,0.10622,-0.11824,0.98729,0.33246,0.33382
0.112471,-0.68315,-0.52044,9.40200,,-0.71540,-0.23016,-0.12019,-0.13381,0.07807,-0.12546,9448,-9719,0.94019,-0.31033,-0.14048,0.32300,0.94317,0.07816,0.10824,-0.11886,0.98699,0.33246,0.33091
0.127669,-0.67478,-0.54915,9.42114,,-0.71582,-0.23450,-0.12873,-0.20819,0.06494,-0.07733,9448,-9719,0.93972,-0.30988,-0.14458,0.32303,0.94316,0.07813,0.11215,-0.12012,0.98640,0.33246,0.33110
0.150033,-0.67896,-0.51266,9.39841,,-0.71624,-0.23884,-0.13727,0.08494,0.04307,-0.02921,9448,-9719,0.93843,-0.31110,-0.15022,0.32491,0.94254,0.07778,0.11739,-0.12180,0.98559,0.33246,0.33331
0.160929,-0.67119,-0.53868,9.40200,,-0.71428,-0.23632,-0.13027,0.15931,0.09994,0.14579,9448,-9719,0.93808,-0.31114,-0.15230,0.32520,0.94244,0.07773,0.11934,-0.12245,0.98527,0.33246,0.33370
0.181332,-0.65264,-0.50847,9.36192,,-0.71232,-0.23380,-0.12327,0.17244,-0.44693,-0.00296,9448,-9719,0.93840,-0.31049,-0.15164,0.32448,0.94269,0.07781,0.11879,-0.12223,0.98537,0.33246,0.33291
0.192272,-0.68853,-0.52642,9.40708,,-0.71204,-0.24024,-0.13139,0.00181,-0.00943,0.04517,9448,-9719,0.93737,-0.31257,-0.15371,0.32678,0.94192,0.07742,0.12058,-0.12280,0.98508,0.33246,0.33544
0.212477,-0.67358,-0.51446,9.40918,,-0.71204,-0.24024,-0.13139,0.12869,0.01682,-0.01171,9448,-9719,0.93666,-0.31395,-0.15526,0.32833,0.94141,0.07713,0.12195,-0.12322,0.98486,0.33246,0.33715
0.223309,-0.68285,-0.52044,9.47259,,-0.72156,-0.23464,-0.12957,0.07619,-0.07506,0.02329,9448,-9719,0.93748,-0.31145,-0.15531,0.32587,0.94223,0.07752,0.12220,-0.12328,0.98482,0.33246,0.33454
0.243219,-0.67298,-0.53300,9.40559,,-0.71708,-0.23604,-0.13223,-0.07256,0.22682,-0.02921,9448,-9719,0.93747,-0.31089,-0.15649,0.32546,0.94237,0.07756,0.12336,-0.12364,0.98463,0.33246,0.33415
0.254078,-0.63230,-0.51476,9.37657,,-0.71708,-0.23604,-0.13223,-0.12944,0.10869,0.09767,9448,-9719,0.93746,-0.31047,-0.15742,0.32515,0.94248,0.07752,0.12429,-0.12386,0.98448,0.33246,0.33386
0.274286,-0.71366,-0.51206,9.42533,,-0.72240,-0.23688,-0.13867,0.26869,0.06057,-0.07296,9448,-9719,0.93729,-0.30983,-0.15970,0.32480,0.94260,0.07758,0.12650,-0.12458,0.98411,0.33246,0.33358
0.285318,-0.67149,-0.53599,9.45883,,-0.72058,-0.23842,-0.13678,-0.02881,0.06057,0.08892,9448,-9719,0.93695,-0.31019,-0.16094,0.32530,0.94243,0.07745,0.12765,-0.12492,0.98392,0.33246,0.33417
0.305754,-0.66461,-0.50907,9.44686,,-0.71876,-0.23996,-0.13489,0.04994,-0.03568,0.07579,9448,-9719,0.93653,-0.31127,-0.16132,0.32641,0.94207,0.07720,0.12795,-0.12496,0.98388,0.33246,0.33537
0.316671,-0.68465,-0.53659,9.35504,,-0.71078,-0.24220,-0.15141,-0.02881,-0.20193,-0.06421,9448,-9719,0.93466,-0.31378,-0.16720,0.32962,0.94100,0.07665,0.13329,-0.12676,0.98294,0.33246,0.33905
0.336661,-0.66580,-0.52044,9.40678,,-0.70280,-0.24444,-0.15141,-0.02006,0.02557,-0.00296,9448,-9719,0.93258,-0.31731,-0.17205,0.33370,0.93962,0.07588,0.13758,-0.12818,0.98216,0.33246,0.34363
0.347548,-0.69362,-0.54078,9.46960,,-0.71848,-0.23856,-0.15393,0.20744,-0.06631,0.05829,9448,-9719,0.93266,-0.31524,-0.17543,0.33211,0.94015,0.07624,0.14089,-0.12937,0.98154,0.33246,0.34209
0.367055,-0.68136,-0.50967,9.48874,,-0.71848,-0.23856,-0.15393,0.03244,0.08682,0.05829,9448,-9719,0.93266,-0.31384,-0.17793,0.33106,0.94051,0.07641,0.14337,-0.13017,0.98107,0.33246,0.34109
0.377205,-0.67418,-0.52074,9.38764,,-0.71652,-0.24024,-0.13601,-0.05506,-0.12756,-0.04671,9448,-9719,0.93331,-0.31398,-0.17422,0.33071,0.94063,0.07647,0.13987,-0.12899,0.98173,0.33246,0.34054
0.396622,-0.65653,-0.54227,9.45045,,-0.71344,-0.23464,-0.12999,-0.04194,0.20057,-0.10796,9448,-9719,0.93464,-0.31237,-0.16991,0.32858,0.94135,0.07685,0.13594,-0.12766,0.98246,0.33246,0.33806
0.415637,-0.66520,-0.51565,9.42353,,-0.71344,-0.23464,-0.12999,0.01494,-0.11443,-0.01171,9448,-9719,0.93558,-0.31131,-0.16668,0.32712,0.94183,0.07708,0.13299,-0.12664,0.98299,0.33246,0.33636
0.425862,-0.66730,-0.53210,9.41725,,-0.72156,-0.24080,-0.14455,0.11119,-0.00068,-0.01608,9448,-9719,0.93508,-0.31186,-0.16841,0.32789,0.94158,0.07695,0.13457,-0.12717,0.98271,0.33246,0.33725
0.444929,-0.66700,-0.54287,9.35653,,-0.71750,-0.23898,-0.14637,-0.02444,0.10432,0.01892,9448,-9719,0.93465,-0.31201,-0.17052,0.32830,0.94144,0.07688,0.13655,-0.12784,0.98235,0.33246,0.33779
0.463817,-0.67777,-0.51087,9.37508,,-0.71344,-0.23716,-0.14819,-0.19506,0.08682,0.02329,9448,-9719,0.93426,-0.31188,-0.17288,0.32847,0.94139,0.07680,0.13879,-0.12854,0.98194,0.33246,0.33809
0.473949,-0.66281,-0.52672,9.36222,,-0.70868,-0.23996,-0.14413,-0.05506,-0.18443,0.03642,9448,-9719,0.93358,-0.31352,-0.17357,0.33017,0.94082,0.07649,0.13931,-0.12871,0.98185,0.33246,0.33993
0.493082,-0.69811,-0.54855,9.41636,,-0.70868,-0.23996,-0.14413,-0.10756,-0.07068,0.10204,9448,-9719,0.93313,-0.31461,-0.17405,0.33131,0.94043,0.07631,0.13967,-0.12887,0.98178,0.33246,0.34117
0.503244,-0.67178,-0.54018,9.39871,,-0.71484,-0.24192,-0.15099,-0.06381,-0.21506,-0.03358,9448,-9719,0.93252,-0.31524,-0.17616,0.33220,0.94013,0.07618,0.14160,-0.12956,0.98141,0.33246,0.34223
0.522277,-0.66879,-0.53300,9.42533,,-0.71274,-0.23912,-0.14483,0.11119,0.02557,-0.01608,9448,-9719,0.93268,-0.31488,-0.17598,0.33183,0.94025,0.07628,0.14144,-0.12953,0.98143,0.33246,0.34181
0.541226,-0.66939,-0.54197,9.37328,,-0.71064,-0.23632,-0.13867,0.17244,-0.00068,0.05829,9448,-9719,0.93338,-0.31386,-0.17405,0.33058,0.94067,0.07654,0.13970,-0.12898,0.98176,0.33246,0.34039
0.551367,-0.68644,-0.51386,9.39153,,-0.71568,-0.24024,-0.13783,0.05431,-0.04443,0.01017,9448,-9719,0.93368,-0.31410,-0.17198,0.33056,0.94068,0.07654,0.13774,-0.12831,0.98212,0.33246,0.34026
0.570495,-0.70229,-0.53898,9.39721,,-0.71568,-0.24024,-0.13783,-0.08131,-0.20193,0.07579,9448,-9719,0.93390,-0.31428,-0.17044,0.33054,0.94068,0.07657,0.13627,-0.12785,0.98239,0.33246,0.34017
0.581074,-0.67328,-0.53001,9.44537,,-0.71680,-0.23576,-0.12901,-0.03319,0.01682,0.08454,9448,-9719,0.93517,-0.31258,-0.16655,0.32837,0.94141,0.07695,0.13274,-0.12666,0.98302,0.33246,0.33768
0.601162,-0.69212,-0.53539,9.45344,,-0.71764,-0.23464,-0.13377,-0.12506,0.02557,0.14579,9448,-9719,0.93598,-0.31090,-0.16517,0.32654,0.94202,0.07727,0.13157,-0.12626,0.98323,0.33246,0.33567
0.611948,-0.69811,-0.53749,9.36252,,-0.71764,-0.23464,-0.13377,0.06744,-0.06631,0.10642,9448,-9719,0.93654,-0.30978,-0.16413,0.32531,0.94242,0.07752,0.13067,-0.12600,0.98339,0.33246,0.33432
0.631787,-0.68076,-0.53270,9.40888,,-0.71428,-0.24304,-0.13839,0.10681,0.04307,-0.02483,9448,-9719,0.93540,-0.31274,-0.16500,0.32833,0.94142,0.07699,0.13125,-0.12619,0.98328,0.33246,0.33757
0.651330,-0.69033,-0.54377,9.46960,,-0.71428,-0.24528,-0.13461,-0.29131,-0.01818,0.22454,9448,-9719,0.93455,-0.31559,-0.16437,0.33105,0.94051,0.07650,0.13045,-0.12591,0.98343,0.33246,0.34044
0.661806,-0.66939,-0.53450,9.43221,,-0.71428,-0.24528,-0.13461,-0.05506,0.02557,0.19392,9448,-9719,0.93399,-0.31747,-0.16393,0.33285,0.93990,0.07619,0.12989,-0.12572,0.98353,0.33246,0.34234
0.680958,-0.66580,-0.51087,9.40858,,-0.71736,-0.23436,-0.14833,-0.12506,0.02557,0.18079,9448,-9719,0.93447,-0.31398,-0.16786,0.32991,0.94089,0.07668,0.13386,-0.12704,0.98282,0.33246,0.33939
0.691325,-0.68554,-0.54078,9.49622,,-0.71736,-0.23436,-0.14833,0.14181,-0.06193,0.14579,9448,-9719,0.93475,-0.31160,-0.17075,0.32794,0.94155,0.07707,0.13675,-0.12804,0.98230,0.33246,0.33742
0.710404,-0.66939,-0.52373,9.40050,,-0.70616,-0.23324,-0.13937,0.04994,0.01682,0.04079,9448,-9719,0.93492,-0.31107,-0.17074,0.32742,0.94172,0.07715,0.13679,-0.12803,0.98229,0.33246,0.33687
0.729415,-0.68435,-0.52164,9.39422,,-0.71316,-0.23296,-0.14553,0.07619,-0.01818,0.11954,9448,-9719,0.93512,-0.30966,-0.17225,0.32623,0.94212,0.07735,0.13833,-0.12853,0.98201,0.33246,0.33566
0.739771,-0.66401,-0.51206,9.39452,,-0.71316,-0.23296,-0.14553,-0.05506,-0.10131,0.01454,9448,-9719,0.93522,-0.30871,-0.17337,0.32543,0.94239,0.07745,0.13948,-0.12886,0.98181,0.33246,0.33487
0.759601,-0.68136,-0.51805,9.43071,,-0.71540,-0.24276,-0.12929,-0.12506,0.24432,0.04954,9448,-9719,0.93503,-0.31177,-0.16885,0.32786,0.94159,0.07697,0.13499,-0.12732,0.98263,0.33246,0.33724
0.769996,-0.67807,-0.53868,9.38345,,-0.71540,-0.23842,-0.13412,0.06306,0.02994,0.03642,9448,-9719,0.93524,-0.31210,-0.16709,0.32796,0.94155,0.07697,0.13330,-0.12678,0.98293,0.33246,0.33727
0.789048,-0.67537,-0.53898,9.37568,,-0.71596,-0.23408,-0.13895,-0.05506,-0.19318,-0.00296,9448,-9719,0.93572,-0.31054,-0.16730,0.32645,0.94205,0.07725,0.13362,-0.12690,0.98287,0.33246,0.33567
0.799694,-0.68495,-0.53300,9.41516,,-0.71218,-0.23562,-0.13867,0.02369,-0.09256,0.07579,9448,-9719,0.93567,-0.31056,-0.16757,0.32651,0.94203,0.07725,0.13386,-0.12699,0.98283,0.33246,0.33575
0.819565,-0.67178,-0.53659,9.39721,,-0.70840,-0.23716,-0.13839,0.12869,-0.06193,0.02329,9448,-9719,0.93523,-0.31168,-0.16792,0.32765,0.94165,0.07705,0.13410,-0.12708,0.98279,0.33246,0.33698
0.830282,-0.65593,-0.53480,9.41486,,-0.71372,-0.24192,-0.13559,0.00181,0.01682,0.12392,9448,-9719,0.93476,-0.31360,-0.16695,0.32941,0.94106,0.07672,0.13305,-0.12671,0.98298,0.33246,0.33881
0.851509,-0.68734,-0.55454,9.43370,,-0.71372,-0.23716,-0.13671,0.01494,-0.26318,0.16329,9448,-9719,0.93503,-0.31302,-0.16656,0.32881,0.94126,0.07688,0.13271,-0.12665,0.98303,0.33246,0.33815
0.864506,-0.67717,-0.51147,9.39362,,-0.72380,-0.23716,-0.13671,-0.17756,0.08682,-0.02921,9448,-9719,0.93572,-0.31140,-0.16573,0.32710,0.94184,0.07713,0.13207,-0.12638,0.98315,0.33246,0.33629
0.878924,-0.68076,-0.52702,9.39901,,-0.72128,-0.23492,-0.12173,0.17244,-0.04443,0.04079,9448,-9719,0.93713,-0.30987,-0.16056,0.32494,0.94255,0.07751,0.12732,-0.12481,0.98398,0.33246,0.33377
0.893312,-0.66820,-0.52433,9.38525,,-0.71778,-0.23898,-0.13195,0.11556,-0.08381,0.02767,9448,-9719,0.93687,-0.31083,-0.16016,0.32584,0.94226,0.07735,0.12687,-0.12465,0.98406,0.33246,0.33471
0.917956,-0.66281,-0.51685,9.40200,,-0.71428,-0.24304,-0.14217,-0.30881,-0.09693,0.05829,9448,-9719,0.93547,-0.31343,-0.16325,0.32878,0.94128,0.07677,0.12960,-0.12549,0.98359,0.33246,0.33797
0.932137,-0.65324,-0.52343,9.41636,,-0.71624,-0.24360,-0.13839,0.29494,-0.10568,0.14579,9448,-9719,0.93474,-0.31511,-0.16423,0.33055,0.94069,0.07647,0.13039,-0.12577,0.98345,0.33246,0.33990
0.946455,-0.68495,-0.51864,9.35354,,-0.71624,-0.24360,-0.13839,0.01494,0.13057,0.10204,9448,-9719,0.93424,-0.31623,-0.16490,0.33174,0.94029,0.07624,0.13094,-0.12594,0.98336,0.33246,0.34120
0.960816,-0.66820,-0.54855,9.40319,,-0.71960,-0.24024,-0.14763,-0.27381,-0.23693,0.04079,9448,-9719,0.93402,-0.31517,-0.16813,0.33110,0.94050,0.07638,0.13406,-0.12701,0.98280,0.33246,0.34067
0.974992,-0.69511,-0.53539,9.34816,,-0.71960,-0.24024,-0.14763,-0.05506,0.08682,-0.14296,9448,-9719,0.93383,-0.31446,-0.17050,0.33071,0.94063,0.07649,0.13633,-0.12781,0.98238,0.33246,0.34036
0.989350,-0.66700,-0.53360,9.40319,,-0.71232,-0.23800,-0.13419,0.02369,-0.13193,-0.07296,9448,-9719,0.93431,-0.31413,-0.16847,0.33014,0.94082,0.07661,0.13444,-0.12719,0.98273,0.33246,0.33965
1.003146,-0.67059,-0.54437,9.43221,,-0.71120,-0.23856,-0.13244,0.10681,-0.14068,0.04954,9448,-9719,0.93462,-0.31429,-0.16646,0.33004,0.94085,0.07667,0.13252,-0.12659,0.98306,0.33246,0.33946
1.026164,-0.67478,-0.53180,9.46062,,-0.71008,-0.23912,-0.13069,-0.14256,0.12182,0.15454,9448,-9719,0.93480,-0.31479,-0.16452,0.33028,0.94077,0.07660,0.13066,-0.12594,0.98340,0.33246,0.33963
1.038807,-0.65982,-0.51266,9.41935,,-0.71484,-0.23576,-0.12271,0.05869,-0.18443,-0.02046,9448,-9719,0.93603,-0.31329,-0.16029,0.32827,0.94145,0.07692,0.12681,-0.12462,0.98407,0.33246,0.33730
1.051592,-0.66401,-0.55095,9.46541,,-0.71484,-0.23576,-0.12271,-0.00256,0.08682,0.09329,9448,-9719,0.93688,-0.31230,-0.15724,0.32692,0.94190,0.07716,0.12400,-0.12369,0.98454,0.33246,0.33574
1.064354,-0.68345,-0.53539,9.43221,,-0.71652,-0.24276,-0.13657,-0.05069,-0.01381,0.10642,9448,-9719,0.93596,-0.31407,-0.15921,0.32891,0.94123,0.07681,0.12573,-0.12426,0.98425,0.33246,0.33793
1.087399,-0.67777,-0.54855,9.39303,,-0.72408,-0.24500,-0.13335,-0.00256,0.22682,0.11954,9448,-9719,0.93559,-0.31515,-0.15923,0.32998,0.94087,0.07665,0.12566,-0.12425,0.98426,0.33246,0.33907
1.100049,-0.67238,-0.49531,9.44148,,-0.72408,-0.24500,-0.13335,0.07619,0.04307,-0.08171,9448,-9719,0.93534,-0.31590,-0.15920,0.33071,0.94063,0.07647,0.12560,-0.12417,0.98428,0.33246,0.33985
1.113145,-0.68554,-0.51057,9.40768,,-0.72380,-0.24276,-0.13517,-0.17319,-0.03131,0.08892,9448,-9719,0.93537,-0.31554,-0.15975,0.33041,0.94074,0.07647,0.12615,-0.12431,0.98419,0.33246,0.33956
1.136416,-0.67657,-0.50668,9.40499,,-0.70924,-0.23716,-0.13349,0.08494,-0.07068,0.11954,9448,-9719,0.93542,-0.31499,-0.16051,0.32997,0.94089,0.07653,0.12692,-0.12455,0.98406,0.33246,0.33912
1.149194,-0.66999,-0.52822,9.38884,,-0.70924,-0.23716,-0.13349,-0.19506,0.01682,0.04954,9448,-9719,0.93544,-0.31464,-0.16110,0.32969,0.94098,0.07655,0.12750,-0.12472,0.98397,0.33246,0.33885
1.162396,-0.69691,-0.55872,9.43969,,-0.71204,-0.24332,-0.13783,0.14619,0.14807,-0.01171,9448,-9719,0.93457,-0.31641,-0.16270,0.33164,0.94032,0.07628,0.12885,-0.12525,0.98372,0.33246,0.34099
1.176811,-0.66102,-0.53121,9.39003,,-0.71204,-0.24332,-0.13783,0.04119,0.06932,0.17204,9448,-9719,0.93397,-0.31755,-0.16388,0.33290,0.93989,0.07605,0.12988,-0.12559,0.98354,0.33246,0.34240
1.190763,-0.67657,-0.53958,9.39781,,-0.70672,-0.23296,-0.13447,0.13744,-0.00068,-0.07296,9448,-9719,0.93481,-0.31498,-0.16407,0.33041,0.94073,0.07653,0.13024,-0.12575,0.98348,0.33246,0.33975
1.205166,-0.69242,-0.54766,9.43310,,-0.70714,-0.23674,-0.13727,-0.09006,-0.00068,-0.02483,9448,-9719,0.93474,-0.31469,-0.16502,0.33024,0.94078,0.07658,0.13115,-0.12608,0.98331,0.33246,0.33961
1.230506,-0.69452,-0.53001,9.43310,,-0.70756,-0.24052,-0.14007,-0.01131,0.23557,0.04079,9448,-9719,0.93406,-0.31588,-0.16658,0.33161,0.94032,0.07634,0.13252,-0.12654,0.98307,0.33246,0.34114
1.243943,-0.68614,-0.51446,9.42174,,-0.71764,-0.23800,-0.14455,-0.09881,-0.01818,0.06704,9448,-9719,0.93424,-0.31432,-0.16853,0.33033,0.94076,0.07654,0.13449,-0.12718,0.98272,0.33246,0.33986
1.258481,-0.67657,-0.53719,9.39063,,-0.71764,-0.23800,-0.14847,0.02369,0.12182,-0.08171,9448,-9719,0.93410,-0.31325,-0.17125,0.32962,0.94099,0.07669,0.13713,-0.12808,0.98224,0.33246,0.33923
1.272672,-0.68076,-0.51506,9.43310,,-0.71036,-0.23716,-0.14847,-0.13381,0.08682,0.11079,9448,-9719,0.93371,-0.31308,-0.17369,0.32977,0.94095,0.07662,0.13945,-0.12882,0.98182,0.33246,0.33950
1.287092,-0.66700,-0.53659,9.38405,,-0.71036,-0.23996,-0.13517,-0.05506,-0.21068,0.10204,9448,-9719,0.93380,-0.31418,-0.17121,0.33052,0.94069,0.07649,0.13703,-0.12802,0.98226,0.33246,0.34020
1.300247,-0.66820,-0.52104,9.43101,,-0.71232,-0.23996,-0.13517,0.06744,0.11307,-0.00296,9448,-9719,0.93397,-0.31469,-0.16932,0.33078,0.94061,0.07644,0.13521,-0.12740,0.98259,0.33246,0.34038
1.323274,-0.67717,-0.53360,9.46122,,-0.71260,-0.24332,-0.13517,0.10244,-0.11443,-0.04671,9448,-9719,0.93369,-0.31633,-0.16783,0.33220,0.94012,0.07620,0.13368,-0.12690,0.98287,0.33246,0.34183
1.336457,-0.67837,-0.53180,9.44088,,-0.71260,-0.24332,-0.13391,0.14619,-0.07068,0.18954,9448,-9719,0.93359,-0.31741,-0.16633,0.33308,0.93983,0.07606,0.13218,-0.12641,0.98313,0.33246,0.34270
1.350690,-0.64786,-0.51924,9.38226,,-0.71120,-0.23660,-0.13391,0.12869,0.02557,-0.00296,9448,-9719,0.93432,-0.31572,-0.16542,0.33130,0.94043,0.07637,0.13146,-0.12616,0.98326,0.33246,0.34076
1.364847,-0.68913,-0.50847,9.40020,,-0.71652,-0.24164,-0.13755,-0.03756,0.16557,0.01454,9448,-9719,0.93426,-0.31586,-0.16552,0.33145,0.94038,0.07631,0.13155,-0.12615,0.98325,0.33246,0.34092
1.379562,-0.66042,-0.54796,9.35115,,-0.71652,-0.24164,-0.13755,0.09369,-0.08818,-0.02921,9448,-9719,0.93421,-0.31595,-0.16562,0.33155,0.94034,0.07634,0.13162,-0.12622,0.98323,0.33246,0.34103
1.393736,-0.66849,-0.54855,9.44537,,-0.70728,-0.23296,-0.14371,0.08056,-0.09256,-0.02046,9448,-9719,0.93448,-0.31374,-0.16827,0.32972,0.94096,0.07671,0.13427,-0.12717,0.98275,0.33246,0.33920
1.418178,-0.66102,-0.52403,9.41935,,-0.71512,-0.23128,-0.13027,0.04119,-0.05318,-0.15171,9448,-9719,0.93598,-0.31072,-0.16550,0.32640,0.94207,0.07729,0.13190,-0.12636,0.98318,0.33246,0.33554
1.431865,-0.67418,-0.51805,9.39542,,-0.71512,-0.23128,-0.13027,-0.01131,-0.26318,-0.06421,9448,-9719,0.93701,-0.30871,-0.16344,0.32417,0.94281,0.07766,0.13012,-0.12575,0.98349,0.33246,0.33307
1.445793,-0.69870,-0.52044,9.43131,,-0.70896,-0.24556,-0.13083,-0.02881,0.06057,0.16329,9448,-9719,0.93552,-0.31377,-0.16232,0.32900,0.94120,0.07679,0.12868,-0.12524,0.98375,0.33246,0.33816
1.460391,-0.69033,-0.54138,9.35354,,-0.70896,-0.24556,-0.13083,0.15494,-0.01818,-0.09046,9448,-9719,0.93451,-0.31718,-0.16149,0.33226,0.94010,0.07628,0.12763,-0.12494,0.98392,0.33246,0.34160
1.474800,-0.67717,-0.51087,9.39482,,-0.71540,-0.24024,-0.13769,-0.03756,-0.14943,0.13704,9448,-9719,0.93455,-0.31645,-0.16272,0.33168,0.94030,0.07635,0.12884,-0.12533,0.98371,0.33246,0.34105
1.488886,-0.68016,-0.52164,9.40140,,-0.71540,-0.24024,-0.13769,0.01494,0.03432,0.20704,9448,-9719,0.93456,-0.31593,-0.16365,0.33130,0.94043,0.07642,0.12976,-0.12563,0.98355,0.33246,0.34067
1.502694,-0.66849,-0.53719,9.41217,,-0.71848,-0.23604,-0.13475,0.06744,-0.07506,0.13704,9448,-9719,0.93542,-0.31357,-0.16329,0.32893,0.94122,0.07685,0.12959,-0.12560,0.98358,0.33246,0.33813
1.525903,-0.67537,-0.54317,9.41755,,-0.71596,-0.23744,-0.12971,-0.12506,0.02557,0.22454,9448,-9719,0.93594,-0.31291,-0.16156,0.32807,0.94151,0.07700,0.12802,-0.12507,0.98385,0.33246,0.33714
1.538560,-0.65743,-0.53180,9.46302,,-0.71596,-0.23744,-0.12971,0.18119,0.09557,-0.04671,9448,-9719,0.93628,-0.31251,-0.16034,0.32752,0.94169,0.07709,0.12690,-0.12469,0.98405,0.33246,0.33651
1.551451,-0.64965,-0.52642,9.41157,,-0.71176,-0.24640,-0.12957,0.31244,-0.05318,0.16329,9448,-9719,0.93516,-0.31628,-0.15954,0.33113,0.94048,0.07647,0.12586,-0.12434,0.98423,0.33246,0.34031
1.564359,-0.68315,-0.52881,9.42323,,-0.71372,-0.24080,-0.13517,-0.17756,0.02994,0.06704,9448,-9719,0.93496,-0.31633,-0.16060,0.33130,0.94043,0.07640,0.12686,-0.12463,0.98406,0.33246,0.34055
1.588489,-0.67418,-0.51685,9.37628,,-0.71568,-0.23520,-0.14077,-0.05506,0.13057,0.00579,9448,-9719,0.93535,-0.31388,-0.16313,0.32920,0.94114,0.07674,0.12944,-0.12549,0.98362,0.33246,0.33842
1.602108,-0.67837,-0.52822,9.34278,,-0.71512,-0.23492,-0.13685,0.25994,0.02557,-0.05546,9448,-9719,0.93579,-0.31221,-0.16379,0.32765,0.94165,0.07704,0.13018,-0.12576,0.98348,0.33246,0.33679
1.616026,-0.68255,-0.57667,9.40319,,-0.71512,-0.23492,-0.13685,-0.31756,0.22682,0.07579,9448,-9719,0.93607,-0.31108,-0.16431,0.32661,0.94200,0.07725,0.13075,-0.12598,0.98338,0.33246,0.33571
1.630275,-0.68375,-0.55454,9.40379,,-0.71064,-0.23716,-0.14147,-0.02881,-0.08818,0.19829,9448,-9719,0.93550,-0.31172,-0.16636,0.32750,0.94170,0.07713,0.13262,-0.12664,0.98304,0.33246,0.33675
1.643687,-0.68345,-0.53420,9.43251,,-0.71288,-0.23744,-0.13517,-0.01131,-0.17131,0.08454,9448,-9719,0.93552,-0.31201,-0.16568,0.32770,0.94163,0.07710,0.13195,-0.12643,0.98316,0.33246,0.33693
1.667878,-0.68973,-0.49352,9.38764,,-0.71512,-0.23772,-0.12887,-0.16006,-0.13193,0.12829,9448,-9719,0.93596,-0.31210,-0.16303,0.32744,0.94172,0.07708,0.12947,-0.12553,0.98361,0.33246,0.33654
1.681504,-0.68076,-0.51924,9.37747,,-0.71176,-0.23940,-0.12663,0.15494,-0.01818,0.11079,9448,-9719,0.93599,-0.31328,-0.16058,0.32830,0.94143,0.07694,0.12708,-0.12473,0.98402,0.33246,0.33735
1.696109,-0.68375,-0.54736,9.38226,,-0.71400,-0.23772,-0.12901,0.17244,0.04307,0.11079,9448,-9719,0.93623,-0.31312,-0.15946,0.32801,0.94153,0.07702,0.12602,-0.12442,0.98420,0.33246,0.33699
1.710732,-0.68375,-0.54855,9.41695,,-0.71400,-0.23772,-0.12901,-0.04631,-0.05318,0.01454,9448,-9719,0.93640,-0.31304,-0.15862,0.32783,0.94159,0.07707,0.12522,-0.12417,0.98433,0.33246,0.33676
1.725137,-0.69093,-0.51386,9.62333,,-0.71400,-0.24192,-0.12761,-0.03756,-0.00943,0.04079,9448,-9719,0.93605,-0.31465,-0.15751,0.32927,0.94111,0.07678,0.12407,-0.12373,0.98453,0.33246,0.33824
1.739312,-0.64905,-0.51984,9.41815,,-0.71400,-0.24192,-0.12761,-0.04631,0.08682,0.11079,9448,-9719,0.93582,-0.31571,-0.15675,0.33022,0.94079,0.07658,0.12329,-0.12342,0.98467,0.33246,0.33922
1.753598,-0.65683,-0.51625,9.37508,,-0.70868,-0.23520,-0.13013,0.19869,0.04307,0.18954,9448,-9719,0.93615,-0.31444,-0.15733,0.32904,0.94119,0.07676,0.12394,-0.12363,0.98456,0.33246,0.33800
1.767579,-0.67358,-0.53629,9.40409,,-0.70952,-0.23716,-0.13559,-0.07256,-0.00943,0.04517,9448,-9719,0.93586,-0.31424,-0.15942,0.32909,0.94117,0.07674,0.12593,-0.12428,0.98422,0.33246,0.33814
1.790623,-0.67896,-0.53300,9.48874,,-0.71036,-0.23912,-0.14105,-0.20381,-0.27193,-0.17796,9448,-9719,0.93515,-0.31473,-0.16259,0.32998,0.94088,0.07658,0.12888,-0.12527,0.98372,0.33246,0.33922
1.803253,-0.68554,-0.51805,9.46122,,-0.71176,-0.23352,-0.13937,-0.10756,-0.13193,0.06704,9448,-9719,0.93555,-0.31264,-0.16435,0.32813,0.94150,0.07689,0.13070,-0.12586,0.98340,0.33246,0.33733
1.816051,-0.68883,-0.53091,9.41725,,-0.71344,-0.23170,-0.13475,0.06744,0.04307,-0.02483,9448,-9719,0.93635,-0.31034,-0.16414,0.32585,0.94226,0.07731,0.13067,-0.12587,0.98340,0.33246,0.33489
1.838912,-0.67896,-0.55573,9.36192,,-0.71512,-0.22988,-0.13013,-0.00256,0.22682,0.14579,9448,-9719,0.93745,-0.30789,-0.16248,0.32323,0.94312,0.07778,0.12929,-0.12544,0.98364,0.33246,0.33204
1.851550,-0.67956,-0.52403,9.39482,,-0.71092,-0.23380,-0.12803,-0.09006,-0.18443,0.16329,9448,-9719,0.93759,-0.30836,-0.16074,0.32348,0.94304,0.07771,0.12762,-0.12485,0.98393,0.33246,0.33222
1.864456,-0.68913,-0.52343,9.39362,,-0.71092,-0.23380,-0.12803,0.04119,0.13932,-0.04671,9448,-9719,0.93769,-0.30873,-0.15947,0.32368,0.94298,0.07765,0.12641,-0.12443,0.98414,0.33246,0.33238
1.877289,-0.68554,-0.52283,9.45614,,-0.71092,-0.23884,-0.14385,-0.05506,-0.15381,-0.07733,9448,-9719,0.93629,-0.31084,-0.16351,0.32626,0.94213,0.07717,0.13006,-0.12560,0.98352,0.33246,0.33530
1.900169,-0.67238,-0.52822,9.45344,,-0.71092,-0.23884,-0.10801,-0.17756,0.06932,0.04079,9448,-9719,0.93718,-0.31250,-0.15503,0.32683,0.94194,0.07704,0.12195,-0.12287,0.98490,0.33246,0.33555
1.912792,-0.68794,-0.51446,9.43430,,-0.70644,-0.23380,-0.13041,0.00619,-0.00943,0.12829,9448,-9719,0.93712,-0.31207,-0.15626,0.32656,0.94203,0.07706,0.12315,-0.12325,0.98470,0.33246,0.33531
1.925792,-0.67178,-0.50369,9.47797,,-0.70644,-0.23380,-0.13741,-0.16006,-0.06193,0.08454,9448,-9719,0.93670,-0.31172,-0.15943,0.32660,0.94202,0.07698,0.12619,-0.12418,0.98420,0.33246,0.33549
1.939055,-0.68166,-0.53839,9.43789,,-0.71932,-0.23828,-0.13741,0.05869,0.05619,-0.04233,9448,-9719,0.93648,-0.31158,-0.16100,0.32666,0.94200,0.07699,0.12767,-0.12469,0.98395,0.33246,0.33562
1.962595,-0.67238,-0.53659,9.42234,,-0.71652,-0.24052,-0.15295,0.19869,0.06057,-0.02921,9448,-9719,0.93507,-0.31256,-0.16719,0.32839,0.94142,0.07669,0.13342,-0.12662,0.98294,0.33246,0.33774
1.975714,-0.66580,-0.52762,9.41576,,-0.71652,-0.24052,-0.15295,-0.01131,0.03432,0.00579,9448,-9719,0.93405,-0.31315,-0.17172,0.32955,0.94104,0.07646,0.13765,-0.12801,0.98217,0.33246,0.33918
1.989699,-0.66999,-0.56530,9.43071,,-0.71456,-0.24024,-0.13545,-0.09006,-0.01818,-0.02046,9448,-9719,0.93421,-0.31381,-0.16965,0.32994,0.94090,0.07644,0.13564,-0.12738,0.98254,0.33246,0.33951
2.003953,-0.63829,-0.53480,9.40439,,-0.70952,-0.24080,-0.12747,-0.15131,-0.10568,0.02329,9448,-9719,0.93441,-0.31522,-0.16587,0.33085,0.94060,0.07626,0.13198,-0.12614,0.98319,0.33246,0.34030
2.017728,-0.66580,-0.53300,9.43281,,-0.70952,-0.24080,-0.12789,0.04119,-0.04443,-0.06858,9448,-9719,0.93455,-0.31621,-0.16319,0.33148,0.94038,0.07618,0.12937,-0.12528,0.98365,0.33246,0.34085
2.041764,-0.67418,-0.54796,9.39183,,-0.71204,-0.24892,-0.12831,0.01494,0.02557,-0.02921,9448,-9719,0.93371,-0.31971,-0.16114,0.33468,0.93929,0.07566,0.12716,-0.12458,0.98403,0.33246,0.34417
2.055401,-0.67478,-0.54018,9.34517,,-0.71792,-0.23352,-0.13643,0.03244,-0.07068,0.04079,9448,-9719,0.93509,-0.31521,-0.16200,0.33037,0.94075,0.07646,0.12830,-0.12502,0.98382,0.33246,0.33961
2.069953,-0.67298,-0.54197,9.38944,,-0.71792,-0.23352,-0.13643,-0.25631,-0.08818,0.00579,9448,-9719,0.93598,-0.31222,-0.16266,0.32750,0.94171,0.07696,0.12915,-0.12531,0.98368,0.33246,0.33659
2.083895,-0.69571,-0.52164,9.44327,,-0.71344,-0.24108,-0.12999,-0.03756,0.06057,0.20704,9448,-9719,0.93571,-0.31376,-0.16127,0.32885,0.94126,0.07672,0.12772,-0.12482,0.98392,0.33246,0.33796
2.098424,-0.68495,-0.55454,9.46960,,-0.71344,-0.24108,-0.12999,0.14619,0.03432,0.15454,9448,-9719,0.93553,-0.31481,-0.16028,0.32976,0.94095,0.07660,0.12670,-0.12452,0.98409,0.33246,0.33889
2.112808,-0.67597,-0.53839,9.43610,,-0.70896,-0.23884,-0.13727,-0.18631,0.02557,-0.00296,9448,-9719,0.93508,-0.31519,-0.16214,0.33036,0.94075,0.07649,0.12842,-0.12509,0.98380,0.33246,0.33961
2.126727,-0.67418,-0.54616,9.43370,,-0.70868,-0.24178,-0.12929,-0.12069,-0.06631,0.01017,9448,-9719,0.93478,-0.31668,-0.16092,0.33169,0.94030,0.07628,0.12716,-0.12468,0.98402,0.33246,0.34097
2.150947,-0.66281,-0.52044,9.40858,,-0.70840,-0.24472,-0.12131,0.02369,0.06932,-0.09921,9448,-9719,0.93459,-0.31897,-0.15747,0.33350,0.93968,0.07597,0.12374,-0.12351,0.98460,0.33246,0.34276
2.163734,-0.65264,-0.57428,9.41576,,-0.71092,-0.24192,-0.12943,0.25994,-0.07943,0.07579,9448,-9719,0.93459,-0.31898,-0.15746,0.33353,0.93967,0.07605,0.12370,-0.12360,0.98459,0.33246,0.34278
2.177183,-0.71067,-0.52164,9.38884,,-0.71092,-0.24192,-0.12943,0.10244,0.20932,0.08454,9448,-9719,0.93460,-0.31900,-0.15736,0.33354,0.93966,0.07606,0.12360,-0.12358,0.98461,0.33246,0.34279
2.191713,-0.68674,-0.55095,9.42892,,-0.71512,-0.24584,-0.12691,0.07619,-0.14068,-0.02046,9448,-9719,0.93444,-0.32003,-0.15623,0.33441,0.93936,0.07598,0.12244,-0.12324,0.98479,0.33246,0.34368
2.205539,-0.68644,-0.52403,9.39572,,-0.71106,-0.24234,-0.13041,0.12431,-0.04881,0.05392,9448,-9719,0.93441,-0.31984,-0.15675,0.33430,0.93939,0.07603,0.12294,-0.12344,0.98471,0.33246,0.34358
2.230161,-0.67956,-0.52283,9.42952,,-0.70700,-0.23884,-0.13391,0.40869,-0.04443,-0.08171,9448,-9719,0.93444,-0.31887,-0.15855,0.33357,0.93964,0.07619,0.12469,-0.12408,0.98441,0.33246,0.34287
2.243717,-0.68136,-0.50728,9.43550,,-0.71512,-0.24136,-0.14105,0.17244,-0.01818,-0.02921,9448,-9719,0.93419,-0.31806,-0.16164,0.33316,0.93978,0.07624,0.12765,-0.12508,0.98390,0.33246,0.34257
2.257819,-0.67956,-0.53599,9.37388,,-0.71512,-0.24136,-0.14791,-0.00256,0.13932,0.04954,9448,-9719,0.93362,-0.31743,-0.16610,0.33310,0.93980,0.07627,0.13189,-0.12653,0.98315,0.33246,0.34270
2.271833,-0.67717,-0.52343,9.40080,,-0.71288,-0.23996,-0.14791,0.03244,-0.07068,-0.02921,9448,-9719,0.93325,-0.31672,-0.16951,0.33283,0.93989,0.07632,0.13515,-0.12765,0.98257,0.33246,0.34258
2.285031,-0.66760,-0.53180,9.47259,,-0.71288,-0.23996,-0.13335,0.01494,0.01682,0.17204,9448,-9719,0.93376,-0.31632,-0.16743,0.33217,0.94012,0.07644,0.13323,-0.12699,0.98292,0.33246,0.34178
2.297994,-0.67687,-0.51745,9.40768,,-0.71288,-0.23632,-0.13335,0.09806,0.16557,-0.09046,9448,-9719,0.93457,-0.31469,-0.16596,0.33038,0.94072,0.07674,0.13197,-0.12655,0.98314,0.33246,0.33980
2.321276,-0.67119,-0.53480,9.42892,,-0.71120,-0.24052,-0.13937,-0.01131,-0.08818,-0.02046,9448,-9719,0.93418,-0.31540,-0.16683,0.33120,0.94045,0.07660,0.13273,-0.12681,0.98301,0.33246,0.34071
2.334336,-0.67298,-0.54317,9.46660,,-0.71120,-0.24052,-0.10353,0.02369,-0.02693,-0.09921,9448,-9719,0.93578,-0.31620,-0.15597,0.33063,0.94064,0.07672,0.12245,-0.12336,0.98478,0.33246,0.33963
2.348330,-0.66760,-0.51206,9.36790,,-0.71568,-0.24472,-0.12831,0.08494,0.08682,0.04079,9448,-9719,0.93534,-0.31764,-0.15568,0.33201,0.94017,0.07646,0.12208,-0.12320,0.98484,0.33246,0.34108
2.361205,-0.67627,-0.54975,9.41396,,-0.71176,-0.23842,-0.13335,-0.07694,0.00369,0.00142,9448,-9719,0.93541,-0.31662,-0.15735,0.33121,0.94044,0.07661,0.12372,-0.12378,0.98457,0.33246,0.34031
2.384176,-0.68853,-0.54197,9.47797,,-0.70784,-0.23212,-0.13839,-0.10756,0.00807,-0.19546,9448,-9719,0.93579,-0.31394,-0.16046,0.32896,0.94120,0.07702,0.12685,-0.12486,0.98403,0.33246,0.33804
2.396904,-0.67298,-0.52403,9.46720,,-0.70784,-0.23436,-0.13237,0.06744,-0.07068,0.06704,9448,-9719,0.93604,-0.31301,-0.16081,0.32809,0.94149,0.07715,0.12725,-0.12498,0.98397,0.33246,0.33713
2.409759,-0.68345,-0.53719,9.40977,,-0.71162,-0.23898,-0.13286,-0.01569,0.03432,0.04079,9448,-9719,0.93577,-0.31372,-0.16097,0.32881,0.94125,0.07703,0.12734,-0.12501,0.98395,0.33246,0.33790
2.432647,-0.68435,-0.53599,9.48993,,-0.71540,-0.24360,-0.13335,0.19869,-0.00068,0.04954,9448,-9719,0.93517,-0.31550,-0.16098,0.33056,0.94066,0.07674,0.12722,-0.12498,0.98397,0.33246,0.33977
2.445601,-0.69033,-0.53180,9.39422,,-0.71372,-0.24388,-0.12901,-0.17756,0.05182,0.11079,9448,-9719,0.93487,-0.31705,-0.15967,0.33192,0.94020,0.07649,0.12587,-0.12451,0.98420,0.33246,0.34116
2.459877,-0.68435,-0.51625,9.40319,,-0.71372,-0.24388,-0.12901,-0.12506,0.13057,-0.02046,9448,-9719,0.93467,-0.31812,-0.15871,0.33285,0.93989,0.07631,0.12490,-0.12415,0.98437,0.33246,0.34211
2.473291,-0.67657,-0.51446,9.44387,,-0.71092,-0.24416,-0.13895,0.03244,-0.03568,-0.04671,9448,-9719,0.93385,-0.31922,-0.16132,0.33426,0.93941,0.07606,0.12727,-0.12495,0.98397,0.33246,0.34373
2.487164,-0.66401,-0.51864,9.44148,,-0.71092,-0.24416,-0.13895,0.04994,-0.16693,0.08454,9448,-9719,0.93328,-0.31991,-0.16323,0.33518,0.93909,0.07589,0.12901,-0.12554,0.98367,0.33246,0.34480
2.501259,-0.68046,-0.53121,9.40589,,-0.71568,-0.23996,-0.13909,0.00181,-0.07068,0.03642,9448,-9719,0.93369,-0.31811,-0.16441,0.33356,0.93964,0.07620,0.13025,-0.12599,0.98344,0.33246,0.34312
2.525168,-0.53659,-0.52283,9.45643,,-0.70980,-0.23940,-0.14469,-0.04631,0.06057,-0.04671,9448,-9719,0.93336,-0.31738,-0.16767,0.33324,0.93976,0.07617,0.13339,-0.12697,0.98290,0.33246,0.34292
2.538615,-0.65145,-0.52044,9.43430,,-0.70980,-0.23940,-0.14469,-0.14256,-0.07068,0.08454,9448,-9719,0.93314,-0.31686,-0.16987,0.33300,0.93984,0.07618,0.13551,-0.12766,0.98252,0.33246,0.34278
2.551966,-0.67777,-0.52582,9.36790,,-0.71176,-0.24472,-0.13811,0.12869,0.06057,-0.08171,9448,-9719,0.93273,-0.31840,-0.16921,0.33444,0.93935,0.07595,0.13476,-0.12743,0.98265,0.33246,0.34428
2.565424,-0.67119,-0.53958,9.43370,,-0.71176,-0.24472,-0.13433,-0.23006,-0.09693,-0.11671,9448,-9719,0.93267,-0.31949,-0.16750,0.33529,0.93906,0.07580,0.13307,-0.12686,0.98295,0.33246,0.34511
2.579096,-0.68195,-0.52493,9.37657,,-0.71932,-0.23996,-0.13433,0.02806,0.06494,-0.01171,9448,-9719,0.93368,-0.31738,-0.16587,0.33301,0.93984,0.07624,0.13170,-0.12642,0.98320,0.33246,0.34260
2.602885,-0.68674,-0.52941,9.42353,,-0.71428,-0.24276,-0.14035,-0.05506,-0.08818,-0.08171,9448,-9719,0.93341,-0.31767,-0.16682,0.33343,0.93969,0.07618,0.13256,-0.12673,0.98304,0.33246,0.34309
2.616533,-0.66102,-0.53958,9.39542,,-0.71428,-0.24276,-0.13349,0.05869,-0.01818,-0.02046,9448,-9719,0.93358,-0.31791,-0.16539,0.33348,0.93967,0.07620,0.13119,-0.12629,0.98328,0.33246,0.34308
2.630811,-0.67717,-0.52343,9.48276,,-0.71232,-0.24276,-0.13349,0.13744,-0.27193,-0.09921,9448,-9719,0.93361,-0.31835,-0.16439,0.33379,0.93956,0.07616,0.13021,-0.12598,0.98345,0.33246,0.34337
2.645582,-0.69870,-0.52343,9.46601,,-0.70448,-0.23520,-0.12971,-0.06381,-0.11443,0.06704,9448,-9719,0.93442,-0.31673,-0.16294,0.33201,0.94017,0.07648,0.12897,-0.12556,0.98367,0.33246,0.34140
2.659889,-0.68435,-0.53360,9.42294,,-0.70448,-0.23520,-0.12971,0.01494,-0.26318,0.03204,9448,-9719,0.93496,-0.31565,-0.16189,0.33083,0.94057,0.07671,0.12806,-0.12528,0.98382,0.33246,0.34009
2.673742,-0.67687,-0.52672,9.41665,,-0.71764,-0.24192,-0.12943,0.01931,-0.03568,0.10642,9448,-9719,0.93517,-0.31585,-0.16027,0.33082,0.94057,0.07671,0.12652,-0.12476,0.98409,0.33246,0.34002
2.697043,-0.69392,-0.51506,9.46361,,-0.71428,-0.23884,-0.12481,-0.05506,0.18307,0.04954,9448,-9719,0.93578,-0.31530,-0.15784,0.32997,0.94086,0.07682,0.12428,-0.12397,0.98447,0.33246,0.33900
2.709731,-0.66401,-0.54377,9.44985,,-0.71428,-0.23884,-0.12481,-0.05506,0.07807,0.11954,9448,-9719,0.93619,-0.31492,-0.15610,0.32939,0.94106,0.07692,0.12268,-0.12343,0.98474,0.33246,0.33831
2.722532,-0.66820,-0.55454,9.45404,,-0.71596,-0.24444,-0.13223,0.21619,0.02557,0.16329,9448,-9719,0.93547,-0.31658,-0.15704,0.33114,0.94046,0.07666,0.12342,-0.12372,0.98461,0.33246,0.34022
2.735441,-0.65593,-0.52463,9.41097,,-0.71596,-0.24444,-0.12572,0.05431,-0.03131,0.03642,9448,-9719,0.93531,-0.31776,-0.15564,0.33212,0.94013,0.07648,0.12202,-0.12322,0.98485,0.33246,0.34120
2.758954,-0.69452,-0.51625,9.39243,,-0.71652,-0.23828,-0.11921,0.11994,0.06057,0.18954,9448,-9719,0.93638,-0.31612,-0.15250,0.33012,0.94081,0.07680,0.11920,-0.12226,0.98531,0.33246,0.33894
2.771606,-0.66162,-0.53300,9.44686,,-0.71652,-0.23828,-0.13671,-0.11631,0.13932,0.20704,9448,-9719,0.93624,-0.31490,-0.15585,0.32933,0.94108,0.07690,0.12245,-0.12333,0.98478,0.33246,0.33824
2.784507,-0.66670,-0.53390,9.41785,,-0.71960,-0.24024,-0.13671,-0.07256,-0.00943,-0.02921,9448,-9719,0.93601,-0.31447,-0.15810,0.32918,0.94113,0.07692,0.12460,-0.12404,0.98442,0.33246,0.33818
2.807385,-0.70289,-0.52522,9.39422,,-0.71708,-0.23912,-0.13153,0.13744,0.14807,0.02329,9448,-9719,0.93612,-0.31408,-0.15822,0.32882,0.94125,0.07699,0.12474,-0.12410,0.98440,0.33246,0.33780
2.820027,-0.68315,-0.52642,9.43969,,-0.71708,-0.23912,-0.13153,0.10244,0.15682,0.04079,9448,-9719,0.93619,-0.31382,-0.15835,0.32857,0.94133,0.07702,0.12489,-0.12413,0.98437,0.33246,0.33754
2.832798,-0.68495,-0.53779,9.36311,,-0.71932,-0.23884,-0.12579,-0.01131,-0.01818,-0.09921,9448,-9719,0.93667,-0.31331,-0.15648,0.32784,0.94158,0.07716,0.12316,-0.12357,0.98466,0.33246,0.33668
2.845656,-0.69003,-0.52074,9.42054,,-0.71764,-0.24038,-0.12649,0.01931,0.13932,0.04079,9448,-9719,0.93669,-0.31378,-0.15542,0.32817,0.94147,0.07708,0.12214,-0.12320,0.98484,0.33246,0.33699
2.869774,-0.67777,-0.54975,9.38585,,-0.71596,-0.24192,-0.12719,0.08494,0.00807,0.00579,9448,-9719,0.93639,-0.31491,-0.15495,0.32923,0.94111,0.07693,0.12160,-0.12305,0.98492,0.33246,0.33810
2.883602,-0.68853,-0.50907,9.40020,,-0.71568,-0.24696,-0.12649,-0.13381,0.09557,0.03204,9448,-9719,0.93556,-0.31768,-0.15431,0.33188,0.94022,0.07645,0.12080,-0.12273,0.98506,0.33246,0.34089
2.898098,-0.67418,-0.51565,9.44447,,-0.71568,-0.23856,-0.12985,0.22494,-0.17568,-0.08171,9448,-9719,0.93593,-0.31624,-0.15497,0.33054,0.94067,0.07668,0.12153,-0.12299,0.98494,0.33246,0.33949
2.912837,-0.68375,-0.52941,9.46122,,-0.71624,-0.23856,-0.12985,-0.09006,0.13057,0.05829,9448,-9719,0.93621,-0.31519,-0.15546,0.32956,0.94100,0.07682,0.12207,-0.12315,0.98485,0.33246,0.33847
2.927216,-0.68016,-0.54317,9.43550,,-0.71736,-0.24668,-0.14679,0.11994,0.05182,-0.00296,9448,-9719,0.93453,-0.31735,-0.16104,0.33238,0.94005,0.07636,0.12715,-0.12489,0.98399,0.33246,0.34172
2.942029,-0.66820,-0.51745,9.43789,,-0.71736,-0.24668,-0.14679,-0.00256,-0.00943,0.03204,9448,-9719,0.93335,-0.31874,-0.16511,0.33425,0.93941,0.07601,0.13088,-0.12613,0.98334,0.33246,0.34389
2.957007,-0.68554,-0.53300,9.40200,,-0.70448,-0.24304,-0.12831,-0.09881,0.17432,0.23329,9448,-9719,0.93327,-0.32006,-0.16300,0.33529,0.93906,0.07583,0.12880,-0.12542,0.98371,0.33246,0.34490
2.971186,-0.67717,-0.54018,9.42114,,-0.70448,-0.24304,-0.12831,-0.06381,-0.03568,0.13704,9448,-9719,0.93323,-0.32097,-0.16144,0.33600,0.93881,0.07573,0.12725,-0.12492,0.98397,0.33246,0.34559
2.985300,-0.66760,-0.53180,9.45733,,-0.71008,-0.23996,-0.12859,-0.03319,0.06932,0.11079,9448,-9719,0.93391,-0.31963,-0.16013,0.33451,0.93932,0.07599,0.12613,-0.12453,0.98417,0.33246,0.34394
3.010597,-0.67717,-0.53061,9.41576,,-0.71652,-0.23744,-0.14497,-0.13381,0.20057,-0.04671,9448,-9719,0.93419,-0.31683,-0.16404,0.33224,0.94010,0.07638,0.13001,-0.12586,0.98349,0.33246,0.34169
3.024177,-0.68913,-0.53180,9.44327,,-0.71652,-0.23744,-0.14497,-0.16006,-0.23693,0.03204,9448,-9719,0.93434,-0.31491,-0.16684,0.33071,0.94061,0.07667,0.13279,-0.12681,0.98300,0.33246,0.34019
3.038595,-0.69033,-0.54616,9.43610,,-0.71176,-0.24192,-0.13223,0.07619,-0.22818,0.23329,9448,-9719,0.93427,-0.31604,-0.16510,0.33161,0.94030,0.07656,0.13105,-0.12628,0.98330,0.33246,0.34107
3.053127,-0.68076,-0.54018,9.44268,,-0.74760,-0.23660,-0.12747,0.22494,-0.01818,-0.09921,9448,-9719,0.93696,-0.31038,-0.16053,0.32547,0.94236,0.07766,0.12717,-0.12501,0.98397,0.33246,0.33433
3.067331,-0.66999,-0.52223,9.40678,,-0.71456,-0.23660,-0.12747,0.01494,0.20932,0.00579,9448,-9719,0.93712,-0.31070,-0.15895,0.32559,0.94232,0.07759,0.12568,-0.12446,0.98423,0.33246,0.33439
3.081378,-0.68016,-0.54915,9.39362,,-0.71904,-0.24136,-0.13993,-0.10756,0.12182,0.07579,9448,-9719,0.93623,-0.31210,-0.16144,0.32728,0.94176,0.07730,0.12791,-0.12520,0.98385,0.33246,0.33629
3.095276,-0.66999,-0.52642,9.41127,,-0.71932,-0.24234,-0.13979,0.23369,-0.01818,0.10642,9448,-9719,0.93552,-0.31333,-0.16318,0.32870,0.94128,0.07706,0.12945,-0.12573,0.98358,0.33246,0.33788
3.120227,-0.67956,-0.51506,9.40260,,-0.71960,-0.24332,-0.13965,0.18994,-0.07943,0.11954,9448,-9719,0.93493,-0.31450,-0.16434,0.32999,0.94085,0.07682,0.13046,-0.12605,0.98341,0.33246,0.33931
3.133793,-0.68853,-0.52941,9.40379,,-0.71680,-0.24500,-0.13993,-0.02881,-0.02693,-0.02921,9448,-9719,0.93413,-0.31630,-0.16541,0.33191,0.94021,0.07648,0.13133,-0.12634,0.98326,0.33246,0.34140
3.148263,-0.64008,-0.54437,9.35534,,-0.71680,-0.24500,-0.13993,0.00619,-0.26318,-0.15171,9448,-9719,0.93357,-0.31750,-0.16624,0.33319,0.93977,0.07628,0.13201,-0.12660,0.98313,0.33246,0.34281
3.159473,-0.66431,-0.53749,9.45255,,-0.71456,-0.24612,-0.13902,-0.08131,0.02119,0.08017,9448,-9719,0.93298,-0.31901,-0.16666,0.33472,0.93925,0.07601,0.13229,-0.12670,0.98308,0.33246,0.34446
3.178676,-0.67418,-0.51805,9.37209,,-0.71232,-0.24724,-0.13811,0.11119,0.00807,0.20704,9448,-9719,0.93237,-0.32073,-0.16677,0.33644,0.93866,0.07571,0.13226,-0.12669,0.98309,0.33246,0.34630
3.188994,-0.68225,-0.52343,9.31316,,-0.71764,-0.23800,-0.13979,0.11119,-0.03568,-0.02921,9448,-9719,0.93337,-0.31762,-0.16715,0.33343,0.93968,0.07629,0.13283,-0.12693,0.98298,0.33246,0.34310
3.208981,-0.66999,-0.54197,9.35115,,-0.71764,-0.23800,-0.13979,0.05869,-0.14068,0.12829,9448,-9719,0.93403,-0.31551,-0.16746,0.33140,0.94037,0.07669,0.13328,-0.12712,0.98289,0.33246,0.34095
3.219524,-0.66311,-0.53240,9.42443,,-0.70980,-0.24276,-0.13405,0.10244,0.02119,-0.01171,9448,-9719,0.93371,-0.31705,-0.16630,0.33277,0.93991,0.07645,0.13207,-0.12672,0.98311,0.33246,0.34236
3.238731,-0.64187,-0.54317,9.41516,,-0.71624,-0.23772,-0.13965,0.10681,0.02557,0.13704,9448,-9719,0.93423,-0.31519,-0.16695,0.33102,0.94049,0.07677,0.13282,-0.12699,0.98297,0.33246,0.34052
3.257919,-0.66221,-0.51685,9.42054,,-0.71624,-0.23772,-0.13965,0.01494,0.26182,-0.02921,9448,-9719,0.93455,-0.31398,-0.16742,0.32989,0.94088,0.07694,0.13336,-0.12713,0.98288,0.33246,0.33934
3.268228,-0.67627,-0.50877,9.42682,,-0.71484,-0.23800,-0.13993,0.08931,0.01682,-0.03796,9448,-9719,0.93464,-0.31346,-0.16789,0.32943,0.94103,0.07699,0.13386,-0.12726,0.98279,0.33246,0.33887
3.287917,-0.68853,-0.53839,9.34158,,-0.71484,-0.27384,-0.14035,0.04119,-0.27193,0.08454,9448,-9719,0.93004,-0.32685,-0.16792,0.34260,0.93651,0.07465,0.13286,-0.12696,0.98297,0.33246,0.35295
3.298165,-0.67837,-0.52582,9.41336,,-0.71064,-0.24612,-0.14035,-0.16006,-0.06193,0.06704,9448,-9719,0.93033,-0.32574,-0.16844,0.34158,0.93686,0.07486,0.13342,-0.12718,0.98286,0.33246,0.35188
3.317818,-0.67508,-0.54467,9.40529,,-0.70980,-0.24108,-0.14413,-0.11194,0.04307,0.02767,9448,-9719,0.93093,-0.32311,-0.17019,0.33923,0.93768,0.07534,0.13524,-0.12787,0.98253,0.33246,0.34944
3.336733,-0.71486,-0.52702,9.42174,,-0.70980,-0.24108,-0.14413,0.04994,-0.10568,0.06704,9448,-9719,0.93132,-0.32134,-0.17140,0.33765,0.93822,0.07569,0.13649,-0.12836,0.98229,0.33246,0.34781
3.346899,-0.68106,-0.53091,9.43191,,-0.70952,-0.24052,-0.13223,0.13306,0.10869,0.15017,9448,-9719,0.93227,-0.32005,-0.16862,0.33603,0.93878,0.07601,0.13397,-0.12752,0.98275,0.33246,0.34595
3.366049,-0.66401,-0.54616,9.40678,,-0.71120,-0.23660,-0.13503,0.03244,0.18307,-0.01171,9448,-9719,0.93337,-0.31746,-0.16745,0.33334,0.93970,0.07652,0.13306,-0.12724,0.98291,0.33246,0.34302
3.376545,-0.68046,-0.51984,9.40828,,-0.71120,-0.23660,-0.13503,-0.02006,-0.01818,0.09329,9448,-9719,0.93412,-0.31573,-0.16655,0.33152,0.94032,0.07683,0.13235,-0.12698,0.98304,0.33246,0.34103
3.395498,-0.68883,-0.53360,9.33470,,-0.71148,-0.24248,-0.13923,0.01494,-0.15381,0.10204,9448,-9719,0.93365,-0.31680,-0.16712,0.33265,0.93993,0.07666,0.13279,-0.12716,0.98295,0.33246,0.34227
3.414640,-0.68794,-0.53599,9.45285,,-0.71148,-0.24248,-0.13923,-0.05506,0.01682,-0.00296,9448,-9719,0.93332,-0.31754,-0.16756,0.33343,0.93966,0.07653,0.13315,-0.12729,0.98289,0.33246,0.34312
3.424788,-0.69781,-0.54078,9.38256,,-0.71456,-0.23716,-0.13671,-0.05069,0.12182,0.04954,9448,-9719,0.93410,-0.31556,-0.16697,0.33142,0.94034,0.07691,0.13274,-0.12718,0.98296,0.33246,0.34095
3.444117,-0.68913,-0.50309,9.47558,,-0.71092,-0.23996,-0.13321,0.00619,-0.16693,0.07579,9448,-9719,0.93425,-0.31585,-0.16558,0.33152,0.94031,0.07685,0.13142,-0.12669,0.98320,0.33246,0.34099
3.454396,-0.67717,-0.54108,9.41307,,-0.71092,-0.23996,-0.13321,-0.07694,0.13932,0.05392,9448,-9719,0.93435,-0.31604,-0.16462,0.33159,0.94029,0.07684,0.13050,-0.12638,0.98336,0.33246,0.34102
3.473965,-0.66820,-0.51386,9.43669,,-0.71148,-0.24248,-0.13965,-0.00256,-0.06193,0.10204,9448,-9719,0.93379,-0.31703,-0.16588,0.33272,0.93991,0.07661,0.13163,-0.12673,0.98317,0.33246,0.34228
3.485090,-0.68614,-0.52373,9.45973,,-0.71512,-0.24080,-0.13321,0.04556,-0.02256,0.06267,9448,-9719,0.93417,-0.31661,-0.16455,0.33213,0.94011,0.07671,0.13041,-0.12631,0.98338,0.33246,0.34160
3.505140,-0.66102,-0.53061,9.36461,,-0.71876,-0.23912,-0.12677,-0.09881,-0.19318,0.07579,9448,-9719,0.93519,-0.31527,-0.16134,0.33041,0.94069,0.07700,0.12749,-0.12532,0.98389,0.33246,0.33962
3.524619,-0.68375,-0.53659,9.41217,,-0.71792,-0.23828,-0.12271,-0.00256,-0.06193,0.01454,9448,-9719,0.93615,-0.31423,-0.15776,0.32894,0.94118,0.07727,0.12420,-0.12423,0.98445,0.33246,0.33790
3.534963,-0.66760,-0.52433,9.46690,,-0.71792,-0.23828,-0.12866,0.14181,-0.06631,-0.03358,9448,-9719,0.93651,-0.31352,-0.15705,0.32815,0.94145,0.07739,0.12359,-0.12401,0.98455,0.33246,0.33703
3.554102,-0.66341,-0.52582,9.40200,,-0.71372,-0.23884,-0.13461,-0.10756,-0.19318,0.15454,9448,-9719,0.93616,-0.31374,-0.15864,0.32856,0.94131,0.07729,0.12508,-0.12448,0.98431,0.33246,0.33754
3.564583,-0.66580,-0.52971,9.38615,,-0.71302,-0.24150,-0.13258,0.06306,0.08682,0.06704,9448,-9719,0.93564,-0.31502,-0.15921,0.32990,0.94087,0.07706,0.12552,-0.12462,0.98423,0.33246,0.33898
3.584082,-0.66939,-0.52822,9.46122,,-0.71232,-0.24416,-0.13055,0.22494,0.07807,0.11079,9448,-9719,0.93500,-0.31702,-0.15898,0.33183,0.94021,0.07672,0.12515,-0.12449,0.98430,0.33246,0.34104
3.594821,-0.66670,-0.51775,9.42772,,-0.71064,-0.24164,-0.12621,-0.07694,0.02119,0.09329,9448,-9719,0.93504,-0.31763,-0.15752,0.33225,0.94008,0.07660,0.12375,-0.12396,0.98454,0.33246,0.34141
3.614468,-0.69452,-0.53330,9.54377,,-0.71106,-0.23870,-0.13041,0.06306,-0.05756,0.02767,9448,-9719,0.93528,-0.31682,-0.15775,0.33148,0.94034,0.07675,0.12403,-0.12407,0.98449,0.33246,0.34060
3.633948,-0.65982,-0.55214,9.47199,,-0.71316,-0.23828,-0.13461,-0.18631,-0.07068,0.10204,9448,-9719,0.93537,-0.31579,-0.15921,0.33065,0.94062,0.07689,0.12548,-0.12457,0.98425,0.33246,0.33979
3.644748,-0.67597,-0.53180,9.45643,,-0.71316,-0.24010,-0.12803,-0.15569,0.02119,-0.09046,9448,-9719,0.93552,-0.31590,-0.15815,0.33062,0.94063,0.07688,0.12447,-0.12421,0.98442,0.33246,0.33971
3.663764,-0.66401,-0.54556,9.41815,,-0.71316,-0.24192,-0.12145,0.09369,-0.00943,0.08454,9448,-9719,0.93573,-0.31671,-0.15527,0.33107,0.94047,0.07683,0.12169,-0.12330,0.98488,0.33246,0.34006
3.674334,-0.66162,-0.52403,9.42174,,-0.71764,-0.24136,-0.14777,0.01494,-0.11006,0.01454,9448,-9719,0.93487,-0.31626,-0.16123,0.33137,0.94037,0.07676,0.12733,-0.12519,0.98393,0.33246,0.34063
3.693984,-0.68136,-0.55872,9.42533,,-0.71764,-0.24136,-0.14777,-0.25631,-0.07943,-0.02921,9448,-9719,0.93422,-0.31592,-0.16559,0.33158,0.94030,0.07676,0.13146,-0.12662,0.98320,0.33246,0.34106
3.704560,-0.67178,-0.54526,9.41456,,-0.71204,-0.24276,-0.13657,-0.06819,-0.03131,0.10204,9448,-9719,0.93386,-0.31700,-0.16559,0.33264,0.93994,0.07659,0.13136,-0.12661,0.98322,0.33246,0.34219
3.723779,-0.68076,-0.53928,9.40319,,-0.71666,-0.24122,-0.13713,-0.02881,-0.12318,0.00142,9448,-9719,0.93404,-0.31653,-0.16548,0.33218,0.94009,0.07671,0.13128,-0.12661,0.98323,0.33246,0.34169
3.742774,-0.66042,-0.56710,9.39362,,-0.72128,-0.23968,-0.13713,0.13744,-0.02693,-0.11671,9448,-9719,0.93459,-0.31504,-0.16522,0.33068,0.94059,0.07704,0.13113,-0.12663,0.98324,0.33246,0.34008
3.752943,-0.67597,-0.54138,9.43041,,-0.71960,-0.24248,-0.12929,-0.02444,-0.02693,0.04954,9448,-9719,0.93493,-0.31540,-0.16259,0.33070,0.94059,0.07704,0.12863,-0.12579,0.98368,0.33246,0.33999
3.771968,-0.66221,-0.50369,9.39003,,-0.71960,-0.24248,-0.12929,0.04994,0.04307,0.00579,9448,-9719,0.93517,-0.31567,-0.16066,0.33072,0.94058,0.07698,0.12682,-0.12513,0.98400,0.33246,0.33992
3.782452,-0.67926,-0.52223,9.43041,,-0.71876,-0.24668,-0.14077,-0.09444,0.07369,-0.01608,9448,-9719,0.93417,-0.31750,-0.16287,0.33280,0.93988,0.07659,0.12876,-0.12575,0.98367,0.33246,0.34224
3.801672,-0.67567,-0.53061,9.45793,,-0.71456,-0.24220,-0.13251,0.02369,-0.02256,-0.05546,9448,-9719,0.93426,-0.31760,-0.16215,0.33280,0.93988,0.07659,0.12808,-0.12552,0.98379,0.33246,0.34221
3.820665,-0.67298,-0.56172,9.44327,,-0.71456,-0.24220,-0.13251,0.04994,-0.12318,0.08454,9448,-9719,0.93433,-0.31764,-0.16163,0.33279,0.93988,0.07665,0.12757,-0.12541,0.98387,0.33246,0.34217
3.831023,-0.69541,-0.50997,9.40858,,-0.71512,-0.24360,-0.13909,-0.02006,-0.04443,0.05392,9448,-9719,0.93390,-0.31810,-0.16323,0.33344,0.93966,0.07652,0.12904,-0.12589,0.98362,0.33246,0.34293
3.850312,-0.69093,-0.54556,9.41097,,-0.72240,-0.23660,-0.13629,-0.10756,-0.04443,0.03204,9448,-9719,0.93503,-0.31477,-0.16320,0.33016,0.94077,0.07712,0.12926,-0.12599,0.98357,0.33246,0.33944
3.861798,-0.69093,-0.52283,9.38106,,-0.72240,-0.23660,-0.13629,0.20744,0.20932,-0.02046,9448,-9719,0.93577,-0.31255,-0.16323,0.32798,0.94150,0.07751,0.12945,-0.12607,0.98354,0.33246,0.33711
3.875417,-0.67029,-0.52493,9.42353,,-0.71820,-0.23856,-0.14455,0.04994,0.04307,-0.05108,9448,-9719,0.93535,-0.31230,-0.16610,0.32809,0.94147,0.07746,0.13219,-0.12694,0.98306,0.33246,0.33736
3.899132,-0.69093,-0.50429,9.38944,,-0.71708,-0.23884,-0.14035,0.23369,0.19182,0.06704,9448,-9719,0.93518,-0.31237,-0.16692,0.32826,0.94141,0.07739,0.13297,-0.12717,0.98293,0.33246,0.33758
3.913253,-0.66281,-0.54975,9.41336,,-0.71708,-0.23884,-0.14035,-0.11631,-0.03568,-0.00296,9448,-9719,0.93505,-0.31242,-0.16755,0.32839,0.94137,0.07736,0.13356,-0.12736,0.98282,0.33246,0.33775
3.927663,-0.68375,-0.52762,9.37029,,-0.71232,-0.23940,-0.13293,0.14619,0.09557,0.13704,9448,-9719,0.93504,-0.31333,-0.16590,0.32908,0.94114,0.07724,0.13193,-0.12682,0.98311,0.33246,0.33840
3.941062,-0.67178,-0.51326,9.40559,,-0.71232,-0.23940,-0.13293,0.01494,-0.25443,0.14579,9448,-9719,0.93505,-0.31395,-0.16465,0.32952,0.94099,0.07713,0.13072,-0.12638,0.98333,0.33246,0.33882
3.954923,-0.66162,-0.54078,9.42772,,-0.71652,-0.23604,-0.12929,-0.09006,0.13932,0.18954,9448,-9719,0.93591,-0.31254,-0.16244,0.32786,0.94155,0.07740,0.12875,-0.12570,0.98368,0.33246,0.33695
3.969645,-0.65773,-0.52343,9.44268,,-0.71302,-0.23800,-0.13636,0.20306,-0.01818,0.02329,9448,-9719,0.93569,-0.31278,-0.16325,0.32820,0.94144,0.07734,0.12950,-0.12594,0.98355,0.33246,0.33735
3.992707,-0.67717,-0.50668,9.45165,,-0.70952,-0.23996,-0.14343,-0.11631,0.13932,-0.00296,9448,-9719,0.93471,-0.31412,-0.16625,0.32989,0.94088,0.07697,0.13224,-0.12678,0.98308,0.33246,0.33928
4.005291,-0.67837,-0.50728,9.41217,,-0.71596,-0.24052,-0.13363,0.25994,0.01682,0.05829,9448,-9719,0.93484,-0.31444,-0.16494,0.33003,0.94083,0.07692,0.13099,-0.12635,0.98330,0.33246,0.33938
4.018451,-0.68554,-0.52582,9.40619,,-0.71596,-0.24052,-0.13363,0.09369,0.07807,-0.03796,9448,-9719,0.93492,-0.31469,-0.16397,0.33015,0.94079,0.07690,0.13007,-0.12603,0.98346,0.33246,0.33946
4.031378,-0.67747,-0.54108,9.43490,,-0.71204,-0.24108,-0.14581,-0.00694,0.03432,0.08892,9448,-9719,0.93407,-0.31545,-0.16737,0.33132,0.94040,0.07669,0.13320,-0.12708,0.98291,0.33246,0.34087
4.054366,-0.67837,-0.52463,9.42353,,-0.72016,-0.23884,-0.14371,0.20744,-0.08818,0.05829,9448,-9719,0.93430,-0.31404,-0.16870,0.33011,0.94080,0.07692,0.13456,-0.12755,0.98266,0.33246,0.33963
4.067115,-0.66281,-0.52642,9.37568,,-0.72016,-0.23884,-0.14371,0.02369,0.22682,-0.15171,9448,-9719,0.93442,-0.31311,-0.16974,0.32933,0.94107,0.07704,0.13562,-0.12789,0.98247,0.33246,0.33885
4.080117,-0.68046,-0.52343,9.43699,,-0.71624,-0.23492,-0.13041,-0.03756,-0.11881,0.04954,9448,-9719,0.93553,-0.31155,-0.16650,0.32738,0.94172,0.07736,0.13270,-0.12689,0.98300,0.33246,0.33662
4.103169,-0.67657,-0.53420,9.44268,,-0.71624,-0.23492,-0.14455,0.05869,-0.01818,-0.05546,9448,-9719,0.93552,-0.31042,-0.16864,0.32654,0.94200,0.07751,0.13480,-0.12758,0.98262,0.33246,0.33583
4.115867,-0.70229,-0.54855,9.38824,,-0.71316,-0.24220,-0.14455,-0.16006,-0.03568,0.07579,9448,-9719,0.93440,-0.31288,-0.17028,0.32917,0.94112,0.07705,0.13615,-0.12805,0.98238,0.33246,0.33870
4.129073,-0.71067,-0.52582,9.42772,,-0.71316,-0.24248,-0.12901,0.13744,-0.07068,0.02329,9448,-9719,0.93445,-0.31477,-0.16652,0.33055,0.94066,0.07683,0.13245,-0.12683,0.98304,0.33246,0.34000
4.142076,-0.68255,-0.50459,9.42204,,-0.71708,-0.24248,-0.12901,0.05869,0.19182,0.07579,9448,-9719,0.93471,-0.31553,-0.16361,0.33092,0.94054,0.07671,0.12968,-0.12584,0.98354,0.33246,0.34027
4.165246,-0.68495,-0.52762,9.36850,,-0.71708,-0.24248,-0.13363,-0.02881,0.05182,-0.10796,9448,-9719,0.93465,-0.31605,-0.16291,0.33135,0.94039,0.07664,0.12898,-0.12561,0.98366,0.33246,0.34069
4.177997,-0.68255,-0.53420,9.48036,,-0.71708,-0.24248,-0.13363,-0.09881,0.01682,0.03204,9448,-9719,0.93463,-0.31639,-0.16240,0.33161,0.94030,0.07658,0.12847,-0.12543,0.98375,0.33246,0.34095
4.191189,-0.67717,-0.50309,9.41277,,-0.71148,-0.24808,-0.13853,-0.07256,-0.07068,0.05829,9448,-9719,0.93333,-0.31948,-0.16381,0.33483,0.93921,0.07598,0.12957,-0.12576,0.98356,0.33246,0.34445
4.204062,-0.67807,-0.52762,9.45614,,-0.71134,-0.24500,-0.13720,0.07181,-0.07506,0.06267,9448,-9719,0.93292,-0.32035,-0.16445,0.33577,0.93889,0.07584,0.13010,-0.12597,0.98347,0.33246,0.34548
4.227216,-0.69870,-0.55573,9.42413,,-0.71120,-0.24192,-0.13587,-0.03756,-0.11443,-0.02046,9448,-9719,0.93310,-0.31978,-0.16452,0.33523,0.93907,0.07601,0.13019,-0.12607,0.98344,0.33246,0.34490
4.239884,-0.67119,-0.51087,9.60060,,-0.70700,-0.23940,-0.13685,-0.00256,-0.02693,0.10204,9448,-9719,0.93327,-0.31893,-0.16519,0.33447,0.93933,0.07610,0.13090,-0.12628,0.98332,0.33246,0.34413
4.252797,-0.66820,-0.53480,9.45225,,-0.70700,-0.23940,-0.13685,0.22494,-0.07068,0.06704,9448,-9719,0.93338,-0.31836,-0.16570,0.33398,0.93949,0.07622,0.13141,-0.12648,0.98323,0.33246,0.34362
4.266368,-0.66939,-0.54018,9.46870,,-0.71904,-0.24024,-0.12313,0.10244,-0.16256,0.01892,9448,-9719,0.93471,-0.31686,-0.16100,0.33192,0.94019,0.07661,0.12710,-0.12505,0.98398,0.33246,0.34121
4.291097,-0.65743,-0.53121,9.35713,,-0.71680,-0.24416,-0.12831,0.11119,-0.02693,0.00579,9448,-9719,0.93472,-0.31768,-0.15932,0.33251,0.93999,0.07652,0.12545,-0.12450,0.98426,0.33246,0.34177
4.304622,-0.66520,-0.51386,9.39961,,-0.71680,-0.24416,-0.12831,-0.05506,-0.11443,0.07579,9448,-9719,0.93475,-0.31823,-0.15806,0.33289,0.93986,0.07643,0.12423,-0.12406,0.98447,0.33246,0.34213
4.318685,-0.66700,-0.52702,9.42473,,-0.71036,-0.23996,-0.14931,0.05869,0.12182,0.05829,9448,-9719,0.93388,-0.31763,-0.16425,0.33308,0.93980,0.07639,0.13009,-0.12605,0.98346,0.33246,0.34259
4.331851,-0.69212,-0.50907,9.45763,,-0.71036,-0.27580,-0.13713,-0.00256,-0.18443,0.03204,9448,-9719,0.92917,-0.33108,-0.16443,0.34633,0.93519,0.07404,0.12926,-0.12574,0.98361,0.33246,0.35678
4.345996,-0.68016,-0.54377,9.40140,,-0.71960,-0.24612,-0.13713,0.04119,0.10432,0.11079,9448,-9719,0.93046,-0.32744,-0.16437,0.34275,0.93645,0.07475,0.12945,-0.12589,0.98356,0.33246,0.35294
4.360165,-0.67537,-0.53121,9.46870,,-0.71484,-0.23940,-0.13307,0.17681,0.02119,0.08454,9448,-9719,0.93217,-0.32305,-0.16342,0.33832,0.93799,0.07559,0.12887,-0.12575,0.98366,0.33246,0.34816
4.385490,-0.69153,-0.52104,9.48694,,-0.70728,-0.24192,-0.13783,-0.12506,0.07807,0.02329,9448,-9719,0.93229,-0.32209,-0.16462,0.33752,0.93827,0.07572,0.13007,-0.12615,0.98345,0.33246,0.34736
4.399241,-0.69751,-0.51027,9.40080,,-0.70728,-0.24192,-0.13783,0.01494,-0.23693,-0.02046,9448,-9719,0.93237,-0.32144,-0.16545,0.33699,0.93845,0.07583,0.13089,-0.12646,0.98330,0.33246,0.34683
4.413650,-0.69691,-0.54138,9.46660,,-0.71456,-0.24864,-0.13657,0.14619,-0.14943,0.05829,9448,-9719,0.93199,-0.32264,-0.16519,0.33815,0.93804,0.07569,0.13054,-0.12640,0.98335,0.33246,0.34806
4.427205,-0.67777,-0.53719,9.42593,,-0.71456,-0.24864,-0.13657,-0.02006,0.17432,0.12829,9448,-9719,0.93174,-0.32344,-0.16507,0.33893,0.93777,0.07557,0.13035,-0.12635,0.98338,0.33246,0.34888
4.440478,-0.69392,-0.52223,9.40678,,-0.71652,-0.23996,-0.13909,-0.05506,0.21807,0.13704,9448,-9719,0.93269,-0.32034,-0.16573,0.33596,0.93880,0.07610,0.13121,-0.12666,0.98323,0.33246,0.34573
4.454154,-0.68674,-0.53629,9.42473,,-0.70994,-0.24024,-0.14035,-0.05506,-0.03568,0.14579,9448,-9719,0.93286,-0.31919,-0.16700,0.33499,0.93913,0.07629,0.13248,-0.12711,0.98300,0.33246,0.34476
4.477067,-0.64427,-0.52702,9.40619,,-0.70336,-0.24052,-0.14161,-0.00256,0.15682,0.09329,9448,-9719,0.93247,-0.31939,-0.16881,0.33541,0.93898,0.07620,0.13417,-0.12767,0.98270,0.33246,0.34530
4.489993,-0.69093,-0.53599,9.38106,,-0.71036,-0.23996,-0.14819,0.12869,-0.01818,0.08454,9448,-9719,0.93230,-0.31831,-0.17173,0.33473,0.93921,0.07636,0.13698,-0.12868,0.98218,0.33246,0.34470
4.502852,-0.68076,-0.52223,9.39961,,-0.71036,-0.23996,-0.14819,-0.03756,0.01682,-0.00296,9448,-9719,0.93215,-0.31757,-0.17388,0.33429,0.93937,0.07644,0.13906,-0.12938,0.98180,0.33246,0.34433
4.515839,-0.67896,-0.51655,9.38914,,-0.71344,-0.23688,-0.13349,0.08931,-0.14506,0.04079,9448,-9719,0.93343,-0.31559,-0.17062,0.33192,0.94017,0.07689,0.13614,-0.12840,0.98233,0.33246,0.34165
4.538872,-0.65623,-0.51805,9.35295,,-0.71344,-0.23688,-0.14665,0.06744,-0.02693,0.08454,9448,-9719,0.93357,-0.31417,-0.17246,0.33076,0.94056,0.07708,0.13800,-0.12901,0.98200,0.33246,0.34050
4.551505,-0.67777,-0.57069,9.42294,,-0.70980,-0.23632,-0.14665,-0.20381,-0.01818,0.06704,9448,-9719,0.93352,-0.31345,-0.17405,0.33027,0.94072,0.07721,0.13953,-0.12957,0.98170,0.33246,0.34005
4.564384,-0.66251,-0.52881,9.42862,,-0.70952,-0.23394,-0.14385,0.14181,-0.09693,-0.00733,9448,-9719,0.93391,-0.31209,-0.17438,0.32898,0.94115,0.07747,0.13994,-0.12972,0.98163,0.33246,0.33868
4.587363,-0.67537,-0.54257,9.35295,,-0.70924,-0.23156,-0.14105,0.04994,-0.01818,-0.00296,9448,-9719,0.93462,-0.31031,-0.17376,0.32715,0.94176,0.07783,0.13949,-0.12959,0.98171,0.33246,0.33670
4.599989,-0.66461,-0.53599,9.37628,,-0.71652,-0.24612,-0.13391,0.02369,-0.07943,0.04954,9448,-9719,0.93401,-0.31394,-0.17049,0.33030,0.94071,0.07725,0.13613,-0.12846,0.98233,0.33246,0.33991
4.612833,-0.66281,-0.53240,9.36192,,-0.71652,-0.24612,-0.09807,0.17244,-0.19318,-0.03796,9448,-9719,0.93549,-0.31673,-0.15663,0.33129,0.94037,0.07710,0.12287,-0.12402,0.98464,0.33246,0.34036
4.626858,-0.69093,-0.53480,9.41815,,-0.71456,-0.23576,-0.13069,0.05869,-0.21068,-0.18671,9448,-9719,0.93613,-0.31465,-0.15701,0.32930,0.94104,0.07746,0.12338,-0.12421,0.98456,0.33246,0.33825
4.640643,-0.67388,-0.52732,9.40708,,-0.71232,-0.23884,-0.13041,-0.02006,-0.10568,0.00142,9448,-9719,0.93605,-0.31474,-0.15731,0.32941,0.94101,0.07743,0.12366,-0.12430,0.98451,0.33246,0.33838
4.663932,-0.67059,-0.49173,9.40619,,-0.71008,-0.24192,-0.13013,-0.04631,-0.10568,0.02329,9448,-9719,0.93549,-0.31629,-0.15755,0.33096,0.94049,0.07710,0.12379,-0.12426,0.98450,0.33246,0.34004
4.676603,-0.68255,-0.54556,9.46302,,-0.71624,-0.23464,-0.12901,-0.12506,-0.14068,0.09329,9448,-9719,0.93645,-0.31367,-0.15710,0.32833,0.94137,0.07755,0.12356,-0.12420,0.98453,0.33246,0.33722
4.689366,-0.68375,-0.52373,9.43340,,-0.71288,-0.23758,-0.13090,0.04556,0.18744,-0.05546,9448,-9719,0.93641,-0.31352,-0.15759,0.32824,0.94141,0.07754,0.12404,-0.12434,0.98446,0.33246,0.33715
4.712661,-0.68016,-0.55334,9.46062,,-0.70952,-0.24052,-0.13279,0.17244,0.09557,0.10204,9448,-9719,0.93574,-0.31496,-0.15871,0.32980,0.94088,0.07730,0.12498,-0.12468,0.98429,0.33246,0.33885
4.725299,-0.67896,-0.53958,9.45883,,-0.71092,-0.24416,-0.13755,0.04994,-0.03568,0.04954,9448,-9719,0.93464,-0.31712,-0.16090,0.33220,0.94007,0.07689,0.12688,-0.12532,0.98397,0.33246,0.34150
4.738210,-0.70229,-0.53001,9.43011,,-0.71092,-0.24416,-0.13755,0.18119,0.09557,-0.12546,9448,-9719,0.93387,-0.31856,-0.16247,0.33382,0.93952,0.07663,0.12824,-0.12580,0.98373,0.33246,0.34330
4.751617,-0.68913,-0.53360,9.40858,,-0.70924,-0.24164,-0.13741,-0.29131,-0.00068,-0.00296,9448,-9719,0.93360,-0.31874,-0.16370,0.33415,0.93941,0.07656,0.12937,-0.12617,0.98354,0.33246,0.34371
4.766250,-0.69063,-0.55244,9.44208,,-0.70896,-0.23940,-0.13832,0.04994,0.06494,-0.03358,9448,-9719,0.93363,-0.31800,-0.16496,0.33359,0.93959,0.07672,0.13060,-0.12666,0.98331,0.33246,0.34317
4.790930,-0.69751,-0.52104,9.42473,,-0.70868,-0.23716,-0.13923,0.06744,0.09557,0.11954,9448,-9719,0.93388,-0.31662,-0.16619,0.33239,0.94000,0.07693,0.13187,-0.12708,0.98309,0.33246,0.34194
4.804547,-0.65743,-0.51326,9.43610,,-0.71148,-0.23940,-0.14021,-0.14256,0.14807,0.14579,9448,-9719,0.93383,-0.31619,-0.16729,0.33209,0.94011,0.07691,0.13295,-0.12738,0.98290,0.33246,0.34167
4.819012,-0.69452,-0.52403,9.43909,,-0.71148,-0.23940,-0.13265,-0.14256,-0.04443,0.09329,9448,-9719,0.93420,-0.31597,-0.16561,0.33166,0.94025,0.07697,0.13139,-0.12684,0.98318,0.33246,0.34114
4.833149,-0.68076,-0.51864,9.61137,,-0.70672,-0.23240,-0.13265,0.09369,-0.03568,0.07579,9448,-9719,0.93512,-0.31369,-0.16475,0.32931,0.94105,0.07736,0.13077,-0.12660,0.98330,0.33246,0.33859
4.847702,-0.68794,-0.53061,9.45643,,-0.71512,-0.23716,-0.13671,0.07619,0.02557,0.15454,9448,-9719,0.93535,-0.31293,-0.16490,0.32857,0.94129,0.07748,0.13097,-0.12665,0.98326,0.33246,0.33782
4.861334,-0.65743,-0.53599,9.38585,,-0.71512,-0.23716,-0.13671,-0.02006,-0.00943,0.01017,9448,-9719,0.93549,-0.31243,-0.16504,0.32811,0.94145,0.07755,0.13115,-0.12669,0.98323,0.33246,0.33733
4.881405,-0.67059,-0.51984,9.39721,,-0.71092,-0.23604,-0.13545,0.02369,0.13932,0.07579,9448,-9719,0.93558,-0.31221,-0.16499,0.32788,0.94153,0.07755,0.13113,-0.12665,0.98324,0.33246,0.33708
4.892133,-0.67777,-0.53659,9.41546,,-0.71092,-0.23604,-0.13363,-0.05944,-0.04006,-0.14296,9448,-9719,0.93572,-0.31212,-0.16436,0.32770,0.94159,0.07757,0.13054,-0.12645,0.98335,0.33246,0.33687
4.911255,-0.67238,-0.54018,9.40619,,-0.71344,-0.23660,-0.13181,0.19869,-0.04443,0.10204,9448,-9719,0.93599,-0.31193,-0.16317,0.32737,0.94170,0.07764,0.12944,-0.12609,0.98354,0.33246,0.33646
4.921437,-0.67059,-0.51117,9.41606,,-0.71470,-0.24150,-0.13265,0.03244,-0.00068,-0.01608,9448,-9719,0.93557,-0.31358,-0.16244,0.32889,0.94120,0.07733,0.12864,-0.12577,0.98368,0.33246,0.33805
4.940794,-0.66042,-0.53330,9.42473,,-0.71596,-0.24640,-0.13349,-0.00256,0.08682,0.00142,9448,-9719,0.93467,-0.31641,-0.16209,0.33163,0.94028,0.07683,0.12810,-0.12556,0.98378,0.33246,0.34095
4.959747,-0.67657,-0.52283,9.44507,,-0.71148,-0.23744,-0.14161,0.15494,-0.00943,0.00579,9448,-9719,0.93458,-0.31532,-0.16471,0.33089,0.94053,0.07695,0.13065,-0.12642,0.98334,0.33246,0.34028
4.969911,-0.69242,-0.53360,9.41157,,-0.72940,-0.23912,-0.13825,0.06744,-0.16256,0.06704,9448,-9719,0.93541,-0.31297,-0.16447,0.32855,0.94131,0.07739,0.13059,-0.12643,0.98334,0.33246,0.33777
4.989068,-0.68345,-0.54168,9.45883,,-0.71512,-0.24080,-0.13489,0.20744,-0.06193,0.00579,9448,-9719,0.93517,-0.31390,-0.16407,0.32942,0.94102,0.07727,0.13014,-0.12631,0.98342,0.33246,0.33868
5.008061,-0.67478,-0.51864,9.40080,,-0.71848,-0.23856,-0.13951,-0.01131,-0.16693,0.01454,9448,-9719,0.93524,-0.31319,-0.16506,0.32884,0.94121,0.07734,0.13113,-0.12661,0.98325,0.33246,0.33811
5.018229,-0.67896,-0.51416,9.42473,,-0.71848,-0.23856,-0.13951,0.00619,0.07807,0.10642,9448,-9719,0.93527,-0.31269,-0.16581,0.32844,0.94135,0.07738,0.13189,-0.12682,0.98312,0.33246,0.33771
5.037304,-0.65982,-0.48395,9.45763,,-0.70756,-0.23660,-0.13321,0.05869,0.16557,-0.09046,9448,-9719,0.93528,-0.31307,-0.16503,0.32870,0.94127,0.07723,0.13116,-0.12648,0.98326,0.33246,0.33796
5.047575,-0.68136,-0.53330,9.43580,,-0.71148,-0.24052,-0.13258,0.13744,-0.03568,0.04079,9448,-9719,0.93504,-0.31434,-0.16397,0.32982,0.94090,0.07704,0.13006,-0.12612,0.98345,0.33246,0.33911
5.066701,-0.65922,-0.54287,9.43520,,-0.71540,-0.24444,-0.13195,0.17681,0.11744,0.08454,9448,-9719,0.93462,-0.31621,-0.16279,0.33151,0.94032,0.07676,0.12880,-0.12570,0.98367,0.33246,0.34086
5.085778,-0.65683,-0.52044,9.47318,,-0.70980,-0.24164,-0.14105,0.06744,0.16557,0.05829,9448,-9719,0.93392,-0.31704,-0.16514,0.33262,0.93995,0.07652,0.13096,-0.12639,0.98330,0.33246,0.34214
5.095972,-0.68704,-0.52253,9.44985,,-0.70980,-0.24164,-0.13629,0.03681,-0.02256,0.02767,9448,-9719,0.93370,-0.31762,-0.16528,0.33321,0.93975,0.07641,0.13105,-0.12642,0.98328,0.33246,0.34278
5.115362,-0.65862,-0.53539,9.44268,,-0.70588,-0.24024,-0.13153,-0.15131,0.03432,-0.15171,9448,-9719,0.93376,-0.31805,-0.16414,0.33348,0.93966,0.07635,0.12995,-0.12603,0.98348,0.33246,0.34302
5.126185,-0.67837,-0.53151,9.40020,,-0.70924,-0.24136,-0.13286,0.08494,-0.11881,0.07579,9448,-9719,0.93379,-0.31829,-0.16348,0.33364,0.93960,0.07636,0.12930,-0.12585,0.98359,0.33246,0.34316
5.145903,-0.67238,-0.52702,9.43071,,-0.71260,-0.24248,-0.13419,-0.00256,-0.27193,0.02329,9448,-9719,0.93378,-0.31845,-0.16321,0.33377,0.93956,0.07635,0.12903,-0.12576,0.98363,0.33246,0.34328
5.156102,-0.68255,-0.52702,9.42234,,-0.71344,-0.23828,-0.13678,0.17244,0.07807,-0.00733,9448,-9719,0.93423,-0.31679,-0.16385,0.33222,0.94008,0.07664,0.12976,-0.12604,0.98350,0.33246,0.34166
5.175248,-0.67657,-0.53031,9.39990,,-0.71470,-0.23506,-0.13888,-0.04631,-0.04881,-0.08171,9448,-9719,0.93490,-0.31426,-0.16495,0.32987,0.94088,0.07706,0.13098,-0.12645,0.98329,0.33246,0.33920
5.194228,-0.66760,-0.49113,9.42473,,-0.71512,-0.23604,-0.13839,0.01494,0.15682,0.19829,9448,-9719,0.93525,-0.31285,-0.16560,0.32856,0.94132,0.07721,0.13173,-0.12662,0.98317,0.33246,0.33783
5.204557,-0.67567,-0.51805,9.41785,,-0.71288,-0.23688,-0.13580,0.13744,-0.05756,0.06704,9448,-9719,0.93540,-0.31255,-0.16537,0.32823,0.94143,0.07725,0.13154,-0.12654,0.98320,0.33246,0.33747
5.224130,-0.68255,-0.50249,9.46960,,-0.71064,-0.23772,-0.13321,0.20744,0.06932,-0.00296,9448,-9719,0.93540,-0.31301,-0.16449,0.32856,0.94133,0.07715,0.13069,-0.12621,0.98336,0.33246,0.33779
5.234431,-0.67328,-0.52582,9.43550,,-0.71008,-0.23800,-0.13293,-0.03319,0.01244,0.06704,9448,-9719,0.93536,-0.31350,-0.16379,0.32895,0.94120,0.07704,0.13001,-0.12594,0.98348,0.33246,0.33817
5.253953,-0.69631,-0.54078,9.41307,,-0.71064,-0.23814,-0.13482,-0.05506,-0.10568,-0.01171,9448,-9719,0.93525,-0.31382,-0.16380,0.32926,0.94109,0.07701,0.12998,-0.12596,0.98348,0.33246,0.33851
5.272928,-0.66700,-0.54377,9.42772,,-0.71176,-0.23828,-0.13671,-0.00256,0.04307,0.09329,9448,-9719,0.93511,-0.31390,-0.16441,0.32943,0.94104,0.07699,0.13055,-0.12616,0.98338,0.33246,0.33871
5.283080,-0.68345,-0.53300,9.41396,,-0.70994,-0.23842,-0.14056,-0.09006,-0.07068,-0.08608,9448,-9719,0.93469,-0.31424,-0.16614,0.32998,0.94085,0.07689,0.13215,-0.12669,0.98310,0.33246,0.33938
5.302171,-0.67358,-0.52822,9.40080,,-0.70812,-0.23856,-0.14441,-0.01131,-0.21943,-0.08171,9448,-9719,0.93407,-0.31470,-0.16875,0.33076,0.94059,0.07676,0.13457,-0.12751,0.98267,0.33246,0.34033
5.312721,-0.66132,-0.51236,9.37388,,-0.71232,-0.24304,-0.14021,-0.01569,-0.09256,0.00579,9448,-9719,0.93351,-0.31621,-0.16902,0.33228,0.94008,0.07646,0.13472,-0.12754,0.98264,0.33246,0.34196
5.332368,-0.65085,-0.52223,9.41516,,-0.71288,-0.24122,-0.13608,0.16369,-0.02693,0.11517,9448,-9719,0.93363,-0.31644,-0.16795,0.33237,0.94005,0.07644,0.13369,-0.12719,0.98283,0.33246,0.34201
5.351313,-0.66640,-0.52642,9.39482,,-0.71344,-0.23940,-0.13195,-0.09006,-0.26318,0.01454,9448,-9719,0.93420,-0.31589,-0.16577,0.33155,0.94032,0.07658,0.13169,-0.12651,0.98319,0.33246,0.34104
5.361457,-0.66670,-0.54138,9.40798,,-0.71190,-0.24108,-0.15120,0.01931,0.16994,0.08454,9448,-9719,0.93326,-0.31620,-0.17042,0.33245,0.94002,0.07643,0.13603,-0.12799,0.98240,0.33246,0.34221
5.380460,-0.66042,-0.52822,9.37328,,-0.71036,-0.24276,-0.13461,0.06744,0.22682,0.10204,9448,-9719,0.93318,-0.31739,-0.16865,0.33339,0.93970,0.07625,0.13428,-0.12738,0.98272,0.33246,0.34313
5.391080,-0.69930,-0.53480,9.49382,,-0.71792,-0.24024,-0.14035,0.00181,0.14807,0.02767,9448,-9719,0.93357,-0.31619,-0.16871,0.33222,0.94010,0.07647,0.13443,-0.12744,0.98269,0.33246,0.34188
5.410845,-0.69511,-0.51326,9.38764,,-0.71792,-0.24024,-0.14035,-0.23881,0.06932,-0.07296,9448,-9719,0.93384,-0.31541,-0.16872,0.33145,0.94036,0.07658,0.13451,-0.12744,0.98268,0.33246,0.34106
5.421066,-0.68136,-0.52762,9.37867,,-0.71316,-0.24304,-0.13265,-0.05069,-0.00068,-0.03796,9448,-9719,0.93380,-0.31666,-0.16656,0.33241,0.94003,0.07642,0.13238,-0.12673,0.98307,0.33246,0.34199
5.440495,-0.65773,-0.53988,9.42114,,-0.71456,-0.23604,-0.13475,0.04119,-0.12756,0.12829,9448,-9719,0.93468,-0.31454,-0.16565,0.33020,0.94078,0.07683,0.13167,-0.12651,0.98319,0.33246,0.33959
5.459492,-0.63171,-0.52044,9.42533,,-0.71456,-0.23604,-0.13475,-0.14256,-0.11443,0.03204,9448,-9719,0.93526,-0.31315,-0.16502,0.32875,0.94127,0.07704,0.13121,-0.12630,0.98328,0.33246,0.33802
5.469679,-0.67597,-0.53121,9.39123,,-0.71540,-0.23912,-0.13965,-0.05069,0.00369,0.00579,9448,-9719,0.93504,-0.31329,-0.16600,0.32901,0.94118,0.07699,0.13211,-0.12661,0.98312,0.33246,0.33834
5.488775,-0.67597,-0.51745,9.40200,,-0.71540,-0.23912,-0.13923,0.06744,0.01682,0.10204,9448,-9719,0.93491,-0.31337,-0.16658,0.32916,0.94113,0.07694,0.13266,-0.12677,0.98302,0.33246,0.33853
5.499203,-0.66491,-0.55244,9.41965,,-0.70896,-0.23492,-0.13923,-0.16006,-0.17131,0.02329,9448,-9719,0.93501,-0.31260,-0.16742,0.32852,0.94135,0.07707,0.13351,-0.12706,0.98287,0.33246,0.33788
5.518871,-0.69571,-0.50518,9.41247,,-0.71596,-0.23156,-0.12733,0.00181,0.08682,-0.02483,9448,-9719,0.93651,-0.30998,-0.16386,0.32549,0.94236,0.07757,0.13037,-0.12598,0.98343,0.33246,0.33450
5.538226,-0.70229,-0.52343,9.44627,,-0.71596,-0.23156,-0.12733,0.09369,-0.00068,-0.02046,9448,-9719,0.93754,-0.30826,-0.16126,0.32346,0.94303,0.07791,0.12805,-0.12520,0.98383,0.33246,0.33223
5.548479,-0.68166,-0.53659,9.44537,,-0.71120,-0.24220,-0.14049,0.02806,0.06932,-0.00296,9448,-9719,0.93593,-0.31180,-0.16376,0.32726,0.94177,0.07722,0.13014,-0.12587,0.98347,0.33246,0.33638
5.567577,-0.66939,-0.51864,9.35833,,-0.71148,-0.23968,-0.14133,0.03244,0.08682,-0.04671,9448,-9719,0.93512,-0.31312,-0.16585,0.32882,0.94126,0.07692,0.13202,-0.12646,0.98315,0.33246,0.33812
5.579950,-0.67597,-0.53001,9.42652,,-0.71148,-0.23968,-0.14133,0.02369,-0.05318,-0.05546,9448,-9719,0.93456,-0.31398,-0.16736,0.32985,0.94091,0.07673,0.13338,-0.12692,0.98290,0.33246,0.33930
5.593902,-0.67687,-0.54168,9.41247,,-0.70700,-0.23324,-0.13853,0.03681,0.12619,-0.07296,9448,-9719,0.93491,-0.31262,-0.16795,0.32859,0.94133,0.07697,0.13403,-0.12715,0.98279,0.33246,0.33798
5.617903,-0.65504,-0.52941,9.41994,,-0.70700,-0.24444,-0.13853,-0.04631,0.13057,0.04954,9448,-9719,0.93369,-0.31609,-0.16828,0.33204,0.94017,0.07632,0.13409,-0.12714,0.98278,0.33246,0.34168
5.631528,-0.68554,-0.51326,9.42294,,-0.70700,-0.24444,-0.13853,0.03244,0.16557,0.06704,9448,-9719,0.93287,-0.31840,-0.16846,0.33434,0.93939,0.07589,0.13409,-0.12711,0.98278,0.33246,0.34413
5.645999,-0.67657,-0.54855,9.37149,,-0.70840,-0.23996,-0.12635,-0.20381,-0.20193,0.09329,9448,-9719,0.93365,-0.31812,-0.16461,0.33357,0.93965,0.07606,0.13049,-0.12592,0.98342,0.33246,0.34314
5.660489,-0.66700,-0.56650,9.43191,,-0.70840,-0.23996,-0.12635,-0.04631,-0.02693,0.20704,9448,-9719,0.93420,-0.31793,-0.16184,0.33305,0.93982,0.07621,0.12787,-0.12510,0.98387,0.33246,0.34246
5.674011,-0.69332,-0.53659,9.41755,,-0.71708,-0.23324,-0.13097,0.03244,-0.00943,0.17204,9448,-9719,0.93569,-0.31405,-0.16083,0.32911,0.94116,0.07692,0.12721,-0.12490,0.98398,0.33246,0.33821
5.687491,-0.68195,-0.53450,9.41935,,-0.71554,-0.23814,-0.13181,0.01056,-0.00068,0.00142,9448,-9719,0.93591,-0.31359,-0.16043,0.32861,0.94132,0.07701,0.12686,-0.12479,0.98404,0.33246,0.33766
5.712595,-0.68435,-0.54616,9.43669,,-0.71400,-0.24304,-0.13265,0.01494,-0.17568,0.04954,9448,-9719,0.93530,-0.31539,-0.16042,0.33038,0.94072,0.07674,0.12671,-0.12477,0.98406,0.33246,0.33955
5.726301,-0.67837,-0.55095,9.40858,,-0.71176,-0.24500,-0.13125,-0.03756,-0.17568,-0.05546,9448,-9719,0.93459,-0.31768,-0.16006,0.33259,0.93997,0.07640,0.12619,-0.12464,0.98415,0.33246,0.34189
5.740350,-0.69272,-0.54317,9.41037,,-0.71176,-0.20916,-0.13251,0.09369,0.10432,-0.02046,9448,-9719,0.93872,-0.30499,-0.16056,0.32017,0.94409,0.07858,0.12762,-0.12517,0.98389,0.33246,0.32870
5.754373,-0.64786,-0.52104,9.44806,,-0.70896,-0.24164,-0.13251,-0.03756,-0.14068,-0.07296,9448,-9719,0.93710,-0.30979,-0.16087,0.32492,0.94254,0.07769,0.12756,-0.12508,0.98391,0.33246,0.33376
5.768928,-0.67059,-0.51864,9.45763,,-0.70616,-0.23632,-0.12775,0.16369,0.14807,-0.01171,9448,-9719,0.93679,-0.31128,-0.15975,0.32625,0.94211,0.07743,0.12640,-0.12466,0.98412,0.33246,0.33513
5.782595,-0.66760,-0.51984,9.39063,,-0.70616,-0.23632,-0.12775,-0.09881,-0.01818,-0.17796,9448,-9719,0.93659,-0.31232,-0.15889,0.32716,0.94181,0.07723,0.12553,-0.12432,0.98427,0.33246,0.33606
5.795851,-0.66670,-0.53210,9.43041,,-0.70700,-0.24332,-0.12257,0.07619,-0.06193,-0.07296,9448,-9719,0.93587,-0.31570,-0.15648,0.33019,0.94079,0.07674,0.12299,-0.12349,0.98469,0.33246,0.33919
5.820454,-0.66999,-0.54078,9.38525,,-0.70784,-0.24024,-0.13097,-0.00256,0.13057,0.01454,9448,-9719,0.93542,-0.31656,-0.15740,0.33116,0.94046,0.07658,0.12379,-0.12376,0.98456,0.33246,0.34025
5.834072,-0.67837,-0.52403,9.41755,,-0.70784,-0.24024,-0.13097,0.08494,0.03432,0.05829,9448,-9719,0.93512,-0.31712,-0.15805,0.33179,0.94025,0.07647,0.12435,-0.12395,0.98447,0.33246,0.34095
5.847747,-0.67059,-0.54018,9.41576,,-0.69272,-0.23464,-0.13671,-0.15131,-0.00943,-0.03796,9448,-9719,0.93452,-0.31725,-0.16132,0.33231,0.94007,0.07639,0.12742,-0.12499,0.98394,0.33246,0.34165
5.860965,-0.68554,-0.50788,9.48575,,-0.69272,-0.23464,-0.13671,-0.02006,-0.03568,0.02329,9448,-9719,0.93410,-0.31729,-0.16369,0.33265,0.93996,0.07630,0.12965,-0.12572,0.98356,0.33246,0.34212
5.874080,-0.69482,-0.52672,9.42234,,-0.70784,-0.23940,-0.13223,-0.11631,0.02557,0.07142,9448,-9719,0.93423,-0.31721,-0.16304,0.33249,0.94001,0.07632,0.12905,-0.12551,0.98366,0.33246,0.34192
5.897570,-0.68554,-0.53599,9.39721,,-0.71204,-0.23408,-0.13531,-0.03756,0.07807,0.04954,9448,-9719,0.93509,-0.31451,-0.16339,0.32988,0.94089,0.07680,0.12958,-0.12571,0.98357,0.33246,0.33915
5.911128,-0.66341,-0.51386,9.40619,,-0.71204,-0.23408,-0.13531,0.08494,0.02557,-0.07296,9448,-9719,0.93564,-0.31271,-0.16368,0.32815,0.94148,0.07707,0.13000,-0.12582,0.98350,0.33246,0.33731
5.925366,-0.67837,-0.52582,9.46182,,-0.70756,-0.24808,-0.12425,0.24244,-0.16693,0.14579,9448,-9719,0.93453,-0.31766,-0.16044,0.33261,0.93997,0.07631,0.12657,-0.12468,0.98409,0.33246,0.34193
5.939625,-0.68315,-0.50429,9.40559,,-0.70756,-0.24808,-0.12425,0.00619,0.20057,0.01454,9448,-9719,0.93379,-0.32101,-0.15804,0.33561,0.93895,0.07576,0.12407,-0.12379,0.98452,0.33246,0.34503
5.953507,-0.68076,-0.51625,9.42294,,-0.70448,-0.24192,-0.13867,-0.16006,-0.09693,0.02329,9448,-9719,0.93323,-0.32114,-0.16111,0.33611,0.93878,0.07567,0.12695,-0.12476,0.98403,0.33246,0.34569
5.967943,-0.67657,-0.52164,9.41965,,-0.71148,-0.24052,-0.13293,0.00619,0.11307,0.01892,9448,-9719,0.93369,-0.31977,-0.16118,0.33477,0.93924,0.07590,0.12712,-0.12483,0.98400,0.33246,0.34427
5.993648,-0.65563,-0.51087,9.42533,,-0.71848,-0.23912,-0.12719,0.35619,0.01682,0.11079,9448,-9719,0.93485,-0.31742,-0.15906,0.33220,0.94011,0.07634,0.12530,-0.12421,0.98431,0.33246,0.34143
6.006868,-0.66879,-0.52642,9.46361,,-0.70868,-0.23352,-0.13433,-0.03756,-0.17568,0.14579,9448,-9719,0.93549,-0.31488,-0.16034,0.32986,0.94091,0.07673,0.12671,-0.12467,0.98408,0.33246,0.33899
6.020186,-0.68136,-0.52104,9.41815,,-0.70868,-0.23352,-0.13433,0.19869,0.06057,0.11079,9448,-9719,0.93589,-0.31318,-0.16131,0.32830,0.94143,0.07700,0.12774,-0.12502,0.98390,0.33246,0.33738
6.033926,-0.67717,-0.55274,9.43490,,-0.70980,-0.24136,-0.12915,-0.19506,-0.05318,-0.03796,9448,-9719,0.93545,-0.31505,-0.16022,0.33001,0.94086,0.07671,0.12658,-0.12464,0.98410,0.33246,0.33915
6.047477,-0.66879,-0.51805,9.45314,,-0.71120,-0.23772,-0.12579,0.05431,-0.06193,0.17642,9448,-9719,0.93591,-0.31466,-0.15830,0.32939,0.94107,0.07681,0.12480,-0.12402,0.98440,0.33246,0.33840
6.071349,-0.68913,-0.53480,9.46900,,-0.71260,-0.23408,-0.12243,0.00619,0.01682,0.04079,9448,-9719,0.93694,-0.31288,-0.15575,0.32731,0.94176,0.07715,0.12254,-0.12327,0.98478,0.33246,0.33609
6.084338,-0.69272,-0.55693,9.41695,,-0.71120,-0.24360,-0.13559,0.00619,-0.05318,0.08454,9448,-9719,0.93566,-0.31551,-0.15809,0.33020,0.94079,0.07671,0.12453,-0.12398,0.98444,0.33246,0.33926
6.097680,-0.67059,-0.54317,9.44567,,-0.71120,-0.24360,-0.13559,-0.23006,0.00807,0.06704,9448,-9719,0.93478,-0.31725,-0.15982,0.33213,0.94014,0.07637,0.12602,-0.12447,0.98419,0.33246,0.34139
6.110718,-0.71366,-0.51206,9.41994,,-0.70840,-0.23604,-0.12271,0.03244,-0.09693,0.08454,9448,-9719,0.93569,-0.31591,-0.15709,0.33047,0.94070,0.07666,0.12355,-0.12364,0.98460,0.33246,0.33950
6.124086,-0.67478,-0.52792,9.40439,,-0.70714,-0.23310,-0.12747,-0.02006,-0.10568,0.07579,9448,-9719,0.93640,-0.31398,-0.15677,0.32853,0.94135,0.07699,0.12340,-0.12359,0.98463,0.33246,0.33743
6.147199,-0.69691,-0.54138,9.40260,,-0.70588,-0.23016,-0.13223,-0.09006,0.07807,0.18954,9448,-9719,0.93694,-0.31165,-0.15819,0.32641,0.94206,0.07736,0.12491,-0.12411,0.98437,0.33246,0.33523
6.159957,-0.67358,-0.51864,9.39482,,-0.71456,-0.23688,-0.13461,-0.08131,-0.21943,-0.02046,9448,-9719,0.93673,-0.31163,-0.15943,0.32654,0.94202,0.07731,0.12610,-0.12448,0.98418,0.33246,0.33543
6.173252,-0.65204,-0.50728,9.44567,,-0.71456,-0.23688,-0.13461,0.32119,-0.04443,0.04079,9448,-9719,0.93658,-0.31158,-0.16041,0.32661,0.94199,0.07727,0.12703,-0.12476,0.98402,0.33246,0.33554
6.187618,-0.69123,-0.50937,9.46122,,-0.70280,-0.23884,-0.12887,0.13744,-0.12318,0.10204,9448,-9719,0.93591,-0.31389,-0.15983,0.32881,0.94126,0.07686,0.12632,-0.12449,0.98415,0.33246,0.33786
6.211685,-0.66401,-0.54018,9.43669,,-0.71008,-0.24332,-0.13167,-0.09006,-0.01818,0.00579,9448,-9719,0.93510,-0.31623,-0.15993,0.33113,0.94048,0.07646,0.12623,-0.12445,0.98416,0.33246,0.34033
6.224842,-0.66999,-0.51027,9.41396,,-0.71008,-0.24332,-0.13167,-0.09881,-0.24568,0.08454,9448,-9719,0.93458,-0.31779,-0.15993,0.33266,0.93997,0.07617,0.12612,-0.12439,0.98419,0.33246,0.34196
6.238110,-0.67896,-0.54197,9.42174,,-0.70896,-0.23688,-0.13839,0.14619,0.06932,-0.16921,9448,-9719,0.93464,-0.31642,-0.16225,0.33161,0.94032,0.07640,0.12839,-0.12521,0.98379,0.33246,0.34094
6.252301,-0.68136,-0.52582,9.39183,,-0.70896,-0.23688,-0.12257,0.13744,-0.07068,0.05829,9448,-9719,0.93550,-0.31559,-0.15886,0.33036,0.94074,0.07663,0.12526,-0.12417,0.98432,0.33246,0.33947
6.266201,-0.66879,-0.53719,9.42174,,-0.70392,-0.23772,-0.12257,0.05869,0.04307,-0.05546,9448,-9719,0.93571,-0.31607,-0.15667,0.33057,0.94067,0.07660,0.12316,-0.12347,0.98468,0.33246,0.33960
6.280329,-0.68106,-0.53509,9.43460,,-0.71288,-0.23632,-0.13909,-0.02881,0.14369,0.09329,9448,-9719,0.93569,-0.31452,-0.15989,0.32945,0.94105,0.07678,0.12631,-0.12452,0.98415,0.33246,0.33853
6.305445,-0.67418,-0.53480,9.40798,,-0.71344,-0.23912,-0.13629,-0.05506,0.12182,-0.06421,9448,-9719,0.93544,-0.31454,-0.16130,0.32964,0.94098,0.07674,0.12764,-0.12496,0.98392,0.33246,0.33880
6.319371,-0.67418,-0.53360,9.41636,,-0.71344,-0.23912,-0.13629,0.12869,-0.02693,0.07579,9448,-9719,0.93527,-0.31452,-0.16232,0.32974,0.94095,0.07674,0.12859,-0.12529,0.98375,0.33246,0.33896
6.333841,-0.67896,-0.53839,9.40977,,-0.70784,-0.23268,-0.13209,0.00619,-0.18443,-0.04671,9448,-9719,0.93591,-0.31274,-0.16207,0.32797,0.94154,0.07707,0.12849,-0.12528,0.98377,0.33246,0.33705
6.348297,-0.67837,-0.48455,9.43131,,-0.70784,-0.23268,-0.13209,-0.07256,0.09557,0.04079,9448,-9719,0.93634,-0.31155,-0.16191,0.32676,0.94195,0.07719,0.12846,-0.12518,0.98378,0.33246,0.33576
6.363187,-0.69033,-0.50189,9.35414,,-0.71652,-0.24556,-0.13685,0.20744,-0.14943,-0.08171,9448,-9719,0.93517,-0.31464,-0.16265,0.32990,0.94090,0.07663,0.12893,-0.12532,0.98370,0.33246,0.33914
6.378035,-0.69571,-0.53061,9.46900,,-0.71652,-0.24556,-0.13685,-0.08131,0.15682,-0.06421,9448,-9719,0.93437,-0.31671,-0.16322,0.33200,0.94019,0.07625,0.12931,-0.12544,0.98364,0.33246,0.34140
6.392262,-0.66341,-0.51266,9.41336,,-0.71176,-0.24472,-0.14189,-0.06381,-0.21068,0.11079,9448,-9719,0.93343,-0.31830,-0.16551,0.33385,0.93957,0.07590,0.13135,-0.12610,0.98328,0.33246,0.34348
6.406011,-0.66640,-0.53450,9.40619,,-0.71316,-0.24360,-0.13951,-0.11631,0.05182,-0.10796,9448,-9719,0.93311,-0.31879,-0.16638,0.33444,0.93936,0.07580,0.13213,-0.12637,0.98314,0.33246,0.34416
6.432188,-0.68136,-0.52582,9.38585,,-0.71456,-0.24248,-0.13881,0.18119,0.06057,0.02329,9448,-9719,0.93316,-0.31846,-0.16672,0.33417,0.93945,0.07588,0.13246,-0.12652,0.98308,0.33246,0.34387
6.446096,-0.68195,-0.53539,9.44447,,-0.71932,-0.24248,-0.13881,-0.23006,0.09557,0.06704,9448,-9719,0.93345,-0.31762,-0.16669,0.33334,0.93974,0.07602,0.13250,-0.12653,0.98307,0.33246,0.34299
6.460753,-0.66102,-0.52463,9.55275,,-0.71736,-0.24220,-0.13363,0.13744,0.14807,0.06704,9448,-9719,0.93384,-0.31724,-0.16522,0.33278,0.93993,0.07611,0.13115,-0.12605,0.98332,0.33246,0.34232
6.475241,-0.66221,-0.54556,9.56172,,-0.71736,-0.24220,-0.13363,-0.13381,0.03432,0.15454,9448,-9719,0.93412,-0.31700,-0.16411,0.33239,0.94006,0.07617,0.13013,-0.12570,0.98350,0.33246,0.34187
6.486681,-0.66102,-0.52971,9.39721,,-0.71568,-0.24164,-0.13881,0.03681,-0.12318,0.06267,9448,-9719,0.93403,-0.31680,-0.16501,0.33231,0.94009,0.07620,0.13098,-0.12601,0.98334,0.33246,0.34182
6.506731,-0.69691,-0.52582,9.44387,,-0.71400,-0.24108,-0.14399,-0.10756,-0.06193,0.06704,9448,-9719,0.93367,-0.31663,-0.16736,0.33244,0.94004,0.07618,0.13320,-0.12677,0.98295,0.33246,0.34207
6.517537,-0.68046,-0.53061,9.38375,,-0.71428,-0.23604,-0.13923,0.12431,-0.05318,0.06704,9448,-9719,0.93433,-0.31452,-0.16765,0.33041,0.94073,0.07658,0.13362,-0.12695,0.98287,0.33246,0.33991
6.537267,-0.65563,-0.55035,9.41994,,-0.71428,-0.23604,-0.13923,0.00619,-0.10568,0.02329,9448,-9719,0.93475,-0.31311,-0.16792,0.32907,0.94117,0.07685,0.13398,-0.12709,0.98280,0.33246,0.33849
6.548003,-0.69093,-0.53420,9.43340,,-0.70896,-0.24304,-0.13405,-0.04631,-0.11881,0.03204,9448,-9719,0.93413,-0.31566,-0.16663,0.33141,0.94038,0.07644,0.13256,-0.12663,0.98305,0.33246,0.34093
6.567770,-0.67956,-0.54078,9.40918,,-0.71344,-0.23744,-0.13335,-0.09006,0.20057,0.07579,9448,-9719,0.93472,-0.31460,-0.16531,0.33020,0.94079,0.07667,0.13140,-0.12625,0.98326,0.33246,0.33958
6.578102,-0.67089,-0.52822,9.45374,,-0.71344,-0.23744,-0.13335,-0.03319,0.09994,0.06267,9448,-9719,0.93512,-0.31389,-0.16437,0.32938,0.94107,0.07679,0.13058,-0.12595,0.98341,0.33246,0.33866
6.597434,-0.68195,-0.52164,9.41815,,-0.71204,-0.24444,-0.14693,-0.05506,0.14807,0.20704,9448,-9719,0.93370,-0.31621,-0.16796,0.33211,0.94015,0.07627,0.13379,-0.12700,0.98284,0.33246,0.34174
6.607690,-0.69661,-0.53509,9.43161,,-0.71204,-0.24262,-0.14259,0.02806,-0.03568,0.09767,9448,-9719,0.93319,-0.31706,-0.16921,0.33311,0.93981,0.07612,0.13489,-0.12740,0.98264,0.33246,0.34286
6.627465,-0.68853,-0.52433,9.36970,,-0.71512,-0.24080,-0.13825,0.08056,0.01244,0.05829,9448,-9719,0.93347,-0.31655,-0.16859,0.33254,0.94000,0.07625,0.13433,-0.12724,0.98273,0.33246,0.34222
6.646562,-0.69990,-0.53001,9.35833,,-0.71400,-0.24136,-0.14287,0.03244,0.04307,0.04954,9448,-9719,0.93328,-0.31655,-0.16964,0.33267,0.93995,0.07625,0.13532,-0.12760,0.98255,0.33246,0.34241
6.656846,-0.67478,-0.53719,9.42144,,-0.71400,-0.24136,-0.14287,-0.05944,-0.11006,-0.03358,9448,-9719,0.93314,-0.31655,-0.17043,0.33278,0.93992,0.07625,0.13606,-0.12787,0.98241,0.33246,0.34256
6.675981,-0.67657,-0.53599,9.46541,,-0.71764,-0.23296,-0.13335,0.06744,0.15682,-0.00296,9448,-9719,0.93483,-0.31287,-0.16792,0.32884,0.94124,0.07697,0.13397,-0.12717,0.98279,0.33246,0.33825
6.686293,-0.66999,-0.54826,9.46122,,-0.71722,-0.23814,-0.13811,0.15494,-0.14506,-0.05108,9448,-9719,0.93503,-0.31248,-0.16755,0.32842,0.94138,0.07708,0.13364,-0.12710,0.98285,0.33246,0.33777
6.705520,-0.68166,-0.52642,9.41157,,-0.71680,-0.24332,-0.14287,0.00619,-0.03568,0.06704,9448,-9719,0.93423,-0.31423,-0.16873,0.33028,0.94076,0.07673,0.13462,-0.12742,0.98267,0.33246,0.33982
6.724656,-0.68734,-0.54078,9.40798,,-0.71596,-0.23380,-0.13559,-0.11631,0.02557,0.14579,9448,-9719,0.93526,-0.31185,-0.16744,0.32778,0.94159,0.07720,0.13358,-0.12708,0.98286,0.33246,0.33709
6.734942,-0.66431,-0.54706,9.45913,,-0.71596,-0.23380,-0.13559,0.08931,0.06932,0.03204,9448,-9719,0.93594,-0.31027,-0.16657,0.32612,0.94215,0.07751,0.13288,-0.12686,0.98298,0.33246,0.33528
6.754080,-0.68016,-0.50548,9.34517,,-0.71064,-0.23828,-0.14525,-0.00256,-0.00068,0.05829,9448,-9719,0.93503,-0.31158,-0.16920,0.32774,0.94161,0.07717,0.13527,-0.12760,0.98256,0.33246,0.33713
6.764616,-0.66640,-0.53569,9.40439,,-0.71484,-0.23548,-0.14196,-0.08131,-0.14506,-0.00296,9448,-9719,0.93516,-0.31084,-0.16986,0.32709,0.94183,0.07728,0.13596,-0.12783,0.98243,0.33246,0.33647
6.783682,-0.68883,-0.53151,9.39213,,-0.71904,-0.23268,-0.13867,-0.00694,0.09557,0.00579,9448,-9719,0.93599,-0.30873,-0.16911,0.32493,0.94254,0.07767,0.13541,-0.12764,0.98253,0.33246,0.33413
6.802636,-0.65384,-0.54796,9.29073,,-0.71120,-0.24108,-0.14217,-0.10756,0.10432,-0.05546,9448,-9719,0.93487,-0.31160,-0.17009,0.32787,0.94157,0.07714,0.13612,-0.12788,0.98240,0.33246,0.33731
6.812780,-0.67149,-0.53210,9.44327,,-0.71120,-0.23870,-0.14560,0.07619,0.06932,0.03204,9448,-9719,0.93423,-0.31252,-0.17190,0.32900,0.94119,0.07692,0.13775,-0.12842,0.98211,0.33246,0.33860
6.832038,-0.66999,-0.52044,9.44746,,-0.71260,-0.23632,-0.14903,-0.00256,-0.18443,-0.04671,9448,-9719,0.93398,-0.31199,-0.17421,0.32877,0.94127,0.07694,0.13997,-0.12914,0.98170,0.33246,0.33847
6.842218,-0.67238,-0.53779,9.44537,,-0.71526,-0.23646,-0.14112,-0.08569,0.05619,-0.04233,9448,-9719,0.93435,-0.31141,-0.17327,0.32808,0.94150,0.07706,0.13913,-0.12885,0.98186,0.33246,0.33769
6.861346,-0.69123,-0.52642,9.43071,,-0.71792,-0.23660,-0.13321,0.01056,0.07369,0.05392,9448,-9719,0.93517,-0.31080,-0.16990,0.32705,0.94184,0.07724,0.13602,-0.12780,0.98243,0.33246,0.33643
6.880489,-0.66341,-0.51326,9.43191,,-0.70672,-0.24136,-0.13517,-0.09881,0.16557,0.22454,9448,-9719,0.93442,-0.31371,-0.16868,0.32974,0.94095,0.07669,0.13466,-0.12728,0.98268,0.33246,0.33925
6.890641,-0.67837,-0.51924,9.35653,,-0.71022,-0.24136,-0.13622,0.00181,-0.07943,-0.12108,9448,-9719,0.93405,-0.31524,-0.16785,0.33114,0.94048,0.07644,0.13376,-0.12698,0.98285,0.33246,0.34070
6.910008,-0.68435,-0.52343,9.43610,,-0.71372,-0.24136,-0.13727,-0.14256,0.03432,0.08454,9448,-9719,0.93396,-0.31576,-0.16737,0.33160,0.94033,0.07634,0.13327,-0.12680,0.98293,0.33246,0.34116
6.920486,-0.67119,-0.54108,9.42922,,-0.71386,-0.23856,-0.13825,0.09806,0.02557,-0.01171,9448,-9719,0.93421,-0.31500,-0.16739,0.33086,0.94057,0.07651,0.13334,-0.12686,0.98292,0.33246,0.34037
6.939780,-0.66431,-0.51356,9.44327,,-0.71400,-0.23576,-0.13923,0.12869,0.06494,-0.00733,9448,-9719,0.93470,-0.31337,-0.16774,0.32929,0.94110,0.07677,0.13380,-0.12699,0.98284,0.33246,0.33872
6.958762,-0.66640,-0.53121,9.39482,,-0.71568,-0.23688,-0.14413,-0.11631,0.06057,0.19829,9448,-9719,0.93470,-0.31244,-0.16944,0.32859,0.94134,0.07687,0.13548,-0.12753,0.98254,0.33246,0.33805
6.968910,-0.67956,-0.54168,9.40170,,-0.71204,-0.23968,-0.14217,-0.01131,0.08244,0.12829,9448,-9719,0.93424,-0.31338,-0.17025,0.32962,0.94099,0.07670,0.13617,-0.12777,0.98241,0.33246,0.33918
6.988441,-0.68195,-0.52283,9.40499,,-0.70840,-0.24248,-0.14021,0.18994,-0.12318,0.12829,9448,-9719,0.93347,-0.31560,-0.17037,0.33182,0.94025,0.07630,0.13611,-0.12776,0.98242,0.33246,0.34153
6.999429,-0.68375,-0.53031,9.31945,,-0.70854,-0.24178,-0.14238,-0.04631,0.11307,-0.04233,9448,-9719,0.93292,-0.31679,-0.17115,0.33309,0.93982,0.07608,0.13675,-0.12798,0.98230,0.33246,0.34293
7.019017,-0.67029,-0.53569,9.40768,,-0.70658,-0.23954,-0.14665,-0.00256,0.14807,0.04517,9448,-9719,0.93250,-0.31690,-0.17327,0.33347,0.93969,0.07601,0.13873,-0.12866,0.98194,0.33246,0.34343
7.038183,-0.65862,-0.50189,9.46481,,-0.70448,-0.23800,-0.14875,0.03244,-0.07068,0.16329,9448,-9719,0.93217,-0.31658,-0.17561,0.33345,0.93970,0.07597,0.14097,-0.12938,0.98152,0.33246,0.34354
7.048344,-0.67119,-0.52493,9.42443,,-0.70742,-0.24010,-0.14399,-0.03756,0.06057,0.01017,9448,-9719,0.93207,-0.31686,-0.17561,0.33373,0.93961,0.07591,0.14095,-0.12936,0.98153,0.33246,0.34383
7.067425,-0.66820,-0.50608,9.44028,,-0.71036,-0.24220,-0.13923,0.11119,0.20057,-0.04671,9448,-9719,0.93216,-0.31754,-0.17390,0.33417,0.93946,0.07580,0.13931,-0.12877,0.98184,0.33246,0.34422
7.077576,-0.68285,-0.53450,9.44836,,-0.71288,-0.23926,-0.14175,-0.01131,0.11307,-0.02046,9448,-9719,0.93262,-0.31651,-0.17333,0.33308,0.93983,0.07601,0.13884,-0.12862,0.98193,0.33246,0.34302
7.096635,-0.68824,-0.52433,9.40738,,-0.71120,-0.23786,-0.13755,0.06744,0.12182,-0.06421,9448,-9719,0.93325,-0.31554,-0.17168,0.33192,0.94022,0.07624,0.13736,-0.12813,0.98220,0.33246,0.34171
7.115596,-0.68495,-0.48514,9.43969,,-0.70700,-0.23940,-0.13335,0.04119,0.02557,-0.03796,9448,-9719,0.93350,-0.31609,-0.16932,0.33216,0.94015,0.07613,0.13512,-0.12731,0.98262,0.33246,0.34185
7.125810,-0.69482,-0.53031,9.37358,,-0.71260,-0.23828,-0.13489,0.06744,-0.01381,-0.04671,9448,-9719,0.93404,-0.31530,-0.16777,0.33119,0.94047,0.07634,0.13371,-0.12687,0.98287,0.33246,0.34074
7.145046,-0.69033,-0.52642,9.42772,,-0.71820,-0.23716,-0.13643,0.24244,0.13057,-0.23046,9448,-9719,0.93477,-0.31363,-0.16684,0.32943,0.94106,0.07668,0.13296,-0.12664,0.98300,0.33246,0.33883
7.155467,-0.68495,-0.52881,9.42952,,-0.69580,-0.23716,-0.13223,0.03244,-0.04443,0.08017,9448,-9719,0.93429,-0.31545,-0.16610,0.33112,0.94049,0.07637,0.13212,-0.12635,0.98315,0.33246,0.34060
7.174655,-0.67597,-0.52582,9.40619,,-0.70924,-0.23716,-0.13223,-0.16881,-0.10568,-0.01171,9448,-9719,0.93471,-0.31492,-0.16477,0.33043,0.94073,0.07649,0.13092,-0.12594,0.98336,0.33246,0.33980
7.186308,-0.68734,-0.53868,9.38106,,-0.70868,-0.24416,-0.12999,0.07181,0.02994,0.10204,9448,-9719,0.93417,-0.31738,-0.16305,0.33264,0.93997,0.07614,0.12910,-0.12537,0.98367,0.33246,0.34208
7.209553,-0.68016,-0.55872,9.39961,,-0.70112,-0.24220,-0.13335,0.07619,-0.03568,-0.02921,9448,-9719,0.93348,-0.31928,-0.16332,0.33455,0.93932,0.07587,0.12918,-0.12546,0.98365,0.33246,0.34413
7.222198,-0.68435,-0.53300,9.46660,,-0.70112,-0.24220,-0.13335,-0.04631,-0.07943,0.04079,9448,-9719,0.93302,-0.32054,-0.16348,0.33581,0.93889,0.07567,0.12923,-0.12550,0.98364,0.33246,0.34548
7.234943,-0.69691,-0.52672,9.43640,,-0.71008,-0.23520,-0.12957,-0.03319,0.08682,-0.05108,9448,-9719,0.93433,-0.31749,-0.16194,0.33262,0.93997,0.07624,0.12802,-0.12510,0.98385,0.33246,0.34201
7.258130,-0.66999,-0.52463,9.40559,,-0.70756,-0.23324,-0.13195,-0.23006,-0.28068,-0.04671,9448,-9719,0.93521,-0.31499,-0.16174,0.33013,0.94082,0.07666,0.12802,-0.12509,0.98385,0.33246,0.33935
7.270844,-0.67597,-0.52164,9.45285,,-0.70756,-0.23324,-0.13195,0.09369,0.12182,-0.06421,9448,-9719,0.93579,-0.31332,-0.16165,0.32848,0.94137,0.07694,0.12806,-0.12510,0.98384,0.33246,0.33758
7.283859,-0.70349,-0.51924,9.40260,,-0.70784,-0.23660,-0.12243,0.23369,-0.14068,-0.05546,9448,-9719,0.93626,-0.31358,-0.15841,0.32833,0.94142,0.07698,0.12499,-0.12409,0.98437,0.33246,0.33729
7.296701,-0.66849,-0.55364,9.44357,,-0.70784,-0.23772,-0.12824,0.01931,-0.06631,0.08454,9448,-9719,0.93615,-0.31414,-0.15795,0.32883,0.94125,0.07692,0.12450,-0.12395,0.98445,0.33246,0.33780
7.319815,-0.67238,-0.51745,9.46840,,-0.70784,-0.23884,-0.13405,0.00619,-0.01818,0.09329,9448,-9719,0.93563,-0.31492,-0.15946,0.32978,0.94093,0.07672,0.12588,-0.12437,0.98422,0.33246,0.33888
7.332734,-0.65683,-0.53121,9.46541,,-0.70476,-0.23408,-0.13797,0.14619,0.12182,0.01454,9448,-9719,0.93551,-0.31392,-0.16211,0.32913,0.94115,0.07683,0.12845,-0.12523,0.98378,0.33246,0.33829
7.345511,-0.70648,-0.53839,9.40020,,-0.70476,-0.23408,-0.13797,-0.02881,0.06932,-0.06421,9448,-9719,0.93541,-0.31325,-0.16397,0.32871,0.94129,0.07692,0.13025,-0.12585,0.98346,0.33246,0.33793
7.358529,-0.67268,-0.54227,9.36820,,-0.71680,-0.23688,-0.14357,0.04556,0.13494,0.12829,9448,-9719,0.93531,-0.31224,-0.16645,0.32803,0.94152,0.07705,0.13266,-0.12667,0.98303,0.33246,0.33732
7.381741,-0.68076,-0.51864,9.38644,,-0.71680,-0.24444,-0.13503,0.29494,-0.12318,-0.05546,9448,-9719,0.93469,-0.31461,-0.16544,0.33023,0.94078,0.07667,0.13152,-0.12630,0.98323,0.33246,0.33961
7.394380,-0.68853,-0.51685,9.41217,,-0.71036,-0.24444,-0.13503,0.15494,0.27932,-0.06421,9448,-9719,0.93393,-0.31705,-0.16508,0.33258,0.93999,0.07624,0.13100,-0.12610,0.98333,0.33246,0.34210
7.407314,-0.68734,-0.53240,9.41456,,-0.71036,-0.23940,-0.14889,-0.13381,0.04307,0.04954,9448,-9719,0.93335,-0.31656,-0.16924,0.33263,0.93997,0.07623,0.13495,-0.12744,0.98262,0.33246,0.34235
7.420343,-0.65892,-0.52792,9.42712,,-0.70924,-0.23940,-0.14889,-0.03756,-0.00068,0.03642,9448,-9719,0.93285,-0.31633,-0.17240,0.33281,0.93991,0.07619,0.13794,-0.12845,0.98208,0.33246,0.34269
7.443623,-0.67537,-0.51685,9.44806,,-0.70728,-0.23772,-0.14721,0.09369,0.11307,0.09329,9448,-9719,0.93269,-0.31576,-0.17432,0.33249,0.94002,0.07623,0.13979,-0.12906,0.98173,0.33246,0.34244
7.457353,-0.68076,-0.56889,9.45105,,-0.70728,-0.24108,-0.14735,0.09369,-0.01818,-0.14296,9448,-9719,0.93210,-0.31671,-0.17573,0.33362,0.93963,0.07610,0.14103,-0.12956,0.98149,0.33246,0.34371
7.470993,-0.69212,-0.53659,9.34876,,-0.70560,-0.24108,-0.14735,0.03244,0.09557,0.08454,9448,-9719,0.93161,-0.31753,-0.17684,0.33457,0.93931,0.07595,0.14199,-0.12992,0.98130,0.33246,0.34478
7.483865,-0.66670,-0.53509,9.39003,,-0.70756,-0.24122,-0.14385,0.01494,0.09119,0.01017,9448,-9719,0.93156,-0.31790,-0.17647,0.33489,0.93920,0.07590,0.14161,-0.12980,0.98138,0.33246,0.34511
7.507042,-0.67896,-0.52642,9.35534,,-0.70952,-0.24136,-0.14385,-0.02881,0.10432,0.01454,9448,-9719,0.93162,-0.31796,-0.17603,0.33489,0.93920,0.07591,0.14119,-0.12967,0.98145,0.33246,0.34508
7.520033,-0.68853,-0.53061,9.39901,,-0.70784,-0.24360,-0.14483,-0.09881,-0.09693,-0.02921,9448,-9719,0.93123,-0.31909,-0.17607,0.33601,0.93881,0.07572,0.14113,-0.12968,0.98146,0.33246,0.34628
7.534339,-0.67717,-0.54796,9.43310,,-0.70644,-0.23828,-0.14063,-0.07256,0.03432,-0.07296,9448,-9719,0.93181,-0.31800,-0.17494,0.33479,0.93922,0.07600,0.14014,-0.12938,0.98164,0.33246,0.34493
7.548823,-0.68016,-0.55394,9.44985,,-0.70644,-0.23828,-0.14063,0.04119,0.09557,0.00579,9448,-9719,0.93222,-0.31726,-0.17413,0.33397,0.93950,0.07620,0.13942,-0.12919,0.98177,0.33246,0.34401
7.563530,-0.66640,-0.51984,9.40977,,-0.70672,-0.23296,-0.14357,0.20744,0.05182,-0.05546,9448,-9719,0.93304,-0.31461,-0.17452,0.33142,0.94036,0.07668,0.13999,-0.12939,0.98166,0.33246,0.34131
7.577535,-0.66520,-0.55095,9.43789,,-0.70672,-0.23296,-0.14357,-0.09881,0.35807,-0.09046,9448,-9719,0.93356,-0.31286,-0.17488,0.32974,0.94093,0.07699,0.14046,-0.12954,0.98158,0.33246,0.33953
7.592071,-0.67627,-0.53569,9.42234,,-0.70700,-0.24108,-0.14203,0.08056,0.03432,0.10204,9448,-9719,0.93298,-0.31481,-0.17450,0.33162,0.94030,0.07665,0.13995,-0.12938,0.98167,0.33246,0.34151
7.616994,-0.66939,-0.53001,9.38585,,-0.71092,-0.23632,-0.12705,0.04119,0.10432,0.06704,9448,-9719,0.93425,-0.31390,-0.16924,0.33005,0.94082,0.07693,0.13508,-0.12773,0.98257,0.33246,0.33959
7.630558,-0.66999,-0.52702,9.42294,,-0.71092,-0.23632,-0.12705,-0.24756,0.04307,0.06704,9448,-9719,0.93513,-0.31335,-0.16537,0.32900,0.94118,0.07707,0.13149,-0.12648,0.98322,0.33246,0.33830
7.644737,-0.65982,-0.51266,9.43131,,-0.71316,-0.23800,-0.12831,0.05869,0.21807,0.13704,9448,-9719,0.93557,-0.31334,-0.16284,0.32867,0.94129,0.07708,0.12913,-0.12564,0.98364,0.33246,0.33784
7.659336,-0.68016,-0.53480,9.45165,,-0.71316,-0.23800,-0.12831,-0.08131,-0.07068,-0.05546,9448,-9719,0.93589,-0.31340,-0.16092,0.32849,0.94136,0.07710,0.12732,-0.12502,0.98395,0.33246,0.33756
7.673502,-0.68853,-0.52164,9.40020,,-0.70476,-0.24948,-0.12915,0.04119,0.26182,-0.10796,9448,-9719,0.93410,-0.31907,-0.16015,0.33397,0.93950,0.07615,0.12617,-0.12462,0.98415,0.33246,0.34337
7.688155,-0.66879,-0.51446,9.43789,,-0.70476,-0.23772,-0.12901,0.04119,0.16557,0.18954,9448,-9719,0.93449,-0.31818,-0.15965,0.33303,0.93983,0.07628,0.12577,-0.12445,0.98422,0.33246,0.34235
7.701594,-0.66909,-0.52911,9.46900,,-0.70924,-0.23772,-0.12901,0.08056,-0.14506,-0.03796,9448,-9719,0.93499,-0.31704,-0.15899,0.33183,0.94023,0.07650,0.12524,-0.12429,0.98431,0.33246,0.34103
7.725110,-0.70887,-0.52343,9.40918,,-0.70924,-0.24052,-0.12943,0.05869,0.03432,0.11954,9448,-9719,0.93495,-0.31737,-0.15858,0.33210,0.94014,0.07647,0.12482,-0.12416,0.98438,0.33246,0.34131
7.738138,-0.66162,-0.54556,9.37927,,-0.70924,-0.24052,-0.16527,-0.05506,-0.00068,0.00579,9448,-9719,0.93302,-0.31727,-0.16973,0.33341,0.93969,0.07625,0.13530,-0.12773,0.98254,0.33246,0.34320
7.751322,-0.65743,-0.55095,9.35055,,-0.71876,-0.23716,-0.14581,0.06744,0.02557,-0.02921,9448,-9719,0.93360,-0.31475,-0.17124,0.33113,0.94046,0.07671,0.13690,-0.12832,0.98224,0.33246,0.34084
7.764837,-0.67478,-0.53031,9.42563,,-0.71540,-0.23702,-0.12817,0.08056,0.12619,0.04954,9448,-9719,0.93477,-0.31357,-0.16697,0.32943,0.94103,0.07701,0.13298,-0.12699,0.98295,0.33246,0.33883
7.788876,-0.67597,-0.54018,9.47618,,-0.71204,-0.23688,-0.12229,-0.01131,-0.13193,-0.10796,9448,-9719,0.93572,-0.31328,-0.16210,0.32853,0.94134,0.07717,0.12841,-0.12547,0.98375,0.33246,0.33765
7.803389,-0.66162,-0.54556,9.40798,,-0.70868,-0.23996,-0.12229,-0.02006,-0.30693,0.02329,9448,-9719,0.93582,-0.31475,-0.15866,0.32955,0.94099,0.07702,0.12505,-0.12437,0.98432,0.33246,0.33859
7.817136,-0.66162,-0.53061,9.38286,,-0.71568,-0.23464,-0.13867,0.16369,0.00807,-0.02921,9448,-9719,0.93612,-0.31264,-0.16106,0.32777,0.94159,0.07734,0.12747,-0.12519,0.98391,0.33246,0.33680
7.832422,-0.67896,-0.53240,9.41875,,-0.71568,-0.23464,-0.13867,0.14619,-0.01818,0.05829,9448,-9719,0.93630,-0.31119,-0.16282,0.32657,0.94199,0.07755,0.12924,-0.12578,0.98360,0.33246,0.33559
7.846979,-0.68255,-0.51924,9.42892,,-0.70728,-0.23520,-0.13293,0.05869,0.25307,0.14579,9448,-9719,0.93618,-0.31155,-0.16278,0.32691,0.94188,0.07745,0.12919,-0.12572,0.98362,0.33246,0.33596
7.861536,-0.64546,-0.55155,9.43669,,-0.70728,-0.23520,-0.13293,0.04119,0.07807,0.11954,9448,-9719,0.93610,-0.31178,-0.16281,0.32714,0.94180,0.07740,0.12920,-0.12571,0.98362,0.33246,0.33621
7.875342,-0.68495,-0.53659,9.41396,,-0.70560,-0.23996,-0.13125,0.35619,0.08682,0.09329,9448,-9719,0.93543,-0.31406,-0.16227,0.32932,0.94107,0.07704,0.12851,-0.12551,0.98373,0.33246,0.33850
7.888657,-0.67478,-0.54168,9.44298,,-0.70728,-0.23940,-0.13118,0.12431,0.04307,0.03642,9448,-9719,0.93515,-0.31515,-0.16176,0.33033,0.94073,0.07687,0.12795,-0.12532,0.98383,0.33246,0.33955
7.913664,-0.70349,-0.50847,9.40439,,-0.70896,-0.23884,-0.13111,-0.08131,0.09557,0.05829,9448,-9719,0.93515,-0.31545,-0.16121,0.33055,0.94066,0.07680,0.12741,-0.12510,0.98393,0.33246,0.33977
7.927515,-0.64427,-0.53061,9.46900,,-0.70868,-0.23968,-0.13433,-0.07256,-0.13193,-0.01171,9448,-9719,0.93484,-0.31600,-0.16191,0.33117,0.94045,0.07667,0.12804,-0.12529,0.98382,0.33246,0.34046
7.942478,-0.65862,-0.50130,9.41037,,-0.70868,-0.24136,-0.14021,-0.15131,0.00807,-0.04671,9448,-9719,0.93410,-0.31697,-0.16425,0.33242,0.94003,0.07638,0.13019,-0.12595,0.98346,0.33246,0.34189
7.957130,-0.68315,-0.51326,9.45883,,-0.70896,-0.24136,-0.14021,-0.09881,0.08682,0.00579,9448,-9719,0.93360,-0.31756,-0.16594,0.33320,0.93977,0.07621,0.13175,-0.12645,0.98319,0.33246,0.34281
7.971763,-0.66461,-0.54796,9.41695,,-0.71064,-0.23800,-0.12565,-0.03756,-0.06193,0.03204,9448,-9719,0.93457,-0.31652,-0.16249,0.33175,0.94026,0.07650,0.12857,-0.12540,0.98374,0.33246,0.34110
7.986006,-0.66879,-0.50788,9.38884,,-0.71064,-0.23800,-0.12565,0.14619,0.09557,-0.00296,9448,-9719,0.93523,-0.31586,-0.15995,0.33078,0.94059,0.07664,0.12624,-0.12459,0.98415,0.33246,0.33996
7.997995,-0.68644,-0.53868,9.39213,,-0.71274,-0.23744,-0.14826,-0.01569,-0.04443,-0.05546,9448,-9719,0.93469,-0.31477,-0.16515,0.33036,0.94073,0.07674,0.13121,-0.12628,0.98328,0.33246,0.33974
8.018122,-0.63470,-0.53539,9.38704,,-0.71484,-0.23688,-0.13503,0.02369,0.13057,0.15454,9448,-9719,0.93516,-0.31358,-0.16475,0.32914,0.94114,0.07693,0.13093,-0.12617,0.98333,0.33246,0.33842
8.028902,-0.67956,-0.55334,9.38973,,-0.70728,-0.23716,-0.12943,0.02369,-0.21506,0.03642,9448,-9719,0.93535,-0.31394,-0.16299,0.32928,0.94109,0.07696,0.12923,-0.12565,0.98362,0.33246,0.33849
8.049198,-0.68315,-0.56650,9.37269,,-0.70728,-0.23716,-0.14343,-0.06381,0.03432,-0.06421,9448,-9719,0.93473,-0.31409,-0.16622,0.32984,0.94090,0.07692,0.13223,-0.12672,0.98308,0.33246,0.33924
8.060178,-0.69511,-0.53839,9.36521,,-0.70840,-0.23632,-0.14343,0.03244,-0.12756,0.01017,9448,-9719,0.93446,-0.31368,-0.16847,0.32973,0.94093,0.07698,0.13437,-0.12748,0.98270,0.33246,0.33922
8.079726,-0.68375,-0.53898,9.41636,,-0.70700,-0.23576,-0.14063,-0.02444,0.11307,0.15454,9448,-9719,0.93441,-0.31334,-0.16938,0.32951,0.94100,0.07702,0.13526,-0.12778,0.98254,0.33246,0.33903
8.098748,-0.68794,-0.50847,9.41336,,-0.70700,-0.23576,-0.14063,0.12869,0.14807,0.04079,9448,-9719,0.93436,-0.31313,-0.17004,0.32939,0.94105,0.07701,0.13590,-0.12796,0.98242,0.33246,0.33892
8.108983,-0.69063,-0.53450,9.40110,,-0.71596,-0.24080,-0.14441,0.11119,0.00807,0.22017,9448,-9719,0.93397,-0.31373,-0.17112,0.33011,0.94081,0.07689,0.13687,-0.12830,0.98225,0.33246,0.33974
8.128001,-0.68734,-0.53659,9.45464,,-0.71596,-0.24080,-0.13881,0.11119,-0.01818,-0.06421,9448,-9719,0.93398,-0.31422,-0.17015,0.33047,0.94068,0.07684,0.13591,-0.12799,0.98242,0.33246,0.34008
8.138414,-0.66610,-0.52612,9.44058,,-0.71568,-0.24080,-0.13881,0.11556,-0.07068,0.11079,9448,-9719,0.93399,-0.31455,-0.16946,0.33071,0.94060,0.07679,0.13524,-0.12776,0.98254,0.33246,0.34031
8.158084,-0.66879,-0.53001,9.42832,,-0.71456,-0.23352,-0.14707,0.08056,-0.06631,-0.04671,9448,-9719,0.93442,-0.31204,-0.17171,0.32854,0.94133,0.07719,0.13755,-0.12854,0.98212,0.33246,0.33809
8.176989,-0.67238,-0.51266,9.45165,,-0.71456,-0.23352,-0.14707,0.19869,0.09557,0.22454,9448,-9719,0.93469,-0.31031,-0.17339,0.32705,0.94183,0.07743,0.13927,-0.12908,0.98181,0.33246,0.33658
