0.000006,-0.65444,-0.58505,9.41755,,-0.26712,-0.48930,-0.04060,0.00230,-0.12375,0.06581,5047,-5149,0.47498,-0.87973,-0.02164,0.87727,0.47143,0.09025,-0.06919,-0.06185,0.99568,1.07456,1.07456
0.000006,-0.65384,-0.57228,9.37787,,-0.26917,-0.48659,-0.04601,0.04022,0.06875,0.13873,5047,-5149,0.47793,-0.87732,-0.04355,0.87644,0.47296,0.09032,-0.05864,-0.08134,0.99496,1.07456,1.07157
0.021210,-0.66670,-0.58564,9.43699,,-0.24976,-0.48412,-0.03675,0.06793,-0.07563,0.05706,5047,-5149,0.46431,-0.88371,-0.05889,0.88414,0.45858,0.08938,-0.05199,-0.09357,0.99426,1.07456,1.08723
0.044507,-0.66281,-0.59402,9.37448,,-0.26516,-0.48258,-0.03374,0.01105,0.07750,0.14456,5047,-5149,0.47523,-0.87780,-0.06025,0.87839,0.46936,0.09013,-0.05083,-0.09576,0.99411,1.07456,1.07487
0.057329,-0.66102,-0.57607,9.45883,,-0.26488,-0.49042,-0.03528,0.19480,0.06875,0.03956,5047,-5149,0.47459,-0.87802,-0.06207,0.87879,0.46864,0.09008,-0.05000,-0.09730,0.99400,1.07456,1.07563
0.070340,-0.64367,-0.46600,9.41217,,-0.26488,-0.49042,-0.03528,0.07230,-0.09750,0.00456,5047,-5149,0.47437,-0.87809,-0.06268,0.87892,0.46839,0.09005,-0.04972,-0.09781,0.99396,1.07456,1.07588
0.083638,-0.66012,-0.57697,9.39602,,-0.26530,-0.48622,-0.04186,0.22543,0.04687,0.03956,5047,-5149,0.47653,-0.87630,-0.07080,0.87797,0.47015,0.09020,-0.04576,-0.10514,0.99340,1.07456,1.07352
0.106856,-0.67358,-0.58744,9.40379,,-0.26572,-0.48622,-0.03976,-0.17270,0.01625,-0.07419,5047,-5149,0.47772,-0.87562,-0.07118,0.87733,0.47131,0.09030,-0.04552,-0.10559,0.99337,1.07456,1.07217
0.119698,-0.65683,-0.57488,9.43729,,-0.26712,-0.49182,-0.03976,-0.14645,-0.10625,0.24081,5047,-5149,0.47664,-0.87624,-0.07087,0.87791,0.47025,0.09021,-0.04572,-0.10521,0.99340,1.07456,1.07341
0.132846,-0.65204,-0.58265,9.38525,,-0.26712,-0.49182,-0.04536,0.16855,-0.05375,0.22331,5047,-5149,0.47603,-0.87604,-0.07718,0.87839,0.46937,0.09014,-0.04274,-0.11070,0.99293,1.07456,1.07417
0.145948,-0.64068,-0.59731,9.41695,,-0.27188,-0.48454,-0.04536,0.07668,-0.05813,0.04831,5047,-5149,0.48383,-0.87152,-0.07975,0.87420,0.47700,0.09085,-0.04114,-0.11368,0.99267,1.07456,1.06530
0.169184,-0.66221,-0.54078,9.45165,,-0.26768,-0.48734,-0.03668,0.02855,-0.18500,0.01331,5047,-5149,0.48155,-0.87357,-0.07064,0.87523,0.47513,0.09071,-0.04568,-0.10551,0.99337,1.07456,1.06780
0.182449,-0.64965,-0.57787,9.40918,,-0.26768,-0.48734,-0.03668,0.14230,-0.03625,0.17956,5047,-5149,0.48079,-0.87424,-0.06744,0.87556,0.47452,0.09067,-0.04726,-0.10264,0.99359,1.07456,1.06863
0.195533,-0.64726,-0.57906,9.57907,,-0.26684,-0.49126,-0.04340,-0.00645,-0.06250,0.11831,5047,-5149,0.47751,-0.87552,-0.07378,0.87750,0.47098,0.09037,-0.04437,-0.10790,0.99317,1.07456,1.07244
0.208687,-0.65145,-0.57398,9.45464,,-0.26502,-0.48594,-0.04186,0.04605,-0.00125,0.03518,5047,-5149,0.47746,-0.87547,-0.07473,0.87756,0.47088,0.09036,-0.04392,-0.10872,0.99310,1.07456,1.07251
0.232021,-0.67597,-0.75673,9.38944,,-0.26320,-0.48062,-0.04032,0.01980,0.07750,0.17956,5047,-5149,0.47851,-0.87498,-0.07378,0.87696,0.47197,0.09047,-0.04433,-0.10800,0.99316,1.07456,1.07130
0.245275,-0.64786,-0.59043,9.35893,,-0.26628,-0.48622,-0.02954,0.02855,-0.19375,0.13581,5047,-5149,0.47933,-0.87556,-0.06040,0.87617,0.47341,0.09058,-0.05071,-0.09634,0.99406,1.07456,1.07021
0.258328,-0.66820,-0.55932,9.42533,,-0.26628,-0.48622,-0.02954,-0.07645,0.04250,0.12706,5047,-5149,0.47956,-0.87574,-0.05567,0.87591,0.47389,0.09060,-0.05296,-0.09222,0.99433,1.07456,1.06987
0.271515,-0.65115,-0.57697,9.41725,,-0.26572,-0.48734,-0.03920,-0.04582,-0.05375,0.14018,5047,-5149,0.47821,-0.87583,-0.06513,0.87691,0.47207,0.09047,-0.04849,-0.10038,0.99377,1.07456,1.07154
0.294675,-0.66580,-0.57308,9.46780,,-0.27188,-0.48958,-0.03584,-0.21645,-0.17625,0.08331,5047,-5149,0.48241,-0.87359,-0.06419,0.87459,0.47629,0.09078,-0.04873,-0.09994,0.99380,1.07456,1.06674
0.307510,-0.66640,-0.58385,9.45045,,-0.27188,-0.48958,-0.03584,0.05480,0.04250,0.00456,5047,-5149,0.48380,-0.87284,-0.06390,0.87382,0.47769,0.09089,-0.04881,-0.09980,0.99381,1.07456,1.06514
0.320563,-0.66221,-0.57248,9.40858,,-0.26908,-0.49490,-0.04004,-0.03270,0.08625,0.00456,5047,-5149,0.47891,-0.87520,-0.06834,0.87661,0.47261,0.09048,-0.04689,-0.10324,0.99355,1.07456,1.07079
0.333839,-0.67208,-0.59880,9.44238,,-0.26684,-0.49098,-0.04060,0.08105,-0.10625,-0.02607,5047,-5149,0.47713,-0.87596,-0.07092,0.87764,0.47073,0.09035,-0.04576,-0.10535,0.99338,1.07456,1.07284
0.357185,-0.65982,-0.60598,9.38884,,-0.26460,-0.48706,-0.04116,-0.05895,-0.00125,0.04831,5047,-5149,0.47641,-0.87620,-0.07284,0.87808,0.46993,0.09029,-0.04488,-0.10698,0.99325,1.07456,1.07368
0.370147,-0.65743,-0.60359,9.44985,,-0.26488,-0.49126,-0.05138,0.37855,0.07750,0.24081,5047,-5149,0.47388,-0.87648,-0.08493,0.87971,0.46691,0.09000,-0.03923,-0.11736,0.99231,1.07456,1.07669
0.383240,-0.65204,-0.58146,9.42174,,-0.26488,-0.49126,-0.05138,-0.01520,0.04250,0.09206,5047,-5149,0.47302,-0.87653,-0.08916,0.88026,0.46589,0.08989,-0.03726,-0.12100,0.99195,1.07456,1.07770
0.396505,-0.66580,-0.58654,9.42503,,-0.26992,-0.49014,-0.06174,0.05918,0.16062,0.06581,5047,-5149,0.47734,-0.87275,-0.10227,0.87818,0.46973,0.09033,-0.03080,-0.13293,0.99065,1.07456,1.07291
0.419817,-0.67059,-0.56710,9.43251,,-0.27076,-0.49126,-0.03080,0.10730,-0.12375,-0.09169,5047,-5149,0.48058,-0.87403,-0.07152,0.87578,0.47412,0.09070,-0.04537,-0.10623,0.99331,1.07456,1.06892
0.432805,-0.63290,-0.57248,9.42652,,-0.27076,-0.49126,-0.03080,0.01105,0.10375,-0.10044,5047,-5149,0.48153,-0.87433,-0.06065,0.87497,0.47558,0.09079,-0.05054,-0.09679,0.99402,1.07456,1.06770
0.445912,-0.65324,-0.55872,9.38046,,-0.26600,-0.48678,-0.03878,0.08105,0.15625,0.31081,5047,-5149,0.47942,-0.87506,-0.06645,0.87628,0.47321,0.09060,-0.04783,-0.10166,0.99367,1.07456,1.07017
0.459105,-0.58684,-0.57577,9.45793,,-0.26712,-0.48846,-0.03682,0.11605,-0.08000,0.21018,5047,-5149,0.47900,-0.87532,-0.06608,0.87650,0.47281,0.09057,-0.04803,-0.10130,0.99370,1.07456,1.07065
0.482333,-0.62393,-0.56949,9.43131,,-0.26824,-0.49014,-0.03486,0.06355,-0.17625,0.17081,5047,-5149,0.47911,-0.87545,-0.06353,0.87637,0.47304,0.09059,-0.04926,-0.09908,0.99386,1.07456,1.07049
0.495228,-0.65743,-0.58205,9.43909,,-0.27692,-0.50134,-0.04424,0.13355,-0.07125,0.12706,5047,-5149,0.48108,-0.87370,-0.07214,0.87552,0.47459,0.09073,-0.04503,-0.10681,0.99326,1.07456,1.06835
0.508289,-0.65982,-0.55932,9.43191,,-0.27692,-0.50134,-0.04424,-0.13770,0.06000,0.11831,5047,-5149,0.48174,-0.87308,-0.07517,0.87523,0.47511,0.09076,-0.04353,-0.10951,0.99303,1.07456,1.06764
0.521447,-0.64756,-0.58235,9.39213,,-0.27384,-0.49154,-0.04228,0.09418,-0.04063,0.10081,5047,-5149,0.48413,-0.87178,-0.07491,0.87391,0.47749,0.09097,-0.04354,-0.10950,0.99303,1.07456,1.06490
0.544724,-0.64905,-0.56351,9.46481,,-0.27104,-0.49070,-0.03976,0.05480,0.19125,0.12706,5047,-5149,0.48291,-0.87270,-0.07213,0.87452,0.47641,0.09086,-0.04494,-0.10695,0.99325,1.07456,1.06626
0.557554,-0.68853,-0.60479,9.34397,,-0.27104,-0.49070,-0.03976,0.15105,-0.14125,-0.01294,5047,-5149,0.48249,-0.87301,-0.07114,0.87472,0.47604,0.09086,-0.04545,-0.10607,0.99332,1.07456,1.06673
0.570677,-0.66999,-0.59282,9.42114,,-0.27496,-0.49126,-0.04578,0.12480,-0.01875,0.19706,5047,-5149,0.48537,-0.87087,-0.07743,0.87329,0.47862,0.09109,-0.04227,-0.11183,0.99283,1.07456,1.06351
0.583984,-0.66132,-0.56710,9.42503,,-0.27496,-0.48482,-0.04459,0.18605,0.03375,0.01768,5047,-5149,0.48962,-0.86837,-0.07882,0.87095,0.48278,0.09148,-0.04138,-0.11343,0.99268,1.07456,1.05866
0.607289,-0.49232,-0.59163,9.37448,,-0.26600,-0.47838,-0.04340,-0.00645,-0.08875,0.08331,5047,-5149,0.48618,-0.87029,-0.07887,0.87287,0.47936,0.09114,-0.04151,-0.11315,0.99271,1.07456,1.06261
0.620268,-0.65743,-0.59163,9.47438,,-0.26600,-0.48622,-0.04242,0.07230,0.06875,0.08331,5047,-5149,0.48110,-0.87327,-0.07713,0.87563,0.47439,0.09070,-0.04262,-0.11117,0.99289,1.07456,1.06839
0.633303,-0.68136,-0.59821,9.42473,,-0.26740,-0.48622,-0.04242,-0.10270,-0.12375,0.23206,5047,-5149,0.48070,-0.87355,-0.07642,0.87583,0.47403,0.09068,-0.04298,-0.11052,0.99294,1.07456,1.06883
0.646667,-0.66999,-0.57069,9.47109,,-0.27034,-0.49042,-0.03360,0.12918,0.09062,0.04831,5047,-5149,0.48152,-0.87397,-0.06566,0.87511,0.47533,0.09077,-0.04812,-0.10117,0.99370,1.07456,1.06777
0.669962,-0.67119,-0.59043,9.43909,,-0.27328,-0.49042,-0.02912,-0.11145,-0.01000,0.03081,5047,-5149,0.48461,-0.87290,-0.05661,0.87317,0.47885,0.09100,-0.05233,-0.09353,0.99424,1.07456,1.06412
0.683251,-0.64187,-0.57966,9.43430,,-0.26992,-0.48062,-0.02912,-0.00645,-0.03625,0.09206,5047,-5149,0.48754,-0.87143,-0.05404,0.87147,0.48190,0.09119,-0.05342,-0.09155,0.99437,1.07456,1.06073
0.696356,-0.66221,-0.60060,9.44327,,-0.26992,-0.49014,-0.03794,-0.12020,-0.04500,0.17081,5047,-5149,0.48338,-0.87316,-0.06276,0.87402,0.47732,0.09086,-0.04938,-0.09877,0.99388,1.07456,1.06562
0.709581,-0.64905,-0.56949,9.38824,,-0.26852,-0.49014,-0.03794,0.12480,-0.03625,0.14456,5047,-5149,0.48070,-0.87440,-0.06590,0.87557,0.47451,0.09065,-0.04799,-0.10127,0.99370,1.07456,1.06871
0.722859,-0.66251,-0.58654,9.38644,,-0.27118,-0.48762,-0.03276,0.05918,-0.18938,0.05706,5047,-5149,0.48371,-0.87309,-0.06109,0.87379,0.47773,0.09090,-0.05018,-0.09735,0.99398,1.07456,1.06521
0.746182,-0.65025,-0.58146,9.43490,,-0.27384,-0.48510,-0.03276,-0.00645,-0.05375,0.11831,5047,-5149,0.48840,-0.87059,-0.05945,0.87114,0.48248,0.09123,-0.05074,-0.09635,0.99405,1.07456,1.05981
0.759068,-0.64845,-0.58385,9.45524,,-0.27636,-0.48986,-0.04648,0.17730,-0.13250,0.19706,5047,-5149,0.48928,-0.86897,-0.07416,0.87104,0.48266,0.09125,-0.04350,-0.10925,0.99306,1.07456,1.05900
0.772220,-0.66221,-0.58505,9.36371,,-0.27636,-0.48986,-0.03948,-0.35645,0.07750,0.03081,5047,-5149,0.48986,-0.86887,-0.07136,0.87065,0.48336,0.09130,-0.04483,-0.10685,0.99326,1.07456,1.05830
0.785419,-0.66520,-0.58355,9.40888,,-0.27160,-0.49070,-0.03948,-0.07207,-0.00125,0.18393,5047,-5149,0.48536,-0.87147,-0.07053,0.87313,0.47893,0.09093,-0.04547,-0.10572,0.99336,1.07456,1.06345
0.808586,-0.66281,-0.57727,9.44327,,-0.27440,-0.48902,-0.03640,-0.05895,0.00750,0.11831,5047,-5149,0.48734,-0.87066,-0.06671,0.87193,0.48108,0.09109,-0.04722,-0.10256,0.99361,1.07456,1.06113
0.821490,-0.63709,-0.60778,9.28774,,-0.27440,-0.48902,-0.03640,-0.22520,-0.08000,-0.08294,5047,-5149,0.48799,-0.87040,-0.06536,0.87154,0.48178,0.09115,-0.04785,-0.10144,0.99369,1.07456,1.06037
0.834809,-0.65862,-0.59462,9.43610,,-0.27384,-0.48510,-0.04438,0.24730,-0.23750,0.10081,5047,-5149,0.48935,-0.86891,-0.07434,0.87101,0.48272,0.09125,-0.04340,-0.10941,0.99305,1.07456,1.05892
0.848094,-0.66730,-0.57517,9.43281,,-0.27370,-0.48734,-0.04417,0.07230,0.01187,0.12268,5047,-5149,0.48856,-0.86912,-0.07710,0.87151,0.48182,0.09117,-0.04209,-0.11174,0.99285,1.07456,1.05986
0.871327,-0.66820,-0.56710,9.40798,,-0.27356,-0.48958,-0.04396,-0.05020,-0.02750,0.12706,5047,-5149,0.48705,-0.86991,-0.07766,0.87237,0.48030,0.09104,-0.04189,-0.11209,0.99282,1.07456,1.06160
0.884433,-0.66281,-0.60060,9.43011,,-0.26096,-0.48622,-0.04606,-0.08520,-0.05375,0.23206,5047,-5149,0.47655,-0.87539,-0.08114,0.87820,0.46974,0.09006,-0.04073,-0.11418,0.99263,1.07456,1.07361
0.897534,-0.67837,-0.57727,9.41755,,-0.26096,-0.48622,-0.04606,-0.07645,0.19125,0.21456,5047,-5149,0.47304,-0.87719,-0.08235,0.88012,0.46620,0.08972,-0.04031,-0.11491,0.99256,1.07456,1.07762
0.910698,-0.66042,-0.57906,9.40529,,-0.27216,-0.48510,-0.03850,0.00668,-0.08000,0.09206,5047,-5149,0.48314,-0.87245,-0.07361,0.87444,0.47660,0.09061,-0.04397,-0.10815,0.99316,1.07456,1.06603
0.933990,-0.65085,-0.59821,9.39542,,-0.26628,-0.48370,-0.04018,-0.07645,0.16500,0.10081,5047,-5149,0.48171,-0.87330,-0.07285,0.87521,0.47521,0.09048,-0.04440,-0.10734,0.99323,1.07456,1.06765
0.946982,-0.67597,-0.57009,9.39183,,-0.26628,-0.48370,-0.04018,-0.17270,0.00750,0.10081,5047,-5149,0.48123,-0.87359,-0.07256,0.87546,0.47475,0.09044,-0.04456,-0.10704,0.99326,1.07456,1.06819
0.960042,-0.64666,-0.59641,9.40738,,-0.27048,-0.48734,-0.04340,0.02855,-0.01875,-0.06544,5047,-5149,0.48294,-0.87237,-0.07573,0.87460,0.47631,0.09057,-0.04294,-0.10997,0.99301,1.07456,1.06628
0.973267,-0.65683,-0.58714,9.52613,,-0.26880,-0.48566,-0.04760,0.11168,0.12125,0.08331,5047,-5149,0.48263,-0.87198,-0.08191,0.87491,0.47575,0.09051,-0.03996,-0.11534,0.99252,1.07456,1.06670
0.996536,-0.66939,-0.57787,9.37628,,-0.26712,-0.48398,-0.05180,0.19480,0.04250,0.01331,5047,-5149,0.48161,-0.87184,-0.08915,0.87563,0.47446,0.09038,-0.03650,-0.12159,0.99191,1.07456,1.06794
1.009451,-0.67597,-0.57787,9.39063,,-0.27076,-0.48230,-0.05348,0.08105,-0.17625,-0.06544,5047,-5149,0.48536,-0.86929,-0.09357,0.87364,0.47802,0.09079,-0.03419,-0.12581,0.99146,1.07456,1.06369
1.022592,-0.66401,-0.57906,9.48575,,-0.27076,-0.48230,-0.05348,0.20355,0.04250,0.13581,5047,-5149,0.48663,-0.86841,-0.09516,0.87297,0.47922,0.09092,-0.03336,-0.12731,0.99130,1.07456,1.06226
1.035988,-0.66132,-0.57458,9.44597,,-0.26740,-0.48258,-0.03276,0.06793,-0.04500,0.15768,5047,-5149,0.48488,-0.87162,-0.07188,0.87343,0.47839,0.09086,-0.04481,-0.10684,0.99327,1.07456,1.06402
1.059449,-0.68435,-0.58445,9.46481,,-0.26572,-0.48202,-0.03990,-0.00645,-0.10625,0.26706,5047,-5149,0.48264,-0.87285,-0.07205,0.87467,0.47616,0.09068,-0.04485,-0.10679,0.99327,1.07456,1.06657
1.072980,-0.64965,-0.59342,9.39721,,-0.26572,-0.48202,-0.03990,0.01980,0.08625,0.08331,5047,-5149,0.48189,-0.87326,-0.07212,0.87509,0.47541,0.09062,-0.04484,-0.10678,0.99327,1.07456,1.06744
1.087585,-0.66102,-0.57906,9.37986,,-0.27048,-0.48510,-0.05236,0.12480,-0.05375,0.17956,5047,-5149,0.48387,-0.87090,-0.08604,0.87431,0.47680,0.09076,-0.03802,-0.11915,0.99215,1.07456,1.06532
1.102093,-0.66760,-0.56231,9.47857,,-0.27048,-0.48510,-0.05236,-0.03270,-0.02750,0.11831,5047,-5149,0.48452,-0.87004,-0.09094,0.87406,0.47726,0.09081,-0.03560,-0.12349,0.99171,1.07456,1.06463
1.116147,-0.68076,-0.57966,9.39661,,-0.26796,-0.48510,-0.03822,-0.18145,-0.00125,-0.03919,5047,-5149,0.48313,-0.87220,-0.07651,0.87451,0.47645,0.09073,-0.04268,-0.11075,0.99293,1.07456,1.06607
1.131331,-0.66281,-0.53779,9.45225,,-0.27244,-0.48650,-0.04802,-0.08520,0.08625,0.10081,5047,-5149,0.48558,-0.87030,-0.08238,0.87329,0.47864,0.09093,-0.03970,-0.11609,0.99244,1.07456,1.06334
1.145916,-0.64487,-0.62034,9.41755,,-0.27244,-0.48650,-0.04802,-0.05020,0.05125,0.03081,5047,-5149,0.48639,-0.86965,-0.08447,0.87289,0.47936,0.09099,-0.03864,-0.11799,0.99226,1.07456,1.06243
1.160191,-0.66640,-0.57637,9.40469,,-0.26684,-0.48258,-0.03892,-0.04145,0.08625,0.02206,5047,-5149,0.48395,-0.87185,-0.07527,0.87403,0.47732,0.09080,-0.04324,-0.10974,0.99302,1.07456,1.06512
1.183933,-0.63230,-0.58804,9.37747,,-0.26684,-0.48622,-0.04564,0.04605,0.20000,-0.00419,5047,-5149,0.48097,-0.87312,-0.07954,0.87576,0.47418,0.09050,-0.04130,-0.11318,0.99272,1.07456,1.06857
1.196975,-0.66102,-0.57966,9.34577,,-0.27916,-0.48622,-0.04564,0.01980,0.06875,0.10956,5047,-5149,0.49119,-0.86733,-0.08042,0.87012,0.48429,0.09144,-0.04036,-0.11489,0.99256,1.07456,1.05688
1.210829,-0.64008,-0.56351,9.39243,,-0.26852,-0.48426,-0.05180,-0.01520,-0.08875,0.13581,5047,-5149,0.48562,-0.86967,-0.08852,0.87340,0.47846,0.09084,-0.03665,-0.12143,0.99192,1.07456,1.06335
1.225634,-0.64666,-0.56949,9.40080,,-0.26852,-0.48426,-0.05180,0.19480,0.12125,0.13581,5047,-5149,0.48376,-0.87042,-0.09139,0.87449,0.47651,0.09063,-0.03534,-0.12376,0.99168,1.07456,1.06551
1.237938,-0.67388,-0.60927,9.35414,,-0.26698,-0.48566,-0.04886,-0.05457,0.13875,-0.03919,5047,-5149,0.48116,-0.87211,-0.08896,0.87586,0.47402,0.09037,-0.03664,-0.12140,0.99193,1.07456,1.06845
1.257718,-0.65444,-0.58265,9.40977,,-0.26656,-0.48482,-0.04235,0.01980,-0.06250,0.14456,5047,-5149,0.48068,-0.87318,-0.08067,0.87595,0.47385,0.09036,-0.04067,-0.11410,0.99264,1.07456,1.06892
1.277705,-0.67358,-0.58624,9.40140,,-0.26768,-0.48258,-0.03584,0.10730,0.14750,0.04831,5047,-5149,0.48295,-0.87282,-0.07032,0.87447,0.47656,0.09058,-0.04554,-0.10524,0.99340,1.07456,1.06621
1.288557,-0.67508,-0.58863,9.37717,,-0.26740,-0.48496,-0.03696,0.03730,0.07312,-0.08294,5047,-5149,0.48216,-0.87345,-0.06782,0.87483,0.47589,0.09052,-0.04679,-0.10298,0.99358,1.07456,1.06708
1.308637,-0.67178,-0.58983,9.41336,,-0.26712,-0.48734,-0.03696,0.05480,-0.08000,-0.10919,5047,-5149,0.48044,-0.87448,-0.06679,0.87575,0.47423,0.09041,-0.04738,-0.10193,0.99366,1.07456,1.06902
1.318964,-0.65803,-0.58086,9.41127,,-0.27020,-0.48230,-0.04046,-0.08082,-0.01000,0.08768,5047,-5149,0.48512,-0.87159,-0.07068,0.87328,0.47870,0.09076,-0.04528,-0.10575,0.99336,1.07456,1.06373
1.338456,-0.66162,-0.59043,9.25125,,-0.27020,-0.48230,-0.04046,0.09855,-0.08875,0.08331,5047,-5149,0.48667,-0.87061,-0.07207,0.87245,0.48018,0.09090,-0.04453,-0.10711,0.99325,1.07456,1.06196
1.349627,-0.65743,-0.59013,9.41725,,-0.26768,-0.48678,-0.04494,0.18605,-0.03188,-0.09169,5047,-5149,0.48240,-0.87251,-0.07752,0.87494,0.47570,0.09052,-0.04210,-0.11149,0.99287,1.07456,1.06692
1.369795,-0.65743,-0.76391,9.41935,,-0.26740,-0.48090,-0.04592,0.01980,0.08625,-0.13544,5047,-5149,0.48364,-0.87150,-0.08108,0.87434,0.47678,0.09063,-0.04033,-0.11473,0.99258,1.07456,1.06554
1.380789,-0.65683,-0.55513,9.42533,,-0.26740,-0.48090,-0.04592,0.03293,-0.08000,0.05268,5047,-5149,0.48407,-0.87115,-0.08230,0.87413,0.47716,0.09067,-0.03972,-0.11583,0.99247,1.07456,1.06506
1.400929,-0.66042,-0.59761,9.47797,,-0.26432,-0.49350,-0.04144,-0.18145,0.20875,0.04831,5047,-5149,0.47528,-0.87648,-0.07674,0.87879,0.46866,0.08992,-0.04285,-0.11017,0.99299,1.07456,1.07501
1.411986,-0.64128,-0.56859,9.44357,,-0.26712,-0.48930,-0.03759,0.04605,-0.02750,0.10518,5047,-5149,0.47717,-0.87598,-0.07052,0.87762,0.47081,0.09009,-0.04571,-0.10488,0.99343,1.07456,1.07280
1.432231,-0.63529,-0.56770,9.38106,,-0.26992,-0.48510,-0.03374,-0.05020,-0.36000,0.11831,5047,-5149,0.48263,-0.87348,-0.06403,0.87448,0.47654,0.09052,-0.04856,-0.09968,0.99383,1.07456,1.06649
1.443305,-0.65145,-0.58116,9.40888,,-0.26712,-0.48734,-0.04116,0.08980,0.05125,0.06143,5047,-5149,0.48043,-0.87421,-0.07031,0.87584,0.47407,0.09032,-0.04563,-0.10497,0.99343,1.07456,1.06908
1.463710,-0.66760,-0.60778,9.42652,,-0.26712,-0.48734,-0.04116,0.13355,-0.25500,0.24081,5047,-5149,0.47971,-0.87443,-0.07251,0.87629,0.47325,0.09028,-0.04463,-0.10684,0.99327,1.07456,1.06993
1.474698,-0.64786,-0.56859,9.41576,,-0.26348,-0.49518,-0.05096,-0.23395,-0.14125,0.03518,5047,-5149,0.47179,-0.87770,-0.08400,0.88083,0.46490,0.08948,-0.03949,-0.11620,0.99244,1.07456,1.07906
1.494899,-0.64187,-0.61795,9.42832,,-0.27076,-0.48818,-0.04144,0.01105,0.01625,0.00456,5047,-5149,0.47974,-0.87399,-0.07743,0.87639,0.47307,0.09021,-0.04221,-0.11113,0.99291,1.07456,1.06995
1.505834,-0.63081,-0.58086,9.42323,,-0.27076,-0.48818,-0.04144,-0.08520,-0.09750,0.05268,5047,-5149,0.48238,-0.87273,-0.07510,0.87489,0.47579,0.09044,-0.04320,-0.10933,0.99307,1.07456,1.06691
1.526088,-0.64546,-0.62034,9.36790,,-0.26572,-0.49182,-0.04900,-0.19020,-0.00125,0.11831,5047,-5149,0.47648,-0.87527,-0.08290,0.87829,0.46962,0.08986,-0.03972,-0.11562,0.99250,1.07456,1.07372
1.537034,-0.70857,-0.57727,9.45434,,-0.26502,-0.48692,-0.04333,-0.02832,0.00750,0.10518,5047,-5149,0.47657,-0.87553,-0.07956,0.87816,0.46984,0.08988,-0.04132,-0.11270,0.99277,1.07456,1.07358
1.557008,-0.66162,-0.60239,9.40080,,-0.26432,-0.48202,-0.03766,-0.21645,-0.15875,0.02206,5047,-5149,0.47867,-0.87502,-0.07219,0.87686,0.47224,0.09009,-0.04474,-0.10642,0.99331,1.07456,1.07112
1.567260,-0.66371,-0.58505,9.44656,,-0.26418,-0.48342,-0.04774,0.06355,0.03812,0.04831,5047,-5149,0.47806,-0.87456,-0.08123,0.87740,0.47125,0.09000,-0.04043,-0.11429,0.99262,1.07456,1.07191
1.586421,-0.66401,-0.58265,9.39961,,-0.26404,-0.48482,-0.05782,-0.03270,0.09500,-0.03919,5047,-5149,0.47648,-0.87394,-0.09592,0.87855,0.46914,0.08976,-0.03345,-0.12704,0.99133,1.07456,1.07385
1.605497,-0.64666,-0.59940,9.40260,,-0.27132,-0.48314,-0.04522,-0.12895,0.07750,0.09206,5047,-5149,0.48421,-0.87068,-0.08634,0.87414,0.47715,0.09055,-0.03764,-0.11932,0.99214,1.07456,1.06495
1.615714,-0.64726,-0.59133,9.40260,,-0.27076,-0.48566,-0.04018,0.11168,-0.04500,0.03081,5047,-5149,0.48521,-0.87100,-0.07701,0.87338,0.47852,0.09068,-0.04213,-0.11126,0.99290,1.07456,1.06370
1.634856,-0.68016,-0.55633,9.46481,,-0.27020,-0.48818,-0.03514,-0.20770,-0.04500,-0.03919,5047,-5149,0.48396,-0.87247,-0.06775,0.87385,0.47768,0.09061,-0.04669,-0.10306,0.99358,1.07456,1.06502
1.645111,-0.66371,-0.59910,9.41695,,-0.26936,-0.49098,-0.03822,-0.08082,0.07750,0.03956,5047,-5149,0.48123,-0.87396,-0.06788,0.87534,0.47497,0.09039,-0.04676,-0.10292,0.99359,1.07456,1.06813
1.664303,-0.65025,-0.58804,9.43400,,-0.26852,-0.49378,-0.04228,0.09418,0.06875,0.05706,5047,-5149,0.47800,-0.87537,-0.07241,0.87722,0.47156,0.09011,-0.04473,-0.10659,0.99330,1.07456,1.07187
1.683352,-0.65324,-0.62632,9.43251,,-0.27132,-0.48818,-0.04326,0.07230,-0.05375,0.17956,5047,-5149,0.48223,-0.87279,-0.07541,0.87498,0.47563,0.09047,-0.04309,-0.10961,0.99304,1.07456,1.06708
1.693594,-0.67388,-0.57218,9.42383,,-0.26866,-0.48874,-0.04543,-0.02395,-0.11500,0.11831,5047,-5149,0.48083,-0.87324,-0.07902,0.87583,0.47408,0.09034,-0.04142,-0.11265,0.99277,1.07456,1.06872
1.712628,-0.64247,-0.54437,9.38764,,-0.26600,-0.48930,-0.04760,-0.16395,-0.00125,-0.01294,5047,-5149,0.47753,-0.87470,-0.08286,0.87772,0.47065,0.09000,-0.03973,-0.11571,0.99249,1.07456,1.07253
1.722934,-0.67418,-0.58205,9.44597,,-0.26936,-0.48944,-0.05306,0.02418,0.07750,0.15768,5047,-5149,0.47918,-0.87306,-0.09028,0.87698,0.47200,0.09014,-0.03608,-0.12237,0.99183,1.07456,1.07072
1.742386,-0.65324,-0.55454,9.41007,,-0.25480,-0.49084,-0.05236,-0.02395,-0.13250,-0.01294,5047,-5149,0.46554,-0.88016,-0.09274,0.88431,0.45839,0.08872,-0.03557,-0.12332,0.99173,1.07456,1.08622
1.761437,-0.64307,-0.60419,9.43550,,-0.26236,-0.49210,-0.04620,0.06355,0.06875,0.10081,5047,-5149,0.46776,-0.87966,-0.08604,0.88301,0.46084,0.08896,-0.03860,-0.11758,0.99231,1.07456,1.08365
1.771741,-0.64965,-0.59910,9.46302,,-0.26334,-0.48818,-0.04305,0.01105,0.16062,0.01331,5047,-5149,0.47149,-0.87821,-0.08033,0.88092,0.46477,0.08930,-0.04109,-0.11286,0.99276,1.07456,1.07937
1.790983,-0.65623,-0.57846,9.41875,,-0.26432,-0.48426,-0.03990,0.08980,0.22625,0.14456,5047,-5149,0.47575,-0.87639,-0.07492,0.87851,0.46923,0.08968,-0.04344,-0.10848,0.99315,1.07456,1.07447
1.801227,-0.64696,-0.60299,9.35953,,-0.26824,-0.48440,-0.03612,0.06793,-0.09313,0.06581,5047,-5149,0.48088,-0.87411,-0.06846,0.87557,0.47462,0.09011,-0.04627,-0.10328,0.99358,1.07456,1.06855
1.820506,-0.66879,-0.58534,9.51446,,-0.26796,-0.48510,-0.03710,0.09418,0.06875,0.20143,5047,-5149,0.48193,-0.87362,-0.06730,0.87496,0.47572,0.09019,-0.04678,-0.10235,0.99365,1.07456,1.06733
1.839484,-0.66162,-0.57069,9.47079,,-0.26376,-0.48566,-0.03808,-0.16395,0.11250,-0.12669,5047,-5149,0.47805,-0.87568,-0.06814,0.87710,0.47183,0.08988,-0.04656,-0.10273,0.99362,1.07456,1.07177
1.849682,-0.67059,-0.58505,9.45434,,-0.26712,-0.48860,-0.03493,-0.17270,-0.05375,0.14018,5047,-5149,0.47854,-0.87570,-0.06445,0.87674,0.47249,0.08993,-0.04830,-0.09954,0.99386,1.07456,1.07117
1.868930,-0.64128,-0.58325,9.33560,,-0.27048,-0.49154,-0.03178,-0.07645,-0.01000,0.14456,5047,-5149,0.48041,-0.87504,-0.05926,0.87558,0.47461,0.09007,-0.05069,-0.09516,0.99417,1.07456,1.06896
1.879191,-0.65833,-0.58684,9.49831,,-0.26866,-0.48902,-0.04620,0.04605,-0.10188,0.00893,5047,-5149,0.48005,-0.87410,-0.07419,0.87616,0.47355,0.08999,-0.04353,-0.10821,0.99317,1.07456,1.06956
1.898387,-0.65922,-0.58056,9.42981,,-0.26866,-0.48734,-0.04515,0.01543,0.05562,0.10081,5047,-5149,0.48082,-0.87331,-0.07839,0.87584,0.47413,0.09004,-0.04146,-0.11195,0.99285,1.07456,1.06874
1.917415,-0.64367,-0.58026,9.41815,,-0.27048,-0.48566,-0.04410,-0.06770,-0.03625,0.04831,5047,-5149,0.48363,-0.87173,-0.07871,0.87430,0.47691,0.09029,-0.04117,-0.11248,0.99280,1.07456,1.06553
1.927830,-0.67986,-0.57308,9.44926,,-0.26838,-0.49098,-0.05068,-0.13770,0.00750,0.02206,5047,-5149,0.47967,-0.87323,-0.08601,0.87664,0.47269,0.08987,-0.03782,-0.11850,0.99223,1.07456,1.07013
1.949814,-0.66341,-0.56291,9.37867,,-0.26628,-0.49098,-0.05068,0.16855,0.03375,0.11831,5047,-5149,0.47642,-0.87473,-0.08871,0.87845,0.46937,0.08954,-0.03668,-0.12058,0.99203,1.07456,1.07385
1.962880,-0.67238,-0.55633,9.38226,,-0.26824,-0.49378,-0.05362,-0.19895,-0.06250,0.14456,5047,-5149,0.47560,-0.87477,-0.09261,0.87897,0.46842,0.08943,-0.03486,-0.12393,0.99168,1.07456,1.07482
1.975791,-0.63470,-0.60538,9.47558,,-0.26824,-0.49378,-0.05362,0.03730,-0.01875,0.00456,5047,-5149,0.47532,-0.87477,-0.09401,0.87915,0.46809,0.08940,-0.03420,-0.12514,0.99155,1.07456,1.07515
1.988746,-0.62871,-0.60598,9.41366,,-0.26684,-0.48650,-0.04872,-0.06770,-0.00125,0.00456,5047,-5149,0.47782,-0.87387,-0.08964,0.87771,0.47072,0.08967,-0.03616,-0.12152,0.99193,1.07456,1.07227
2.011497,-0.66461,-0.56231,9.41157,,-0.26908,-0.49462,-0.03360,0.16855,0.17375,0.02206,5047,-5149,0.47736,-0.87590,-0.07012,0.87753,0.47107,0.08969,-0.04553,-0.10435,0.99350,1.07456,1.07258
2.024677,-0.65803,-0.60239,9.41037,,-0.26908,-0.49462,-0.03360,-0.09395,-0.33375,0.00456,5047,-5149,0.47715,-0.87654,-0.06320,0.87746,0.47118,0.08972,-0.04887,-0.09827,0.99396,1.07456,1.07273
2.038485,-0.67238,-0.56530,9.42652,,-0.26852,-0.48370,-0.04200,0.05480,-0.08875,-0.03919,5047,-5149,0.48169,-0.87345,-0.07116,0.87519,0.47532,0.09007,-0.04485,-0.10567,0.99339,1.07456,1.06766
2.051677,-0.66849,-0.57727,9.43281,,-0.26698,-0.48762,-0.04501,-0.14207,0.20000,0.03518,5047,-5149,0.47968,-0.87404,-0.07722,0.87644,0.47306,0.08984,-0.04199,-0.11077,0.99296,1.07456,1.07003
2.074964,-0.66341,-0.61854,9.41935,,-0.26544,-0.49154,-0.04802,-0.12020,-0.05375,0.01331,5047,-5149,0.47550,-0.87583,-0.08255,0.87882,0.46869,0.08943,-0.03964,-0.11508,0.99257,1.07456,1.07484
2.087869,-0.65683,-0.60299,9.45225,,-0.26096,-0.48566,-0.04186,0.00230,-0.29000,-0.06544,5047,-5149,0.47315,-0.87752,-0.07802,0.87998,0.46654,0.08927,-0.04194,-0.11089,0.99295,1.07456,1.07746
2.100800,-0.62692,-0.59940,9.43310,,-0.26096,-0.48566,-0.04186,-0.27770,-0.03625,0.10956,5047,-5149,0.47237,-0.87808,-0.07640,0.88037,0.46583,0.08920,-0.04273,-0.10940,0.99308,1.07456,1.07833
2.113929,-0.63739,-0.57876,9.41307,,-0.27216,-0.49042,-0.04256,-0.06770,0.08625,0.14018,5047,-5149,0.48004,-0.87397,-0.07579,0.87621,0.47348,0.08984,-0.04263,-0.10954,0.99307,1.07456,1.06960
2.137016,-0.59521,-0.65743,9.43430,,-0.26208,-0.49490,-0.04494,-0.13770,-0.17625,0.07456,5047,-5149,0.47102,-0.87863,-0.07843,0.88113,0.46441,0.08904,-0.04181,-0.11105,0.99294,1.07456,1.07988
2.149792,-0.48455,-0.48275,9.45703,,-0.26208,-0.49490,-0.04494,-0.00645,0.31375,-0.03044,5047,-5149,0.46799,-0.88016,-0.07934,0.88276,0.46138,0.08871,-0.04147,-0.11155,0.99289,1.07456,1.08332
2.162844,-0.67597,-0.61077,9.36850,,-0.26768,-0.49266,-0.03094,0.11605,-0.24625,0.11831,5047,-5149,0.47385,-0.87830,-0.06358,0.87926,0.46791,0.08921,-0.04861,-0.09817,0.99398,1.07456,1.07650
2.176227,-0.64576,-0.57577,9.41037,,-0.26614,-0.49154,-0.03752,0.00230,-0.10625,0.02206,5047,-5149,0.47466,-0.87772,-0.06567,0.87888,0.46861,0.08928,-0.04758,-0.10009,0.99384,1.07456,1.07561
2.199517,-0.65085,-0.59103,9.41576,,-0.26460,-0.49042,-0.04410,-0.12020,0.03375,0.03956,5047,-5149,0.47378,-0.87752,-0.07411,0.87956,0.46736,0.08917,-0.04361,-0.10743,0.99326,1.07456,1.07670
2.212488,-0.64367,-0.59282,9.43669,,-0.26992,-0.48958,-0.04298,-0.11145,-0.16750,0.04831,5047,-5149,0.47886,-0.87463,-0.07562,0.87686,0.47233,0.08960,-0.04265,-0.10922,0.99310,1.07456,1.07095
2.225442,-0.51685,-0.61854,9.46481,,-0.26992,-0.48958,-0.04298,0.24730,-0.08000,0.09206,5047,-5149,0.48055,-0.87365,-0.07621,0.87595,0.47399,0.08974,-0.04228,-0.10988,0.99305,1.07456,1.06903
2.238615,-0.64935,-0.60718,9.42772,,-0.26264,-0.48230,-0.04130,-0.14207,-0.18938,0.08768,5047,-5149,0.47813,-0.87506,-0.07529,0.87725,0.47162,0.08955,-0.04285,-0.10887,0.99313,1.07456,1.07178
2.262091,-0.66042,-0.60838,9.44985,,-0.26684,-0.48594,-0.04102,0.08980,-0.01875,-0.03919,5047,-5149,0.47938,-0.87446,-0.07422,0.87654,0.47291,0.08967,-0.04331,-0.10804,0.99320,1.07456,1.07034
2.274905,-0.66162,-0.56411,9.33081,,-0.26684,-0.48594,-0.04102,-0.11145,0.06875,-0.00419,5047,-5149,0.47980,-0.87427,-0.07383,0.87630,0.47334,0.08970,-0.04348,-0.10773,0.99323,1.07456,1.06985
2.287680,-0.65922,-0.54796,9.42353,,-0.26796,-0.48426,-0.04410,-0.18145,0.14750,-0.05669,5047,-5149,0.48167,-0.87293,-0.07732,0.87536,0.47506,0.08984,-0.04169,-0.11095,0.99295,1.07456,1.06775
2.300887,-0.64965,-0.60329,9.43729,,-0.26880,-0.48762,-0.03857,0.01980,-0.05813,-0.02169,5047,-5149,0.48163,-0.87342,-0.07191,0.87525,0.47525,0.08986,-0.04431,-0.10622,0.99335,1.07456,1.06774
2.324228,-0.64905,-0.56830,9.36730,,-0.26964,-0.49098,-0.03304,-0.10270,-0.08875,0.05706,5047,-5149,0.48092,-0.87447,-0.06339,0.87542,0.47494,0.08984,-0.04845,-0.09870,0.99394,1.07456,1.06844
2.337054,-0.59163,-0.63051,9.45584,,-0.27216,-0.49406,-0.04116,-0.08520,-0.06250,0.08331,5047,-5149,0.48112,-0.87391,-0.06937,0.87547,0.47485,0.08983,-0.04556,-0.10395,0.99354,1.07456,1.06829
2.350300,-0.62154,-0.61316,9.43969,,-0.27216,-0.49406,-0.04116,0.20355,-0.21125,-0.05669,5047,-5149,0.48118,-0.87370,-0.07149,0.87549,0.47481,0.08984,-0.04456,-0.10582,0.99339,1.07456,1.06825
2.363493,-0.64487,-0.55125,9.40918,,-0.26124,-0.49266,-0.03990,0.08980,-0.04063,0.00018,5047,-5149,0.47192,-0.87875,-0.07134,0.88049,0.46562,0.08911,-0.04508,-0.10487,0.99346,1.07456,1.07878
2.386748,-0.64845,-0.60120,9.55753,,-0.26124,-0.49266,-0.04074,0.18605,0.07750,-0.07419,5047,-5149,0.46879,-0.88035,-0.07225,0.88217,0.46246,0.08885,-0.04481,-0.10539,0.99342,1.07456,1.08235
2.399597,-0.71306,-0.54915,9.35713,,-0.26796,-0.48202,-0.04074,-0.18145,0.08625,-0.05669,5047,-5149,0.47931,-0.87461,-0.07302,0.87655,0.47288,0.08972,-0.04394,-0.10701,0.99329,1.07456,1.07040
2.412520,-0.67717,-0.57069,9.40080,,-0.26796,-0.48706,-0.04158,-0.21645,-0.15875,0.05706,5047,-5149,0.48022,-0.87403,-0.07390,0.87607,0.47375,0.08980,-0.04348,-0.10787,0.99321,1.07456,1.06937
2.425368,-0.63978,-0.57637,9.43041,,-0.26124,-0.48706,-0.04158,0.05918,-0.08438,0.02643,5047,-5149,0.47430,-0.87720,-0.07454,0.87929,0.46784,0.08931,-0.04347,-0.10790,0.99321,1.07456,1.07612
2.448925,-0.64606,-0.59043,9.38166,,-0.26628,-0.48398,-0.04018,0.10730,0.18250,0.09206,5047,-5149,0.47862,-0.87497,-0.07315,0.87692,0.47219,0.08967,-0.04392,-0.10706,0.99328,1.07456,1.07119
2.461890,-0.49651,-0.59701,9.37029,,-0.26628,-0.48398,-0.04018,-0.09395,0.18250,-0.11794,5047,-5149,0.48005,-0.87423,-0.07267,0.87614,0.47363,0.08975,-0.04404,-0.10675,0.99331,1.07456,1.06956
2.475013,-0.64187,-0.57727,9.43610,,-0.26376,-0.49070,-0.04900,0.19480,-0.28125,0.01331,5047,-5149,0.47444,-0.87644,-0.08223,0.87939,0.46767,0.08921,-0.03973,-0.11464,0.99261,1.07456,1.07604
2.488165,-0.64487,-0.54945,9.39482,,-0.26292,-0.48986,-0.04928,-0.03707,-0.05813,0.03956,5047,-5149,0.47219,-0.87729,-0.08602,0.88068,0.46529,0.08898,-0.03804,-0.11777,0.99231,1.07456,1.07864
2.511306,-0.52881,-0.53719,9.42712,,-0.26208,-0.48902,-0.04956,0.01980,0.10375,0.25831,5047,-5149,0.47107,-0.87771,-0.08781,0.88131,0.46411,0.08883,-0.03722,-0.11923,0.99217,1.07456,1.07992
2.524486,-0.65324,-0.58026,9.43011,,-0.27384,-0.48958,-0.04816,0.02855,0.02500,0.15331,5047,-5149,0.48129,-0.87231,-0.08618,0.87576,0.47432,0.08984,-0.03749,-0.11872,0.99222,1.07456,1.06828
2.537311,-0.65683,-0.59880,9.41396,,-0.27384,-0.48958,-0.04816,0.12480,-0.20250,0.12706,5047,-5149,0.48469,-0.87049,-0.08563,0.87388,0.47770,0.09019,-0.03761,-0.11854,0.99224,1.07456,1.06440
2.550200,-0.65234,-0.58983,9.43610,,-0.26376,-0.49546,-0.03920,0.11605,0.07750,-0.03044,5047,-5149,0.47412,-0.87724,-0.07526,0.87940,0.46762,0.08933,-0.04317,-0.10854,0.99315,1.07456,1.07633
2.573347,-0.65862,-0.59402,9.40858,,-0.27160,-0.48454,-0.04508,0.12480,-0.16750,0.03956,5047,-5149,0.48295,-0.87210,-0.07876,0.87468,0.47624,0.09013,-0.04109,-0.11242,0.99281,1.07456,1.06631
2.586367,-0.65683,-0.60000,9.40200,,-0.27160,-0.48454,-0.04508,0.26480,-0.08875,0.08331,5047,-5149,0.48589,-0.87035,-0.08002,0.87309,0.47910,0.09041,-0.04035,-0.11380,0.99268,1.07456,1.06297
2.599418,-0.64307,-0.58505,9.42473,,-0.27328,-0.49098,-0.03318,-0.03270,-0.01000,-0.05669,5047,-5149,0.48566,-0.87163,-0.06631,0.87288,0.47948,0.09044,-0.04703,-0.10180,0.99369,1.07456,1.06306
2.612555,-0.66849,-0.58684,9.40469,,-0.27062,-0.48902,-0.03556,-0.10707,0.02937,0.00893,5047,-5149,0.48403,-0.87268,-0.06440,0.87373,0.47795,0.09032,-0.04804,-0.09998,0.99383,1.07456,1.06490
2.635628,-0.65862,-0.59043,9.42114,,-0.26796,-0.48706,-0.03794,-0.12895,-0.18500,0.14456,5047,-5149,0.48195,-0.87366,-0.06669,0.87493,0.47578,0.09016,-0.04704,-0.10180,0.99369,1.07456,1.06730
2.648500,-0.65204,-0.60000,9.42892,,-0.26880,-0.48594,-0.03780,-0.23395,-0.01000,-0.04794,5047,-5149,0.48259,-0.87325,-0.06737,0.87460,0.47638,0.09020,-0.04668,-0.10245,0.99364,1.07456,1.06659
2.661947,-0.67777,-0.58205,9.47976,,-0.26880,-0.48594,-0.03780,0.18605,0.10375,0.10081,5047,-5149,0.48281,-0.87311,-0.06764,0.87449,0.47658,0.09022,-0.04654,-0.10271,0.99362,1.07456,1.06634
2.675489,-0.66102,-0.58744,9.39721,,-0.26768,-0.49098,-0.03500,-0.09395,-0.10625,-0.01294,5047,-5149,0.47944,-0.87523,-0.06420,0.87624,0.47339,0.09000,-0.04837,-0.09940,0.99387,1.07456,1.07014
2.699152,-0.68375,-0.58086,9.44088,,-0.26740,-0.49070,-0.05110,0.00230,-0.01875,0.05706,5047,-5149,0.47750,-0.87485,-0.08145,0.87771,0.47071,0.08975,-0.04018,-0.11435,0.99263,1.07456,1.07255
2.712110,-0.65563,-0.59761,9.43550,,-0.26740,-0.49070,-0.05110,-0.11145,0.15625,0.17956,5047,-5149,0.47685,-0.87462,-0.08754,0.87820,0.46983,0.08965,-0.03728,-0.11962,0.99212,1.07456,1.07335
2.725274,-0.66341,-0.56830,9.40499,,-0.26460,-0.49546,-0.05376,-0.15520,0.07750,0.11831,5047,-5149,0.47158,-0.87697,-0.09241,0.88112,0.46443,0.08907,-0.03520,-0.12343,0.99173,1.07456,1.07938
2.738523,-0.66132,-0.59611,9.38585,,-0.26362,-0.49196,-0.04571,0.05043,-0.04938,0.15768,5047,-5149,0.47105,-0.87797,-0.08532,0.88126,0.46416,0.08906,-0.03859,-0.11714,0.99237,1.07456,1.07992
2.761784,-0.67059,-0.55155,9.41636,,-0.26264,-0.48846,-0.03766,0.07230,0.02500,0.03956,5047,-5149,0.47204,-0.87848,-0.07385,0.88048,0.46561,0.08918,-0.04396,-0.10712,0.99327,1.07456,1.07868
2.774719,-0.67178,-0.59701,9.38405,,-0.26432,-0.48650,-0.04102,-0.09395,-0.04500,0.17081,5047,-5149,0.47475,-0.87703,-0.07375,0.87903,0.46831,0.08942,-0.04388,-0.10728,0.99326,1.07456,1.07560
2.787840,-0.63350,-0.57488,9.44985,,-0.26432,-0.48650,-0.04102,-0.05895,0.06875,0.02206,5047,-5149,0.47564,-0.87654,-0.07373,0.87855,0.46920,0.08948,-0.04384,-0.10734,0.99326,1.07456,1.07458
2.800986,-0.66012,-0.58534,9.45075,,-0.26880,-0.48986,-0.04788,0.03293,-0.09313,0.00018,5047,-5149,0.47808,-0.87456,-0.08113,0.87740,0.47131,0.08969,-0.04020,-0.11406,0.99266,1.07456,1.07189
2.824400,-0.65324,-0.57787,9.43550,,-0.27328,-0.48678,-0.03206,0.06355,-0.04500,0.24956,5047,-5149,0.48525,-0.87191,-0.06564,0.87310,0.47911,0.09028,-0.04727,-0.10112,0.99375,1.07456,1.06353
2.837303,-0.65384,-0.55872,9.46062,,-0.27328,-0.48678,-0.03206,-0.04145,-0.01000,0.11831,5047,-5149,0.48759,-0.87100,-0.06018,0.87165,0.48170,0.09046,-0.04980,-0.09656,0.99408,1.07456,1.06078
2.850405,-0.65504,-0.73101,9.42353,,-0.27076,-0.49406,-0.03402,0.16855,0.07750,0.00456,5047,-5149,0.48234,-0.87391,-0.06022,0.87455,0.47649,0.09012,-0.05006,-0.09613,0.99411,1.07456,1.06678
2.863709,-0.65713,-0.57936,9.37986,,-0.25284,-0.49154,-0.03465,-0.09395,-0.04500,0.01768,5047,-5149,0.46518,-0.88307,-0.06170,0.88379,0.45935,0.08893,-0.05019,-0.09590,0.99413,1.07456,1.08630
2.887050,-0.64845,-0.59462,9.41994,,-0.25676,-0.48902,-0.03528,0.01105,-0.17625,0.20581,5047,-5149,0.46435,-0.88341,-0.06294,0.88426,0.45846,0.08888,-0.04966,-0.09693,0.99405,1.07456,1.08725
2.899933,-0.66281,-0.58863,9.38585,,-0.25788,-0.49154,-0.03962,-0.11145,-0.01000,0.11831,5047,-5149,0.46372,-0.88336,-0.06818,0.88472,0.45758,0.08881,-0.04726,-0.10151,0.99371,1.07456,1.08802
2.913034,-0.65444,-0.58265,9.42114,,-0.25788,-0.49154,-0.03962,0.01980,0.06875,0.04831,5047,-5149,0.46350,-0.88332,-0.07004,0.88488,0.45728,0.08879,-0.04640,-0.10313,0.99358,1.07456,1.08829
2.926247,-0.68016,-0.59432,9.39661,,-0.26796,-0.49294,-0.03892,-0.12457,-0.05813,-0.03919,5047,-5149,0.47213,-0.87879,-0.06936,0.88031,0.46589,0.08948,-0.04632,-0.10330,0.99357,1.07456,1.07851
2.949585,-0.64666,-0.56052,9.37209,,-0.26796,-0.49294,-0.05418,-0.10270,0.20000,0.25831,5047,-5149,0.47433,-0.87609,-0.08653,0.87952,0.46734,0.08960,-0.03806,-0.11860,0.99221,1.07456,1.07620
2.962600,-0.63948,-0.58983,9.44088,,-0.26880,-0.48986,-0.05418,0.01105,0.00750,0.03081,5047,-5149,0.47732,-0.87381,-0.09283,0.87804,0.47007,0.08989,-0.03491,-0.12442,0.99162,1.07456,1.07287
2.975679,-0.64666,-0.60060,9.43789,,-0.26880,-0.49770,-0.04228,0.05480,-0.07125,0.09206,5047,-5149,0.47507,-0.87622,-0.08090,0.87901,0.46829,0.08973,-0.04074,-0.11374,0.99267,1.07456,1.07531
2.988796,-0.66550,-0.56291,9.43251,,-0.26180,-0.49770,-0.04228,0.08980,-0.05375,0.15768,5047,-5149,0.46787,-0.88044,-0.07698,0.88275,0.46131,0.08913,-0.04296,-0.10966,0.99304,1.07456,1.08342
3.012085,-0.66939,-0.55394,9.43430,,-0.26712,-0.49126,-0.04522,0.17730,-0.04500,0.20581,5047,-5149,0.47339,-0.87728,-0.07919,0.87986,0.46670,0.08963,-0.04167,-0.11211,0.99282,1.07456,1.07719
3.024980,-0.66162,-0.59821,9.42174,,-0.26712,-0.49126,-0.04522,-0.10270,-0.08000,-0.11794,5047,-5149,0.47521,-0.87623,-0.07998,0.87891,0.46847,0.08980,-0.04122,-0.11296,0.99274,1.07456,1.07513
3.038132,-0.67956,-0.56770,9.40918,,-0.26292,-0.48622,-0.04634,0.28230,-0.01000,0.12706,5047,-5149,0.47440,-0.87647,-0.08217,0.87939,0.46757,0.08973,-0.04022,-0.11483,0.99257,1.07456,1.07608
3.051337,-0.65324,-0.59581,9.40499,,-0.26474,-0.48958,-0.03892,0.04605,-0.07125,0.11393,5047,-5149,0.47450,-0.87714,-0.07404,0.87915,0.46801,0.08978,-0.04409,-0.10769,0.99321,1.07456,1.07588
3.074434,-0.63290,-0.58923,9.40020,,-0.26656,-0.49294,-0.03150,-0.09395,-0.18500,0.18831,5047,-5149,0.47482,-0.87787,-0.06237,0.87868,0.46888,0.08984,-0.04963,-0.09746,0.99400,1.07456,1.07537
3.087396,-0.65264,-0.58505,9.43490,,-0.27188,-0.48958,-0.03332,-0.06770,0.08625,0.04831,5047,-5149,0.48137,-0.87444,-0.06035,0.87507,0.47549,0.09029,-0.05026,-0.09627,0.99409,1.07456,1.06788
3.100612,-0.66520,-0.60957,9.47857,,-0.27188,-0.48958,-0.03332,-0.09395,0.08625,0.11831,5047,-5149,0.48355,-0.87328,-0.05965,0.87386,0.47770,0.09044,-0.05048,-0.09585,0.99411,1.07456,1.06538
3.113777,-0.66012,-0.57817,9.41606,,-0.25984,-0.49070,-0.03136,0.11605,0.07750,-0.02169,5047,-5149,0.47269,-0.87935,-0.05752,0.87969,0.46700,0.08974,-0.05205,-0.09302,0.99430,1.07456,1.07773
3.137023,-0.67059,-0.59880,9.36072,,-0.26936,-0.49462,-0.04046,0.02855,-0.06250,0.14456,5047,-5149,0.47559,-0.87715,-0.06656,0.87838,0.46943,0.08994,-0.04764,-0.10124,0.99372,1.07456,1.07455
3.150024,-0.65025,-0.56710,9.36371,,-0.26936,-0.49462,-0.04046,0.01980,-0.22000,0.17081,5047,-5149,0.47655,-0.87637,-0.06974,0.87794,0.47024,0.09001,-0.04609,-0.10413,0.99350,1.07456,1.07349
3.163106,-0.65922,-0.59701,9.39841,,-0.26992,-0.48510,-0.04690,0.20355,0.09500,-0.00419,5047,-5149,0.48185,-0.87269,-0.07897,0.87528,0.47509,0.09046,-0.04143,-0.11270,0.99276,1.07456,1.06756
3.176205,-0.66012,-0.57817,9.41127,,-0.26796,-0.48622,-0.04753,-0.05020,0.02500,0.05268,5047,-5149,0.48122,-0.87267,-0.08293,0.87571,0.47430,0.09038,-0.03953,-0.11612,0.99245,1.07456,1.06833
3.199449,-0.65683,-0.57368,9.38226,,-0.26600,-0.48734,-0.04816,0.01980,0.11250,0.08331,5047,-5149,0.47861,-0.87390,-0.08507,0.87718,0.47163,0.09011,-0.03862,-0.11775,0.99229,1.07456,1.07132
3.212425,-0.65862,-0.59701,9.41935,,-0.26656,-0.48538,-0.04200,-0.13770,0.00750,0.07456,5047,-5149,0.47954,-0.87397,-0.07884,0.87653,0.47281,0.09021,-0.04156,-0.11237,0.99280,1.07456,1.07019
3.225491,-0.65563,-0.55693,9.36012,,-0.26656,-0.48538,-0.04200,0.15105,0.04250,0.03081,5047,-5149,0.47984,-0.87400,-0.07666,0.87632,0.47320,0.09025,-0.04260,-0.11048,0.99296,1.07456,1.06983
3.238894,-0.65683,-0.60120,9.39243,,-0.26292,-0.49546,-0.03766,0.08105,-0.16750,0.11831,5047,-5149,0.47177,-0.87891,-0.07034,0.88052,0.46546,0.08964,-0.04605,-0.10423,0.99349,1.07456,1.07893
3.252198,-0.67059,-0.58175,9.43400,,-0.26488,-0.49210,-0.04165,0.01105,0.13437,0.10956,5047,-5149,0.47237,-0.87839,-0.07282,0.88026,0.46594,0.08967,-0.04484,-0.10646,0.99331,1.07456,1.07828
3.275495,-0.65563,-0.55633,9.40499,,-0.26684,-0.48874,-0.04564,-0.37395,-0.02750,0.15331,5047,-5149,0.47586,-0.87602,-0.07840,0.87852,0.46917,0.08995,-0.04201,-0.11168,0.99286,1.07456,1.07438
3.288373,-0.65743,-0.57906,9.45763,,-0.27048,-0.48706,-0.03934,0.04605,0.01625,-0.07419,5047,-5149,0.48148,-0.87340,-0.07313,0.87534,0.47498,0.09044,-0.04425,-0.10756,0.99321,1.07456,1.06791
3.301462,-0.66580,-0.58983,9.42174,,-0.27048,-0.48706,-0.03934,0.18605,-0.08000,-0.00419,5047,-5149,0.48335,-0.87252,-0.07129,0.87427,0.47692,0.09061,-0.04506,-0.10612,0.99333,1.07456,1.06576
3.314781,-0.65833,-0.57607,9.41785,,-0.26516,-0.49742,-0.04004,-0.11582,0.04250,0.07893,5047,-5149,0.47395,-0.87769,-0.07093,0.87936,0.46760,0.08985,-0.04569,-0.10495,0.99343,1.07456,1.07646
3.338252,-0.65623,-0.54736,9.39183,,-0.26824,-0.48762,-0.04060,0.15980,-0.21125,0.10956,5047,-5149,0.47846,-0.87515,-0.07199,0.87696,0.47203,0.09023,-0.04498,-0.10630,0.99332,1.07456,1.07134
3.351243,-0.66102,-0.57966,9.45045,,-0.26824,-0.48762,-0.04060,-0.11145,0.02500,0.13581,5047,-5149,0.47996,-0.87430,-0.07237,0.87615,0.47350,0.09034,-0.04472,-0.10677,0.99328,1.07456,1.06963
3.364633,-0.66700,-0.58624,9.46062,,-0.26180,-0.49126,-0.04200,-0.08520,-0.12375,0.05706,5047,-5149,0.47264,-0.87813,-0.07413,0.88014,0.46615,0.08973,-0.04424,-0.10766,0.99320,1.07456,1.07799
3.377776,-0.65354,-0.57517,9.42443,,-0.26572,-0.49322,-0.03990,0.01105,-0.13688,0.03518,5047,-5149,0.47295,-0.87814,-0.07202,0.87993,0.46655,0.08978,-0.04524,-0.10584,0.99335,1.07456,1.07761
3.401085,-0.66401,-0.59043,9.42174,,-0.26964,-0.49518,-0.03780,-0.15520,-0.10625,0.16206,5047,-5149,0.47577,-0.87689,-0.06859,0.87833,0.46950,0.09002,-0.04673,-0.10307,0.99358,1.07456,1.07437
3.414112,-0.66341,-0.59761,9.29911,,-0.26068,-0.48650,-0.03192,-0.07645,0.12125,0.10956,5047,-5149,0.47295,-0.87894,-0.06150,0.87966,0.46705,0.08984,-0.05024,-0.09659,0.99406,1.07456,1.07748
3.427182,-0.67358,-0.58684,9.41217,,-0.26068,-0.48650,-0.03192,0.00230,0.13000,0.05706,5047,-5149,0.47200,-0.87962,-0.05900,0.88010,0.46623,0.08978,-0.05147,-0.09430,0.99421,1.07456,1.07853
3.440333,-0.66162,-0.58325,9.43998,,-0.26712,-0.48818,-0.04536,-0.16832,-0.16750,0.17956,5047,-5149,0.47631,-0.87622,-0.07324,0.87815,0.46983,0.09009,-0.04453,-0.10722,0.99324,1.07456,1.07380
3.463720,-0.65085,-0.60359,9.46182,,-0.26824,-0.48902,-0.03542,-0.21645,0.05125,-0.03919,5047,-5149,0.47875,-0.87541,-0.06676,0.87667,0.47255,0.09029,-0.04750,-0.10175,0.99368,1.07456,1.07095
3.476647,-0.65085,-0.57966,9.45105,,-0.26824,-0.48902,-0.03542,-0.30395,-0.18500,0.08331,5047,-5149,0.47956,-0.87514,-0.06446,0.87616,0.47347,0.09036,-0.04856,-0.09981,0.99382,1.07456,1.06999
3.489702,-0.67119,-0.57727,9.38824,,-0.25228,-0.48650,-0.03948,0.02855,-0.22875,0.10956,5047,-5149,0.46599,-0.88208,-0.06918,0.88354,0.45976,0.08931,-0.04697,-0.10274,0.99360,1.07456,1.08546
3.502968,-0.64546,-0.59043,9.43610,,-0.25228,-0.48706,-0.03850,-0.08520,-0.12375,0.14018,5047,-5149,0.46121,-0.88455,-0.06963,0.88604,0.45499,0.08894,-0.04700,-0.10272,0.99360,1.07456,1.09086
3.526185,-0.63230,-0.56112,9.46840,,-0.26992,-0.48762,-0.03752,0.17730,-0.07125,0.03081,5047,-5149,0.47590,-0.87687,-0.06791,0.87824,0.46967,0.09009,-0.04711,-0.10252,0.99362,1.07456,1.07420
3.539121,-0.65444,-0.58205,9.43251,,-0.23408,-0.48930,-0.03542,-0.02395,-0.09750,0.04831,5047,-5149,0.44589,-0.89264,-0.06615,0.89373,0.43991,0.08793,-0.04938,-0.09833,0.99393,1.07456,1.10802
3.552176,-0.65085,-0.59402,9.60120,,-0.26040,-0.48930,-0.03542,0.04605,0.03375,0.20581,5047,-5149,0.46123,-0.88493,-0.06450,0.88590,0.45525,0.08905,-0.04944,-0.09821,0.99394,1.07456,1.09077
3.565457,-0.64756,-0.57637,9.43879,,-0.26390,-0.48706,-0.04942,0.04168,-0.04938,0.09206,5047,-5149,0.47011,-0.87897,-0.08011,0.88162,0.46334,0.08980,-0.04181,-0.11284,0.99273,1.07456,1.08092
3.588767,-0.66879,-0.57248,9.40559,,-0.26740,-0.48706,-0.04718,0.15105,0.02500,0.10956,5047,-5149,0.47639,-0.87532,-0.08288,0.87831,0.46946,0.09038,-0.04020,-0.11585,0.99245,1.07456,1.07381
3.601749,-0.66341,-0.59641,9.44387,,-0.26208,-0.48510,-0.04718,-0.27770,0.05125,0.24081,5047,-5149,0.47454,-0.87619,-0.08428,0.87934,0.46757,0.09019,-0.03961,-0.11691,0.99235,1.07456,1.07593
3.614902,-0.64367,-0.58983,9.48156,,-0.26208,-0.48510,-0.04550,-0.06770,-0.18500,-0.03044,5047,-5149,0.47399,-0.87663,-0.08283,0.87961,0.46708,0.09015,-0.04034,-0.11559,0.99248,1.07456,1.07655
3.628148,-0.66072,-0.58385,9.44806,,-0.26544,-0.49182,-0.04550,0.09855,-0.11938,0.08768,5047,-5149,0.47359,-0.87695,-0.08163,0.87979,0.46674,0.09014,-0.04095,-0.11450,0.99258,1.07456,1.07698
3.651468,-0.66640,-0.59222,9.42952,,-0.26572,-0.48482,-0.04970,0.07230,-0.22000,0.23206,5047,-5149,0.47700,-0.87462,-0.08659,0.87806,0.46992,0.09047,-0.03844,-0.11919,0.99213,1.07456,1.07315
3.664484,-0.66461,-0.58445,9.39721,,-0.26572,-0.48482,-0.04970,0.03730,0.05125,0.03081,5047,-5149,0.47813,-0.87383,-0.08836,0.87749,0.47097,0.09058,-0.03753,-0.12084,0.99196,1.07456,1.07189
3.677564,-0.66162,-0.58923,9.41815,,-0.26404,-0.48258,-0.04312,-0.00645,-0.15875,0.16206,5047,-5149,0.47841,-0.87433,-0.08163,0.87719,0.47151,0.09064,-0.04076,-0.11497,0.99253,1.07456,1.07150
3.690770,-0.67807,-0.58146,9.40140,,-0.26474,-0.48664,-0.04221,0.00668,0.16500,0.08331,5047,-5149,0.47715,-0.87537,-0.07787,0.87779,0.47041,0.09052,-0.04261,-0.11155,0.99285,1.07456,1.07290
3.714080,-0.65324,-0.57966,9.37149,,-0.26544,-0.49070,-0.04130,-0.09395,0.20875,0.07456,5047,-5149,0.47538,-0.87656,-0.07516,0.87868,0.46878,0.09037,-0.04398,-0.10900,0.99307,1.07456,1.07488
3.726975,-0.66760,-0.57248,9.36551,,-0.26516,-0.49154,-0.04242,-0.11145,-0.15000,0.03081,5047,-5149,0.47406,-0.87725,-0.07541,0.87939,0.46746,0.09026,-0.04393,-0.10911,0.99306,1.07456,1.07638
3.740147,-0.66820,-0.56231,9.35953,,-0.26516,-0.49154,-0.04242,-0.07645,0.03375,0.12706,5047,-5149,0.47363,-0.87748,-0.07551,0.87963,0.46703,0.09022,-0.04390,-0.10915,0.99306,1.07456,1.07687
3.753481,-0.65474,-0.59013,9.40858,,-0.27020,-0.48622,-0.03500,-0.11145,-0.02750,0.12706,5047,-5149,0.48111,-0.87408,-0.06716,0.87537,0.47484,0.09082,-0.04749,-0.10249,0.99360,1.07456,1.06826
3.776670,-0.65803,-0.58863,9.40080,,-0.26628,-0.48790,-0.04732,-0.12020,-0.04500,0.15331,5047,-5149,0.47860,-0.87452,-0.07847,0.87702,0.47185,0.09055,-0.04216,-0.11216,0.99280,1.07456,1.07125
3.789569,-0.64606,-0.58505,9.39003,,-0.26628,-0.48790,-0.04732,0.11605,-0.08875,0.10956,5047,-5149,0.47776,-0.87461,-0.08247,0.87757,0.47084,0.09046,-0.04029,-0.11559,0.99248,1.07456,1.07225
3.802697,-0.65743,-0.57607,9.42353,,-0.26880,-0.48986,-0.03948,-0.26020,-0.18500,0.17081,5047,-5149,0.47919,-0.87454,-0.07458,0.87661,0.47260,0.09061,-0.04400,-0.10880,0.99309,1.07456,1.07054
3.815897,-0.65952,-0.57069,9.41127,,-0.26670,-0.48804,-0.03983,0.05043,-0.19813,0.17518,5047,-5149,0.47863,-0.87502,-0.07244,0.87686,0.47213,0.09060,-0.04508,-0.10688,0.99325,1.07456,1.07115
3.839077,-0.65982,-0.59163,9.41336,,-0.26460,-0.48622,-0.04018,0.17730,-0.24625,0.08331,5047,-5149,0.47738,-0.87572,-0.07231,0.87753,0.47089,0.09052,-0.04522,-0.10667,0.99327,1.07456,1.07257
3.852013,-0.64726,-0.58445,9.40260,,-0.26264,-0.48650,-0.04438,0.04605,0.27000,0.21456,5047,-5149,0.47482,-0.87669,-0.07720,0.87903,0.46814,0.09026,-0.04299,-0.11072,0.99292,1.07456,1.07554
3.865162,-0.66461,-0.58744,9.45943,,-0.26264,-0.48650,-0.04438,-0.05020,-0.22875,0.06581,5047,-5149,0.47396,-0.87701,-0.07890,0.87953,0.46721,0.09019,-0.04224,-0.11214,0.99279,1.07456,1.07654
3.878379,-0.65444,-0.57787,9.42712,,-0.26320,-0.48650,-0.04060,-0.09395,-0.13250,0.01768,5047,-5149,0.47436,-0.87712,-0.07509,0.87923,0.46778,0.09025,-0.04404,-0.10883,0.99308,1.07456,1.07603
3.901720,-0.65982,-0.57428,9.49352,,-0.25984,-0.48118,-0.03332,-0.26020,-0.00125,0.00456,5047,-5149,0.47432,-0.87789,-0.06576,0.87902,0.46817,0.09027,-0.04846,-0.10062,0.99374,1.07456,1.07597
3.914709,-0.64965,-0.60359,9.43251,,-0.25984,-0.48118,-0.03332,-0.13770,0.12125,0.17956,5047,-5149,0.47430,-0.87814,-0.06248,0.87894,0.46831,0.09027,-0.05001,-0.09773,0.99396,1.07456,1.07595
3.927783,-0.66461,-0.60120,9.42114,,-0.25816,-0.48622,-0.04130,-0.18145,-0.04500,0.08331,5047,-5149,0.46986,-0.87993,-0.07036,0.88152,0.46352,0.08988,-0.04648,-0.10426,0.99346,1.07456,1.08109
3.940969,-0.65204,-0.57757,9.38106,,-0.25830,-0.48748,-0.04382,0.03293,-0.22875,-0.03482,5047,-5149,0.46777,-0.88058,-0.07595,0.88276,0.46118,0.08971,-0.04397,-0.10901,0.99307,1.07456,1.08352
3.964424,-0.65444,-0.55932,9.37029,,-0.25844,-0.48874,-0.04634,-0.12020,0.02500,0.12706,5047,-5149,0.46647,-0.88085,-0.08072,0.88355,0.45969,0.08957,-0.04179,-0.11311,0.99270,1.07456,1.08504
3.977341,-0.65563,-0.58026,9.46182,,-0.25424,-0.48314,-0.03192,-0.13770,0.02500,0.11831,5047,-5149,0.46547,-0.88259,-0.06618,0.88373,0.45936,0.08954,-0.04862,-0.10016,0.99378,1.07456,1.08601
3.990484,-0.65324,-0.59641,9.43909,,-0.25424,-0.48314,-0.03192,-0.21645,-0.13250,0.17956,5047,-5149,0.46510,-0.88315,-0.06104,0.88378,0.45925,0.08953,-0.05104,-0.09559,0.99411,1.07456,1.08636
4.003832,-0.66132,-0.57398,9.40559,,-0.25984,-0.48426,-0.03556,-0.02395,-0.08438,0.15768,5047,-5149,0.46960,-0.88061,-0.06322,0.88147,0.46360,0.08986,-0.04982,-0.09792,0.99395,1.07456,1.08130
4.027064,-0.63888,-0.59103,9.47976,,-0.27132,-0.48174,-0.02758,0.18605,-0.01875,0.17081,5047,-5149,0.48333,-0.87374,-0.05446,0.87381,0.47772,0.09075,-0.05327,-0.09145,0.99438,1.07456,1.06555
4.040199,-0.64965,-0.54676,9.55753,,-0.27132,-0.48174,-0.02758,-0.32145,-0.05375,0.02206,5047,-5149,0.48786,-0.87141,-0.05136,0.87121,0.48239,0.09101,-0.05453,-0.08914,0.99452,1.07456,1.06032
4.053313,-0.66700,-0.60538,9.40439,,-0.26572,-0.48230,-0.03654,0.01105,-0.28125,0.02206,5047,-5149,0.48362,-0.87316,-0.06089,0.87384,0.47767,0.09070,-0.05011,-0.09707,0.99401,1.07456,1.06532
4.066479,-0.65683,-0.59073,9.51685,,-0.26572,-0.48286,-0.03948,-0.06770,-0.04938,0.00893,5047,-5149,0.48179,-0.87367,-0.06762,0.87503,0.47553,0.09054,-0.04695,-0.10279,0.99359,1.07456,1.06749
4.089641,-0.66939,-0.60179,9.43310,,-0.26712,-0.48342,-0.04242,0.14230,-0.16750,-0.09169,5047,-5149,0.48206,-0.87306,-0.07331,0.87502,0.47554,0.09056,-0.04420,-0.10781,0.99319,1.07456,1.06725
4.102571,-0.66760,-0.57129,9.41815,,-0.26712,-0.48286,-0.03360,-0.09395,0.04250,0.08331,5047,-5149,0.48283,-0.87329,-0.06511,0.87439,0.47668,0.09064,-0.04812,-0.10069,0.99375,1.07456,1.06628
4.115748,-0.65683,-0.57368,9.43310,,-0.26852,-0.48286,-0.03360,0.01980,-0.20250,0.05706,5047,-5149,0.48436,-0.87266,-0.06216,0.87347,0.47834,0.09077,-0.04948,-0.09826,0.99393,1.07456,1.06449
4.128854,-0.66849,-0.59282,9.40439,,-0.26726,-0.48314,-0.03584,-0.14207,-0.07125,0.14018,5047,-5149,0.48348,-0.87303,-0.06375,0.87399,0.47740,0.09071,-0.04876,-0.09957,0.99384,1.07456,1.06551
4.152136,-0.65025,-0.56351,9.43131,,-0.26600,-0.48314,-0.03584,-0.14645,0.09500,0.03081,5047,-5149,0.48201,-0.87380,-0.06437,0.87482,0.47591,0.09058,-0.04852,-0.09997,0.99381,1.07456,1.06720
4.164983,-0.65025,-0.59880,9.46720,,-0.26796,-0.48174,-0.03430,-0.11145,-0.16750,0.17956,5047,-5149,0.48412,-0.87274,-0.06280,0.87362,0.47808,0.09074,-0.04917,-0.09880,0.99389,1.07456,1.06477
4.178131,-0.66221,-0.59402,9.40140,,-0.26796,-0.48174,-0.03010,-0.01520,-0.18500,0.12706,5047,-5149,0.48497,-0.87265,-0.05737,0.87299,0.47920,0.09083,-0.05177,-0.09413,0.99421,1.07456,1.06372
4.191331,-0.64307,-0.58564,9.39841,,-0.26936,-0.48482,-0.03010,-0.21207,0.23062,-0.02607,5047,-5149,0.48495,-0.87279,-0.05524,0.87295,0.47929,0.09080,-0.05277,-0.09225,0.99434,1.07456,1.06371
4.214638,-0.68554,-0.57428,9.40379,,-0.26936,-0.49182,-0.03794,-0.02395,0.08625,0.03956,5047,-5149,0.48115,-0.87436,-0.06310,0.87526,0.47512,0.09049,-0.04915,-0.09877,0.99390,1.07456,1.06816
4.227508,-0.65085,-0.57069,9.36850,,-0.26936,-0.49182,-0.03794,0.16855,-0.08000,0.05706,5047,-5149,0.47989,-0.87485,-0.06587,0.87602,0.47372,0.09040,-0.04788,-0.10108,0.99373,1.07456,1.06964
4.240566,-0.63649,-0.60000,9.42533,,-0.27552,-0.49434,-0.03780,0.03730,-0.06250,0.28456,5047,-5149,0.48382,-0.87266,-0.06627,0.87388,0.47761,0.09069,-0.04749,-0.10179,0.99367,1.07456,1.06516
4.253834,-0.66760,-0.59821,9.44507,,-0.27552,-0.49434,-0.03780,0.06355,-0.00125,0.16206,5047,-5149,0.48512,-0.87192,-0.06642,0.87317,0.47889,0.09080,-0.04736,-0.10204,0.99365,1.07456,1.06368
4.267044,-0.66102,-0.57428,9.43759,,-0.26628,-0.48986,-0.03122,-0.05457,0.07750,-0.03919,5047,-5149,0.47961,-0.87546,-0.05956,0.87600,0.47376,0.09043,-0.05095,-0.09555,0.99412,1.07456,1.06987
4.290408,-0.65922,-0.57069,9.35055,,-0.26376,-0.48958,-0.05642,0.01105,-0.03625,0.09206,5047,-5149,0.47452,-0.87601,-0.08620,0.87941,0.46752,0.08982,-0.03839,-0.11843,0.99222,1.07456,1.07598
4.303340,-0.64666,-0.60838,9.44746,,-0.26376,-0.48958,-0.05642,-0.10270,0.02500,0.03081,5047,-5149,0.47275,-0.87600,-0.09559,0.88054,0.46543,0.08959,-0.03399,-0.12652,0.99138,1.07456,1.07807
4.316496,-0.65593,-0.57667,9.38016,,-0.27272,-0.48762,-0.03990,0.13793,0.01625,0.07456,5047,-5149,0.48224,-0.87240,-0.07972,0.87507,0.47545,0.09052,-0.04106,-0.11341,0.99270,1.07456,1.06712
4.339564,-0.65145,-0.57428,9.41336,,-0.26936,-0.49014,-0.04284,-0.09395,0.00750,0.18831,5047,-5149,0.48090,-0.87335,-0.07744,0.87576,0.47421,0.09040,-0.04223,-0.11129,0.99289,1.07456,1.06862
4.352758,-0.66640,-0.56530,9.39243,,-0.26936,-0.49014,-0.04284,-0.28645,-0.12375,-0.00419,5047,-5149,0.48044,-0.87367,-0.07662,0.87599,0.47379,0.09036,-0.04265,-0.11053,0.99296,1.07456,1.06914
4.365841,-0.67358,-0.60120,9.38764,,-0.25788,-0.48706,-0.04186,0.15980,-0.22000,0.01331,5047,-5149,0.47121,-0.87874,-0.07597,0.88095,0.46465,0.08960,-0.04344,-0.10915,0.99308,1.07456,1.07963
4.379236,-0.67178,-0.59521,9.39602,,-0.25788,-0.48706,-0.04186,-0.24270,-0.00125,0.06581,5047,-5149,0.46813,-0.88041,-0.07571,0.88258,0.46160,0.08934,-0.04371,-0.10864,0.99312,1.07456,1.08312
4.392602,-0.67956,-0.58534,9.42353,,-0.26460,-0.49182,-0.04872,-0.11582,0.09500,0.11393,5047,-5149,0.47071,-0.87839,-0.08281,0.88137,0.46386,0.08954,-0.04024,-0.11514,0.99253,1.07456,1.08027
4.415817,-0.64726,-0.57129,9.41755,,-0.27356,-0.49434,-0.03318,-0.25145,-0.11500,0.03956,5047,-5149,0.47920,-0.87514,-0.06705,0.87643,0.47300,0.09024,-0.04726,-0.10200,0.99366,1.07456,1.07044
4.428734,-0.68853,-0.57129,9.47498,,-0.27356,-0.49434,-0.03318,-0.11145,-0.04500,0.06581,5047,-5149,0.48199,-0.87402,-0.06150,0.87476,0.47603,0.09046,-0.04979,-0.09740,0.99400,1.07456,1.06719
4.441899,-0.67298,-0.58505,9.43191,,-0.26012,-0.49574,-0.03402,0.16855,-0.06250,0.09206,5047,-5149,0.46988,-0.88063,-0.06092,0.88128,0.46402,0.08964,-0.05067,-0.09581,0.99411,1.07456,1.08096
4.455089,-0.68136,-0.58355,9.44866,,-0.26278,-0.49266,-0.03472,0.12918,-0.07125,0.13143,5047,-5149,0.46978,-0.88063,-0.06159,0.88134,0.46389,0.08966,-0.05038,-0.09640,0.99407,1.07456,1.08107
4.478424,-0.65922,-0.58624,9.44627,,-0.26544,-0.48958,-0.03542,-0.00645,-0.02750,0.17081,5047,-5149,0.47372,-0.87844,-0.06271,0.87928,0.46774,0.08993,-0.04967,-0.09774,0.99397,1.07456,1.07663
4.491349,-0.65504,-0.57308,9.36970,,-0.26964,-0.49910,-0.04550,-0.30395,-0.07125,0.08331,5047,-5149,0.47377,-0.87756,-0.07373,0.87953,0.46728,0.08989,-0.04443,-0.10743,0.99322,1.07456,1.07669
4.504537,-0.51147,-0.56949,9.36670,,-0.26964,-0.49910,-0.04550,0.15980,0.15625,0.13581,5047,-5149,0.47379,-0.87721,-0.07767,0.87961,0.46713,0.08984,-0.04253,-0.11089,0.99292,1.07456,1.07672
4.517639,-0.67448,-0.58804,9.45614,,-0.26348,-0.48482,-0.03318,-0.12457,-0.13688,0.02206,5047,-5149,0.47572,-0.87710,-0.06614,0.87829,0.46958,0.09004,-0.04792,-0.10093,0.99374,1.07456,1.07439
4.541137,-0.64367,-0.57667,9.41935,,-0.26264,-0.48594,-0.04564,0.14230,-0.12375,0.15331,5047,-5149,0.47449,-0.87693,-0.07652,0.87921,0.46788,0.08990,-0.04304,-0.10993,0.99301,1.07456,1.07592
4.554141,-0.66580,-0.57787,9.41157,,-0.26264,-0.48594,-0.04564,-0.02395,0.10375,0.08331,5047,-5149,0.47407,-0.87683,-0.08017,0.87952,0.46730,0.08984,-0.04131,-0.11310,0.99272,1.07456,1.07643
4.567245,-0.69093,-0.57787,9.36192,,-0.26628,-0.48538,-0.04732,0.07230,0.01625,0.18831,5047,-5149,0.47751,-0.87467,-0.08326,0.87773,0.47060,0.09017,-0.03968,-0.11614,0.99244,1.07456,1.07254
4.580409,-0.64756,-0.59372,9.39751,,-0.26614,-0.48566,-0.04424,0.03730,0.14312,0.05268,5047,-5149,0.47854,-0.87434,-0.08081,0.87712,0.47172,0.09025,-0.04079,-0.11407,0.99264,1.07456,1.07135
4.603767,-0.67717,-0.57607,9.34038,,-0.26600,-0.48594,-0.04116,0.22980,-0.26375,-0.04794,5047,-5149,0.47874,-0.87463,-0.07636,0.87690,0.47210,0.09032,-0.04294,-0.11020,0.99298,1.07456,1.07107
4.616663,-0.65264,-0.59163,9.39961,,-0.25900,-0.48706,-0.03472,0.11605,-0.09750,0.18831,5047,-5149,0.47201,-0.87900,-0.06754,0.88031,0.46581,0.08984,-0.04751,-0.10186,0.99366,1.07456,1.07862
4.629705,-0.65982,-0.55992,9.36192,,-0.25900,-0.48706,-0.03472,0.06355,0.01625,0.05706,5047,-5149,0.46973,-0.88046,-0.06441,0.88144,0.46369,0.08969,-0.04910,-0.09890,0.99388,1.07456,1.08117
4.642931,-0.66461,-0.58056,9.42623,,-0.26880,-0.48734,-0.03892,0.05918,-0.01000,-0.00419,5047,-5149,0.47777,-0.87587,-0.06775,0.87722,0.47152,0.09031,-0.04715,-0.10258,0.99361,1.07456,1.07207
4.666199,-0.68435,-0.59880,9.44148,,-0.23296,-0.49070,-0.05110,0.11605,0.12125,0.20581,5047,-5149,0.44414,-0.89196,-0.08451,0.89503,0.43741,0.08711,-0.04073,-0.11433,0.99261,1.07456,1.11017
4.679045,-0.63410,-0.57607,9.44567,,-0.26572,-0.49070,-0.05110,-0.08520,-0.13250,0.11831,5047,-5149,0.46423,-0.88127,-0.08864,0.88490,0.45718,0.08911,-0.03801,-0.11980,0.99207,1.07456,1.08766
4.692264,-0.65085,-0.58265,9.45524,,-0.26208,-0.49154,-0.03682,0.22105,0.14750,-0.03044,5047,-5149,0.46776,-0.88076,-0.07388,0.88273,0.46129,0.08946,-0.04471,-0.10706,0.99325,1.07456,1.08352
4.705693,-0.64158,-0.58923,9.42174,,-0.26208,-0.49154,-0.04403,-0.06770,-0.04938,0.07456,5047,-5149,0.46860,-0.88005,-0.07694,0.88235,0.46200,0.08952,-0.04323,-0.10983,0.99301,1.07456,1.08259
4.729059,-0.68435,-0.56710,9.40499,,-0.26124,-0.49182,-0.05124,-0.07645,-0.00125,-0.03044,5047,-5149,0.46761,-0.87971,-0.08630,0.88308,0.46063,0.08938,-0.03888,-0.11801,0.99225,1.07456,1.08381
4.742382,-0.65384,-0.59581,9.42413,,-0.26124,-0.49154,-0.03892,0.14230,0.00750,0.18831,5047,-5149,0.46802,-0.88049,-0.07550,0.88263,0.46148,0.08946,-0.04393,-0.10851,0.99312,1.07456,1.08324
4.755509,-0.65743,-0.58325,9.41576,,-0.26376,-0.49154,-0.03892,-0.13770,0.21750,0.07456,5047,-5149,0.47047,-0.87951,-0.07158,0.88124,0.46409,0.08966,-0.04563,-0.10526,0.99340,1.07456,1.08042
4.768700,-0.65773,-0.59551,9.43340,,-0.26404,-0.48594,-0.03738,0.02855,0.11687,0.09206,5047,-5149,0.47440,-0.87762,-0.06881,0.87907,0.46813,0.08996,-0.04674,-0.10316,0.99357,1.07456,1.07593
4.792011,-0.65025,-0.58265,9.39303,,-0.26432,-0.48594,-0.03738,0.06355,-0.15875,0.23206,5047,-5149,0.47597,-0.87684,-0.06781,0.87820,0.46974,0.09010,-0.04715,-0.10244,0.99362,1.07456,1.07413
4.804816,-0.64965,-0.60299,9.43669,,-0.26376,-0.48790,-0.04158,-0.09395,-0.09750,0.08331,5047,-5149,0.47481,-0.87712,-0.07220,0.87893,0.46838,0.08999,-0.04512,-0.10619,0.99332,1.07456,1.07550
4.817839,-0.66042,-0.56291,9.39781,,-0.26376,-0.48790,-0.04074,0.24730,-0.06250,0.05706,5047,-5149,0.47446,-0.87726,-0.07279,0.87914,0.46800,0.08997,-0.04486,-0.10668,0.99328,1.07456,1.07591
4.831067,-0.65533,-0.58235,9.39572,,-0.26964,-0.49070,-0.04074,-0.07645,-0.01000,0.09643,5047,-5149,0.47837,-0.87516,-0.07252,0.87702,0.47190,0.09029,-0.04480,-0.10680,0.99327,1.07456,1.07145
4.854439,-0.66820,-0.59282,9.35055,,-0.26320,-0.48230,-0.04102,-0.05020,0.07750,-0.01294,5047,-5149,0.47792,-0.87531,-0.07367,0.87729,0.47140,0.09025,-0.04427,-0.10776,0.99319,1.07456,1.07198
4.867391,-0.65085,-0.59402,9.41875,,-0.26320,-0.48230,-0.04102,-0.03270,-0.16750,0.12706,5047,-5149,0.47778,-0.87535,-0.07406,0.87737,0.47124,0.09024,-0.04409,-0.10810,0.99316,1.07456,1.07214
4.880499,-0.68435,-0.57787,9.45584,,-0.27244,-0.48678,-0.03276,0.07230,-0.01000,0.13581,5047,-5149,0.48433,-0.87254,-0.06398,0.87354,0.47822,0.09076,-0.04860,-0.09985,0.99382,1.07456,1.06455
4.893795,-0.58863,-0.58116,9.40349,,-0.26782,-0.48524,-0.03969,-0.08957,-0.04500,0.10956,5047,-5149,0.48277,-0.87305,-0.06870,0.87452,0.47645,0.09061,-0.04638,-0.10382,0.99351,1.07456,1.06639
4.917157,-0.65444,-0.58923,9.41456,,-0.26320,-0.48370,-0.04662,0.03730,-0.06250,-0.08294,5047,-5149,0.47842,-0.87459,-0.07872,0.87714,0.47170,0.09019,-0.04174,-0.11220,0.99281,1.07456,1.07146
4.930141,-0.65204,-0.57488,9.46182,,-0.26404,-0.49322,-0.03738,-0.00645,0.03375,0.11831,5047,-5149,0.47344,-0.87797,-0.07085,0.87963,0.46709,0.08981,-0.04576,-0.10484,0.99344,1.07456,1.07704
4.943319,-0.64427,-0.57667,9.34995,,-0.26404,-0.49322,-0.03738,-0.08520,-0.05375,0.11831,5047,-5149,0.47177,-0.87909,-0.06805,0.88046,0.46556,0.08969,-0.04717,-0.10223,0.99364,1.07456,1.07891
4.956521,-0.65773,-0.56261,9.44686,,-0.26320,-0.48566,-0.04326,0.11605,-0.05375,0.15331,5047,-5149,0.47394,-0.87740,-0.07442,0.87945,0.46743,0.08986,-0.04406,-0.10804,0.99317,1.07456,1.07651
4.979658,-0.65145,-0.56291,9.41336,,-0.26460,-0.48958,-0.04676,0.14230,-0.21125,0.31956,5047,-5149,0.47386,-0.87693,-0.08032,0.87963,0.46709,0.08985,-0.04127,-0.11323,0.99271,1.07456,1.07667
4.992624,-0.63769,-0.57607,9.44686,,-0.26460,-0.48958,-0.04676,0.06355,-0.10625,0.16206,5047,-5149,0.47382,-0.87676,-0.08240,0.87970,0.46697,0.08984,-0.04029,-0.11506,0.99254,1.07456,1.07673
5.005828,-0.63829,-0.57787,9.38166,,-0.27048,-0.49042,-0.04298,0.05480,-0.22875,0.03081,5047,-5149,0.47897,-0.87432,-0.07846,0.87683,0.47224,0.09033,-0.04192,-0.11206,0.99282,1.07456,1.07084
5.019026,-0.64546,-0.59163,9.39931,,-0.26852,-0.48888,-0.04305,-0.02832,-0.11063,0.15331,5047,-5149,0.47967,-0.87403,-0.07736,0.87643,0.47298,0.09041,-0.04243,-0.11117,0.99290,1.07456,1.07003
5.042296,-0.66401,-0.60299,9.41994,,-0.26656,-0.48734,-0.04312,-0.19020,0.06875,0.09206,5047,-5149,0.47885,-0.87449,-0.07727,0.87687,0.47217,0.09033,-0.04251,-0.11101,0.99291,1.07456,1.07096
5.055178,-0.66042,-0.58325,9.39003,,-0.27440,-0.49014,-0.04256,-0.00645,0.21750,-0.03919,5047,-5149,0.48435,-0.87157,-0.07604,0.87383,0.47768,0.09080,-0.04281,-0.11042,0.99296,1.07456,1.06467
5.068261,-0.67418,-0.59043,9.37687,,-0.27440,-0.49014,-0.04256,-0.13770,-0.15875,0.00456,5047,-5149,0.48618,-0.87058,-0.07559,0.87280,0.47952,0.09096,-0.04294,-0.11020,0.99298,1.07456,1.06257
5.081420,-0.64965,-0.58624,9.43819,,-0.26488,-0.48678,-0.03696,-0.05020,-0.08438,-0.10044,5047,-5149,0.48000,-0.87450,-0.06966,0.87605,0.47365,0.09050,-0.04615,-0.10447,0.99346,1.07456,1.06955
5.104804,-0.66879,-0.59103,9.39901,,-0.26544,-0.49182,-0.03934,0.07230,0.06000,-0.11794,5047,-5149,0.47584,-0.87674,-0.06994,0.87831,0.46950,0.09018,-0.04622,-0.10434,0.99347,1.07456,1.07429
5.117679,-0.65803,-0.59163,9.46182,,-0.26544,-0.49182,-0.03934,-0.00645,0.12125,0.24081,5047,-5149,0.47448,-0.87748,-0.07003,0.87905,0.46814,0.09006,-0.04624,-0.10429,0.99347,1.07456,1.07585
5.130848,-0.66520,-0.56710,9.41875,,-0.26908,-0.49518,-0.04550,0.11605,-0.02750,0.05706,5047,-5149,0.47543,-0.87641,-0.07667,0.87870,0.46879,0.09012,-0.04304,-0.11022,0.99298,1.07456,1.07484
5.144106,-0.65892,-0.59791,9.41905,,-0.27104,-0.49392,-0.03899,-0.04145,0.13437,0.08768,5047,-5149,0.47845,-0.87519,-0.07163,0.87695,0.47201,0.09037,-0.04528,-0.10606,0.99333,1.07456,1.07135
5.167393,-0.50788,-0.58804,9.41636,,-0.27300,-0.49266,-0.03248,0.12480,-0.22875,0.09206,5047,-5149,0.48210,-0.87388,-0.06246,0.87472,0.47608,0.09065,-0.04948,-0.09834,0.99392,1.07456,1.06707
5.180283,-0.66760,-0.57248,9.41875,,-0.26992,-0.49490,-0.04690,0.17730,0.01625,0.04831,5047,-5149,0.47882,-0.87465,-0.07559,0.87685,0.47221,0.09032,-0.04330,-0.10953,0.99304,1.07456,1.07098
5.193489,-0.65324,-0.58385,9.36311,,-0.26992,-0.49490,-0.04690,0.04605,-0.24625,0.07456,5047,-5149,0.47772,-0.87484,-0.08020,0.87755,0.47092,0.09022,-0.04116,-0.11348,0.99269,1.07456,1.07228
5.206805,-0.66102,-0.59103,9.38166,,-0.26600,-0.48538,-0.04746,0.14230,-0.06250,0.01331,5047,-5149,0.47845,-0.87414,-0.08346,0.87722,0.47152,0.09029,-0.03957,-0.11642,0.99241,1.07456,1.07148
5.219952,-0.66520,-0.57817,9.43580,,-0.26572,-0.49000,-0.04543,0.01980,0.05125,0.03956,5047,-5149,0.47624,-0.87549,-0.08191,0.87839,0.46938,0.09009,-0.04042,-0.11485,0.99256,1.07456,1.07398
5.243387,-0.65204,-0.56590,9.42294,,-0.26544,-0.49462,-0.04340,0.09855,0.13000,0.17081,5047,-5149,0.47306,-0.87751,-0.07869,0.88002,0.46637,0.08981,-0.04211,-0.11174,0.99285,1.07456,1.07755
5.256308,-0.66102,-0.57248,9.44148,,-0.26432,-0.48622,-0.04662,-0.01520,0.12125,0.10956,5047,-5149,0.47497,-0.87618,-0.08196,0.87907,0.46812,0.08996,-0.04046,-0.11478,0.99257,1.07456,1.07542
5.269403,-0.66281,-0.58804,9.38046,,-0.26432,-0.48622,-0.04662,0.01105,0.06000,0.03956,5047,-5149,0.47560,-0.87572,-0.08312,0.87876,0.46871,0.09002,-0.03987,-0.11585,0.99247,1.07456,1.07472
5.282637,-0.64816,-0.59581,9.44088,,-0.28084,-0.48482,-0.03822,0.02418,0.08625,0.05706,5047,-5149,0.49198,-0.86752,-0.07324,0.86950,0.48539,0.09142,-0.04376,-0.10867,0.99311,1.07456,1.05589
5.305867,-0.64845,-0.60179,9.42533,,-0.28084,-0.49546,-0.03752,-0.06770,-0.15875,0.24081,5047,-5149,0.49205,-0.86788,-0.06829,0.86934,0.48568,0.09145,-0.04620,-0.10436,0.99347,1.07456,1.05575
5.318828,-0.65563,-0.58445,9.39961,,-0.26908,-0.49546,-0.03752,0.08105,-0.22875,0.07456,5047,-5149,0.48151,-0.87388,-0.06701,0.87516,0.47526,0.09068,-0.04739,-0.10230,0.99362,1.07456,1.06781
5.331995,-0.66042,-0.58385,9.42952,,-0.26600,-0.48426,-0.04298,-0.09395,-0.12375,-0.01294,5047,-5149,0.48049,-0.87390,-0.07371,0.87589,0.47394,0.09057,-0.04421,-0.10808,0.99316,1.07456,1.06905
5.345155,-0.66790,-0.59372,9.39332,,-0.26600,-0.48426,-0.04319,-0.06770,-0.08875,-0.00419,5047,-5149,0.48014,-0.87386,-0.07632,0.87614,0.47348,0.09054,-0.04298,-0.11034,0.99296,1.07456,1.06947
5.368529,-0.66162,-0.56231,9.44985,,-0.26488,-0.47894,-0.04340,-0.02395,-0.03625,0.17081,5047,-5149,0.48169,-0.87287,-0.07796,0.87533,0.47495,0.09067,-0.04212,-0.11191,0.99282,1.07456,1.06773
5.381739,-0.66999,-0.57248,9.44447,,-0.26488,-0.51478,-0.05264,0.11605,0.28750,0.15331,5047,-5149,0.46439,-0.88144,-0.08605,0.88477,0.45745,0.08896,-0.03905,-0.11744,0.99231,1.07456,1.08746
5.394922,-0.65563,-0.58923,9.39901,,-0.27048,-0.48286,-0.05264,0.03730,-0.05375,0.16206,5047,-5149,0.47917,-0.87294,-0.09145,0.87699,0.47191,0.09048,-0.03583,-0.12356,0.99169,1.07456,1.07073
5.408186,-0.66670,-0.59791,9.46062,,-0.27006,-0.48664,-0.04158,-0.14207,0.02937,0.04393,5047,-5149,0.48235,-0.87229,-0.08036,0.87502,0.47549,0.09080,-0.04100,-0.11411,0.99262,1.07456,1.06700
5.431485,-0.63410,-0.57547,9.51207,,-0.26964,-0.49042,-0.04158,-0.13770,-0.08000,-0.03044,5047,-5149,0.48110,-0.87335,-0.07619,0.87561,0.47443,0.09070,-0.04307,-0.11035,0.99296,1.07456,1.06838
5.444433,-0.66999,-0.55394,9.39482,,-0.27440,-0.48930,-0.04004,-0.02395,0.06875,0.03956,5047,-5149,0.48563,-0.87112,-0.07283,0.87303,0.47908,0.09109,-0.04445,-0.10782,0.99318,1.07456,1.06316
5.457588,-0.65862,-0.57069,9.42712,,-0.27440,-0.48930,-0.03304,0.11605,0.00750,0.03081,5047,-5149,0.48743,-0.87084,-0.06367,0.87180,0.48129,0.09125,-0.04882,-0.09999,0.99379,1.07456,1.06099
5.470830,-0.65862,-0.58804,9.42862,,-0.27440,-0.49042,-0.03304,-0.02832,-0.08438,0.04831,5047,-5149,0.48745,-0.87106,-0.06036,0.87170,0.48147,0.09127,-0.05044,-0.09711,0.99400,1.07456,1.06092
5.494097,-0.65803,-0.61615,9.38644,,-0.26796,-0.48902,-0.03738,0.02855,0.10375,0.03956,5047,-5149,0.48212,-0.87372,-0.06452,0.87475,0.47598,0.09086,-0.04868,-0.10025,0.99377,1.07456,1.06707
5.507000,-0.66281,-0.57607,9.44088,,-0.26796,-0.48902,-0.03738,-0.24270,0.15625,0.13581,5047,-5149,0.48035,-0.87459,-0.06595,0.87576,0.47415,0.09070,-0.04806,-0.10133,0.99369,1.07456,1.06911
5.520118,-0.64187,-0.58624,9.43789,,-0.26712,-0.48678,-0.04396,-0.33895,-0.20250,0.16206,5047,-5149,0.47984,-0.87421,-0.07421,0.87625,0.47326,0.09063,-0.04411,-0.10851,0.99312,1.07456,1.06979
5.533354,-0.65294,-0.60269,9.39123,,-0.26656,-0.48650,-0.04081,-0.02395,0.01187,-0.06544,5047,-5149,0.47941,-0.87450,-0.07356,0.87646,0.47287,0.09059,-0.04444,-0.10791,0.99317,1.07456,1.07027
5.556687,-0.66102,-0.56530,9.38644,,-0.26600,-0.48622,-0.03766,0.05480,-0.04500,-0.12669,5047,-5149,0.47903,-0.87502,-0.06974,0.87658,0.47266,0.09058,-0.04630,-0.10452,0.99344,1.07456,1.07066
5.569580,-0.67478,-0.56710,9.39422,,-0.27244,-0.48314,-0.05348,0.02855,0.15625,0.13581,5047,-5149,0.48565,-0.86986,-0.08655,0.87333,0.47852,0.09116,-0.03788,-0.11986,0.99207,1.07456,1.06329
5.582832,-0.65803,-0.59282,9.37149,,-0.27244,-0.48314,-0.05348,0.14230,0.04250,0.08331,5047,-5149,0.48783,-0.86803,-0.09251,0.87224,0.48046,0.09137,-0.03486,-0.12526,0.99151,1.07456,1.06086
5.596020,-0.66431,-0.57159,9.39871,,-0.27468,-0.48958,-0.04858,0.08543,0.09500,0.18831,5047,-5149,0.48762,-0.86858,-0.08832,0.87228,0.48041,0.09135,-0.03692,-0.12158,0.99189,1.07456,1.06106
5.619282,-0.65623,-0.59163,9.36491,,-0.27132,-0.48846,-0.04382,-0.06770,0.16500,0.14456,5047,-5149,0.48529,-0.87053,-0.08165,0.87343,0.47835,0.09114,-0.04028,-0.11555,0.99248,1.07456,1.06365
5.632307,-0.67418,-0.56411,9.38884,,-0.27132,-0.48846,-0.04382,-0.22520,0.02500,0.03956,5047,-5149,0.48449,-0.87120,-0.07928,0.87381,0.47766,0.09107,-0.04147,-0.11340,0.99268,1.07456,1.06454
5.645471,-0.66401,-0.57009,9.36252,,-0.26908,-0.48258,-0.04186,0.03730,-0.03625,0.21456,5047,-5149,0.48525,-0.87100,-0.07675,0.87333,0.47852,0.09115,-0.04267,-0.11126,0.99288,1.07456,1.06364
5.658780,-0.64427,-0.58654,9.45793,,-0.26894,-0.48748,-0.04375,0.15543,-0.10625,0.22768,5047,-5149,0.48282,-0.87227,-0.07768,0.87469,0.47607,0.09095,-0.04235,-0.11186,0.99282,1.07456,1.06643
5.682157,-0.65683,-0.57787,9.41875,,-0.26880,-0.49238,-0.04564,0.13355,0.27875,-0.05669,5047,-5149,0.47932,-0.87400,-0.07980,0.87666,0.47251,0.09061,-0.04149,-0.11338,0.99268,1.07456,1.07044
5.695049,-0.65264,-0.55932,9.43251,,-0.27188,-0.48678,-0.03668,-0.07645,0.04250,0.14456,5047,-5149,0.48419,-0.87212,-0.07053,0.87377,0.47774,0.09102,-0.04569,-0.10570,0.99335,1.07456,1.06478
5.708081,-0.65444,-0.60179,9.39482,,-0.27188,-0.48678,-0.03668,0.09855,-0.20250,-0.09169,5047,-5149,0.48577,-0.87149,-0.06727,0.87281,0.47947,0.09117,-0.04720,-0.10301,0.99356,1.07456,1.06293
5.721223,-0.58475,-0.58505,9.40170,,-0.26152,-0.49182,-0.04746,0.15543,0.08187,0.02206,5047,-5149,0.47381,-0.87711,-0.07862,0.87961,0.46709,0.09005,-0.04226,-0.11183,0.99283,1.07456,1.07670
5.744593,-0.67238,-0.60000,9.46541,,-0.26348,-0.48734,-0.04396,0.03730,-0.08000,0.10081,5047,-5149,0.47401,-0.87699,-0.07882,0.87951,0.46728,0.09008,-0.04217,-0.11202,0.99281,1.07456,1.07648
5.757467,-0.65683,-0.57488,9.41875,,-0.26348,-0.48734,-0.04396,0.05480,-0.17625,-0.04794,5047,-5149,0.47406,-0.87695,-0.07888,0.87948,0.46733,0.09010,-0.04215,-0.11209,0.99280,1.07456,1.07642
5.770660,-0.65803,-0.61077,9.41815,,-0.27132,-0.48370,-0.04928,-0.06770,-0.11500,0.10956,5047,-5149,0.48290,-0.87155,-0.08495,0.87482,0.47585,0.09094,-0.03884,-0.11823,0.99223,1.07456,1.06642
5.783988,-0.65384,-0.57129,9.41336,,-0.27062,-0.48636,-0.04599,-0.00645,-0.00125,0.06143,5047,-5149,0.48402,-0.87110,-0.08314,0.87416,0.47703,0.09105,-0.03966,-0.11674,0.99237,1.07456,1.06512
5.807240,-0.65563,-0.56710,9.40319,,-0.26992,-0.48902,-0.04270,0.03730,0.06875,-0.02169,5047,-5149,0.48256,-0.87233,-0.07856,0.87486,0.47577,0.09093,-0.04195,-0.11261,0.99275,1.07456,1.06673
5.820205,-0.65204,-0.57069,9.42533,,-0.26656,-0.48846,-0.04494,-0.27770,-0.14125,0.12706,5047,-5149,0.47917,-0.87410,-0.07968,0.87673,0.47236,0.09062,-0.04157,-0.11328,0.99269,1.07456,1.07061
5.833342,-0.65922,-0.58146,9.56471,,-0.26656,-0.48846,-0.04494,0.02855,-0.00125,0.05706,5047,-5149,0.47804,-0.87468,-0.08010,0.87736,0.47122,0.09051,-0.04142,-0.11354,0.99267,1.07456,1.07191
5.846560,-0.67508,-0.60090,9.41067,,-0.26460,-0.48762,-0.04172,-0.01520,-0.06250,0.11831,5047,-5149,0.47643,-0.87586,-0.07668,0.87815,0.46976,0.09039,-0.04315,-0.11041,0.99295,1.07456,1.07370
5.869839,-0.66999,-0.58804,9.42652,,-0.26964,-0.48230,-0.03612,-0.22520,0.00750,0.11831,5047,-5149,0.48347,-0.87263,-0.06915,0.87413,0.47709,0.09097,-0.04639,-0.10442,0.99345,1.07456,1.06559
5.882844,-0.64487,-0.55813,9.39602,,-0.26964,-0.48230,-0.03612,0.08105,-0.05375,0.05706,5047,-5149,0.48579,-0.87154,-0.06651,0.87278,0.47953,0.09116,-0.04755,-0.10234,0.99361,1.07456,1.06290
5.895911,-0.63290,-0.57308,9.45643,,-0.27048,-0.48566,-0.04802,-0.13770,-0.04500,0.08331,5047,-5149,0.48511,-0.87088,-0.07903,0.87347,0.47829,0.09104,-0.04148,-0.11319,0.99271,1.07456,1.06383
5.909076,-0.66909,-0.58505,9.41606,,-0.27048,-0.48566,-0.04179,-0.05457,-0.04063,0.08768,5047,-5149,0.48517,-0.87108,-0.07628,0.87337,0.47847,0.09105,-0.04282,-0.11080,0.99292,1.07456,1.06372
5.932301,-0.67238,-0.57248,9.42114,,-0.26152,-0.48734,-0.03556,0.20355,-0.33375,0.20581,5047,-5149,0.47635,-0.87659,-0.06838,0.87799,0.47006,0.09043,-0.04713,-0.10311,0.99355,1.07456,1.07369
5.945215,-0.65803,-0.60419,9.42473,,-0.26152,-0.49070,-0.04046,0.01980,-0.04500,0.12706,5047,-5149,0.47151,-0.87900,-0.07101,0.88065,0.46513,0.09004,-0.04611,-0.10499,0.99340,1.07456,1.07922
5.958356,-0.64905,-0.58684,9.41755,,-0.26544,-0.49070,-0.04046,0.01980,0.12125,0.06581,5047,-5149,0.47353,-0.87785,-0.07177,0.87959,0.46710,0.09019,-0.04565,-0.10583,0.99334,1.07456,1.07694
5.971615,-0.64786,-0.58205,9.39183,,-0.26432,-0.48986,-0.03024,-0.01082,-0.19375,0.09643,5047,-5149,0.47400,-0.87846,-0.06035,0.87904,0.46811,0.09028,-0.05106,-0.09584,0.99409,1.07456,1.07627
5.994789,-0.65085,-0.59222,9.43370,,-0.26320,-0.48902,-0.03024,0.00230,-0.12375,0.06581,5047,-5149,0.47350,-0.87899,-0.05641,0.87920,0.46782,0.09027,-0.05295,-0.09234,0.99432,1.07456,1.07678
6.007669,-0.66879,-0.58325,9.40200,,-0.26712,-0.49210,-0.05012,0.29105,0.02500,0.07456,5047,-5149,0.47464,-0.87676,-0.07749,0.87914,0.46794,0.09029,-0.04290,-0.11098,0.99290,1.07456,1.07575
6.020743,-0.64068,-0.58086,9.40738,,-0.26712,-0.49210,-0.03780,0.17730,0.06000,0.11831,5047,-5149,0.47555,-0.87683,-0.07085,0.87848,0.46914,0.09039,-0.04601,-0.10522,0.99338,1.07456,1.07463
6.034058,-0.65414,-0.57727,9.42114,,-0.26432,-0.48454,-0.03780,-0.01520,-0.09313,0.12706,5047,-5149,0.47704,-0.87616,-0.06911,0.87763,0.47071,0.09052,-0.04678,-0.10383,0.99349,1.07456,1.07291
6.057598,-0.65324,-0.57727,9.42353,,-0.26768,-0.49238,-0.03584,0.02855,-0.05375,0.15331,5047,-5149,0.47680,-0.87656,-0.06560,0.87768,0.47063,0.09051,-0.04847,-0.10073,0.99373,1.07456,1.07315
6.070536,-0.67717,-0.56291,9.41994,,-0.26768,-0.49238,-0.03584,-0.19020,-0.29000,0.03081,5047,-5149,0.47670,-0.87671,-0.06433,0.87769,0.47059,0.09052,-0.04909,-0.09962,0.99381,1.07456,1.07324
6.083734,-0.67238,-0.57428,9.36132,,-0.26152,-0.48790,-0.05138,-0.09395,-0.06250,0.08331,5047,-5149,0.47253,-0.87746,-0.08238,0.88038,0.46564,0.09007,-0.04067,-0.11508,0.99252,1.07456,1.07820
6.096879,-0.64187,-0.57188,9.49592,,-0.26152,-0.48790,-0.05138,0.08105,-0.09750,0.24081,5047,-5149,0.47112,-0.87759,-0.08874,0.88126,0.46400,0.08990,-0.03772,-0.12056,0.99199,1.07456,1.07986
6.110293,-0.66251,-0.59641,9.40290,,-0.26712,-0.48622,-0.04060,0.05043,0.12125,0.10518,5047,-5149,0.47722,-0.87527,-0.07844,0.87776,0.47047,0.09047,-0.04229,-0.11203,0.99280,1.07456,1.07282
6.133710,-0.64427,-0.56889,9.41336,,-0.27104,-0.48678,-0.03570,-0.03270,-0.17625,0.17081,5047,-5149,0.48276,-0.87303,-0.06895,0.87451,0.47640,0.09095,-0.04656,-0.10420,0.99347,1.07456,1.06639
6.146698,-0.66939,-0.61436,9.34637,,-0.27104,-0.48678,-0.03570,-0.20770,-0.21125,0.03081,5047,-5149,0.48458,-0.87228,-0.06560,0.87342,0.47836,0.09111,-0.04809,-0.10145,0.99368,1.07456,1.06427
6.159780,-0.67298,-0.57188,9.44866,,-0.26516,-0.48034,-0.05166,0.08980,-0.20250,-0.04794,5047,-5149,0.48231,-0.87200,-0.08367,0.87511,0.47532,0.09084,-0.03944,-0.11703,0.99234,1.07456,1.06708
6.173081,-0.65175,-0.58744,9.44447,,-0.26474,-0.48510,-0.04774,0.12480,-0.04063,-0.03044,5047,-5149,0.47894,-0.87371,-0.08511,0.87698,0.47192,0.09052,-0.03892,-0.11800,0.99225,1.07456,1.07093
6.196339,-0.66760,-0.61256,9.42294,,-0.26432,-0.48986,-0.04382,-0.05020,-0.06250,0.08331,5047,-5149,0.47526,-0.87614,-0.08072,0.87888,0.46844,0.09020,-0.04122,-0.11381,0.99265,1.07456,1.07508
6.209201,-0.65204,-0.59342,9.42353,,-0.26292,-0.48258,-0.04606,0.11605,0.27000,-0.15294,5047,-5149,0.47624,-0.87545,-0.08242,0.87839,0.46934,0.09028,-0.04035,-0.11539,0.99250,1.07456,1.07399
6.222403,-0.65862,-0.57846,9.51566,,-0.26292,-0.48258,-0.04606,-0.19895,-0.16750,-0.03919,5047,-5149,0.47657,-0.87521,-0.08299,0.87822,0.46965,0.09031,-0.04006,-0.11592,0.99245,1.07456,1.07361
6.235606,-0.66251,-0.60359,9.44417,,-0.27412,-0.48622,-0.04214,0.00668,-0.08000,0.07456,5047,-5149,0.48536,-0.87084,-0.07787,0.87330,0.47858,0.09112,-0.04209,-0.11223,0.99279,1.07456,1.06353
6.259191,-0.64427,-0.59940,9.40559,,-0.26656,-0.48902,-0.04970,0.02855,-0.26375,0.12706,5047,-5149,0.47960,-0.87337,-0.08488,0.87662,0.47259,0.09056,-0.03898,-0.11784,0.99227,1.07456,1.07018
6.272146,-0.64666,-0.57607,9.39841,,-0.26656,-0.48902,-0.04970,-0.05895,-0.01000,-0.01294,5047,-5149,0.47767,-0.87419,-0.08734,0.87772,0.47057,0.09035,-0.03789,-0.11981,0.99207,1.07456,1.07241
6.285251,-0.66461,-0.57667,9.43370,,-0.26432,-0.47782,-0.04424,-0.02395,0.01625,0.02206,5047,-5149,0.48088,-0.87286,-0.08294,0.87588,0.47393,0.09067,-0.03983,-0.11625,0.99242,1.07456,1.06871
6.298485,-0.65444,-0.57757,9.41755,,-0.26810,-0.48342,-0.03829,0.03293,0.04687,0.00456,5047,-5149,0.48287,-0.87257,-0.07389,0.87458,0.47629,0.09087,-0.04409,-0.10850,0.99312,1.07456,1.06633
6.321752,-0.66700,-0.61615,9.38884,,-0.27188,-0.48902,-0.03234,0.11605,-0.00125,0.11831,5047,-5149,0.48440,-0.87255,-0.06335,0.87347,0.47830,0.09102,-0.04912,-0.09942,0.99383,1.07456,1.06445
6.334699,-0.69212,-0.58385,9.47318,,-0.27188,-0.48090,-0.02604,-0.01520,0.13875,0.05706,5047,-5149,0.48923,-0.87056,-0.05275,0.87048,0.48366,0.09134,-0.05400,-0.09061,0.99442,1.07456,1.05876
6.347843,-0.66461,-0.57906,9.41037,,-0.27188,-0.48090,-0.02604,0.15105,0.12125,-0.02169,5047,-5149,0.49082,-0.86988,-0.04904,0.86948,0.48543,0.09144,-0.05573,-0.08752,0.99460,1.07456,1.05689
6.361021,-0.65713,-0.58564,9.45404,,-0.27356,-0.49154,-0.03906,0.08980,-0.02750,0.11831,5047,-5149,0.48704,-0.87117,-0.06206,0.87197,0.48100,0.09113,-0.04954,-0.09849,0.99390,1.07456,1.06141
6.384417,-0.48754,-0.58624,9.41636,,-0.26908,-0.48678,-0.04480,-0.12895,-0.15000,0.18831,5047,-5149,0.48384,-0.87204,-0.07375,0.87405,0.47728,0.09078,-0.04397,-0.10839,0.99314,1.07456,1.06522
6.397288,-0.66939,-0.59521,9.43729,,-0.26908,-0.48678,-0.04480,0.03730,-0.17625,0.07456,5047,-5149,0.48276,-0.87229,-0.07786,0.87474,0.47602,0.09069,-0.04204,-0.11189,0.99283,1.07456,1.06651
6.410469,-0.66281,-0.55932,9.46840,,-0.26544,-0.48818,-0.04886,-0.17270,-0.13250,0.00456,5047,-5149,0.47815,-0.87425,-0.08402,0.87740,0.47120,0.09023,-0.03929,-0.11686,0.99237,1.07456,1.07183
6.424111,-0.65713,-0.58834,9.41665,,-0.26166,-0.48720,-0.04487,0.02418,-0.04938,-0.03044,5047,-5149,0.47378,-0.87683,-0.08188,0.87971,0.46695,0.08984,-0.04054,-0.11459,0.99258,1.07456,1.07677
6.447272,-0.67119,-0.58445,9.43011,,-0.25788,-0.48622,-0.04088,-0.18145,0.13000,0.19706,5047,-5149,0.46946,-0.87961,-0.07673,0.88190,0.46287,0.08947,-0.04319,-0.10967,0.99303,1.07456,1.08162
6.460216,-0.64427,-0.59402,9.41935,,-0.26292,-0.48426,-0.03304,-0.26895,-0.09750,0.01331,5047,-5149,0.47404,-0.87805,-0.06570,0.87919,0.46793,0.08985,-0.04815,-0.10036,0.99379,1.07456,1.07630
6.473345,-0.65025,-0.57368,9.44447,,-0.26292,-0.48426,-0.03304,-0.09395,-0.05375,0.10956,5047,-5149,0.47555,-0.87751,-0.06183,0.87827,0.46962,0.08997,-0.04991,-0.09708,0.99402,1.07456,1.07453
6.486550,-0.66820,-0.58295,9.40619,,-0.26320,-0.49238,-0.04760,0.02855,0.01625,0.08331,5047,-5149,0.47168,-0.87843,-0.07668,0.88072,0.46509,0.08958,-0.04302,-0.10979,0.99302,1.07456,1.07911
6.509771,-0.67178,-0.57248,9.44926,,-0.26684,-0.48062,-0.02576,-0.03270,-0.27250,0.06581,5047,-5149,0.48056,-0.87509,-0.05727,0.87543,0.47484,0.09024,-0.05177,-0.09350,0.99427,1.07456,1.06877
6.522762,-0.65145,-0.57488,9.41456,,-0.26684,-0.48062,-0.02576,-0.25145,-0.00125,0.12706,5047,-5149,0.48346,-0.87391,-0.05042,0.87364,0.47809,0.09042,-0.05491,-0.08776,0.99463,1.07456,1.06536
6.535837,-0.66760,-0.59043,9.36072,,-0.26432,-0.48958,-0.03234,-0.21645,0.16500,0.10956,5047,-5149,0.47734,-0.87698,-0.05528,0.87713,0.47175,0.09000,-0.05285,-0.09145,0.99441,1.07456,1.07241
6.548978,-0.65833,-0.57817,9.39303,,-0.26432,-0.48958,-0.03507,-0.06770,-0.18500,0.14893,5047,-5149,0.47521,-0.87781,-0.06012,0.87841,0.46938,0.08986,-0.05066,-0.09552,0.99414,1.07456,1.07489
6.572368,-0.65803,-0.57129,9.46840,,-0.26628,-0.48762,-0.03780,0.04605,-0.09750,0.03956,5047,-5149,0.47718,-0.87640,-0.06504,0.87748,0.47109,0.08999,-0.04823,-0.10002,0.99382,1.07456,1.07272
6.585230,-0.65324,-0.60179,9.38525,,-0.26628,-0.48678,-0.03906,0.01980,0.13000,0.14456,5047,-5149,0.47821,-0.87558,-0.06830,0.87701,0.47196,0.09006,-0.04661,-0.10297,0.99359,1.07456,1.07158
6.598347,-0.66760,-0.58385,9.45584,,-0.26460,-0.48678,-0.03906,0.00230,-0.12375,0.28456,5047,-5149,0.47701,-0.87614,-0.06951,0.87769,0.47072,0.08997,-0.04610,-0.10392,0.99352,1.07456,1.07296
6.611614,-0.65653,-0.57517,9.43041,,-0.26110,-0.48916,-0.03388,-0.10707,-0.05375,0.18831,5047,-5149,0.47238,-0.87907,-0.06391,0.88003,0.46638,0.08965,-0.04900,-0.09860,0.99392,1.07456,1.07816
6.634957,-0.67119,-0.59521,9.43370,,-0.25760,-0.49154,-0.03388,0.06355,-0.21125,-0.05669,5047,-5149,0.46635,-0.88243,-0.06193,0.88317,0.46047,0.08926,-0.05025,-0.09632,0.99408,1.07456,1.08497
6.647916,-0.67837,-0.59163,9.47558,,-0.26488,-0.47978,-0.04018,0.06355,-0.09750,-0.03044,5047,-5149,0.47680,-0.87629,-0.06904,0.87778,0.47052,0.09007,-0.04644,-0.10354,0.99354,1.07456,1.07319
6.661000,-0.64905,-0.55932,9.43310,,-0.26488,-0.47978,-0.03444,0.01980,-0.00125,-0.00419,5047,-5149,0.48052,-0.87458,-0.06485,0.87566,0.47441,0.09035,-0.04826,-0.10020,0.99380,1.07456,1.06891
6.674333,-0.64008,-0.57996,9.44716,,-0.26992,-0.48566,-0.03444,0.00230,0.09500,0.01768,5047,-5149,0.48342,-0.87313,-0.06283,0.87401,0.47739,0.09055,-0.04907,-0.09869,0.99391,1.07456,1.06558
6.697718,-0.65803,-0.59342,9.44208,,-0.26796,-0.48594,-0.03892,0.09855,-0.09750,-0.03044,5047,-5149,0.48226,-0.87344,-0.06736,0.87477,0.47602,0.09046,-0.04695,-0.10255,0.99362,1.07456,1.06696
6.710676,-0.65444,-0.56351,9.40918,,-0.26796,-0.48594,-0.03892,-0.02395,-0.05375,0.05706,5047,-5149,0.48188,-0.87352,-0.06894,0.87502,0.47557,0.09042,-0.04620,-0.10390,0.99351,1.07456,1.06741
6.724181,-0.66162,-0.57846,9.43550,,-0.27468,-0.48538,-0.04270,0.13355,-0.05375,-0.03919,5047,-5149,0.48800,-0.86973,-0.07360,0.87175,0.48144,0.09093,-0.04365,-0.10854,0.99313,1.07456,1.06046
6.737280,-0.66461,-0.57787,9.41037,,-0.27468,-0.48538,-0.04270,0.08980,0.04250,-0.10044,5047,-5149,0.49004,-0.86845,-0.07526,0.87065,0.48339,0.09110,-0.04274,-0.11017,0.99299,1.07456,1.05815
6.750398,-0.66251,-0.58295,9.41456,,-0.26516,-0.49546,-0.04018,-0.01082,-0.05813,0.04831,5047,-5149,0.47715,-0.87581,-0.07265,0.87768,0.47070,0.09006,-0.04468,-0.10673,0.99328,1.07456,1.07284
6.773893,-0.65862,-0.58744,9.42593,,-0.26152,-0.48398,-0.04032,0.14230,0.04250,0.07456,5047,-5149,0.47513,-0.87689,-0.07285,0.87878,0.46868,0.08989,-0.04468,-0.10673,0.99328,1.07456,1.07515
6.786863,-0.64247,-0.57727,9.43370,,-0.26152,-0.48398,-0.04032,-0.01520,-0.02750,0.12706,5047,-5149,0.47446,-0.87725,-0.07291,0.87914,0.46801,0.08984,-0.04469,-0.10672,0.99328,1.07456,1.07591
6.799907,-0.65743,-0.56052,9.44447,,-0.26852,-0.48370,-0.04718,-0.22520,-0.25500,0.15331,5047,-5149,0.48057,-0.87325,-0.08054,0.87601,0.47375,0.09037,-0.04076,-0.11399,0.99265,1.07456,1.06904
6.813123,-0.67597,-0.57996,9.44716,,-0.26824,-0.48454,-0.05033,-0.01520,-0.04500,-0.01732,5047,-5149,0.48174,-0.87200,-0.08684,0.87550,0.47467,0.09047,-0.03767,-0.11961,0.99211,1.07456,1.06776
6.836460,-0.66341,-0.57009,9.40678,,-0.26796,-0.48538,-0.05348,0.00230,-0.15000,0.23206,5047,-5149,0.48130,-0.87165,-0.09262,0.87586,0.47402,0.09041,-0.03491,-0.12464,0.99159,1.07456,1.06832
6.849349,-0.68614,-0.60778,9.37448,,-0.26432,-0.48230,-0.04270,0.08980,-0.01000,0.13581,5047,-5149,0.47990,-0.87342,-0.08267,0.87642,0.47300,0.09033,-0.03979,-0.11581,0.99247,1.07456,1.06982
6.862561,-0.66221,-0.60718,9.47976,,-0.26432,-0.48230,-0.04270,0.10730,-0.06250,0.07456,5047,-5149,0.47941,-0.87401,-0.07916,0.87661,0.47266,0.09031,-0.04152,-0.11269,0.99276,1.07456,1.07034
6.875701,-0.64845,-0.55454,9.41217,,-0.27272,-0.48118,-0.03626,-0.01082,0.00312,-0.04794,5047,-5149,0.48784,-0.87011,-0.07015,0.87175,0.48142,0.09101,-0.04542,-0.10555,0.99338,1.07456,1.06060
6.898917,-0.67119,-0.59581,9.52523,,-0.27356,-0.48146,-0.04396,0.08105,0.04250,0.02206,5047,-5149,0.49092,-0.86790,-0.07584,0.87017,0.48423,0.09126,-0.04248,-0.11080,0.99293,1.07456,1.05714
6.911902,-0.66341,-0.60179,9.38644,,-0.27356,-0.48146,-0.04396,-0.11145,-0.00125,0.22331,5047,-5149,0.49196,-0.86713,-0.07785,0.86963,0.48518,0.09134,-0.04144,-0.11264,0.99277,1.07456,1.05597
6.924941,-0.65922,-0.61137,9.41755,,-0.26880,-0.49210,-0.04144,-0.10270,-0.16750,0.20581,5047,-5149,0.48273,-0.87254,-0.07508,0.87470,0.47613,0.09058,-0.04328,-0.10940,0.99306,1.07456,1.06651
6.938102,-0.66580,-0.58714,9.46302,,-0.26824,-0.48930,-0.03815,0.11605,-0.08000,0.12268,5047,-5149,0.48066,-0.87406,-0.07055,0.87572,0.47427,0.09044,-0.04559,-0.10526,0.99340,1.07456,1.06882
6.961380,-0.64965,-0.59521,9.40200,,-0.26768,-0.48650,-0.03486,0.10730,0.06875,0.13581,5047,-5149,0.48098,-0.87429,-0.06537,0.87541,0.47483,0.09048,-0.04807,-0.10075,0.99375,1.07456,1.06839
6.974401,-0.65324,-0.57009,9.37687,,-0.25816,-0.48034,-0.03010,0.12480,-0.08000,0.19706,5047,-5149,0.47549,-0.87776,-0.05868,0.87821,0.46970,0.09015,-0.05156,-0.09440,0.99420,1.07456,1.07456
6.987759,-0.67478,-0.58983,9.40858,,-0.25816,-0.48034,-0.03010,-0.18145,-0.07125,0.01331,5047,-5149,0.47363,-0.87893,-0.05630,0.87914,0.46798,0.09004,-0.05279,-0.09214,0.99435,1.07456,1.07664
7.000950,-0.65982,-0.58774,9.40648,,-0.26936,-0.48258,-0.03402,0.03293,-0.14125,0.04831,5047,-5149,0.48219,-0.87404,-0.05951,0.87459,0.47632,0.09063,-0.05087,-0.09575,0.99410,1.07456,1.06693
7.024315,-0.65922,-0.58086,9.44148,,-0.26880,-0.48174,-0.04214,-0.02395,-0.28125,0.24081,5047,-5149,0.48464,-0.87190,-0.07016,0.87352,0.47824,0.09080,-0.04562,-0.10530,0.99339,1.07456,1.06427
7.037243,-0.66102,-0.58385,9.41636,,-0.26880,-0.48174,-0.04214,-0.16395,-0.00125,0.20581,5047,-5149,0.48545,-0.87114,-0.07392,0.87317,0.47887,0.09085,-0.04375,-0.10865,0.99312,1.07456,1.06339
7.050263,-0.64726,-0.62393,9.44088,,-0.26936,-0.47950,-0.03766,0.03730,-0.15875,0.03081,5047,-5149,0.48757,-0.87026,-0.07020,0.87190,0.48114,0.09105,-0.04546,-0.10560,0.99337,1.07456,1.06091
7.063569,-0.66012,-0.58265,9.37807,,-0.27104,-0.48440,-0.02989,0.04168,-0.11063,0.07018,5047,-5149,0.48762,-0.87103,-0.05950,0.87158,0.48171,0.09111,-0.05070,-0.09628,0.99406,1.07456,1.06072
7.086818,-0.63649,-0.60299,9.40619,,-0.27272,-0.48930,-0.02212,-0.12895,0.07750,-0.07419,5047,-5149,0.48689,-0.87222,-0.04649,0.87160,0.48169,0.09109,-0.05706,-0.08488,0.99476,1.07456,1.06136
7.099761,-0.65623,-0.56052,9.44208,,-0.26964,-0.48426,-0.04452,-0.07645,-0.13250,0.13581,5047,-5149,0.48561,-0.87152,-0.06809,0.87293,0.47930,0.09091,-0.04659,-0.10359,0.99353,1.07456,1.06313
7.112837,-0.66341,-0.59342,9.58804,,-0.26964,-0.48426,-0.04452,-0.10270,-0.06250,-0.08294,5047,-5149,0.48514,-0.87115,-0.07572,0.87339,0.47848,0.09084,-0.04290,-0.11020,0.99298,1.07456,1.06377
7.126030,-0.67508,-0.57368,9.41277,,-0.26712,-0.47978,-0.03976,-0.05020,-0.11938,0.06143,5047,-5149,0.48517,-0.87134,-0.07333,0.87331,0.47862,0.09086,-0.04407,-0.10812,0.99316,1.07456,1.06370
7.149180,-0.67478,-0.56052,9.44686,,-0.26712,-0.48370,-0.04074,0.12480,0.05125,0.05706,5047,-5149,0.48313,-0.87247,-0.07336,0.87443,0.47660,0.09069,-0.04416,-0.10797,0.99317,1.07456,1.06603
7.162158,-0.68136,-0.58385,9.41994,,-0.26880,-0.48370,-0.04074,0.26480,-0.06250,0.08331,5047,-5149,0.48400,-0.87199,-0.07330,0.87395,0.47746,0.09078,-0.04416,-0.10800,0.99317,1.07456,1.06503
7.175312,-0.67657,-0.57248,9.45823,,-0.27160,-0.49042,-0.03752,-0.22520,0.12125,-0.07419,5047,-5149,0.48360,-0.87257,-0.06897,0.87407,0.47725,0.09075,-0.04627,-0.10418,0.99348,1.07456,1.06545
7.188555,-0.65952,-0.57368,9.39602,,-0.27160,-0.49042,-0.04172,0.08105,0.01187,0.15768,5047,-5149,0.48330,-0.87247,-0.07227,0.87431,0.47681,0.09072,-0.04469,-0.10703,0.99325,1.07456,1.06582
7.211871,-0.65204,-0.55992,9.42234,,-0.26236,-0.48790,-0.04592,-0.20770,-0.14125,-0.08294,5047,-5149,0.47575,-0.87604,-0.07884,0.87858,0.46903,0.09002,-0.04188,-0.11210,0.99281,1.07456,1.07450
7.224723,-0.65264,-0.60359,9.44507,,-0.26236,-0.48790,-0.03164,-0.02395,-0.14125,0.15331,5047,-5149,0.47386,-0.87822,-0.06466,0.87925,0.46779,0.08994,-0.04874,-0.09947,0.99385,1.07456,1.07649
7.237742,-0.64905,-0.47139,9.44806,,-0.27160,-0.48510,-0.03164,-0.10270,0.06000,0.03956,5047,-5149,0.48313,-0.87353,-0.05946,0.87408,0.47727,0.09056,-0.05073,-0.09573,0.99411,1.07456,1.06586
7.250916,-0.65414,-0.59043,9.40230,,-0.27020,-0.48496,-0.03738,0.01543,0.02937,0.14893,5047,-5149,0.48480,-0.87226,-0.06437,0.87329,0.47868,0.09067,-0.04827,-0.10016,0.99380,1.07456,1.06402
7.274233,-0.68734,-0.57906,9.38704,,-0.26880,-0.48482,-0.03738,0.04605,0.12125,0.19706,5047,-5149,0.48413,-0.87249,-0.06616,0.87371,0.47794,0.09061,-0.04743,-0.10167,0.99369,1.07456,1.06480
7.287121,-0.61914,-0.57846,9.41695,,-0.26964,-0.48566,-0.03416,0.08105,-0.17625,0.05706,5047,-5149,0.48438,-0.87259,-0.06298,0.87349,0.47834,0.09064,-0.04897,-0.09892,0.99389,1.07456,1.06448
7.300185,-0.65444,-0.55753,9.41097,,-0.26964,-0.48566,-0.03416,-0.05895,-0.03625,0.17081,5047,-5149,0.48446,-0.87262,-0.06185,0.87341,0.47848,0.09065,-0.04951,-0.09794,0.99396,1.07456,1.06437
7.313484,-0.66281,-0.58415,9.42054,,-0.26600,-0.48454,-0.03486,0.04605,-0.04938,0.07893,5047,-5149,0.48168,-0.87412,-0.06248,0.87496,0.47567,0.09046,-0.04935,-0.09824,0.99394,1.07456,1.06756
7.336939,-0.66042,-0.57488,9.45823,,-0.26936,-0.48146,-0.03066,0.20355,-0.20250,-0.04794,5047,-5149,0.48556,-0.87228,-0.05788,0.87269,0.47977,0.09075,-0.05139,-0.09457,0.99419,1.07456,1.06306
7.349858,-0.64965,-0.59940,9.44447,,-0.26936,-0.48146,-0.03066,0.08980,-0.07125,0.21456,5047,-5149,0.48686,-0.87166,-0.05626,0.87192,0.48114,0.09085,-0.05212,-0.09329,0.99427,1.07456,1.06154
7.363026,-0.66102,-0.60239,9.39721,,-0.27048,-0.48538,-0.03486,-0.01520,-0.10625,-0.04794,5047,-5149,0.48616,-0.87179,-0.06029,0.87243,0.48024,0.09079,-0.05020,-0.09674,0.99404,1.07456,1.06241
7.376264,-0.68136,-0.57278,9.39632,,-0.27020,-0.48874,-0.03983,0.00668,-0.06688,0.08768,5047,-5149,0.48379,-0.87260,-0.06721,0.87392,0.47755,0.09060,-0.04696,-0.10257,0.99362,1.07456,1.06520
7.399942,-0.66401,-0.59282,9.43131,,-0.26992,-0.49210,-0.04480,-0.00645,-0.01875,0.12706,5047,-5149,0.48086,-0.87358,-0.07510,0.87573,0.47428,0.09032,-0.04328,-0.10920,0.99308,1.07456,1.06865
7.412933,-0.66042,-0.57906,9.43430,,-0.26852,-0.48566,-0.04550,-0.26895,-0.10625,0.08331,5047,-5149,0.48178,-0.87270,-0.07924,0.87532,0.47502,0.09038,-0.04124,-0.11290,0.99275,1.07456,1.06764
7.426027,-0.48275,-0.57069,9.39183,,-0.26852,-0.48566,-0.04550,-0.02395,0.11250,0.30206,5047,-5149,0.48210,-0.87239,-0.08074,0.87518,0.47529,0.09037,-0.04046,-0.11422,0.99263,1.07456,1.06729
7.439281,-0.64786,-0.58175,9.40828,,-0.26964,-0.48202,-0.04172,-0.14207,-0.09313,-0.02169,5047,-5149,0.48525,-0.87097,-0.07709,0.87337,0.47855,0.09066,-0.04207,-0.11132,0.99289,1.07456,1.06366
7.462562,-0.67119,-0.61256,9.45165,,-0.26852,-0.48006,-0.04284,0.14230,-0.22875,0.09206,5047,-5149,0.48621,-0.87041,-0.07734,0.87283,0.47950,0.09077,-0.04192,-0.11164,0.99286,1.07456,1.06255
7.475528,-0.65922,-0.57488,9.41396,,-0.26852,-0.48006,-0.04284,0.08980,-0.24625,0.07456,5047,-5149,0.48654,-0.87022,-0.07742,0.87266,0.47982,0.09081,-0.04188,-0.11174,0.99285,1.07456,1.06219
7.488574,-0.66760,-0.57188,9.42054,,-0.27076,-0.48426,-0.04746,-0.06770,-0.05375,0.05706,5047,-5149,0.48634,-0.86988,-0.08234,0.87288,0.47942,0.09078,-0.03949,-0.11602,0.99246,1.07456,1.06247
7.501840,-0.65653,-0.59551,9.41994,,-0.27118,-0.48580,-0.04291,0.04168,-0.16313,0.10518,5047,-5149,0.48611,-0.87035,-0.07870,0.87292,0.47934,0.09079,-0.04130,-0.11283,0.99276,1.07456,1.06269
7.525131,-0.64427,-0.60658,9.38824,,-0.27160,-0.48734,-0.03836,-0.00645,-0.21125,-0.07419,5047,-5149,0.48582,-0.87108,-0.07206,0.87292,0.47934,0.09081,-0.04456,-0.10702,0.99326,1.07456,1.06294
7.538022,-0.67956,-0.57727,9.42832,,-0.27580,-0.48398,-0.03850,-0.02395,0.13875,-0.03044,5047,-5149,0.49123,-0.86822,-0.06993,0.86985,0.48480,0.09124,-0.04531,-0.10565,0.99337,1.07456,1.05672
7.551144,-0.65384,-0.58086,9.41755,,-0.27580,-0.48398,-0.03850,0.02855,-0.08000,0.24956,5047,-5149,0.49304,-0.86725,-0.06919,0.86881,0.48664,0.09139,-0.04559,-0.10517,0.99341,1.07456,1.05462
7.564436,-0.59163,-0.59731,9.45673,,-0.26432,-0.49070,-0.03794,0.09418,-0.10188,0.08768,5047,-5149,0.47982,-0.87470,-0.06833,0.87613,0.47353,0.09038,-0.04670,-0.10323,0.99356,1.07456,1.06975
7.587796,-0.65025,-0.57488,9.39183,,-0.26964,-0.48090,-0.04074,0.07230,-0.00125,-0.02169,5047,-5149,0.48509,-0.87152,-0.07168,0.87331,0.47862,0.09080,-0.04483,-0.10665,0.99329,1.07456,1.06377
7.600721,-0.66341,-0.60897,9.44567,,-0.26964,-0.48090,-0.04074,-0.00645,0.03375,0.00456,5047,-5149,0.48685,-0.87044,-0.07287,0.87237,0.48031,0.09094,-0.04416,-0.10785,0.99319,1.07456,1.06177
7.613893,-0.64427,-0.58505,9.43370,,-0.26684,-0.47810,-0.03668,-0.08520,0.15625,-0.03919,5047,-5149,0.48646,-0.87098,-0.06888,0.87248,0.48011,0.09091,-0.04611,-0.10432,0.99347,1.07456,1.06217
7.627081,-0.65803,-0.59342,9.47139,,-0.26684,-0.47810,-0.03668,0.14230,-0.18500,0.03081,5047,-5149,0.48633,-0.87116,-0.06747,0.87252,0.48005,0.09092,-0.04682,-0.10309,0.99357,1.07456,1.06230
7.640262,-0.63769,-0.58235,9.44776,,-0.26404,-0.48510,-0.03822,-0.07207,-0.00125,-0.02169,5047,-5149,0.48006,-0.87456,-0.06840,0.87599,0.47377,0.09042,-0.04667,-0.10333,0.99355,1.07456,1.06947
7.663717,-0.65444,-0.56830,9.44327,,-0.26684,-0.48258,-0.03430,-0.13770,-0.13250,0.12706,5047,-5149,0.48201,-0.87381,-0.06421,0.87482,0.47591,0.09058,-0.04859,-0.09983,0.99382,1.07456,1.06720
7.676648,-0.64606,-0.59521,9.39362,,-0.26684,-0.48258,-0.03430,-0.10270,-0.06250,0.16206,5047,-5149,0.48265,-0.87356,-0.06274,0.87442,0.47662,0.09063,-0.04927,-0.09861,0.99391,1.07456,1.06644
7.689747,-0.64307,-0.56650,9.43310,,-0.26208,-0.48566,-0.04004,-0.19895,-0.10625,0.01331,5047,-5149,0.47665,-0.87639,-0.06887,0.87785,0.47037,0.09014,-0.04660,-0.10342,0.99355,1.07456,1.07336
7.703014,-0.65115,-0.59940,9.41426,,-0.26670,-0.48412,-0.03899,-0.11582,-0.28125,0.11393,5047,-5149,0.47978,-0.87462,-0.06970,0.87618,0.47343,0.09041,-0.04607,-0.10445,0.99346,1.07456,1.06981
7.726387,-0.65982,-0.57129,9.39721,,-0.27132,-0.48258,-0.03794,-0.09395,0.13000,0.06581,5047,-5149,0.48589,-0.87132,-0.06872,0.87280,0.47955,0.09088,-0.04623,-0.10414,0.99349,1.07456,1.06282
7.739614,-0.65384,-0.58923,9.40798,,-0.25284,-0.48342,-0.03668,0.01105,-0.08875,-0.01294,5047,-5149,0.47028,-0.87992,-0.06762,0.88123,0.46409,0.08971,-0.04755,-0.10178,0.99367,1.07456,1.08058
7.752845,-0.65085,-0.47198,9.39482,,-0.25284,-0.48342,-0.03668,0.08105,0.00750,-0.02169,5047,-5149,0.46504,-0.88274,-0.06719,0.88399,0.45890,0.08931,-0.04800,-0.10092,0.99374,1.07456,1.08651
7.766005,-0.66191,-0.58355,9.39691,,-0.26544,-0.48258,-0.03570,0.02418,-0.04500,0.09206,5047,-5149,0.47566,-0.87719,-0.06545,0.87830,0.46954,0.09011,-0.04832,-0.10035,0.99378,1.07456,1.07445
7.789344,-0.66162,-0.58205,9.41037,,-0.26544,-0.48454,-0.04116,-0.09395,-0.01000,0.10081,5047,-5149,0.47797,-0.87550,-0.07105,0.87720,0.47157,0.09028,-0.04553,-0.10548,0.99338,1.07456,1.07189
7.802311,-0.65324,-0.59282,9.42892,,-0.26124,-0.48454,-0.04116,0.12480,0.05125,0.02206,5047,-5149,0.47482,-0.87703,-0.07324,0.87895,0.46834,0.09001,-0.04464,-0.10711,0.99324,1.07456,1.07550
7.815400,-0.64666,-0.71964,9.40379,,-0.26852,-0.48090,-0.05264,0.05480,-0.17625,-0.01294,5047,-5149,0.48182,-0.87191,-0.08727,0.87546,0.47471,0.09067,-0.03763,-0.12009,0.99205,1.07456,1.06767
7.828581,-0.65474,-0.57996,9.40290,,-0.26852,-0.48090,-0.04844,0.00230,0.10375,0.09206,5047,-5149,0.48438,-0.87049,-0.08735,0.87406,0.47724,0.09091,-0.03745,-0.12039,0.99202,1.07456,1.06476
7.851938,-0.67837,-0.57368,9.40977,,-0.26628,-0.48510,-0.04424,-0.12020,0.20875,0.06581,5047,-5149,0.48124,-0.87272,-0.08228,0.87567,0.47433,0.09062,-0.04006,-0.11566,0.99248,1.07456,1.06828
7.864843,-0.67418,-0.57667,9.43191,,-0.26628,-0.48510,-0.05026,-0.14645,-0.19375,0.13581,5047,-5149,0.47990,-0.87296,-0.08742,0.87652,0.47279,0.09048,-0.03765,-0.12004,0.99205,1.07456,1.06987
7.878009,-0.65563,-0.55454,9.42114,,-0.26488,-0.48314,-0.05026,0.02855,0.17375,0.04831,5047,-5149,0.47913,-0.87317,-0.08950,0.87698,0.47195,0.09038,-0.03668,-0.12179,0.99188,1.07456,1.07077
7.891203,-0.64905,-0.60808,9.41516,,-0.26544,-0.48076,-0.04690,-0.08520,-0.00125,0.04393,5047,-5149,0.48078,-0.87257,-0.08651,0.87602,0.47370,0.09055,-0.03803,-0.11932,0.99213,1.07456,1.06886
7.914452,-0.62393,-0.57188,9.42652,,-0.26600,-0.47838,-0.04690,0.12480,0.04250,0.16206,5047,-5149,0.48306,-0.87139,-0.08565,0.87475,0.47600,0.09077,-0.03832,-0.11876,0.99218,1.07456,1.06624
7.927351,-0.65922,-0.61496,9.46421,,-0.26320,-0.48790,-0.03934,-0.19020,-0.00125,0.17956,5047,-5149,0.47679,-0.87573,-0.07595,0.87795,0.47017,0.09026,-0.04333,-0.10971,0.99302,1.07456,1.07329
7.940512,-0.65264,-0.57547,9.42652,,-0.26320,-0.48790,-0.03934,-0.13770,-0.13250,0.08331,5047,-5149,0.47466,-0.87718,-0.07250,0.87901,0.46821,0.09010,-0.04509,-0.10649,0.99329,1.07456,1.07567
7.953760,-0.66879,-0.58415,9.34876,,-0.26852,-0.47950,-0.04004,-0.10270,-0.17188,0.03518,5047,-5149,0.48311,-0.87256,-0.07245,0.87442,0.47659,0.09081,-0.04471,-0.10723,0.99323,1.07456,1.06605
7.977129,-0.64905,-0.58026,9.40559,,-0.27104,-0.48202,-0.04396,0.20355,-0.15875,0.25831,5047,-5149,0.48677,-0.87015,-0.07673,0.87250,0.48005,0.09113,-0.04247,-0.11131,0.99288,1.07456,1.06190
7.990096,-0.67298,-0.56830,9.40619,,-0.27104,-0.48202,-0.04396,-0.09395,0.18250,0.03956,5047,-5149,0.48798,-0.86934,-0.07823,0.87186,0.48118,0.09122,-0.04166,-0.11272,0.99275,1.07456,1.06054
8.003265,-0.65563,-0.56351,9.41695,,-0.26852,-0.48454,-0.04536,0.12480,-0.04500,0.19706,5047,-5149,0.48474,-0.87097,-0.08031,0.87371,0.47788,0.09092,-0.04081,-0.11424,0.99261,1.07456,1.06427
8.016417,-0.65324,-0.58265,9.39422,,-0.26964,-0.48566,-0.04123,0.01980,-0.00125,0.07018,5047,-5149,0.48431,-0.87158,-0.07613,0.87385,0.47763,0.09090,-0.04286,-0.11055,0.99295,1.07456,1.06472
8.039771,-0.65264,-0.60239,9.41277,,-0.27076,-0.48678,-0.03710,0.10730,0.18250,-0.00419,5047,-5149,0.48479,-0.87184,-0.06979,0.87343,0.47839,0.09095,-0.04590,-0.10505,0.99341,1.07456,1.06409
8.052629,-0.65862,-0.58863,9.40260,,-0.27132,-0.48874,-0.04004,-0.14645,-0.20250,0.32831,5047,-5149,0.48436,-0.87200,-0.07075,0.87368,0.47792,0.09092,-0.04547,-0.10585,0.99334,1.07456,1.06459
8.065985,-0.65862,-0.58684,9.63111,,-0.27132,-0.48874,-0.04004,0.29980,0.12125,0.03081,5047,-5149,0.48420,-0.87206,-0.07112,0.87378,0.47774,0.09090,-0.04530,-0.10616,0.99332,1.07456,1.06478
8.079237,-0.65833,-0.58983,9.41157,,-0.27188,-0.48510,-0.03878,0.01105,-0.22875,0.18393,5047,-5149,0.48657,-0.87083,-0.06999,0.87244,0.48015,0.09112,-0.04574,-0.10540,0.99338,1.07456,1.06205
8.102530,-0.65803,-0.58564,9.43669,,-0.27300,-0.48902,-0.04830,0.19480,-0.14125,0.04831,5047,-5149,0.48595,-0.87030,-0.08018,0.87303,0.47909,0.09104,-0.04082,-0.11424,0.99261,1.07456,1.06288
8.115434,-0.65085,-0.59821,9.42353,,-0.27300,-0.48902,-0.04830,-0.06770,-0.07125,-0.06544,5047,-5149,0.48573,-0.87008,-0.08376,0.87323,0.47873,0.09101,-0.03908,-0.11735,0.99232,1.07456,1.06317
8.128528,-0.67059,-0.59342,9.40439,,-0.27076,-0.48706,-0.05110,-0.26020,-0.08000,0.01331,5047,-5149,0.48447,-0.87032,-0.08850,0.87403,0.47730,0.09086,-0.03684,-0.12137,0.99192,1.07456,1.06466
